SVM-light Version V6.02
2 # kernel type
3 # kernel parameter -d 
1e-006 # kernel parameter -g 
1 # kernel parameter -s 
1 # kernel parameter -r 
empty# kernel parameter -u 
16 # highest feature index 
33214 # number of training documents 
2333 # number of support vectors plus 1 
-1.7953962 # threshold b, each following line is a SV (starting with alpha*y)
1.8412894176727319 3:18.970034 4:18.616339 5:2473.3909 8:513.18292 9:312.29593 11:257.16525 14:-109318.27 15:0.0055621443 16:687.07092 #
-48.224197549234681 3:4.6089082 4:4.6120749 5:474.9454 8:293.62091 9:48.408489 11:14.869912 14:-28599.814 15:0.030247813 16:470.02939 #
-100 3:4.9800634 4:4.9121127 5:557.55151 8:274.46109 9:87.085281 11:40.152676 14:-32054.818 15:0.0054859165 16:85.19397 #
-3.3910863888566061 3:11.852137 4:11.853251 5:1487.2588 8:1253.1938 9:95.286568 11:40.951492 14:-85594.141 15:0.0070209783 16:530.96234 #
-100 3:3.4734638 4:3.4729393 5:196.28722 8:232.30138 9:52.517784 11:24.924492 14:-22247.6 15:0.0048624193 16:36.443222 #
3.6007320870112105 3:13.783985 4:13.639884 5:1937.1461 8:720.883 9:316.10342 11:180.22037 14:-72275.727 15:0.0056818137 16:466.01129 #
78.492613538759812 3:6.1173968 4:6.0904355 5:628.52594 8:473.35577 9:95.218155 11:42.800095 14:-44625.465 15:0.0022864379 16:141.76143 #
100 3:2.8300178 4:2.8304949 5:147.74324 8:163.46188 9:60.20356 11:26.092724 14:-13755.414 15:0.0044338293 16:25.404596 #
3.6837395433498461 3:12.197665 4:12.166271 5:1664.8685 8:1359.9066 9:92.017242 11:31.515133 14:-86759.414 15:0.036339723 16:2106.9717 #
100 3:3.6477594 4:3.6422114 5:298.08911 8:169.57471 9:60.657505 11:24.726839 14:-23235.064 15:0.0059158979 16:44.504574 #
-100 3:4.2068272 4:4.1957231 5:298.23172 8:335.86041 9:111.36985 11:52.576378 14:-23281.691 15:0.029807182 16:255.51524 #
100 3:2.8162463 4:2.8095315 5:156.63197 8:185.85849 9:59.79274 11:26.02618 14:-16298.866 15:0.0046425518 16:25.045162 #
10.353188800150571 3:14.079206 4:13.924803 5:1819.3773 8:797.26453 9:298.08752 11:239.89445 14:-77444.445 15:0.0065179137 16:763.17334 #
100 3:4.4462948 4:4.4457903 5:320.11676 8:368.60709 9:88.440392 11:55.107616 14:-27029.342 15:0.02928203 16:315.82993 #
-100 3:4.0410752 4:4.0450296 5:261.95972 8:302.06564 9:88.528549 11:43.983871 14:-20516.488 15:0.02854871 16:229.49232 #
100 3:3.850533 4:3.837414 5:146.80055 8:162.76736 9:135.73138 11:67.267952 14:-12987.482 15:0.020897824 16:172.96207 #
-100 3:6.0762067 4:6.0819798 5:649.05884 8:358.8855 9:90.494354 11:28.46236 14:-36926.828 15:0.034250349 16:890.60547 #
100 3:4.173645 4:4.1748295 5:456.65796 8:274.67023 9:51.451241 11:21.869442 14:-27716.635 15:0.0058274744 16:41.627571 #
100 3:3.6807582 4:3.6781118 5:323.04913 8:127.77839 9:72.207909 11:45.377342 14:-17917.166 15:0.0045330198 16:31.8494 #
-100 3:4.2192554 4:4.2128 5:318.57654 8:347.56512 9:109.36125 11:50.575069 14:-22957.828 15:0.026277084 16:239.17018 #
-37.849950637424293 3:3.7658355 4:3.7669756 5:138.64146 8:247.65379 9:133.35211 11:47.493458 14:-13985.196 15:0.029386038 16:213.06715 #
100 3:3.9791243 4:3.9733336 5:311.66959 8:442.49838 9:58.367683 11:22.962902 14:-27818.611 15:0.002041277 16:37.039787 #
100 3:4.3964334 4:4.3951092 5:450.49597 8:482.68118 9:66.300369 11:41.207012 14:-27821.904 15:0.0064409291 16:90.748634 #
2.3385975515633159 3:5.9426804 4:5.9442654 5:431.18845 8:334.49976 9:71.124939 11:40.922245 14:-44088.016 15:0.02391663 16:922.70178 #
-100 3:4.0898647 4:4.0932608 5:187.47446 8:213.33087 9:145.27095 11:59.400303 14:-13895.472 15:0.028652741 16:232.94751 #
52.019999426173804 3:5.1013484 4:5.0987163 5:131.54251 8:431.29813 9:100.56219 11:54.17004 14:-32490.807 15:0.015973806 16:492.75095 #
100 3:4.2524314 4:4.2256384 5:384.18539 8:372.12372 9:62.679947 11:25.601215 14:-29906.311 15:0.0026001486 16:77.334877 #
-33.607821306376202 3:3.6956925 4:3.6977494 5:219.34918 8:209.28583 9:53.919659 11:27.666319 14:-23351.969 15:0.0059947995 16:49.198528 #
-100 3:4.496655 4:4.4787493 5:450.09735 8:342.13013 9:58.757702 11:21.034456 14:-28683.664 15:0.028554032 16:500.76602 #
-100 3:4.4063363 4:4.3524418 5:532.005 8:227.43764 9:83.407478 11:42.634708 14:-25387.039 15:0.0056099063 16:65.632111 #
100 3:3.3862321 4:3.3489966 5:275.46594 8:154.42445 9:103.62126 11:51.335098 14:-14318.747 15:0.031384278 16:235.63438 #
-0.12195076440434673 3:2.6555908 4:2.4614644 5:429.9971 8:139.2961 9:29.141779 11:9.378994 14:-11489.702 15:0.023168789 16:66.048439 #
-100 3:4.3636312 4:4.3547196 5:456.29837 8:189.92259 9:66.73484 11:32.213638 14:-27954.859 15:0.0048206551 16:42.817543 #
100 3:4.3349614 4:4.2927022 5:408.0451 8:393.36044 9:53.577415 11:28.750507 14:-28304.582 15:0.034875117 16:318.32159 #
7.233973384375834 3:12.571166 4:12.358235 5:2046.7603 8:810.84052 9:136.79799 11:99.287422 14:-74067.094 15:0.0068879984 16:577.50885 #
19.288225231360766 3:10.395247 4:10.401518 5:1365.1389 8:1098.1969 9:75.066711 11:22.324926 14:-73340.828 15:0.036434345 16:1791.0145 #
100 3:3.515497 4:3.5160036 5:282.80042 8:354.02347 9:71.146149 11:26.089369 14:-21238.75 15:0.0037987751 16:70.469521 #
-100 3:4.3869247 4:4.363677 5:445.82971 8:410.21994 9:56.547291 11:29.132078 14:-28364.621 15:0.0078664618 16:77.282928 #
100 3:3.8595161 4:3.8558159 5:250.34766 8:353.30194 9:89.860733 11:47.041737 14:-21373.656 15:0.020725144 16:207.23935 #
-12.890996034003825 3:12.141394 4:12.102659 5:1624.6204 8:1091.9595 9:139.9994 11:61.515224 14:-86977.977 15:0.03508595 16:1787.4557 #
-26.304197437928835 3:3.2182403 4:3.2169538 5:164.80013 8:115.03259 9:76.743774 11:42.590755 14:-13335.585 15:0.030512625 16:182.841 #
21.471125805816079 3:9.2846537 4:9.287282 5:1199.9789 8:816.27777 9:61.071125 11:22.63369 14:-64657.031 15:0.036507335 16:1626.5919 #
100 3:4.3791647 4:4.3716803 5:379.22861 8:358.04303 9:82.947517 11:39.993462 14:-28634.17 15:0.019754415 16:375.05688 #
-100 3:5.9109931 4:5.9106407 5:621.81665 8:424.01056 9:103.50141 11:42.790222 14:-40250.672 15:0.017433833 16:203.22978 #
-100 3:4.0357132 4:4.0373015 5:322.87253 8:280.6738 9:56.311386 11:25.965897 14:-25832.471 15:0.0052576559 16:51.373032 #
-19.54122071456327 3:12.08376 4:11.753663 5:1771.7129 8:1085.0465 9:78.037727 11:41.447849 14:-82451.445 15:0.0067949649 16:355.22485 #
100 3:4.0236015 4:3.9623697 5:284.45163 8:241.6787 9:129.34393 11:84.227661 14:-16107.078 15:0.0041666841 16:34.653603 #
100 3:2.8087983 4:2.810678 5:123.91405 8:140.46964 9:61.380154 11:24.601767 14:-14840.696 15:0.0053969319 16:29.548841 #
-99.336528423711115 3:3.5916576 4:3.5930605 5:168.51184 8:42.000645 9:111.71577 11:44.686485 14:-15526.889 15:0.030164866 16:215.3882 #
-0.49865473659389892 3:1.2273233 4:1.2163248 5:106.81047 8:126.05421 9:23.508635 11:8.9406214 14:-4979.9219 15:0.024231402 16:16.743891 #
48.204997655363741 3:9.4388247 4:9.4333696 5:1240.8285 8:631.30005 9:95.892845 11:107.5835 14:-62731.277 15:0.025376903 16:1355.2595 #
-100 3:5.0084553 4:5.0021319 5:429.78696 8:220.09648 9:122.12254 11:50.634686 14:-28529.553 15:0.030843996 16:406.91641 #
100 3:6.5009804 4:6.4880877 5:777.20844 8:601.61609 9:97.81115 11:72.207718 14:-38271.684 15:0.030381417 16:506.46457 #
100 3:2.8643506 4:2.8653374 5:175.87489 8:183.38739 9:66.894913 11:23.834503 14:-15684.71 15:0.0059397947 16:32.256763 #
-100 3:3.847322 4:3.84284 5:314.6521 8:359.51559 9:73.92395 11:40.876507 14:-23074.998 15:0.029495275 16:227.77046 #
0.11560750772680528 3:16.048908 4:16.059687 5:1601.1041 8:770.19006 9:429.7998 11:295.62665 14:-80888.633 15:0.0080796946 16:921.73761 #
-33.542812684905847 3:4.4602561 4:4.4625597 5:261.49539 8:487.66873 9:86.394745 11:39.38266 14:-29461.844 15:0.031156829 16:299.70053 #
100 3:4.896667 4:4.8993988 5:247.3112 8:296.88284 9:128.27702 11:91.134338 14:-23081.854 15:0.0061503528 16:243.13719 #
100 3:4.4664927 4:4.4700222 5:219.98515 8:182.28804 9:168.14131 11:89.891907 14:-16370.175 15:0.030200517 16:331.12106 #
-2.4454640769540856 3:0.74811172 4:0.74329787 5:41.622032 8:20.283787 9:25.60103 11:8.0042629 14:-1813.8085 15:0.0028283582 16:0.98682022 #
100 3:4.4145017 4:4.417243 5:214.97011 8:172.72913 9:146.33612 11:91.110489 14:-15076.519 15:0.021421211 16:256.67081 #
100 3:4.5834346 4:4.5733352 5:316.44269 8:382.95181 9:55.80452 11:18.866522 14:-30754.146 15:0.025446044 16:557.12225 #
-80.241042611008652 3:4.5697393 4:4.5719504 5:486.24948 8:301.5181 9:48.260651 11:15.985278 14:-27058.459 15:0.029730026 16:455.53632 #
100 3:4.9952307 4:4.9900198 5:580.37207 8:421.31497 9:98.588531 11:62.038105 14:-28553.467 15:0.029682927 16:488.9462 #
100 3:4.6442614 4:4.6398215 5:420.25134 8:392.65845 9:100.69602 11:55.451042 14:-26698.789 15:0.002500732 16:103.9925 #
26.406678509139706 3:6.976944 4:6.9743748 5:778.05542 8:798.78033 9:48.384987 11:22.307991 14:-51259.625 15:0.035631374 16:1253.3182 #
100 3:7.2676578 4:6.986589 5:960.48193 8:488.79361 9:100.89144 11:94.271515 14:-42185.008 15:0.016507616 16:911.8927 #
100 3:4.233562 4:4.1225753 5:482.36905 8:373.89835 9:84.529343 11:53.143532 14:-25653.242 15:0.037488304 16:420.18341 #
100 3:4.6584468 4:4.6528635 5:412.61163 8:507.27917 9:55.228848 11:20.790493 14:-32321.18 15:0.0024731318 16:33.968433 #
100 3:5.9043102 4:5.8924584 5:678.24957 8:592.82159 9:57.255287 11:28.085417 14:-41688.219 15:0.0031086775 16:298.35895 #
100 3:10.199656 4:9.995718 5:1483.4143 8:1053.0687 9:158.15898 11:70.588104 14:-68376.609 15:0.026827633 16:1833.1259 #
97.309011939796477 3:4.5799994 4:4.582027 5:449.89035 8:361.43832 9:57.52953 11:22.873753 14:-29918.984 15:0.029249018 16:644.09979 #
100 3:3.8501363 4:3.8416238 5:340.37054 8:292.05795 9:71.779396 11:29.637009 14:-23456.223 15:0.0052089402 16:52.99559 #
-4.5338292411528869 3:20.326302 4:20.30805 5:3064.4543 8:1361.361 9:115.47563 11:67.325394 14:-133477.69 15:0.0065877624 16:882.30597 #
-100 3:4.9739566 4:4.962923 5:548.30786 8:339.27368 9:118.09832 11:50.818245 14:-28596.885 15:0.033332475 16:416.69528 #
100 3:5.1139927 4:5.0551872 5:560.04797 8:270.12106 9:104.29704 11:58.671059 14:-28038.271 15:0.0067602466 16:82.100243 #
-100 3:4.8763795 4:4.880753 5:515.90448 8:311.71683 9:49.724976 11:17.084503 14:-30405.016 15:0.034263432 16:563.41711 #
100 3:5.3463793 4:5.340096 5:663.12549 8:648.09674 9:49.187645 11:18.344316 14:-35445.711 15:0.0057097934 16:66.177658 #
-66.647019404000829 3:5.7251434 4:5.7273083 5:439.7113 8:315.83929 9:52.430584 11:17.036606 14:-41277.129 15:0.0061425138 16:96.843658 #
100 3:3.7188525 4:3.7151787 5:247.37669 8:233.69466 9:115.90803 11:61.201294 14:-16718.621 15:0.025643392 16:227.55064 #
-4.9773608055820509 3:13.194104 4:12.962559 5:1950.8866 8:1053.3666 9:128.32463 11:47.039997 14:-83553.984 15:0.0067870454 16:644.95343 #
-100 3:5.55374 4:5.5583305 5:279.44104 8:265.85287 9:61.383797 11:21.329531 14:-37179.906 15:0.0041552479 16:82.354637 #
-100 3:4.1235166 4:4.1260328 5:160.80734 8:186.78601 9:154.22005 11:53.506428 14:-15004.288 15:0.028183088 16:237.11539 #
-100 3:5.7172875 4:5.6500678 5:610.76495 8:442.33374 9:77.086014 11:29.104115 14:-33604.203 15:0.034115132 16:634.49292 #
14.835006365702213 3:5.8167176 4:5.8170853 5:352.68198 8:514.29724 9:68.327591 11:28.719877 14:-46806.738 15:0.004924465 16:172.1048 #
100 3:4.3622446 4:4.3334579 5:237.47334 8:215.12782 9:113.33308 11:86.697632 14:-19289.389 15:0.019065615 16:194.31697 #
-100 3:5.0035477 4:4.9641132 5:416.42709 8:295.6788 9:133.76486 11:63.358845 14:-25111.842 15:0.029594049 16:327.91922 #
-25.351182454530964 3:7.5673814 4:7.574223 5:896.01538 8:602.23529 9:82.318489 11:42.831238 14:-51827.27 15:0.036092397 16:912.18585 #
-11.804611440782196 3:5.5783005 4:5.5821643 5:534.35748 8:278.34973 9:62.243965 11:20.427799 14:-37471.523 15:0.024569647 16:284.11096 #
-10.842128381940938 3:4.2324972 4:4.2364082 5:120.64392 8:183.43848 9:166.57271 11:52.221458 14:-13190.903 15:0.026480922 16:213.75543 #
-100 3:4.3372688 4:4.3213034 5:381.59637 8:322.07199 9:99.711365 11:54.259544 14:-25082.057 15:0.030495409 16:263.57004 #
100 3:3.3193078 4:3.2935915 5:232.71011 8:157.16135 9:91.737747 11:56.428139 14:-14124.202 15:0.029256076 16:215.06482 #
-100 3:8.1815376 4:8.0496759 5:1181.4902 8:686.78931 9:89.789383 11:29.988796 14:-54565.707 15:0.036529105 16:1230.3883 #
-100 3:5.2917471 4:5.2842517 5:566.51038 8:332.69553 9:92.255989 11:51.678211 14:-31192.875 15:0.032332152 16:397.97665 #
-12.403398745464242 3:6.1849108 4:6.1846995 5:713.36871 8:623.83209 9:60.670433 11:24.296343 14:-41670.813 15:0.0067475936 16:122.84738 #
-100 3:4.364522 4:4.3435631 5:449.82962 8:411.7453 9:57.349846 11:28.692554 14:-28165.021 15:0.007876195 16:77.13353 #
19.283728888934846 3:5.2831616 4:5.2882862 5:274.77365 8:527.24652 9:84.921684 11:63.037476 14:-35511.641 15:0.034652226 16:546.01373 #
-100 3:5.4369307 4:5.3442512 5:583.56665 8:446.65521 9:49.793377 11:21.773252 14:-36338.125 15:0.032345895 16:593.52795 #
-7.5682680129282289 3:8.0071449 4:8.0081034 5:951.07709 8:987.9223 9:72.75544 11:35.36134 14:-56824.02 15:0.033662889 16:924.07471 #
-100 3:3.5509531 4:3.5533428 5:156.39204 8:166.50899 9:98.042557 11:42.240112 14:-15883.8 15:0.027965534 16:205.5854 #
-100 3:3.9530611 4:3.9542487 5:328.63687 8:245.91597 9:70.080864 11:28.870373 14:-26098.256 15:0.0055725649 16:48.831398 #
-16.951855106524448 3:8.4147921 4:8.4119644 5:1168.9738 8:817.72382 9:67.041702 11:32.688087 14:-56597.949 15:0.033653162 16:1021.3427 #
100 3:5.3014245 4:5.2393036 5:656.31409 8:281.94788 9:110.93947 11:70.036858 14:-27387.52 15:0.027757972 16:511.66727 #
-0.61588560359347599 3:13.11814 4:12.908489 5:2120.0049 8:846.59088 9:128.82971 11:41.814873 14:-79146.297 15:0.0069806231 16:617.29919 #
-100 3:3.3665226 4:3.3685384 5:337.58273 8:207.42128 9:46.743759 11:17.101231 14:-19857.125 15:0.0045161829 16:24.276537 #
100 3:4.4520106 4:4.4240446 5:475.92899 8:332.49313 9:60.971786 11:24.368227 14:-28698.783 15:0.0051251855 16:51.606194 #
100 3:4.2732172 4:4.2765512 5:348.70792 8:398.58975 9:49.172184 11:18.157124 14:-28470.18 15:0.0049404805 16:44.913002 #
100 3:3.6649487 4:3.5996513 5:339.62598 8:258.09509 9:65.39579 11:43.826412 14:-20710.338 15:0.0024658302 16:63.120968 #
100 3:4.4957647 4:4.4722619 5:496.48264 8:317.36212 9:51.299313 11:17.2334 14:-31600.266 15:0.006046697 16:55.024017 #
100 3:4.6853108 4:4.6741037 5:430.75293 8:412.95865 9:89.057297 11:44.152412 14:-28805.146 15:0.0024970868 16:150.05045 #
100 3:3.6388552 4:3.6377707 5:232.64439 8:192.00618 9:63.753433 11:20.927467 14:-22894.025 15:0.007698352 16:52.99229 #
-100 3:3.1873629 4:3.1670804 5:266.83463 8:182.79578 9:48.563198 11:22.730516 14:-19051.164 15:0.0047953222 16:29.367508 #
100 3:4.2232499 4:4.1973147 5:477.46402 8:414.5087 9:57.169422 11:23.60648 14:-28562.494 15:0.0046189614 16:41.927475 #
-100 3:4.5023189 4:4.4659095 5:474.78458 8:512.05933 9:64.210045 11:32.447033 14:-28595.172 15:0.0054540769 16:55.309155 #
100 3:3.1953685 4:3.1983252 5:242.63937 8:212.49448 9:57.310444 11:21.918139 14:-20719.299 15:0.0062072682 16:36.530022 #
100 3:3.3344493 4:3.3272111 5:271.54532 8:296.35757 9:54.557541 11:20.27787 14:-21279.951 15:0.0040721586 16:34.355888 #
-100 3:3.219785 4:3.2206082 5:160.06364 8:317.32574 9:44.341228 11:23.780764 14:-21156.211 15:0.0035005757 16:18.300022 #
100 3:3.7860761 4:3.7721438 5:302.25995 8:161.55629 9:81.10527 11:41.932663 14:-21304.682 15:0.032288112 16:262.52481 #
-100 3:4.2967591 4:4.3009596 5:245.31828 8:279.36743 9:161.9333 11:60.762108 14:-15534.907 15:0.028822791 16:258.0451 #
-100 3:3.781095 4:3.7659113 5:449.60483 8:311.93509 9:72.097504 11:29.907825 14:-22775.324 15:0.003228103 16:24.730021 #
-100 3:4.1633711 4:4.1594973 5:327.98563 8:305.78549 9:69.67775 11:36.459351 14:-27252.547 15:0.033725683 16:296.09326 #
14.118590448182298 3:14.550282 4:14.539381 5:2031.9694 8:775.38916 9:65.971626 11:37.24324 14:-89995.602 15:0.0075670821 16:889.97119 #
-32.048126614636487 3:3.9171014 4:3.9005597 5:425.85068 8:308.40817 9:93.375854 11:42.686882 14:-21905.895 15:0.032365695 16:256.94601 #
100 3:3.6456513 4:3.6484509 5:217.11836 8:209.71716 9:111.44389 11:61.986435 14:-15818.817 15:0.026574546 16:248.52859 #
-100 3:4.4631443 4:4.4376302 5:359.96292 8:517.37219 9:58.13829 11:17.683878 14:-30974.947 15:0.0033756834 16:33.553322 #
-100 3:4.2587252 4:4.1828623 5:499.07281 8:318.60785 9:51.393166 11:22.549185 14:-28750.4 15:0.0061792932 16:55.98003 #
100 3:5.8369164 4:5.842607 5:647.20679 8:380.68222 9:55.750618 11:16.542358 14:-38273.152 15:0.033767436 16:937.9538 #
100 3:4.0903573 4:4.0635295 5:408.22641 8:207.97218 9:82.594742 11:62.218388 14:-22491.154 15:0.0071266373 16:62.64658 #
20.651961942692843 3:6.2968593 4:6.2570858 5:830.09229 8:536.1745 9:90.684616 11:48.961613 14:-42917.691 15:0.036928486 16:991.7287 #
100 3:3.7650962 4:3.7674394 5:246.73326 8:294.53339 9:98.357529 11:58.478413 14:-18358.996 15:0.031740498 16:272.77994 #
-100 3:6.589992 4:6.5219831 5:851.26563 8:396.66394 9:66.675766 11:24.593115 14:-39289.914 15:0.032412585 16:981.63464 #
100 3:4.2343602 4:4.2202511 5:322.42603 8:437.85123 9:63.309811 11:41.452282 14:-27136.594 15:0.025248462 16:413.36087 #
100 3:3.5030894 4:3.5063519 5:144.06865 8:195.20969 9:105.33091 11:57.692226 14:-15681.879 15:0.022973457 16:175.53883 #
-86.889406409403989 3:4.5269241 4:4.4753456 5:395.41248 8:199.82513 9:159.13762 11:64.849113 14:-15893.376 15:0.029356357 16:281.29803 #
100 3:4.2135878 4:4.2131968 5:248.7 8:167.57762 9:114.27144 11:91.122673 14:-16060.704 15:0.022398474 16:216.4369 #
17.012461040977062 3:12.766044 4:12.587931 5:2004.204 8:854.20239 9:138.31758 11:60.603062 14:-83583.484 15:0.0070796851 16:614.10706 #
-59.017129661932962 3:3.5579367 4:3.5592644 5:344.65631 8:268.18875 9:61.939049 11:39.396111 14:-21524.486 15:0.033644848 16:250.37363 #
-22.826582575710518 3:4.5579596 4:4.5198293 5:613.53009 8:239.71989 9:59.368767 11:24.152506 14:-27175.012 15:0.003955917 16:43.49683 #
-100 3:4.9163723 4:4.8954449 5:391.15543 8:344.79263 9:126.52142 11:56.829437 14:-28992.674 15:0.026149789 16:288.60117 #
-12.938374558264773 3:6.3670692 4:6.356647 5:640.22833 8:514.71735 9:119.77213 11:40.214947 14:-45920.441 15:0.026634103 16:433.84439 #
-100 3:4.4867487 4:4.4806604 5:468.8454 8:309.7485 9:50.791927 11:20.978827 14:-28318.703 15:0.0046624495 16:39.541637 #
-97.156827423446728 3:6.4462399 4:6.3010969 5:915.91284 8:459.21136 9:66.14502 11:34.109627 14:-39320.496 15:0.0053396206 16:86.151482 #
-100 3:3.4901919 4:3.4930954 5:191.96875 8:165.49048 9:88.531303 11:73.458672 14:-15622.679 15:0.022341482 16:128.23589 #
100 3:4.8777881 4:4.8711009 5:545.60553 8:250.99411 9:47.630302 11:18.311844 14:-28320.34 15:0.0051886095 16:56.466633 #
100 3:4.0165839 4:4.0150261 5:321.56747 8:251.70847 9:82.13826 11:43.100021 14:-23390.033 15:0.031124672 16:273.7569 #
-100 3:4.0775228 4:4.0776868 5:379.46265 8:285.95306 9:79.000351 11:32.249134 14:-24412.051 15:0.0046269265 16:35.827103 #
100 3:4.7908497 4:4.7946038 5:465.33221 8:373.77576 9:62.626961 11:47.714016 14:-29613.559 15:0.027300702 16:392.63968 #
100 3:4.5992017 4:4.6028419 5:294.88715 8:428.12073 9:88.055191 11:59.312069 14:-29670.027 15:0.015884133 16:384.79135 #
100 3:4.1839128 4:4.1782026 5:381.84729 8:497.43536 9:50.428989 11:22.357092 14:-28222.961 15:0.003643353 16:32.254269 #
-60.630972173996831 3:3.8008335 4:3.8045449 5:227.68196 8:225.73701 9:132.19731 11:54.410877 14:-16169.988 15:0.029877273 16:228.20895 #
-8.0947597840831236 3:5.3497219 4:5.3544335 5:304.29938 8:343.77539 9:57.789513 11:17.999653 14:-37530.727 15:0.0061329929 16:76.900078 #
-100 3:3.942183 4:3.8875482 5:434.59586 8:280.89368 9:57.290806 11:33.21405 14:-24415.42 15:0.0049728705 16:44.896671 #
-100 3:3.9543278 4:3.9421148 5:222.3893 8:193.86751 9:135.32372 11:52.23555 14:-16153.98 15:0.029006159 16:241.01033 #
-100 3:4.6998134 4:4.6998906 5:507.11734 8:463.6972 9:80.051605 11:34.601131 14:-29873.105 15:0.0039662914 16:50.425632 #
1.2500657202797456 3:12.170127 4:12.180367 5:1546.7887 8:1431.1473 9:75.850975 11:27.955172 14:-87413.266 15:0.036207449 16:2069.6699 #
-44.000929925149613 3:6.0831146 4:6.0146461 5:697.4389 8:464.6369 9:55.34935 11:23.657646 14:-40751.5 15:0.0073570181 16:142.9509 #
100 3:3.7165771 4:3.7101083 5:228.38376 8:169.98438 9:133.88542 11:58.163677 14:-15278.196 15:0.026663501 16:241.09644 #
27.479083537327899 3:10.206542 4:10.162257 5:1416.6738 8:387.58939 9:134.71825 11:48.830379 14:-57584.152 15:0.0081219682 16:441.31772 #
-39.641954190514184 3:2.7753711 4:2.7566097 5:247.25256 8:279.77634 9:44.169861 11:18.192755 14:-16891.203 15:0.0038236931 16:22.316952 #
-39.894940251033375 3:4.0961704 4:4.0849996 5:361.04541 8:368.8981 9:80.650185 11:37.22768 14:-25572.07 15:0.032685168 16:289.18961 #
100 3:4.1145563 4:4.0460105 5:388.42657 8:386.53656 9:79.058289 11:52.706711 14:-25110.859 15:0.036789302 16:400.32794 #
62.398323515708121 3:9.2099152 4:9.1843567 5:1256.3951 8:788.00171 9:142.1971 11:85.274948 14:-58912.246 15:0.031856269 16:1297.0702 #
100 3:3.6471946 4:3.6496174 5:264.42581 8:311.84302 9:102.04996 11:51.868832 14:-18979.365 15:0.03453701 16:305.13016 #
-100 3:4.3219724 4:4.3019471 5:370.55087 8:198.9686 9:92.88102 11:57.164841 14:-23146.332 15:0.028797479 16:255.4995 #
100 3:8.620574 4:8.613328 5:1235.3422 8:632.9696 9:72.638466 11:48.798317 14:-56450.137 15:0.0067902734 16:285.36475 #
-100 3:4.6943355 4:4.6944084 5:578.64893 8:400.20953 9:52.399677 11:26.34111 14:-29254.23 15:0.035332415 16:406.05283 #
100 3:6.2971025 4:6.2770057 5:597.69745 8:621.1004 9:111.55449 11:78.903748 14:-43219.047 15:0.0032693949 16:178.19533 #
-100 3:4.5308604 4:4.5349989 5:402.41367 8:471.793 9:52.066727 11:22.020279 14:-30837.199 15:0.0035899596 16:39.614136 #
-100 3:5.5506139 4:5.520947 5:613.01154 8:484.15543 9:77.145744 11:28.93837 14:-36322.699 15:0.034004115 16:748.30371 #
-100 3:4.8002176 4:4.748539 5:560.70319 8:229.39272 9:108.30621 11:63.207714 14:-24953.813 15:0.028994795 16:322.54318 #
3.1970656175679335 3:6.5738068 4:6.4084792 5:1034.2827 8:489.56827 9:45.762394 11:19.003456 14:-43644.754 15:0.034437545 16:1325.811 #
100 3:4.4246778 4:4.428967 5:303.47983 8:335.25504 9:98.128922 11:55.007435 14:-25941.789 15:0.011888833 16:335.1731 #
-27.978089852349065 3:5.2922196 4:5.288672 5:250.62856 8:267.44849 9:58.516335 11:20.583935 14:-35809.168 15:0.033456881 16:464.97104 #
-30.057107030629254 3:4.5584993 4:4.5594091 5:465.45642 8:501.78915 9:79.01828 11:33.91592 14:-27594.34 15:0.0045977943 16:46.517429 #
0.63653652520563209 3:13.955103 4:13.956148 5:1921.5624 8:1357.3119 9:97.653618 11:43.359787 14:-99205.078 15:0.036804732 16:2933.3699 #
100 3:3.9837644 4:3.9760206 5:350.28711 8:284.97067 9:61.133026 11:28.287247 14:-24341.387 15:0.0062128706 16:52.865913 #
100 3:4.6202316 4:4.6228766 5:432.75104 8:480.54126 9:54.593285 11:19.961472 14:-30502.377 15:0.0019795143 16:117.44149 #
-100 3:5.012948 4:4.9933071 5:444.86447 8:381.92889 9:78.638908 11:29.162161 14:-31022.988 15:0.0052708592 16:67.915573 #
-100 3:4.2322164 4:4.2362947 5:296.86935 8:246.71375 9:121.26865 11:52.766026 14:-20258.732 15:0.030843707 16:298.15799 #
-100 3:5.4116402 4:5.4113245 5:494.1601 8:403.57123 9:61.140636 11:20.844559 14:-40468.977 15:0.015388903 16:133.60239 #
100 3:5.5097461 4:5.5033307 5:512.09454 8:488.97858 9:51.532761 11:21.863636 14:-37431.195 15:0.026269285 16:706.07202 #
24.885158351402438 3:5.8812108 4:5.885684 5:479.59595 8:415.58466 9:130.38631 11:88.77977 14:-35963.445 15:0.0078365076 16:132.77397 #
100 3:5.5443168 4:5.5398316 5:535.63788 8:247.7298 9:111.2246 11:80.645355 14:-31900.965 15:0.0060558124 16:248.13844 #
-0.45826409607008078 3:2.0773785 4:2.0720968 5:77.408501 8:181.19897 9:53.414978 11:26.445711 14:-8974.3828 15:0.015651546 16:52.643597 #
100 3:5.3324256 4:5.3194242 5:521.65613 8:303.82266 9:153.32547 11:75.628387 14:-28291.367 15:0.0061718486 16:253.6393 #
100 3:3.3070986 4:3.3063412 5:349.04678 8:285.60864 9:52.578732 11:18.57869 14:-19791.699 15:0.0074863108 16:49.039047 #
-100 3:3.6595771 4:3.6607921 5:277.82278 8:281.44388 9:49.877979 11:23.558796 14:-24556.033 15:0.0050700065 16:36.595921 #
100 3:3.0634706 4:3.0612884 5:198.16815 8:231.57678 9:56.009098 11:20.523876 14:-17640.1 15:0.0071198368 16:36.904396 #
100 3:3.7252874 4:3.7134898 5:252.33505 8:134.18817 9:89.663307 11:67.646896 14:-17530.293 15:0.0073340819 16:54.04594 #
1.1911741697647917 3:23.959059 4:23.738304 5:3840.0232 8:1681.2834 9:197.88004 11:111.76406 14:-164019.34 15:0.0070599504 16:1149.7653 #
-100 3:5.2737093 4:5.2625504 5:564.5705 8:341.0766 9:96.84063 11:53.34803 14:-31619.021 15:0.031887475 16:391.3439 #
100 3:5.2885981 4:5.2841449 5:515.07666 8:618.45844 9:48.542377 11:21.722158 14:-38332.781 15:0.025908902 16:681.39209 #
100 3:6.6247797 4:6.5427542 5:787.05676 8:531.76245 9:92.624374 11:38.301983 14:-42990.984 15:0.022693023 16:822.57892 #
100 3:3.697607 4:3.6983163 5:336.57428 8:202.09917 9:57.120773 11:20.445454 14:-23790.418 15:0.0077549913 16:57.29734 #
-0.54877942425909509 3:6.5048966 4:6.4349957 5:850.94971 8:449.13101 9:70.149071 11:30.564789 14:-42841.875 15:0.032586448 16:737.8894 #
19.327051430677994 3:6.8900127 4:6.8938451 5:893.43732 8:400.30493 9:84.771484 11:35.759003 14:-41847.789 15:0.032317169 16:1235.9535 #
-24.041875208500727 3:4.7752538 4:4.7797666 5:518.4801 8:272.23199 9:54.466026 11:26.602852 14:-29526.287 15:0.0059391828 16:74.469269 #
-100 3:6.5584726 4:6.4728055 5:879.62915 8:523.01355 9:75.254898 11:24.232218 14:-43215.082 15:0.035609502 16:965.47668 #
-100 3:6.338604 4:6.3447247 5:517.09052 8:604.45746 9:107.158 11:45.944885 14:-42777.168 15:0.031738836 16:603.04626 #
5.653124554467384 3:10.749831 4:10.759837 5:1361.0175 8:1121.3325 9:75.902443 11:33.353348 14:-75204.828 15:0.036097351 16:1965.8322 #
-15.976242224196824 3:5.1943264 4:5.1965966 5:428.97455 8:377.15555 9:124.45419 11:46.233562 14:-31704.422 15:0.033651821 16:450.241 #
-100 3:9.4293022 4:9.2718582 5:1244.4879 8:680.48743 9:92.578293 11:45.210815 14:-52988.563 15:0.034642063 16:1485.3041 #
57.398896801274155 3:6.6826816 4:6.5538888 5:914.09595 8:378.29507 9:97.607742 11:55.072269 14:-43081.383 15:0.0066669784 16:304.73883 #
100 3:6.1023774 4:6.1067138 5:615.64587 8:458.08868 9:57.68034 11:23.842249 14:-43610.98 15:0.0025329469 16:294.09134 #
-55.391769841730913 3:6.185823 4:6.170414 5:631.86389 8:549.59607 9:59.351456 11:23.151487 14:-44285.031 15:0.0024102689 16:59.507221 #
-90.136089810467581 3:3.9642234 4:3.9670398 5:331.01797 8:350.38098 9:68.070694 11:26.637058 14:-24662.027 15:0.0051292744 16:42.233322 #
-100 3:4.2555609 4:4.2595534 5:238.0751 8:311.69528 9:89.098862 11:54.945797 14:-26486.539 15:0.023133965 16:248.11041 #
-100 3:4.1030998 4:4.1066647 5:357.20572 8:373.24213 9:91.596474 11:46.595222 14:-25547.336 15:0.028205028 16:277.50943 #
-36.745813427546565 3:8.2532425 4:8.2447538 5:1123.7748 8:614.50885 9:81.685349 11:26.826429 14:-54198.715 15:0.0068393406 16:276.68719 #
100 3:5.6901832 4:5.695025 5:436.51932 8:502.60907 9:51.347298 11:22.435816 14:-42877.531 15:0.0031667228 16:112.91724 #
100 3:6.5204387 4:6.4661593 5:744.22144 8:400.90475 9:92.238884 11:51.496315 14:-42618.66 15:0.002706052 16:153.94408 #
-19.614934366779206 3:6.4115219 4:6.3691087 5:839.06042 8:462.34576 9:93.247276 11:39.83284 14:-42499.445 15:0.0338016 16:710.31586 #
27.16053581167375 3:8.6483135 4:8.5179386 5:1109.3328 8:741.18195 9:135.01547 11:120.26565 14:-54601.844 15:0.0073700314 16:282.12177 #
100 3:3.2426734 4:3.2429576 5:285.78308 8:221.74518 9:52.197117 11:28.168564 14:-20092.189 15:0.0070729181 16:40.845585 #
100 3:4.0921021 4:4.0941892 5:401.04333 8:298.54218 9:93.279404 11:48.587727 14:-22628.283 15:0.030632824 16:304.64899 #
1.6841514623825806 3:16.25111 4:16.265394 5:1918.9319 8:1113.6097 9:249.62003 11:229.1086 14:-105477.34 15:0.0076180701 16:974.33459 #
-100 3:5.7323241 4:5.7337742 5:373.09979 8:447.366 9:49.743282 11:21.574617 14:-42743.359 15:0.0048536016 16:55.508804 #
8.7341459855633214 3:12.303825 4:12.133892 5:1719.4094 8:734.4538 9:237.52063 11:151.45642 14:-74765.359 15:0.0057090847 16:247.47246 #
-0.43382319064460262 3:6.0336084 4:5.8868985 5:826.22968 8:365.23431 9:79.547554 11:27.429323 14:-33162.141 15:0.0076353708 16:139.69905 #
-23.527096307313634 3:5.4367633 4:5.380024 5:671.44391 8:225.88734 9:85.839561 11:40.759068 14:-26262.42 15:0.033246998 16:421.52802 #
-100 3:5.6258836 4:5.618402 5:615.24359 8:368.00854 9:47.80196 11:21.83152 14:-43539.777 15:0.0068436107 16:179.46306 #
-1.6254788993797544 3:9.5742779 4:9.4433041 5:1351.9945 8:935.94708 9:116.85181 11:44.304291 14:-67014.992 15:0.035529207 16:1341.8705 #
-100 3:4.7891035 4:4.7930493 5:382.43991 8:501.37354 9:44.208015 11:22.368811 14:-31074.275 15:0.0039967312 16:48.706089 #
1.1546700067858868 3:24.095997 4:23.838415 5:3260.1062 8:1618.7549 9:408.69543 11:311.75256 14:-156311.95 15:0.0049104104 16:880.66833 #
100 3:4.7421498 4:4.7443314 5:249.48738 8:354.32709 9:135.33311 11:94.699112 14:-21905.809 15:0.0062784487 16:244.10335 #
-31.487101135565961 3:8.8386564 4:8.6401548 5:1361.1605 8:765.25159 9:67.112015 11:26.427942 14:-60107.234 15:0.0067026084 16:202.65254 #
2.8209089850648361 3:11.504411 4:11.409857 5:1442.0331 8:701.88104 9:260.26379 11:193.39714 14:-59693.016 15:0.0069691609 16:463.19592 #
-8.0390853025493669 3:15.526525 4:15.518236 5:2036.4277 8:998.7287 9:89.587257 11:41.884579 14:-105369.05 15:0.0064576282 16:512.21576 #
100 3:4.0120144 4:4.0147123 5:252.45915 8:294.41171 9:106.83003 11:60.795425 14:-20493.447 15:0.03069669 16:298.53351 #
6.1163057672830368 3:11.549984 4:11.534984 5:1343.6117 8:1448.7605 9:146.38895 11:56.93317 14:-85305.047 15:0.033156998 16:2071.8992 #
100 3:3.9630842 4:3.9668207 5:266.34201 8:224.91911 9:109.59838 11:65.925621 14:-20667.797 15:0.020257998 16:288.12088 #
100 3:4.1278872 4:4.1287246 5:311.24304 8:359.97641 9:79.715691 11:47.941853 14:-26209.465 15:0.026147034 16:274.47046 #
-19.664665180387008 3:5.8274279 4:5.8170776 5:611.53253 8:442.34225 9:116.58938 11:44.640953 14:-40857.285 15:0.027474148 16:408.07098 #
100 3:4.4076476 4:4.3898964 5:325.0043 8:361.32675 9:57.322472 11:17.673227 14:-31846.76 15:0.0021357178 16:87.880783 #
100 3:3.6836066 4:3.6872158 5:200.04356 8:210.60071 9:95.776352 11:43.10561 14:-20365.98 15:0.030192489 16:251.94676 #
-1.1831746840156043 3:3.236552 4:3.236928 5:378.22742 8:254.70027 9:43.54229 11:18.567816 14:-19855.217 15:0.006098296 16:36.266369 #
100 3:4.2679353 4:4.2303782 5:380.76132 8:226.28072 9:112.54427 11:67.610855 14:-20207.422 15:0.0051478837 16:125.07087 #
100 3:3.1583171 4:3.1597025 5:294.47662 8:174.61987 9:56.881794 11:19.908155 14:-18878.453 15:0.0058414978 16:34.79562 #
-7.0101925672030241 3:3.0274072 4:3.0273688 5:122.34003 8:101.28465 9:76.207573 11:42.486671 14:-13627.905 15:0.029406233 16:148.14827 #
-100 3:4.6696682 4:4.6651669 5:573.36914 8:404.07086 9:70.005577 11:39.400154 14:-29623.098 15:0.035167973 16:408.88681 #
100 3:4.1573601 4:4.1494756 5:150.96109 8:422.51923 9:53.965008 11:19.102993 14:-28073.574 15:0.0060612289 16:48.460102 #
100 3:5.8447704 4:5.834446 5:375.89209 8:229.89658 9:176.37843 11:128.98302 14:-20622.092 15:0.0070317029 16:250.15918 #
45.736562282925561 3:6.0816398 4:5.9840384 5:861.409 8:616.75482 9:62.924152 11:22.325619 14:-41328.691 15:0.032441601 16:1063.3779 #
36.75355891648465 3:10.125657 4:9.9701157 5:1523.8192 8:868.17035 9:110.03893 11:84.413483 14:-67229.742 15:0.0065901144 16:397.87778 #
100 3:4.6053848 4:4.6090837 5:411.82959 8:211.06595 9:113.25072 11:80.379311 14:-20543.402 15:0.026053196 16:266.18259 #
2.6107070524471743 3:16.852613 4:16.863644 5:1766.5175 8:831.74591 9:320.57013 11:317.00665 14:-86431.094 15:0.007601568 16:1053.5763 #
100 3:4.8756418 4:4.816216 5:588.09711 8:538.41351 9:54.523136 11:39.722286 14:-32503.717 15:0.0026733803 16:55.360031 #
1.1465046381128678 3:12.157743 4:12.15601 5:1743.1451 8:762.32318 9:131.21307 11:58.731979 14:-76632.258 15:0.031865206 16:2158.6497 #
100 3:5.0126271 4:5.0114026 5:486.13712 8:298.74609 9:98.479202 11:56.587955 14:-31147.039 15:0.0057928781 16:67.655754 #
100 3:3.6847131 4:3.6863661 5:208.48375 8:285.86923 9:83.828476 11:49.115257 14:-20580.203 15:0.0056301365 16:103.91486 #
-100 3:5.3032336 4:5.2915869 5:386.59317 8:268.53989 9:146.96581 11:106.17831 14:-20452.688 15:0.00518591 16:61.996078 #
100 3:3.7034841 4:3.6999779 5:263.7619 8:246.81378 9:56.295654 11:17.986887 14:-20526.719 15:0.007314506 16:57.203163 #
-100 3:4.5454922 4:4.5162411 5:484.6824 8:426.70169 9:55.592709 11:23.453934 14:-31195.119 15:0.0030076243 16:34.333778 #
100 3:5.70649 4:5.7073727 5:333.67792 8:260.46487 9:115.68015 11:52.949451 14:-38289.59 15:0.0048983959 16:202.56877 #
100 3:6.009604 4:6.0154881 5:641.75836 8:522.9234 9:47.18071 11:17.951338 14:-41574.16 15:0.035499789 16:1025.3983 #
100 3:4.3280401 4:4.3070302 5:422.8681 8:434.36172 9:54.384407 11:19.78236 14:-28920.295 15:0.0029657863 16:37.325111 #
100 3:4.7895589 4:4.761004 5:534.83405 8:488.24918 9:83.27713 11:47.892605 14:-29890.756 15:0.019365555 16:200.74472 #
100 3:4.7772379 4:4.6557355 5:310.01093 8:263.23361 9:126.95736 11:87.076065 14:-20866.764 15:0.03165023 16:364.44037 #
100 3:4.9016771 4:4.9064803 5:360.29871 8:524.96228 9:48.255505 11:19.470419 14:-31666.053 15:0.027320437 16:632.57233 #
-46.748313648221824 3:4.4138026 4:4.4083381 5:378.55542 8:469.45889 9:46.360451 11:20.749901 14:-31998.344 15:0.029882155 16:468.38531 #
100 3:3.5759635 4:3.5775902 5:268.47742 8:149.70039 9:56.673164 11:20.518139 14:-20808.398 15:0.0061206389 16:46.214699 #
-9.2060545519897019 3:8.7822018 4:8.3664684 5:1403.0551 8:615.09222 9:76.328606 11:40.29953 14:-52711.41 15:0.03122454 16:925.36176 #
100 3:3.5756714 4:3.5521665 5:378.55164 8:200.862 9:67.906113 11:25.856544 14:-20666.09 15:0.0056374529 16:41.532913 #
100 3:4.1836939 4:4.1868544 5:338.77933 8:360.42892 9:71.449699 11:38.021118 14:-27968.281 15:0.020009676 16:313.14999 #
100 3:7.3164105 4:7.3215766 5:777.94141 8:674.02405 9:65.832794 11:34.229118 14:-52930.961 15:0.0066020372 16:439.57788 #
-14.048647740713822 3:12.177024 4:12.167663 5:1667.6317 8:835.28595 9:56.894386 11:20.870821 14:-72954.406 15:0.0075089196 16:497.74292 #
2.3732798230950785 3:10.223919 4:9.8395691 5:1622.2866 8:728.59674 9:169.19707 11:66.110847 14:-62631.668 15:0.020016942 16:1656.3101 #
100 3:4.6564822 4:4.6506329 5:455.35086 8:392.92868 9:72.303635 11:60.843166 14:-29224.443 15:0.004918172 16:162.48984 #
100 3:4.9290056 4:4.9238911 5:450.10883 8:193.29735 9:106.09076 11:67.074265 14:-28550.162 15:0.031330768 16:457.63327 #
-100 3:4.181365 4:4.1734924 5:413.81326 8:403.9017 9:53.900696 11:26.631063 14:-28304.873 15:0.0026131365 16:33.602249 #
-100 3:4.0281887 4:3.9932365 5:327.66153 8:397.62701 9:58.759518 11:23.686077 14:-26618.705 15:0.026178973 16:424.30197 #
-100 3:3.4848981 4:3.4810317 5:306.43106 8:316.84427 9:72.405182 11:41.345871 14:-19179.977 15:0.027540345 16:195.83246 #
-77.986596617032689 3:6.2381606 4:6.2357202 5:610.92902 8:528.34698 9:96.821526 11:33.113888 14:-41370.883 15:0.032462057 16:859.45648 #
-77.074328000053484 3:6.6636543 4:6.6652412 5:770.00513 8:566.26501 9:78.326515 11:29.509193 14:-44288.535 15:0.036159188 16:1022.1066 #
-85.183644641266696 3:4.7318363 4:4.7336183 5:477.26239 8:261.64777 9:74.652176 11:31.523949 14:-31103.596 15:0.0053939456 16:57.619766 #
100 3:4.1896019 4:4.164444 5:430.98508 8:217.60822 9:83.495125 11:58.003761 14:-23624.795 15:0.0071534514 16:63.986683 #
-100 3:4.4202137 4:4.4018307 5:453.40536 8:423.82327 9:57.981762 11:29.254536 14:-28818.381 15:0.007827146 16:77.416313 #
-100 3:3.7026148 4:3.688488 5:307.97964 8:167.96159 9:69.787659 11:32.253498 14:-22507.172 15:0.0075846487 16:56.88195 #
-88.87700724654546 3:6.4647059 4:6.4659128 5:274.66901 8:302.14893 9:53.425655 11:19.998816 14:-40815.914 15:0.0030004771 16:72.304245 #
100 3:4.4571352 4:4.4532108 5:399.99387 8:247.98569 9:53.623592 11:32.328388 14:-28914.76 15:0.0053874734 16:70.313942 #
-100 3:3.2864316 4:3.2893903 5:257.9632 8:287.78101 9:44.952358 11:29.747927 14:-18125.033 15:0.030933008 16:191.02466 #
-38.949748955007941 3:12.170138 4:12.012872 5:1642.8506 8:945.47095 9:128.0838 11:53.209122 14:-73094.516 15:0.033569887 16:1844.8561 #
100 3:4.4609437 4:4.4650984 5:295.85242 8:349.10461 9:98.026428 11:56.675148 14:-25738.471 15:0.021480067 16:298.65561 #
-0.11401970837865227 3:1.0093888 4:0.97676814 5:122.9595 8:82.545204 9:19.08223 11:5.9259434 14:-3622.6492 15:0.020386089 16:11.5723 #
-2.0210590476647496 3:6.2687583 4:6.2446294 5:760.32391 8:446.14325 9:62.421249 11:21.380728 14:-41931.707 15:0.0065817554 16:154.23883 #
-100 3:4.3963256 4:4.3883724 5:309.11505 8:334.69031 9:136.22659 11:83.465111 14:-20024.604 15:0.0070504132 16:70.659355 #
100 3:5.452848 4:5.4580379 5:587.0025 8:522.77094 9:66.965958 11:22.778524 14:-38987.262 15:0.0061899014 16:234.06041 #
-6.4786439980102397 3:4.0643601 4:4.0670228 5:252.28221 8:493.73206 9:49.966347 11:18.176605 14:-28111.514 15:0.0033708182 16:27.804892 #
-24.760141629589022 3:12.809696 4:12.804443 5:1602.2526 8:957.20135 9:224.83842 11:193.80586 14:-76054.844 15:0.0056602545 16:315.69016 #
-100 3:5.3921843 4:5.3944535 5:337.99457 8:365.43378 9:130.80223 11:79.660622 14:-32356.225 15:0.023139687 16:315.04099 #
8.1403187376286237 3:10.868109 4:10.876372 5:1245.574 8:712.65533 9:183.7028 11:153.77524 14:-64065.344 15:0.0064013647 16:431.74823 #
14.968254991087186 3:13.883684 4:13.795175 5:2046.5981 8:527.39252 9:96.308533 11:49.466801 14:-90216.414 15:0.007553997 16:780.05072 #
-97.991961750226594 3:4.3542118 4:4.354466 5:336.08853 8:281.93427 9:52.841801 11:23.957691 14:-28019.738 15:0.0055948431 16:48.903248 #
100 3:3.619519 4:3.6204324 5:287.26102 8:156.45645 9:54.831184 11:21.744858 14:-20643.441 15:0.0061418116 16:46.139084 #
100 3:3.5903554 4:3.5568957 5:306.66266 8:320.17236 9:60.35952 11:19.45537 14:-20302.324 15:0.0071790372 16:50.686432 #
100 3:4.5820613 4:4.5370579 5:225.59558 8:127.57799 9:122.57407 11:101.8952 14:-16152.762 15:0.019875728 16:215.33174 #
100 3:3.6913357 4:3.6613188 5:305.09482 8:376.2402 9:71.272285 11:36.850254 14:-22857.123 15:0.0039173751 16:50.529613 #
-28.01146040508695 3:6.0293441 4:6.0326467 5:710.66571 8:614.9566 9:71.44001 11:23.755175 14:-40363.445 15:0.013679433 16:156.96304 #
-100 3:3.5789473 4:3.573643 5:267.48297 8:242.67924 9:70.941277 11:28.548918 14:-22720.111 15:0.0041254442 16:35.741665 #
100 3:3.9891446 4:3.9664357 5:343.06781 8:178.25266 9:121.91187 11:65.728424 14:-17649.035 15:0.03161585 16:284.02515 #
-100 3:3.7108607 4:3.7139442 5:288.94693 8:306.81738 9:69.852089 11:31.938721 14:-22763.152 15:0.0069988654 16:54.26749 #
-10.656430390893707 3:17.592461 4:17.559353 5:2315.6619 8:941.02454 9:86.14566 11:35.673244 14:-100321.6 15:0.0074031209 16:1155.8257 #
-65.539666588034265 3:5.608489 4:5.6037936 5:639.19971 8:413.50986 9:77.807655 11:36.190334 14:-38487.816 15:0.0060352311 16:89.1493 #
1.6997473942875632 3:11.209638 4:11.204459 5:1453.5206 8:1200.9584 9:72.275246 11:29.911968 14:-79913.492 15:0.036843512 16:1972.0713 #
100 3:5.1122999 4:5.1098585 5:545.87616 8:562.94733 9:63.309593 11:20.476267 14:-35199.121 15:0.0054563619 16:61.532623 #
0.36329378547263924 3:29.274555 4:29.26787 5:3462.967 8:1433.5615 9:635.94037 11:453.5575 14:-163181.61 15:0.0053567332 16:1473.374 #
100 3:3.418153 4:3.4202907 5:226.81364 8:216.98328 9:49.485718 11:18.426458 14:-21399.082 15:0.0038804437 16:26.957481 #
100 3:4.1037798 4:4.102376 5:426.82465 8:401.40826 9:63.130711 11:21.871212 14:-26759.268 15:0.021378709 16:421.79132 #
-100 3:4.2285914 4:4.2323108 5:473.54224 8:337.60391 9:86.924774 11:45.787998 14:-23953.111 15:0.030522896 16:265.14655 #
100 3:3.4657633 4:3.3797159 5:315.90295 8:316.5181 9:63.307621 11:29.88456 14:-22370.035 15:0.0044236756 16:41.164268 #
100 3:3.4959855 4:3.4844186 5:200.1048 8:151.82642 9:120.85953 11:54.860523 14:-15153.628 15:0.030888604 16:252.60925 #
100 3:4.9970026 4:4.9052176 5:449.63245 8:304.57776 9:102.3721 11:58.966232 14:-30531.365 15:0.033182103 16:510.73593 #
17.524005346394112 3:12.702496 4:12.665878 5:1517.98 8:1186.578 9:275.04031 11:142.25574 14:-84215.898 15:0.0066967956 16:610.22595 #
85.101626100676157 3:6.8497281 4:6.8056955 5:750.53632 8:529.65442 9:168.57759 11:108.65747 14:-39723.949 15:0.029414563 16:836.72729 #
-100 3:7.810987 4:7.7446842 5:1072.0411 8:754.32941 9:80.296204 11:28.566608 14:-55792.422 15:0.03660538 16:1445.4655 #
-100 3:3.8091619 4:3.8090959 5:369.83664 8:393.16879 9:51.570286 11:22.49008 14:-25456.738 15:0.0057291621 16:37.048225 #
-36.020178842549264 3:4.737432 4:4.7395062 5:415.35257 8:527.7395 9:102.02728 11:39.380398 14:-26568.84 15:0.0280791 16:423.38364 #
-100 3:5.1624398 4:5.149816 5:526.01215 8:572.29053 9:49.907402 11:20.32196 14:-35221.074 15:0.003178135 16:35.923573 #
96.139018053800868 3:5.9068432 4:5.9002132 5:265.34921 8:477.08768 9:138.48181 11:93.18145 14:-35485.859 15:0.0036766594 16:186.52362 #
-49.556998614897225 3:3.7683287 4:3.769855 5:317.32761 8:457.09152 9:64.097191 11:24.204937 14:-24874.174 15:0.0067102327 16:54.225281 #
100 3:3.6925108 4:3.6944652 5:213.0097 8:333.18948 9:80.224129 11:46.978714 14:-21825.994 15:0.030581428 16:262.49127 #
11.407920307477225 3:14.625828 4:14.629969 5:2029.1755 8:993.08856 9:190.35857 11:72.020752 14:-98855.578 15:0.0075585563 16:831.26099 #
100 3:4.4511318 4:4.425106 5:321.69943 8:356.11438 9:100.8268 11:55.637348 14:-25084.93 15:0.033986308 16:452.79059 #
-51.966556737076395 3:3.9432111 4:3.91295 5:413.89795 8:230.24638 9:86.85881 11:47.770046 14:-19154.434 15:0.028329374 16:231.12114 #
100 3:3.2014015 4:3.2045333 5:250.01768 8:228.23109 9:58.843788 11:23.520481 14:-16829.504 15:0.0044210455 16:35.596813 #
-96.812572096338329 3:6.1632404 4:6.0979819 5:697.7301 8:481.75827 9:54.479694 11:23.120607 14:-41460.512 15:0.0073608835 16:144.15053 #
100 3:3.634964 4:3.6354978 5:241.51062 8:258.10251 9:72.729538 11:42.955139 14:-21634.699 15:0.034788772 16:269.94681 #
-48.948953596828254 3:12.091808 4:11.99116 5:1773.861 8:1160.3066 9:129.95482 11:46.209476 14:-85216.109 15:0.036664322 16:2225.8506 #
-40.828005018006252 3:3.8297193 4:3.8252754 5:393.52316 8:252.67772 9:57.900036 11:35.065407 14:-24390.432 15:0.034698483 16:277.25339 #
1.4876525424823925 3:9.0922127 4:9.0904751 5:1142.2288 8:806.92493 9:74.619965 11:25.224665 14:-69551.586 15:0.036983572 16:2002.3315 #
100 3:3.8022678 4:3.7978387 5:317.99301 8:265.65433 9:84.670418 11:44.943405 14:-21363.066 15:0.03422562 16:284.61557 #
-100 3:4.8033109 4:4.8074665 5:338.20139 8:234.7477 9:91.285034 11:40.38612 14:-30420.08 15:0.022302207 16:232.72243 #
-100 3:4.5282512 4:4.5235496 5:343.44724 8:248.7977 9:138.80699 11:61.265049 14:-21674.994 15:0.031140935 16:322.23514 #
77.084924859507467 3:8.0994091 4:8.0998201 5:1037.2836 8:778.03754 9:64.262009 11:19.253386 14:-55848.086 15:0.036445376 16:1425.1503 #
100 3:4.6333189 4:4.6372132 5:363.42975 8:417.90411 9:58.47654 11:25.61076 14:-33662.594 15:0.0040112301 16:59.686382 #
100 3:5.7719598 4:5.6342573 5:634.86511 8:343.85034 9:69.869652 11:34.601067 14:-33545.746 15:0.0031692085 16:249.45006 #
90.50802279600417 3:8.5293808 4:8.5326014 5:1100.0208 8:967.74445 9:85.309097 11:40.334187 14:-56129.137 15:0.0073338379 16:263.61371 #
-79.791528807762518 3:5.3388619 4:5.3272567 5:593.04706 8:308.60016 9:96.088799 11:41.32692 14:-32017.219 15:0.0063038864 16:88.74791 #
100 3:5.0489912 4:5.0469379 5:457.4068 8:481.45404 9:51.285992 11:18.686621 14:-37243.137 15:0.030518588 16:746.42218 #
100 3:5.2556615 4:5.257916 5:503.61621 8:343.96945 9:85.956863 11:32.566536 14:-33556.832 15:0.002255141 16:240.11676 #
100 3:3.8034759 4:3.7959671 5:340.16541 8:224.67839 9:80.069466 11:37.428173 14:-21766.58 15:0.033594072 16:272.09543 #
10.319399205513504 3:8.8265057 4:8.7908583 5:1112.1727 8:1054.5288 9:82.755775 11:30.2323 14:-62589.063 15:0.034505796 16:1429.1146 #
-100 3:3.6350193 4:3.6385806 5:310.09454 8:342.40152 9:58.232594 11:28.261648 14:-22854.053 15:0.0045531974 16:35.521824 #
-100 3:4.2989926 4:4.3028903 5:340.66293 8:251.66794 9:109.62824 11:49.462608 14:-21966.777 15:0.032202851 16:315.60672 #
59.843337940898266 3:9.8279266 4:9.8250761 5:1391.785 8:614.99097 9:105.61378 11:40.234615 14:-60026.219 15:0.0081120459 16:399.85953 #
-3.0881167767221962 3:11.063621 4:10.917076 5:1615.4586 8:1036.6349 9:130.57266 11:42.99728 14:-77755.742 15:0.034148347 16:1488.562 #
100 3:3.8161554 4:3.8189774 5:288.74451 8:264.35367 9:51.42009 11:22.958315 14:-24594.238 15:0.0075792396 16:57.832294 #
-51.538316635364673 3:6.9198303 4:6.9153423 5:844.69989 8:376.35303 9:62.554665 11:35.123516 14:-42555.586 15:0.024485629 16:442.58508 #
-100 3:3.9524708 4:3.9523141 5:222.10478 8:341.93268 9:92.196251 11:62.801865 14:-21532.414 15:0.005472389 16:40.363621 #
100 3:3.2947042 4:3.2854815 5:282.22305 8:192.28911 9:67.860176 11:28.973373 14:-19902.871 15:0.0044875131 16:30.498064 #
19.621831716608245 3:5.2781363 4:5.2833085 5:321.96774 8:414.02386 9:148.75075 11:88.891022 14:-27407.227 15:0.0069418121 16:182.95065 #
100 3:4.7592139 4:4.7603831 5:366.1839 8:372.25479 9:112.31185 11:59.67131 14:-29405.693 15:0.029245593 16:531.59473 #
100 3:3.5260932 4:3.4910648 5:406.37936 8:326.71713 9:51.82349 11:19.965408 14:-21682.779 15:0.0024307515 16:28.103727 #
-59.722041058378863 3:3.5757861 4:3.5752845 5:212.66319 8:304.99646 9:83.188644 11:39.910076 14:-20463.656 15:0.030187838 16:233.64949 #
100 3:3.8177481 4:3.8213525 5:245.9259 8:309.36066 9:112.29583 11:53.839115 14:-19572.199 15:0.033849236 16:316.39389 #
-14.73358352126499 3:10.502362 4:10.394175 5:1499.4077 8:967.4715 9:81.19043 11:37.071854 14:-69603.344 15:0.0064968709 16:402.55518 #
-63.61390349222107 3:7.2350674 4:7.1849561 5:744.13989 8:551.34619 9:71.279289 11:39.711117 14:-46627.336 15:0.0065378416 16:151.11676 #
-100 3:6.4709911 4:6.4586773 5:715.96405 8:587.39044 9:132.58923 11:90.173058 14:-39206.344 15:0.0071397 16:158.79649 #
-100 3:3.7460897 4:3.7127614 5:395.4248 8:404.95636 9:50.998119 11:30.902538 14:-22201.686 15:0.0064961328 16:56.994755 #
100 3:5.7924981 4:5.7965832 5:599.8222 8:345.63058 9:97.291229 11:59.123947 14:-34473.227 15:0.029400634 16:646.02307 #
100 3:5.6266203 4:5.5971565 5:603.05542 8:648.71704 9:75.260246 11:37.312641 14:-38769.906 15:0.0063581099 16:119.13718 #
100 3:4.1568198 4:4.0190291 5:399.54343 8:151.85042 9:93.794243 11:59.617088 14:-21458.951 15:0.004907296 16:55.968117 #
-3.6601219731613539 3:15.524179 4:15.493062 5:2055.7002 8:1127.4669 9:113.70265 11:32.939037 14:-119518.55 15:0.0015401858 16:97.073181 #
100 3:3.6497498 4:3.6295719 5:274.91867 8:230.79517 9:85.123009 11:37.230038 14:-19193.92 15:0.033504523 16:258.39133 #
-93.916785892963375 3:4.4238696 4:4.4281783 5:317.20151 8:466.83121 9:54.239727 11:28.700266 14:-28462.734 15:0.0017936152 16:109.59023 #
-9.6756868683574826 3:9.5769348 4:9.5766964 5:1263.3564 8:904.08734 9:124.11736 11:47.323505 14:-65367.633 15:0.035329625 16:1242.6857 #
100 3:3.9186814 4:3.8802991 5:334.85358 8:358.25885 9:53.787781 11:25.602844 14:-24638.832 15:0.0076849214 16:60.258118 #
100 3:3.3911071 4:3.3834479 5:273.72562 8:174.7888 9:65.346161 11:26.641233 14:-19692.256 15:0.0047167861 16:29.802713 #
-42.833507167529717 3:3.3161039 4:3.3113799 5:297.14203 8:331.7207 9:61.291439 11:31.423943 14:-19608.893 15:0.0047570444 16:32.306072 #
2.0612260183553852 3:14.872163 4:14.487939 5:2250.3794 8:769.7077 9:228.55952 11:154.68222 14:-88460.969 15:0.030582856 16:1921.1875 #
100 3:3.5984478 4:3.5988889 5:222.3568 8:330.44254 9:60.799427 11:19.72617 14:-21493.313 15:0.0075279395 16:53.470299 #
100 3:3.3799341 4:3.3824263 5:152.68776 8:256.13019 9:66.216057 11:28.347692 14:-19992.82 15:0.0043183197 16:76.41391 #
-100 3:4.7942924 4:4.7962046 5:566.53284 8:364.86807 9:92.791916 11:57.038338 14:-26347.799 15:0.028340876 16:279.33514 #
100 3:5.2895827 4:5.272233 5:357.22153 8:670.68945 9:87.254478 11:29.807795 14:-35012.34 15:0.025038457 16:608.97095 #
-100 3:4.3901205 4:4.3929205 5:307.87717 8:273.78815 9:130.72987 11:49.739166 14:-21099.041 15:0.029816523 16:298.5051 #
100 3:4.454051 4:4.453805 5:343.55777 8:374.185 9:84.98365 11:46.600803 14:-27903.736 15:0.028849244 16:310.73755 #
-21.665812799845213 3:3.2359083 4:3.2180684 5:278.1308 8:165.46364 9:68.170876 11:29.995081 14:-17377.131 15:0.0047190264 16:24.922743 #
-100 3:3.4478455 4:3.4483249 5:227.73727 8:289.03308 9:65.67067 11:27.80316 14:-22009.941 15:0.0040858947 16:30.492563 #
-100 3:3.7767789 4:3.7621229 5:230.06279 8:286.11639 9:46.740997 11:21.98135 14:-23641.104 15:0.0039125923 16:26.056828 #
100 3:3.4677782 4:3.4467335 5:273.52094 8:135.76883 9:52.234478 11:17.445993 14:-19469.746 15:0.0031477017 16:25.450705 #
-23.542155154360426 3:9.3982391 4:9.3440094 5:1365.1998 8:779.31268 9:65.194275 11:24.787914 14:-67533.086 15:0.0072024562 16:338.96411 #
-100 3:4.9811444 4:4.9854441 5:547.74921 8:373.81699 9:90.155617 11:45.099728 14:-30593.543 15:0.032303717 16:378.21176 #
100 3:4.1530113 4:4.0769405 5:388.11124 8:372.6156 9:94.306122 11:55.746315 14:-24193.43 15:0.035422917 16:385.58145 #
-100 3:3.6034777 4:3.5884748 5:359.47525 8:342.50372 9:47.786854 11:20.900841 14:-24038.844 15:0.0032518869 16:29.037766 #
100 3:3.460248 4:3.4298811 5:275.79102 8:300.11719 9:57.108212 11:19.638737 14:-19356.564 15:0.0071072108 16:48.820705 #
100 3:3.5063138 4:3.4718659 5:284.28854 8:300.24207 9:60.178722 11:19.735575 14:-19581.684 15:0.0071888482 16:49.862267 #
47.72673849805301 3:5.4594111 4:5.2968822 5:596.25201 8:404.78354 9:108.25391 11:74.888069 14:-31342.607 15:0.0048680967 16:138.39891 #
-100 3:6.5105753 4:6.5156689 5:416.65887 8:285.55283 9:47.070805 11:16.097015 14:-47280.199 15:0.0065533379 16:135.98601 #
100 3:3.9624138 4:3.8505793 5:361.61319 8:304.70242 9:83.048531 11:47.795898 14:-24903.939 15:0.0054425881 16:53.644749 #
-100 3:4.0215025 4:3.9856133 5:421.31638 8:365.91312 9:83.209297 11:42.637283 14:-23001.07 15:0.028864129 16:242.55241 #
-100 3:3.8840616 4:3.8793843 5:288.88004 8:339.85666 9:63.518707 11:30.6451 14:-24765.574 15:0.0050240261 16:39.004704 #
0.093150182978341434 3:16.185234 4:16.196693 5:2147.479 8:1669.8054 9:128.5842 11:73.121025 14:-115554.58 15:0.0071827765 16:1059.0525 #
100 3:4.0638032 4:4.0623298 5:455.28391 8:335.33084 9:89.142822 11:43.893734 14:-21823.795 15:0.031073792 16:291.01492 #
-100 3:4.3830595 4:4.3759055 5:408.26178 8:409.11392 9:71.567169 11:27.141579 14:-30291.486 15:0.0043509966 16:50.771618 #
100 3:4.8609667 4:4.863914 5:385.06195 8:222.81596 9:137.47475 11:93.150284 14:-20566.303 15:0.0030948224 16:142.33475 #
-37.255610587487922 3:12.859078 4:12.758992 5:1871.0353 8:1254.6837 9:138.51782 11:63.655537 14:-89887.617 15:0.036286891 16:2337.8059 #
-6.9230855154346003 3:12.621877 4:12.495165 5:1917.7255 8:695.2879 9:78.388123 11:34.689064 14:-85855.641 15:0.0068147327 16:638.92804 #
100 3:3.4743276 4:3.4751711 5:229.66052 8:326.87341 9:61.938622 11:19.021702 14:-21670.416 15:0.0029323099 16:20.760275 #
-16.129181060795986 3:3.39572 4:3.3935583 5:268.11673 8:250.9012 9:62.398907 11:26.713833 14:-21842.068 15:0.0040306817 16:35.044357 #
-1.6482360775914455 3:15.682931 4:15.658668 5:2339.9441 8:1177.1479 9:71.772774 11:30.492924 14:-108968.69 15:0.0072229961 16:509.6557 #
-100 3:5.1153765 4:5.118196 5:454.33612 8:546.39258 9:44.930809 11:19.038485 14:-37054.5 15:0.031034756 16:580.43018 #
-100 3:4.228301 4:4.2113166 5:312.40845 8:159.33325 9:124.39481 11:45.550907 14:-17094.773 15:0.030415915 16:282.00766 #
100 3:4.8053994 4:4.8001795 5:320.68781 8:394.65836 9:86.402458 11:55.718159 14:-32116.605 15:0.038568828 16:504.84085 #
100 3:4.4759579 4:4.4797335 5:470.86444 8:359.85971 9:75.96019 11:29.637966 14:-28563.127 15:0.0060030227 16:64.55294 #
-1.0068652519158259 3:1.9695427 4:1.8854431 5:297.52466 8:134.13571 9:35.451172 11:11.587699 14:-9360.1699 15:0.008009159 16:17.343647 #
100 3:3.5009313 4:3.4777737 5:380.77417 8:199.48915 9:54.664902 11:19.82802 14:-19812.535 15:0.0074445489 16:50.61171 #
9.4160711441686935 3:14.614429 4:14.626598 5:1927.0624 8:1218.771 9:153.04033 11:87.973679 14:-104994.45 15:0.0061758487 16:466.71985 #
100 3:3.1797035 4:3.1798203 5:264.89465 8:216.33661 9:55.758072 11:28.057318 14:-19790.723 15:0.0070567206 16:40.129631 #
9.7299377632450224 3:14.763184 4:14.390686 5:2232.5178 8:751.21777 9:227.60576 11:152.30812 14:-87812.633 15:0.030772492 16:1915.7681 #
-14.235322783238411 3:3.0714285 4:3.074187 5:261.49139 8:212.15312 9:49.859634 11:19.440601 14:-18331.449 15:0.0018874819 16:16.386736 #
100 3:4.1685104 4:4.1510625 5:423.52332 8:257.13815 9:73.448921 11:44.936199 14:-25708.725 15:0.0074706431 16:69.391167 #
-100 3:5.0223141 4:5.0229483 5:329.12857 8:453.56036 9:119.54492 11:67.851379 14:-31862.559 15:0.02335041 16:291.70966 #
45.979964162322581 3:5.7421336 4:5.7473865 5:558.04871 8:367.33273 9:62.26495 11:32.58165 14:-42869.191 15:0.0051254882 16:232.19637 #
-100 3:3.5476444 4:3.5444262 5:229.90085 8:171.86601 9:91.171036 11:44.150379 14:-16564.531 15:0.031136787 16:221.50847 #
100 3:3.433862 4:3.4371009 5:247.89256 8:212.63573 9:62.544518 11:27.297607 14:-21883.574 15:0.0044846036 16:35.325993 #
3.4950562279079649 3:7.0190997 4:6.9949803 5:740.22894 8:414.72324 9:113.78381 11:55.052547 14:-50724.305 15:0.0050902464 16:355.55435 #
-100 3:4.0959358 4:4.099606 5:400.70749 8:159.85823 9:74.968147 11:36.204048 14:-22267.791 15:0.00471777 16:36.761841 #
100 3:3.8244596 4:3.8186197 5:270.43127 8:283.56183 9:54.529949 11:20.182068 14:-21880.889 15:0.0073713982 16:59.234295 #
100 3:4.759212 4:4.7590117 5:464.60513 8:367.18704 9:91.785431 11:48.6357 14:-29450.111 15:0.002255443 16:186.30241 #
-53.216495233344745 3:3.837714 4:3.8412864 5:260.89941 8:153.80717 9:98.343369 11:47.628998 14:-19183.908 15:0.028360685 16:244.35016 #
-100 3:4.0835419 4:4.0537801 5:382.33719 8:376.49905 9:78.867577 11:51.755783 14:-21897.691 15:0.0046273544 16:44.313606 #
100 3:3.5739968 4:3.5461304 5:414.31116 8:267.25195 9:64.047585 11:27.145348 14:-19788.928 15:0.0036646957 16:77.908279 #
100 3:4.6862473 4:4.4779553 5:547.88153 8:230.43527 9:113.29462 11:69.561821 14:-22367.164 15:0.03501397 16:391.97742 #
-0.21512481854186727 3:12.440208 4:12.397793 5:1847.3322 8:1095.7917 9:86.624519 11:49.382004 14:-89825.828 15:0.0075933114 16:424.12833 #
-100 3:13.998798 4:13.991331 5:2010.7952 8:884.00018 9:122.55484 11:38.501369 14:-91134.852 15:0.0067471922 16:718.04718 #
-9.9105062372519797 3:9.4804878 4:9.2741146 5:1393.907 8:464.15793 9:97.624672 11:36.732025 14:-52664.551 15:0.028196564 16:706.83893 #
-100 3:2.7797387 4:2.7745104 5:174.94124 8:149.38295 9:49.418736 11:23.656475 14:-16534.283 15:0.0040849661 16:21.008839 #
-56.855744564052848 3:13.95801 4:13.947837 5:2019.6569 8:879.30621 9:123.10957 11:39.804634 14:-90578.273 15:0.0067429021 16:715.9364 #
-100 3:3.550112 4:3.5266416 5:320.77051 8:250.64526 9:55.97403 11:28.385071 14:-21871.551 15:0.0049773059 16:34.958813 #
100 3:3.7840595 4:3.7874405 5:441.95673 8:262.03546 9:66.531586 11:30.898365 14:-22184.109 15:0.0046737529 16:45.309841 #
100 3:3.5873091 4:3.584578 5:325.41479 8:168.46834 9:60.712402 11:18.949692 14:-23440.09 15:0.0078993067 16:51.848984 #
100 3:3.5236511 4:3.5261958 5:320.01462 8:250.55145 9:55.637436 11:18.392504 14:-21946.963 15:0.0048786812 16:39.432446 #
-0.62601992815769836 3:1.6122417 4:1.6114217 5:51.823074 8:63.345333 9:52.484077 11:18.81196 14:-5709.1904 15:0.025887769 16:40.035748 #
100 3:4.745141 4:4.7373681 5:260.67126 8:343.72952 9:118.18201 11:93.899208 14:-21819.947 15:0.021893237 16:269.21887 #
-2.8973204175507723 3:13.509379 4:13.520315 5:1572.8541 8:1543.635 9:118.56835 11:41.878056 14:-112379.2 15:0.0015754531 16:79.52005 #
-8.061023535952188 3:21.270031 4:21.276283 5:3105.6033 8:1587.3915 9:111.326 11:49.498386 14:-139870.25 15:0.0066534248 16:946.04254 #
2.2454638582245847 3:18.670259 4:18.686798 5:937.71338 8:697.18732 9:605.6687 11:500.04739 14:-49105.496 15:0.0083895596 16:1263.896 #
100 3:3.5188406 4:3.4990046 5:366.92371 8:188.99934 9:59.514606 11:19.428268 14:-19680.436 15:0.0074021779 16:50.318592 #
100 3:4.5081925 4:4.5125899 5:349.52081 8:316.80807 9:116.85237 11:72.405685 14:-22594.902 15:0.0054880399 16:149.79744 #
100 3:5.4607763 4:5.466085 5:525.54626 8:425.8616 9:79.04425 11:27.704332 14:-38170.484 15:0.0060941032 16:241.53975 #
-15.881859958882782 3:3.7176416 4:3.7041309 5:402.01086 8:128.25459 9:55.004112 11:25.303978 14:-19870.107 15:0.0068767406 16:47.302025 #
100 3:5.3707771 4:5.1577239 5:603.19202 8:343.00131 9:120.39948 11:64.942245 14:-31934.332 15:0.033832557 16:569.01471 #
-100 3:3.2901189 4:3.2614522 5:347.01556 8:211.46651 9:59.92635 11:26.212395 14:-17398.152 15:0.0037854025 16:21.972589 #
-100 3:6.7321024 4:6.7196121 5:773.69336 8:266.6048 9:127.39517 11:77.185249 14:-38849.973 15:0.030355282 16:489.40131 #
100 3:3.8183544 4:3.8179603 5:235.19772 8:148.70749 9:66.844788 11:34.805557 14:-21949.027 15:0.0055352608 16:42.286415 #
-48.098988386957622 3:4.8647876 4:4.8547668 5:429.67087 8:590.97717 9:64.784836 11:16.150717 14:-33843.289 15:0.0043541812 16:45.104454 #
100 3:4.4967394 4:4.4962592 5:223.29025 8:282.4014 9:132.43674 11:87.006989 14:-20899.236 15:0.0064459401 16:232.79454 #
100 3:7.0940151 4:6.9404531 5:963.52356 8:647.65033 9:91.732079 11:75.943344 14:-47489.5 15:0.026190758 16:907.47571 #
100 3:5.605114 4:5.5744076 5:612.00214 8:635.83044 9:75.333984 11:38.447605 14:-38523.656 15:0.0063635418 16:118.91483 #
43.834222035859838 3:5.0004611 4:4.9863181 5:475.40631 8:314.46893 9:126.34068 11:87.235115 14:-26961.148 15:0.029097687 16:304.21472 #
63.799147087419087 3:6.4904518 4:6.4857125 5:521.09326 8:591.7561 9:89.894913 11:74.25042 14:-46653.211 15:0.0045057349 16:240.23557 #
-100 3:3.3809769 4:3.3824472 5:146.78973 8:274.49908 9:70.172806 11:31.48073 14:-18295.184 15:0.032815363 16:210.77063 #
-100 3:5.6711102 4:5.6338177 5:535.33466 8:513.74133 9:95.330673 11:31.827557 14:-36522.863 15:0.031547207 16:711.73145 #
-75.202642554613362 3:4.8287196 4:4.7967567 5:374.96707 8:369.26822 9:143.74799 11:59.721272 14:-23992.406 15:0.025291471 16:278.39975 #
26.561576038029088 3:6.827683 4:6.827776 5:747.10791 8:713.30548 9:126.22396 11:84.103012 14:-40495.578 15:0.0072866762 16:163.20914 #
-100 3:2.9701049 4:2.9524953 5:200.9726 8:139.22804 9:54.511463 11:26.088871 14:-16848.262 15:0.0034839187 16:21.965231 #
46.960552951029172 3:5.004859 4:5.0092258 5:587.69788 8:447.84698 9:51.044991 11:21.60354 14:-34354.426 15:0.033066396 16:803.25299 #
29.910292370001962 3:13.21171 4:13.041831 5:1909.4513 8:1544.1951 9:99.181717 11:36.022034 14:-100637.72 15:0.035588235 16:2550.1104 #
100 3:4.6962051 4:4.6846542 5:390.16119 8:522.77942 9:72.879623 11:31.843962 14:-31391.412 15:0.002574696 16:113.66286 #
100 3:3.6406319 4:3.6440828 5:198.2811 8:252.97035 9:95.139854 11:47.169239 14:-18940.932 15:0.028035417 16:233.99483 #
-6.5262985026189337 3:23.001379 4:22.954123 5:3274.5979 8:1878.5933 9:139.28326 11:54.956444 14:-153172.83 15:0.0070966794 16:1126.1659 #
-37.904640942264209 3:9.3654709 4:9.1609163 5:1353.7164 8:765.96564 9:120.07493 11:41.549103 14:-60351.32 15:0.036426432 16:1401.0205 #
-100 3:4.1714644 4:4.1636348 5:270.35645 8:294.97855 9:135.84558 11:59.309116 14:-18624.531 15:0.030299544 16:270.85068 #
-27.416772979822621 3:5.4881992 4:5.4789729 5:586.84442 8:620.46069 9:60.705906 11:26.969265 14:-37016.977 15:0.034108795 16:638.88171 #
-22.97695332082661 3:5.3685975 4:5.3711324 5:573.54181 8:498.91473 9:58.02409 11:19.624985 14:-36710.223 15:0.033766467 16:668.8645 #
-16.729363854721669 3:4.1076207 4:4.106739 5:370.31415 8:143.62854 9:64.876846 11:31.728937 14:-22326.949 15:0.0060866713 16:51.135643 #
-100 3:3.0063448 4:2.9984348 5:327.94833 8:189.32971 9:48.787827 11:23.615942 14:-18293.695 15:0.00389194 16:25.058535 #
100 3:5.2508459 4:5.0631309 5:727.42645 8:183.1187 9:78.756836 11:30.657591 14:-26598.887 15:0.0047125588 16:122.85067 #
-24.799273495049874 3:3.7983205 4:3.7987075 5:325.02774 8:390.83908 9:52.65556 11:22.374027 14:-21589.264 15:0.0038615942 16:25.228966 #
-100 3:3.8562486 4:3.8448126 5:373.3136 8:247.90622 9:68.538162 11:30.347843 14:-25041.861 15:0.0061286502 16:55.332275 #
-100 3:4.2745051 4:4.2786522 5:291.20877 8:353.32773 9:142.8914 11:55.2789 14:-18396.178 15:0.03023294 16:268.32092 #
3.2968443069472304 3:15.879452 4:15.709791 5:2423.7092 8:1456.6888 9:130.54323 11:52.837006 14:-110944.33 15:0.0064841327 16:501.57339 #
100 3:4.6070685 4:4.6109314 5:370.87372 8:552.30603 9:54.753555 11:19.778948 14:-31458.27 15:0.002464399 16:34.603832 #
31.083473353717181 3:5.5314565 4:5.5358858 5:464.36047 8:377.23969 9:117.86156 11:89.876816 14:-32082.992 15:0.0053779669 16:139.11269 #
100 3:5.5267448 4:5.48207 5:620.3877 8:481.95633 9:79.19442 11:36.220936 14:-36582.582 15:0.023386927 16:675.66333 #
-0.71176197693601462 3:1.3205669 4:1.3166867 5:52.015228 8:54.540134 9:44.807209 11:16.663395 14:-4379.0225 15:0.024678968 16:31.573574 #
13.019412886197156 3:14.875278 4:14.713698 5:2301.7542 8:906.73279 9:93.409813 11:42.131981 14:-99004.953 15:0.0072736875 16:816.97217 #
0.81382290130920043 3:10.133686 4:10.083635 5:1465.4429 8:622.89581 9:104.33382 11:44.531605 14:-64222.289 15:0.033959549 16:1931.2006 #
-100 3:5.5838203 4:5.5750098 5:567.50183 8:614.87408 9:58.715057 11:19.88752 14:-35599.805 15:0.0040315008 16:58.464233 #
23.926497987645362 3:7.9966559 4:7.9196095 5:1012.4858 8:392.68362 9:116.13873 11:82.939804 14:-52422.414 15:0.0037020489 16:254.26509 #
-5.3028158014748712 3:21.476721 4:21.24439 5:3458.2664 8:1154.3392 9:97.227837 11:46.10051 14:-146289.66 15:0.0067206933 16:887.51099 #
-9.8683701682677967 3:9.8936796 4:9.8796139 5:1451.7064 8:877.31525 9:63.276047 11:30.302954 14:-63027.965 15:0.031584419 16:1161.192 #
4.8167649407338891 3:11.273327 4:11.261393 5:1467.2772 8:1277.123 9:84.084824 11:32.869514 14:-81179.742 15:0.037028141 16:1990.9827 #
100 3:6.5211806 4:6.3710017 5:902.16602 8:551.73474 9:99.481995 11:42.299179 14:-43659.727 15:0.026512654 16:1060.2345 #
1.5648669338807639 3:15.151564 4:14.924986 5:1862.6924 8:547.35986 9:411.31317 11:240.43327 14:-71199.539 15:0.0055166101 16:413.6196 #
-68.912826730531449 3:8.7679234 4:8.7670126 5:1092.5192 8:662.42932 9:134.70538 11:43.576874 14:-56101.777 15:0.03427856 16:1283.385 #
40.123657553578077 3:9.2121906 4:9.1297398 5:1382.4879 8:927.14508 9:77.309021 11:27.628452 14:-63764.16 15:0.036598139 16:1832.6936 #
-0.76555071630851312 3:12.097706 4:12.078632 5:1616.2196 8:991.26221 9:136.26073 11:49.505024 14:-81670.68 15:0.035139829 16:1780.9807 #
100 3:4.7842536 4:4.7755346 5:516.13757 8:579.07025 9:50.208134 11:23.228703 14:-33296.391 15:0.005596288 16:51.712055 #
-34.180837669433402 3:5.2894101 4:5.2907686 5:178.01576 8:214.09369 9:61.68713 11:21.21781 14:-31638.713 15:0.034943409 16:481.41165 #
-65.872237308281001 3:3.8208275 4:3.8173153 5:309.18741 8:331.74084 9:73.104897 11:41.497143 14:-22838.846 15:0.029838633 16:228.83162 #
23.442291721461352 3:11.801046 4:11.710397 5:1745.6239 8:1336.4358 9:92.346252 11:39.672222 14:-84990.641 15:0.034864403 16:2246.1882 #
100 3:5.5329685 4:5.5319138 5:307.83401 8:366.91461 9:103.7389 11:69.67569 14:-35020.094 15:0.0026570319 16:143.20959 #
100 3:6.5208192 4:6.4778271 5:823.07318 8:290.85214 9:73.062332 11:27.252209 14:-39474.855 15:0.0080246655 16:284.0632 #
100 3:4.6607776 4:4.6587434 5:336.59775 8:407.04245 9:47.47823 11:19.534451 14:-33400.359 15:0.025497172 16:576.52533 #
100 3:3.534879 4:3.5347037 5:244.21381 8:239.62315 9:110.25705 11:58.414436 14:-16751.906 15:0.033340015 16:288.93518 #
100 3:5.0482373 4:5.0497055 5:319.80634 8:491.61548 9:90.113121 11:64.005623 14:-33245.895 15:0.028811047 16:422.57492 #
60.197201873038523 3:6.932219 4:6.9199629 5:645.3017 8:407.99249 9:182.48862 11:115.85956 14:-33094.395 15:0.0072824783 16:365.19019 #
-12.736645972334713 3:5.5107522 4:5.5064225 5:615.28589 8:407.80576 9:97.904922 11:51.036625 14:-33300.535 15:0.0323194 16:413.28342 #
100 3:3.9111667 4:3.9139509 5:260.3327 8:389.73453 9:69.806374 11:35.886963 14:-24058.58 15:0.0034997868 16:44.427063 #
-100 3:6.0670977 4:6.0719337 5:737.61877 8:296.45453 9:87.910126 11:54.512379 14:-35974.371 15:0.031725012 16:465.82446 #
-100 3:5.8698568 4:5.875586 5:715.14484 8:481.49716 9:71.240997 11:26.608824 14:-38638.824 15:0.0068540839 16:120.90164 #
100 3:3.3288171 4:3.3285263 5:342.96063 8:280.95117 9:55.674007 11:19.738201 14:-20210.857 15:0.0074705062 16:49.089222 #
-84.602400910864517 3:3.5725501 4:3.5504308 5:423.21976 8:201.04529 9:65.857094 11:25.123037 14:-20253.258 15:0.0035496997 16:24.332287 #
-21.560965966561582 3:4.5535889 4:4.5573754 5:369.79553 8:391.12384 9:59.396267 11:24.552855 14:-28710.064 15:0.0058078635 16:53.006279 #
-100 3:4.8977551 4:4.8964782 5:391.38962 8:429.34674 9:80.473984 11:33.957466 14:-33465.754 15:0.032005828 16:462.70636 #
100 3:4.8844838 4:4.8614235 5:568.8446 8:185.55074 9:82.551559 11:51.994919 14:-28381.785 15:0.036959175 16:541.02478 #
-100 3:4.3947034 4:4.3950887 5:449.83331 8:318.3923 9:88.209229 11:39.837776 14:-26012.285 15:0.03197271 16:319.27972 #
-3.0990490165577853 3:8.4130783 4:8.260478 5:1228.4983 8:564.83154 9:82.761795 11:29.048328 14:-54022.031 15:0.0071315211 16:274.55188 #
-9.5012598645755517 3:5.3263593 4:5.3220115 5:529.87781 8:637.32007 9:51.608944 11:18.832922 14:-35485.367 15:0.016859233 16:162.81516 #
100 3:3.5054085 4:3.4916852 5:346.68622 8:349.58594 9:55.5345 11:19.596281 14:-20206.834 15:0.0029196059 16:25.345284 #
8.4687274168045708 3:5.9085298 4:5.9142532 5:288.15396 8:526.54749 9:104.63634 11:60.946774 14:-38441.367 15:0.036660627 16:873.89246 #
100 3:4.3160968 4:4.3018985 5:439.45657 8:282.37207 9:70.484627 11:44.467487 14:-27493.152 15:0.0075274482 16:71.69931 #
17.457847445256938 3:9.6322498 4:9.5744867 5:1454.9512 8:1041.184 9:78.212425 11:30.643509 14:-64225.625 15:0.035033129 16:1843.0164 #
-100 3:5.3193974 4:5.316072 5:521.42358 8:419.57764 9:66.045456 11:21.444426 14:-37420.684 15:0.015012762 16:158.53133 #
100 3:4.4936733 4:4.4947124 5:485.43579 8:329.09827 9:70.745956 11:39.979614 14:-29105.574 15:0.033246696 16:558.02368 #
-100 3:3.5787401 4:3.5760276 5:213.00363 8:161.1666 9:89.210587 11:73.564529 14:-15906.191 15:0.02305481 16:142.07784 #
100 3:4.3633966 4:4.3669806 5:252.60674 8:369.21997 9:55.482735 11:24.82987 14:-32462.246 15:0.0026745778 16:70.899719 #
-100 3:4.2372403 4:4.241313 5:263.05014 8:317.38058 9:93.892082 11:55.036793 14:-26686.045 15:0.021643449 16:225.08965 #
-100 3:3.2760801 4:3.254591 5:319.72781 8:228.19528 9:44.779411 11:18.583984 14:-20271.902 15:0.0038067417 16:23.73579 #
100 3:3.5775857 4:3.5563996 5:375.71271 8:196.76761 9:54.991985 11:20.224329 14:-20299.408 15:0.0074683367 16:51.54385 #
100 3:5.0573058 4:5.0619769 5:390.62585 8:221.52296 9:81.389359 11:59.762379 14:-30358.33 15:0.0060043484 16:124.19499 #
-100 3:4.6317868 4:4.60111 5:562.99506 8:343.71298 9:75.133057 11:32.422649 14:-28013.742 15:0.0049310559 16:40.976471 #
100 3:3.5885518 4:3.5895669 5:286.09857 8:140.1489 9:56.350117 11:21.847223 14:-20240.107 15:0.0061447164 16:45.729771 #
9.0402715790771957 3:5.586884 4:5.5771608 5:324.62592 8:375.05432 9:65.855499 11:29.8573 14:-43219.391 15:0.0032701374 16:120.44636 #
0.56816485324534938 3:8.0587397 4:8.026413 5:1211.4038 8:752.65692 9:72.071167 11:22.339827 14:-52571.242 15:0.034002654 16:1300.5939 #
100 3:6.7081904 4:6.6567655 5:790.58972 8:592.16492 9:88.621689 11:41.274723 14:-47105.313 15:0.024558449 16:1011.3685 #
100 3:3.6144335 4:3.6134009 5:358.80157 8:345.63519 9:48.922802 11:19.365942 14:-23812.492 15:0.0067302142 16:49.931385 #
87.59451243497071 3:4.5530472 4:4.5542226 5:253.7393 8:383.19498 9:92.358482 11:56.286652 14:-28757.061 15:0.039460421 16:489.45868 #
-100 3:4.5638728 4:4.5415082 5:502.29861 8:211.24503 9:76.014137 11:32.854736 14:-27884.689 15:0.0068216296 16:76.294014 #
11.289225415037675 3:7.0137696 4:7.0066347 5:701.1134 8:600.59863 9:82.144905 11:43.193855 14:-52771.52 15:0.033404976 16:1290.9348 #
-100 3:3.6618371 4:3.6626663 5:282.78287 8:351.35364 9:46.807343 11:21.450417 14:-25158.02 15:0.0041106879 16:28.589956 #
33.124355272373457 3:9.5858068 4:9.4293919 5:1433.5693 8:754.35388 9:69.435196 11:31.173063 14:-69715.484 15:0.0067201369 16:367.82251 #
-15.884123975787585 3:11.064216 4:11.048966 5:1429.772 8:979.92041 9:123.62988 11:64.393982 14:-76229.805 15:0.035645157 16:1658.3701 #
-100 3:3.4648621 4:3.464056 5:276.84442 8:194.81142 9:65.220001 11:29.670359 14:-20464.27 15:0.0045242328 16:28.977427 #
3.5898295444888317 3:5.8786931 4:5.8784003 5:692.64954 8:526.33008 9:51.637802 11:15.553272 14:-41070.48 15:0.035083305 16:975.16681 #
100 3:4.5366917 4:4.5100136 5:351.51044 8:306.27747 9:88.347839 11:61.962067 14:-27486.854 15:0.032946948 16:349.17639 #
100 3:3.1953528 4:3.1956348 5:305.4231 8:172.21527 9:59.451584 11:21.679417 14:-20445.436 15:0.0058835931 16:36.077198 #
-98.705106967028016 3:3.146872 4:3.1488619 5:165.55728 8:153.5096 9:77.577156 11:44.730148 14:-14277.816 15:0.030227082 16:174.37637 #
4.0592224771098664 3:9.5746231 4:9.5520716 5:1477.6252 8:673.56561 9:80.041649 11:36.210098 14:-59050.18 15:0.037148062 16:2421.0256 #
100 3:3.5311751 4:3.5208938 5:324.79749 8:218.87401 9:59.08651 11:24.219872 14:-22204.5 15:0.0061560632 16:43.11248 #
100 3:4.2414289 4:4.2112904 5:379.30963 8:439.46182 9:58.015369 11:34.976097 14:-28734.744 15:0.029018044 16:259.7276 #
-100 3:4.9407659 4:4.945436 5:370.2027 8:406.3064 9:79.642952 11:36.457355 14:-33096.496 15:0.031940121 16:471.93484 #
-2.7404295619709242 3:17.53915 4:17.538301 5:2274.3997 8:1937.0082 9:130.1057 11:51.48925 14:-124310.75 15:0.0069722789 16:672.24744 #
-100 3:4.2081242 4:4.202765 5:440.35498 8:265.3891 9:66.787384 11:31.093943 14:-27590.887 15:0.0054622996 16:50.022839 #
14.593019082121957 3:12.396333 4:12.199343 5:1875.2657 8:1345.7604 9:80.626724 11:33.564781 14:-88566.367 15:0.035395227 16:1975.5015 #
100 3:5.4327927 4:5.4255924 5:554.22473 8:345.63763 9:54.864765 11:21.493837 14:-40083.828 15:0.01952425 16:677.66034 #
27.179754780683954 3:8.9040489 4:8.6835918 5:1220.1268 8:496.85764 9:113.2385 11:53.504074 14:-56085.625 15:0.035902504 16:1432.6045 #
-100 3:3.8822844 4:3.8777549 5:301.16745 8:228.32788 9:71.862244 11:32.552986 14:-23575.588 15:0.0046592765 16:39.331299 #
-100 3:3.3078454 4:3.3104899 5:176.73747 8:197.43291 9:49.206551 11:19.431963 14:-20557.947 15:0.0024373278 16:20.348818 #
23.854243288112173 3:13.391431 4:13.385693 5:1976.1099 8:844.08716 9:155.06369 11:105.57226 14:-82493.836 15:0.0069133295 16:671.45447 #
-40.929963896935732 3:8.9652205 4:8.7956352 5:1335.9652 8:681.21124 9:118.6239 11:51.825626 14:-54852 15:0.035449024 16:1312.0304 #
-100 3:3.7393224 4:3.7415659 5:395.84128 8:312.4357 9:55.404537 11:27.86701 14:-23007.52 15:0.0043995925 16:27.985382 #
1.8450981563131006 3:16.722441 4:16.721554 5:1120.9277 8:1018.3532 9:606.08148 11:323.61383 14:-71344.758 15:0.0083094072 16:1040.8549 #
-42.485200020502901 3:7.4047561 4:7.2585044 5:1016.9632 8:574.75726 9:90.940773 11:31.703386 14:-46644.301 15:0.036644228 16:1121.1035 #
1.5208683521852278 3:8.6383677 4:8.6438417 5:1099.4774 8:980.97656 9:84.634537 11:38.792881 14:-57112.742 15:0.0073049194 16:265.59866 #
-57.509783664045017 3:4.5402446 4:4.5355415 5:490.54242 8:330.66104 9:66.317093 11:22.718 14:-29439.529 15:0.030803228 16:517.63098 #
-100 3:8.2708769 4:8.2644405 5:1136.4193 8:625.81 9:78.342117 11:29.160872 14:-56507.84 15:0.006823184 16:277.75491 #
100 3:3.861062 4:3.8584821 5:237.09985 8:253.16711 9:102.73377 11:56.129086 14:-20096.125 15:0.030263046 16:288.02478 #
100 3:3.5957651 4:3.5992873 5:261.79855 8:165.35643 9:61.157761 11:19.79649 14:-22995.613 15:0.0076600076 16:52.232628 #
100 3:4.503293 4:4.463706 5:425.08798 8:476.11493 9:58.649796 11:19.610592 14:-30998.143 15:0.0053793616 16:49.142563 #
-100 3:5.6498084 4:5.5845585 5:621.20239 8:216.81465 9:122.67214 11:56.465729 14:-27646.668 15:0.03263871 16:490.58948 #
-35.073426547213217 3:6.3893485 4:6.2690482 5:812.96069 8:243.44984 9:68.695099 11:20.955797 14:-33237.215 15:0.033378199 16:719.01947 #
6.7350312557429444 3:6.2719426 4:6.2206364 5:508.67056 8:308.77487 9:79.721565 11:42.675045 14:-43480.926 15:0.0052672359 16:210.38724 #
63.816515388376615 3:5.598249 4:5.587955 5:654.39655 8:325.83881 9:78.658623 11:49.842472 14:-36468.301 15:0.03646085 16:782.02472 #
100 3:4.6180034 4:4.6197081 5:409.41217 8:398.03571 9:96.115005 11:68.091507 14:-25706.439 15:0.0064979233 16:108.69724 #
-31.208854143272337 3:3.1571574 4:3.1489012 5:187.7814 8:234.46988 9:95.033989 11:58.657368 14:-13496.627 15:0.025870562 16:137.06172 #
-100 3:4.8700781 4:4.8742757 5:202.62808 8:338.64514 9:120.30608 11:68.165817 14:-28122.865 15:0.021565421 16:212.33795 #
100 3:5.3216457 4:5.3238816 5:468.13751 8:317.10684 9:149.80855 11:75.409889 14:-27812.297 15:0.0064234012 16:267.65421 #
-3.6501550491328225 3:10.056143 4:10.060529 5:1433.1005 8:906.23572 9:93.993126 11:49.231945 14:-62700.879 15:0.0072942236 16:272.10181 #
-84.219797587793451 3:6.5623708 4:6.3145714 5:822.47906 8:272.01541 9:106.04569 11:50.226612 14:-37766.035 15:0.032054316 16:592.39117 #
-100 3:3.1266465 4:3.1296308 5:252.77928 8:172.7027 9:48.711304 11:24.386953 14:-19173.424 15:0.0039380188 16:23.602343 #
100 3:4.1061859 4:3.9670575 5:467.6781 8:282.55536 9:98.329231 11:60.055908 14:-19594.072 15:0.023258509 16:280.42224 #
-100 3:4.3614674 4:4.3650017 5:354.93286 8:248.49077 9:110.1951 11:49.787384 14:-22578.146 15:0.031947929 16:317.25513 #
98.338603637524827 3:6.0330448 4:6.0376554 5:507.96048 8:454.67273 9:57.798111 11:25.135168 14:-47274.762 15:0.0053695408 16:251.30829 #
100 3:3.5014052 4:3.5000727 5:248.25705 8:255.4364 9:106.06313 11:61.41317 14:-15090.996 15:0.034463365 16:281.29315 #
-100 3:4.5995684 4:4.5996885 5:370.68152 8:313.30457 9:132.61229 11:54.168739 14:-24138.033 15:0.031521041 16:330.80807 #
-100 3:4.9714541 4:4.9762907 5:270.60321 8:464.38141 9:92.174042 11:32.996399 14:-33719.195 15:0.032935113 16:474.65173 #
-100 3:4.6142955 4:4.6115131 5:515.95319 8:313.75961 9:62.781979 11:30.860001 14:-28910.34 15:0.0048373635 16:47.389484 #
-67.48193015187735 3:3.7891064 4:3.7603388 5:376.51593 8:196.85506 9:65.961922 11:40.589336 14:-23407.822 15:0.030167919 16:223.45656 #
100 3:3.9743907 4:3.9769647 5:359.35602 8:337.96405 9:76.675461 11:32.28437 14:-25370.4 15:0.0046836818 16:43.372593 #
100 3:3.6633797 4:3.6499112 5:217.12689 8:285.63638 9:92.613922 11:52.532703 14:-18619.398 15:0.03201725 16:252.24303 #
100 3:4.6902418 4:4.6678348 5:429.43137 8:265.72324 9:104.49041 11:64.128387 14:-25228.566 15:0.0070218989 16:73.424004 #
-100 3:7.5076346 4:7.4172935 5:1036.3505 8:828.48248 9:74.615616 11:28.321953 14:-51332.605 15:0.035343219 16:1354.4851 #
25.332129890585716 3:5.4424467 4:5.4458728 5:276.12494 8:283.85785 9:185.14838 11:118.81976 14:-18458.961 15:0.020613898 16:310.63568 #
-100 3:4.0158644 4:4.0000458 5:310.11172 8:310.34024 9:90.982597 11:43.988571 14:-23494.316 15:0.031362902 16:272.60617 #
100 3:4.3999443 4:4.3716874 5:504.18399 8:402.84406 9:54.383331 11:20.760632 14:-28538.627 15:0.0017524314 16:34.441711 #
82.825056469627484 3:5.0580635 4:5.0380239 5:266.28732 8:288.20593 9:125.21593 11:111.97807 14:-19925.52 15:0.018964529 16:305.07733 #
4.8429039148883124 3:9.1086645 4:9.115344 5:1069.9531 8:560.00854 9:89.616272 11:54.387466 14:-65409.355 15:0.0082177222 16:611.49622 #
-100 3:3.381248 4:3.3830717 5:215.11221 8:157.06715 9:50.954208 11:24.649178 14:-20403.258 15:0.0071558645 16:45.025955 #
-84.913992589287375 3:4.297915 4:4.2976847 5:424.03976 8:438.40622 9:58.774994 11:24.094116 14:-29883.148 15:0.0033273739 16:44.158291 #
-100 3:4.0819077 4:4.0510912 5:307.2023 8:232.15804 9:91.75106 11:50.520779 14:-23402.406 15:0.026689934 16:246.83623 #
-39.636832181469259 3:6.036777 4:5.9901328 5:571.02606 8:664.02313 9:63.647415 11:18.435654 14:-46190.328 15:0.0100159 16:117.71779 #
100 3:5.6475191 4:5.6330223 5:647.68018 8:492.35086 9:96.581985 11:59.649441 14:-35740.246 15:0.028600279 16:362.28076 #
-100 3:3.1150336 4:3.1044812 5:335.48624 8:212.69865 9:41.032509 11:21.026741 14:-19606.375 15:0.0034154903 16:26.214052 #
-100 3:4.6709886 4:4.664299 5:381.04282 8:125.98293 9:115.49776 11:54.425945 14:-23779.955 15:0.031330824 16:367.58481 #
100 3:4.3382554 4:4.2973638 5:378.65735 8:423.34476 9:52.622124 11:30.554359 14:-29449.527 15:0.032671802 16:298.60562 #
53.936499225470818 3:5.0364776 4:5.0032358 5:234.8902 8:274.37891 9:134.72932 11:121.88 14:-18892.34 15:0.019072697 16:231.59941 #
100 3:3.7950919 4:3.7464666 5:388.45663 8:233.95033 9:56.164997 11:22.031637 14:-23772.104 15:0.0065900823 16:51.716324 #
-100 3:4.074265 4:4.0695343 5:358.38318 8:266.98032 9:85.442848 11:41.559452 14:-23508.131 15:0.030950842 16:270.65787 #
23.150433042599985 3:9.4482269 4:9.4573908 5:1229.9667 8:965.62885 9:85.499672 11:29.77091 14:-61781.777 15:0.034174349 16:1551.3893 #
5.8773148893205853 3:20.888079 4:20.700207 5:3356.7837 8:1381.1591 9:127.26951 11:63.202049 14:-140115.56 15:0.0065854117 16:890.81812 #
100 3:3.8444026 4:3.8449905 5:373.66208 8:366.96307 9:64.474747 11:25.831488 14:-23620.537 15:0.0061923754 16:51.248318 #
-100 3:4.3527427 4:4.3508263 5:401.56616 8:376.38889 9:89.345779 11:49.130169 14:-27725.631 15:0.02899028 16:319.84219 #
-0.46943096344627855 3:3.1154375 4:3.1154342 5:334.89944 8:224.90509 9:48.761791 11:22.217512 14:-19051.576 15:0.004031131 16:24.085936 #
-37.010066903021198 3:4.3086443 4:4.3121891 5:457.19962 8:350.30936 9:64.748734 11:31.462112 14:-27305.936 15:0.0064996504 16:67.126999 #
-100 3:6.0167789 4:5.9901185 5:737.48969 8:364.55957 9:92.342583 11:23.269321 14:-37312.93 15:0.033416752 16:802.87482 #
100 3:3.6213377 4:3.5897746 5:394.27969 8:323.11121 9:53.608421 11:22.201725 14:-23588.262 15:0.007291948 16:53.285976 #
-100 3:4.7629056 4:4.7154021 5:488.94357 8:402.1904 9:121.50673 11:59.594196 14:-26359.832 15:0.0073474306 16:88.889717 #
-8.3849607999770654 3:10.123576 4:9.9948444 5:1391.8514 8:1016.5037 9:121.70689 11:57.676781 14:-71057.234 15:0.034902379 16:1393.9244 #
100 3:3.6897016 4:3.6932933 5:277.25131 8:165.88515 9:59.515049 11:20.487257 14:-23549.059 15:0.0077038282 16:53.781708 #
-100 3:3.8861897 4:3.8899031 5:264.5408 8:218.11104 9:54.549377 11:32.577843 14:-23574.439 15:0.0066149789 16:55.289738 #
100 3:3.9831021 4:3.9864752 5:182.90001 8:238.95863 9:105.89792 11:66.267525 14:-18567.404 15:0.01988274 16:286.89828 #
74.162272287136716 3:5.5146422 4:5.4361095 5:477.68716 8:622.80804 9:87.65329 11:63.255077 14:-35537.227 15:0.014887972 16:614.58508 #
-100 3:4.7736917 4:4.7284393 5:491.41907 8:387.01929 9:118.97339 11:60.946491 14:-26551.924 15:0.0072383662 16:87.979782 #
-100 3:4.0542603 4:4.0459266 5:437.32596 8:288.12805 9:81.825386 11:53.031918 14:-23716.943 15:0.0048099644 16:43.305859 #
-100 3:4.1522989 4:4.1462092 5:419.16653 8:319.08344 9:51.584217 11:25.474663 14:-29700.221 15:0.0061702775 16:49.723843 #
-1.829499251791354 3:7.1870437 4:7.1614919 5:912.11542 8:638.30414 9:51.377056 11:27.02006 14:-49874.16 15:0.036398899 16:964.70386 #
4.3738335952501783 3:13.358226 4:12.891102 5:2094.2422 8:839.22369 9:137.39455 11:124.80357 14:-84316.648 15:0.018207571 16:1778.7205 #
100 3:4.0476003 4:4.0448861 5:294.49524 8:348.77484 9:78.992722 11:47.347614 14:-25439.912 15:0.0045246966 16:74.993263 #
100 3:4.2209492 4:4.1565456 5:384.68314 8:318.80405 9:82.305519 11:34.60976 14:-27758.982 15:0.01254828 16:475.55026 #
-100 3:3.8282671 4:3.8183455 5:399.61646 8:257.94366 9:79.63015 11:44.33213 14:-20538.787 15:0.032344919 16:253.93837 #
58.339392563081972 3:8.1686049 4:8.0633736 5:971.35931 8:1014.7389 9:110.28191 11:50.433205 14:-58111.355 15:0.005877492 16:146.69196 #
0.81275929715797357 3:15.74781 4:15.451708 5:2582.7283 8:876.05927 9:145.42313 11:74.919647 14:-104106.61 15:0.0076859775 16:1006.613 #
-66.400702417572575 3:3.5761917 4:3.5793371 5:292.11298 8:382.05115 9:76.455055 11:36.50861 14:-21526.338 15:0.032004956 16:215.91661 #
-62.876262905840122 3:3.6003089 4:3.5753663 5:311.08093 8:206.72511 9:73.133614 11:33.490849 14:-19870.77 15:0.0038546922 16:29.967726 #
100 3:3.8167737 4:3.7602577 5:302.04053 8:327.21957 9:61.170792 11:33.691669 14:-24007.664 15:0.0322848 16:258.36432 #
100 3:3.7528784 4:3.7495701 5:404.53659 8:392.54358 9:49.074936 11:18.105473 14:-23638.604 15:0.0075318133 16:61.412197 #
-100 3:4.0907288 4:4.0939455 5:424.81335 8:371.07901 9:70.535706 11:38.823242 14:-23600.857 15:0.0047240118 16:38.041283 #
100 3:3.9331915 4:3.9343617 5:254.4561 8:223.13922 9:118.02009 11:63.255966 14:-17806.498 15:0.027447512 16:283.22299 #
-4.8311572960917246 3:6.4497585 4:6.430553 5:806.94684 8:590.96771 9:40.974945 11:22.247587 14:-45778.727 15:0.035973296 16:856.63135 #
100 3:4.8045416 4:4.7012386 5:594.69672 8:412.38022 9:75.07943 11:42.164337 14:-31379.699 15:0.0018783334 16:87.139221 #
100 3:5.8770061 4:5.8778591 5:610.93988 8:258.31946 9:59.560871 11:24.531603 14:-40319.773 15:0.0067983638 16:309.39499 #
-100 3:4.4814415 4:4.4846339 5:338.32663 8:393.3927 9:52.824593 11:19.67725 14:-31851.914 15:0.0030818095 16:29.380732 #
0.039496504567509971 3:17.001341 4:16.972507 5:2294.2402 8:989.06775 9:190.75304 11:182.51196 14:-106620.88 15:0.0060135378 16:548.49066 #
100 3:4.242312 4:4.2452655 5:284.59659 8:500.65448 9:66.78656 11:37.330944 14:-27375.117 15:0.0052488134 16:80.067459 #
24.65540214480723 3:7.5336394 4:7.4372296 5:1046.4678 8:595.91833 9:74.347885 11:27.609217 14:-51402.32 15:0.029113192 16:1440.9036 #
44.084459408260045 3:4.9161353 4:4.8127971 5:598.22021 8:313.24237 9:80.314819 11:59.554585 14:-30188.482 15:0.026240272 16:551.4458 #
-100 3:3.7364047 4:3.7286136 5:356.11884 8:253.79668 9:62.009338 11:33.716412 14:-23523.371 15:0.032166328 16:267.96225 #
-100 3:4.7466826 4:4.73558 5:462.27103 8:471.28931 9:48.228504 11:19.561613 14:-32305.279 15:0.0038069545 16:36.556992 #
100 3:4.8359041 4:4.8406053 5:349.14267 8:577.30701 9:57.844379 11:20.309175 14:-33718.871 15:0.002815594 16:33.257423 #
-96.14910156654544 3:4.4709291 4:4.4639688 5:360.24146 8:404.02353 9:54.114651 11:22.492273 14:-30644.152 15:0.0053251241 16:49.447079 #
31.553019526472024 3:8.2610989 4:8.0621853 5:1145.2318 8:885.23108 9:100.36007 11:43.10535 14:-55917.836 15:0.02619748 16:1344.7943 #
-15.577416821866588 3:8.4138136 4:8.2164402 5:1118.259 8:406.12015 9:85.418762 11:40.970348 14:-45644.652 15:0.033494029 16:951.23846 #
-100 3:3.8883429 4:3.8707883 5:350.51678 8:263.06131 9:81.844795 11:48.507332 14:-22186.988 15:0.025454067 16:190.62607 #
-100 3:3.3028328 4:3.3058846 5:267.36307 8:178.95024 9:46.510326 11:21.600283 14:-19779.432 15:0.0039145788 16:20.387514 #
13.895049841229278 3:11.981479 4:11.91045 5:1608.139 8:718.3739 9:268.34387 11:172.22676 14:-64510.395 15:0.0069252667 16:475.90701 #
-100 3:5.6503367 4:5.6240282 5:654.84814 8:433.05191 9:73.710846 11:25.012913 14:-33897.121 15:0.032497056 16:806.92371 #
-100 3:4.5936837 4:4.5818982 5:401.5603 8:340.0636 9:112.94662 11:46.450142 14:-27897.043 15:0.031765208 16:355.84308 #
-0.10024371417413509 3:2.4120097 4:2.4056556 5:180.4389 8:238.56142 9:54.011417 11:23.825699 14:-10946.274 15:0.0060417559 16:20.309694 #
-100 3:4.6722808 4:4.6723361 5:416.92426 8:411.69016 9:74.591888 11:32.947865 14:-32948.609 15:0.0051609296 16:57.838715 #
4.5307221178187191 3:11.248631 4:11.173862 5:1566.5461 8:1283.455 9:59.273277 11:27.872383 14:-83430.258 15:0.036094777 16:1872.3304 #
100 3:5.4862571 4:5.4860325 5:561.70404 8:408.04285 9:86.779518 11:39.912254 14:-37258.121 15:0.0027245907 16:121.05212 #
-100 3:3.4241614 4:3.4274211 5:306.74893 8:269.9278 9:63.109863 11:29.321327 14:-21186.709 15:0.00452661 16:32.521023 #
-100 3:4.4592485 4:4.4631839 5:118.67989 8:171.61076 9:80.77478 11:33.542648 14:-24476.381 15:0.034480769 16:403.05179 #
3.2648345403878745 3:9.4100142 4:9.409277 5:1051.8849 8:724.98926 9:146.94806 11:77.826126 14:-72137.273 15:0.0079280911 16:651.79742 #
100 3:5.4558053 4:5.4363484 5:583.09796 8:503.4386 9:74.205521 11:32.274281 14:-37346.648 15:0.0059583564 16:278.13174 #
-16.582519087797941 3:7.6585317 4:7.5750866 5:950.75232 8:675.27966 9:96.815399 11:36.590549 14:-44143.91 15:0.034435384 16:1189.5063 #
-100 3:5.4254494 4:5.4223123 5:605.42072 8:252.58377 9:92.40107 11:49.612274 14:-32263.139 15:0.0061827176 16:98.725906 #
1.2579690353489552 3:10.167782 4:10.166135 5:1248.4073 8:1174.6182 9:96.088058 11:39.63554 14:-69700.977 15:0.033931687 16:1669.9166 #
100 3:3.6646326 4:3.6493976 5:303.90695 8:182.40999 9:90.777008 11:39.324257 14:-17799.383 15:0.029081468 16:226.91904 #
-33.318952029701904 3:6.8121557 4:6.790256 5:842.04883 8:630.17438 9:45.413849 11:23.649387 14:-48129.836 15:0.036661863 16:923.36255 #
100 3:4.3618984 4:4.3659792 5:278.18658 8:423.13339 9:92.23951 11:50.506733 14:-26939.861 15:0.0306521 16:390.96014 #
1.2797427738115099 3:15.498849 4:15.471872 5:1955.6224 8:787.53021 9:305.81473 11:215.66655 14:-86202.414 15:0.0082567986 16:906.11139 #
8.8868940662444817 3:14.935801 4:14.738137 5:2218.5706 8:1399.4169 9:204.45395 11:97.738274 14:-100258.97 15:0.026489275 16:2823.6011 #
100 3:3.6243091 4:3.6198943 5:378.83493 8:369.93399 9:50.002872 11:18.676155 14:-23851.1 15:0.006588507 16:48.946724 #
-100 3:4.0789633 4:4.082922 5:253.56114 8:310.34714 9:113.36398 11:52.734066 14:-22634.053 15:0.028500371 16:235.89268 #
100 3:4.5518355 4:4.5532146 5:366.97943 8:354.59424 9:82.053101 11:49.386192 14:-27705.447 15:0.021817537 16:522.82977 #
10.970457158661468 3:10.352948 4:10.362855 5:1194.3069 8:564.23328 9:100.97813 11:44.936024 14:-66356.453 15:0.0072074523 16:376.08163 #
-100 3:4.3231583 4:4.3107071 5:325.27798 8:245.47783 9:133.4026 11:52.416225 14:-20300.744 15:0.029727418 16:293.53125 #
100 3:4.798306 4:4.7623382 5:412.91241 8:293.02039 9:66.26548 11:23.842016 14:-32724.145 15:0.0054907748 16:117.95094 #
100 3:4.3953886 4:4.399034 5:325.04974 8:422.58215 9:77.26487 11:45.996124 14:-27850.244 15:0.028689701 16:292.47906 #
-13.244408899653319 3:6.3933368 4:6.3995552 5:311.74313 8:365.65561 9:50.320877 11:15.971676 14:-43627.328 15:0.004696778 16:97.759445 #
-6.5056546380730476 3:3.6254504 4:3.6289563 5:113.15372 8:176.16522 9:125.96605 11:48.397842 14:-15585.743 15:0.028410351 16:202.2578 #
100 3:3.459559 4:3.4604278 5:156.65303 8:209.06284 9:114.3824 11:51.224163 14:-15690.522 15:0.032464299 16:262.11371 #
100 3:4.4430828 4:4.4472761 5:226.47894 8:195.00139 9:143.58965 11:95.693626 14:-15679.196 15:0.0058984547 16:199.1496 #
-100 3:6.7418799 4:6.7458506 5:719.81262 8:592.31232 9:73.745132 11:25.6444 14:-47966.313 15:0.019185366 16:251.88719 #
57.447263295067067 3:7.4950247 4:7.5005188 5:909.4574 8:677.97888 9:121.16616 11:72.311539 14:-48336.32 15:0.030397065 16:997.54504 #
-100 3:7.0216341 4:6.9841714 5:899.10925 8:664.84845 9:79.493561 11:32.467861 14:-49071.879 15:0.035886515 16:1275.6776 #
-38.311716676222254 3:8.359354 4:8.1656942 5:1112.1735 8:552.6955 9:96.59642 11:51.476051 14:-48736.527 15:0.033895381 16:921.30017 #
100 3:6.1162653 4:6.1011524 5:752.8537 8:536.65228 9:82.269424 11:36.225159 14:-41551.137 15:0.005073247 16:246.05072 #
-100 3:4.097456 4:4.0523977 5:508.57068 8:363.5119 9:75.960098 11:40.970695 14:-23693.717 15:0.026184574 16:250.5098 #
-74.289614500429707 3:5.2737446 4:5.2343793 5:491.94714 8:424.53809 9:60.707787 11:22.100842 14:-36437.148 15:0.0042483201 16:46.370377 #
-100 3:5.7890949 4:5.7196813 5:492.36737 8:483.36063 9:77.897781 11:31.107265 14:-37743.422 15:0.031609297 16:628.9408 #
-100 3:5.7927165 4:5.7837 5:615.63763 8:316.56119 9:103.32063 11:40.047348 14:-37102.926 15:0.015377788 16:186.08969 #
100 3:5.6057606 4:5.5828238 5:343.8335 8:185.70428 9:177.29019 11:124.81366 14:-19514.412 15:0.0070894458 16:234.03796 #
-35.688828194760276 3:7.4799991 4:7.4756021 5:733.88208 8:764.88733 9:143.72522 11:61.278347 14:-49023.977 15:0.029316448 16:642.25714 #
-100 3:4.3994617 4:4.381722 5:322.13779 8:360.6868 9:95.178726 11:40.837967 14:-27711.08 15:0.032509681 16:339.56464 #
-51.125840557366701 3:5.8147826 4:5.8200946 5:462.52689 8:617.72949 9:134.39966 11:46.83997 14:-37349.719 15:0.027963839 16:495.03131 #
100 3:5.7653298 4:5.6628861 5:727.78412 8:438.22345 9:85.194672 11:66.719719 14:-37468.051 15:0.029168975 16:767.05157 #
-57.578646661017316 3:6.8814182 4:6.7082181 5:874.39734 8:218.90756 9:73.942535 11:29.144766 14:-34524.621 15:0.034572024 16:802.14893 #
100 3:5.7047176 4:5.6704307 5:675.4928 8:480.70139 9:79.129425 11:27.212349 14:-38704.102 15:0.0020527216 16:248.02441 #
-8.1117579264775372 3:5.1324072 4:5.1271081 5:371.08426 8:340.93582 9:50.662338 11:18.021595 14:-37249.266 15:0.0038445939 16:46.668106 #
-98.157423259635493 3:5.5459061 4:5.550982 5:606.23926 8:478.04645 9:50.937141 11:21.860247 14:-37405.074 15:0.007777412 16:121.30524 #
100 3:3.589401 4:3.5783861 5:268.07947 8:210.98854 9:88.092758 11:51.734154 14:-17694.838 15:0.033774357 16:264.92383 #
100 3:3.4223022 4:3.4153576 5:363.46588 8:367.28387 9:55.040077 11:19.036446 14:-22343.225 15:0.0049008001 16:38.240913 #
100 3:3.0050218 4:3.0077031 5:233.87456 8:267.97452 9:62.084667 11:24.18638 14:-16465.488 15:0.004300579 16:33.559898 #
100 3:7.0445228 4:7.0049367 5:979.36926 8:617.37903 9:45.037975 11:19.232676 14:-49331.406 15:0.034594648 16:1122.8475 #
95.730339173256411 3:6.9685583 4:6.9279051 5:955.59613 8:647.83295 9:50.841686 11:18.968899 14:-48995.883 15:0.035640065 16:1147.2775 #
-100 3:7.500998 4:7.5044088 5:872.79468 8:598.88538 9:98.514854 11:31.789223 14:-49321.309 15:0.036375698 16:1159.6669 #
13.550416902142986 3:8.0326443 4:7.9122915 5:1062.0883 8:397.87662 9:102.38119 11:47.990253 14:-53424.293 15:0.01941813 16:1466.366 #
-33.713793049240032 3:3.7482755 4:3.750797 5:201.52687 8:364.15335 9:55.290096 11:25.002691 14:-23925.053 15:0.033180635 16:269.8598 #
2.4471332260204859 3:20.924393 4:20.761086 5:3134.6804 8:1021.5654 9:209.92601 11:127.6929 14:-141165.22 15:0.0066326088 16:917.70062 #
-32.137273130419182 3:8.6054487 4:8.4073772 5:1145.5327 8:455.99799 9:83.155365 11:39.789314 14:-47535.926 15:0.03338825 16:971.22925 #
-8.5691059592609413 3:7.0643539 4:7.0711584 5:302.8952 8:466.51816 9:61.625618 11:22.8435 14:-49304.445 15:0.0047202497 16:121.39105 #
100 3:4.7960815 4:4.8001561 5:300.45822 8:457.29721 9:78.932144 11:54.011417 14:-32768.262 15:0.037432037 16:478.66986 #
100 3:6.1176505 4:6.0221348 5:795.56219 8:464.84943 9:68.449699 11:25.873014 14:-40363.359 15:0.0067321127 16:357.34479 #
100 3:5.5638156 4:5.5579977 5:397.10806 8:389.94006 9:71.65538 11:35.049652 14:-42307.188 15:0.0022551985 16:185.96648 #
-100 3:4.1413469 4:4.1408043 5:192.66464 8:219.99052 9:139.94743 11:55.609924 14:-17422.258 15:0.028659493 16:242.50185 #
100 3:7.3074231 4:7.2997813 5:769.41486 8:589.02161 9:99.277184 11:48.88673 14:-54560.859 15:0.0037850188 16:337.18167 #
100 3:4.1775017 4:4.1548815 5:310.46893 8:341.24911 9:65.972 11:33.736412 14:-26163.01 15:0.036718771 16:356.79581 #
19.348558240837846 3:13.648729 4:13.448541 5:2055.5735 8:1524.0947 9:88.253853 11:36.810188 14:-98978.945 15:0.035216212 16:2151.4509 #
10.568474179232467 3:14.737825 4:14.741506 5:2052.1719 8:1009.7659 9:183.78525 11:67.637207 14:-100498.48 15:0.0075458912 16:837.0293 #
-100 3:5.0561032 4:5.0467038 5:422.84982 8:131.94604 9:141.64122 11:59.224712 14:-23550.48 15:0.032399692 16:409.71509 #
-100 3:5.1622653 4:5.1668267 5:262.10931 8:245.4556 9:160.9735 11:117.47275 14:-16475.643 15:0.0048708627 16:53.594597 #
-100 3:4.0475826 4:4.0439653 5:182.82124 8:168.09937 9:144.23631 11:56.798801 14:-16164.077 15:0.028219063 16:239.22124 #
-49.891703435502677 3:5.5812945 4:5.5840006 5:605.1391 8:598.00513 9:86.109085 11:43.432545 14:-34508.234 15:0.032941867 16:472.89325 #
100 3:3.6743538 4:3.6590161 5:256.36349 8:136.32254 9:94.876083 11:67.138161 14:-16440.273 15:0.0073386915 16:53.534492 #
-100 3:7.8226237 4:7.8177328 5:982.46783 8:858.2959 9:71.854385 11:30.010258 14:-56386.797 15:0.0065407534 16:182.90947 #
100 3:3.9961498 4:3.9963291 5:343.0069 8:270.67783 9:78.846603 11:38.097656 14:-23682.6 15:0.036490519 16:308.5228 #
-100 3:3.1618345 4:3.154042 5:279.41846 8:295.54114 9:47.336067 11:23.258398 14:-20004.908 15:0.0041875583 16:26.445717 #
-17.686105394786082 3:4.6074648 4:4.6116133 5:369.92242 8:460.11435 9:52.229809 11:19.283571 14:-34664.926 15:0.0056974287 16:45.436115 #
-0.40534847565948207 3:1.9348583 4:1.8453683 5:221.4294 8:78.561996 9:41.743332 11:13.462192 14:-8007.9067 15:0.031095792 16:60.077541 #
-65.92010532587085 3:4.1881967 4:4.1887851 5:215.10159 8:247.24348 9:133.08569 11:81.863617 14:-16316.642 15:0.0068024648 16:63.043545 #
9.7907996234187085 3:11.055698 4:10.969689 5:1335.7942 8:752.83942 9:206.30869 11:114.72355 14:-72777.484 15:0.034983255 16:1670.0708 #
100 3:4.8452687 4:4.8492966 5:512.7962 8:402.64157 9:79.185127 11:40.481647 14:-31133.311 15:0.023968179 16:258.92206 #
-100 3:4.6907797 4:4.6682696 5:421.83603 8:274.17334 9:69.974564 11:26.418257 14:-25661.072 15:0.031677198 16:393.19672 #
-100 3:3.8518486 4:3.8089206 5:443.30145 8:271.45432 9:59.966125 11:31.674421 14:-23087.309 15:0.0062014526 16:49.590664 #
14.146137817708215 3:12.889828 4:12.702825 5:2026.4707 8:857.5639 9:141.59515 11:62.428677 14:-84087.313 15:0.0070841736 16:618.73401 #
-77.364964779714327 3:5.5367045 4:5.5086069 5:750.71246 8:590.65192 9:56.597721 11:23.097488 14:-36492.285 15:0.0056169131 16:74.355812 #
-5.4779353840838638 3:5.0915623 4:5.0799541 5:460.53491 8:483.86783 9:60.089211 11:21.510502 14:-37453.418 15:0.017399726 16:152.61726 #
100 3:5.3332229 4:5.3369155 5:579.44128 8:150.01875 9:113.9772 11:62.14851 14:-23916.24 15:0.0052841981 16:73.843513 #
-100 3:3.7437618 4:3.7448521 5:180.53442 8:250.61018 9:87.131523 11:70.971855 14:-16557.82 15:0.0069829677 16:51.099339 #
100 3:5.3460813 4:5.2980723 5:554.28119 8:324.21347 9:115.19006 11:72.312454 14:-32148.063 15:0.021947127 16:425.08389 #
-100 3:4.5627122 4:4.5651336 5:392.61673 8:315.59351 9:99.432663 11:41.094006 14:-26142.609 15:0.033978205 16:348.05624 #
-27.854022897642707 3:4.3728042 4:4.3535843 5:420.22934 8:323.66904 9:55.760151 11:27.229073 14:-30772.223 15:0.0064524682 16:66.811424 #
100 3:4.5686264 4:4.486969 5:418.47375 8:369.97223 9:85.418976 11:43.634979 14:-29665.092 15:0.013649797 16:398.51938 #
10.108782869874229 3:13.783683 4:13.590021 5:2100.0076 8:1328.9902 9:99.836975 11:33.956261 14:-100641.59 15:0.035009336 16:2625.3499 #
-100 3:4.5296302 4:4.5249519 5:496.27048 8:238.41406 9:68.031242 11:32.390251 14:-25754.053 15:0.0053411541 16:60.921642 #
-0.82728544128994486 3:1.3912903 4:1.3673621 5:148.85323 8:160.64743 9:23.607729 11:6.2924304 14:-6362.8408 15:0.026610885 16:19.924738 #
-100 3:4.8423481 4:4.8436632 5:408.21625 8:379.60397 9:91.170555 11:54.036423 14:-32462.674 15:0.027745083 16:341.07755 #
-100 3:3.9352171 4:3.9243491 5:471.55853 8:378.55087 9:52.26075 11:30.574652 14:-24491.318 15:0.0048696627 16:40.044655 #
14.041727474672541 3:5.0401082 4:5.0428944 5:206.45416 8:470.7612 9:76.936195 11:42.535378 14:-37179.129 15:0.0091274437 16:669.15338 #
-100 3:5.9634595 4:5.9465785 5:601.72614 8:493.95676 9:71.617645 11:30.823679 14:-40314.379 15:0.033204336 16:738.3335 #
-1.685068276117041 3:8.998414 4:8.8005657 5:1264.4463 8:507.80865 9:75.244728 11:38.402222 14:-51267.953 15:0.032042127 16:985.54553 #
8.7529571276906974 3:12.01451 4:11.931678 5:1841.6842 8:1051.4377 9:67.080254 11:28.43508 14:-85617.859 15:0.031987011 16:2521.4124 #
1.1881252093217343 3:23.695004 4:23.184288 5:3706.2793 8:1029.3911 9:152.63121 11:82.992798 14:-145770.7 15:0.0070804153 16:1290.9761 #
-98.578463914968637 3:4.3955851 4:4.3991814 5:330.60315 8:501.85498 9:52.146179 11:23.638115 14:-28017.416 15:0.03038297 16:476.66864 #
-100 3:4.9517255 4:4.9559126 5:168.11073 8:412.32709 9:81.082886 11:25.72814 14:-33816.531 15:0.028002717 16:393.6586 #
100 3:3.9744718 4:3.9782925 5:260.87582 8:166.7403 9:82.233269 11:48.413536 14:-24328.24 15:0.017350506 16:390.74997 #
100 3:4.6301656 4:4.5805035 5:583.42853 8:296.18512 9:83.747162 11:53.204708 14:-24343.498 15:0.006909539 16:76.573471 #
-100 3:7.7126184 4:7.6926107 5:922.65533 8:792.55341 9:99.772324 11:36.681541 14:-54036 15:0.034591515 16:1348.2865 #
100 3:5.0202122 4:5.0223036 5:471.22473 8:380.59976 9:134.36195 11:81.382889 14:-21977.436 15:0.0058126212 16:158.46307 #
-22.091805201795726 3:15.287404 4:15.254728 5:2159.8674 8:1161.0317 9:97.674072 11:43.652134 14:-98940.93 15:0.0071630781 16:882.09119 #
13.871233642488326 3:7.8588219 4:7.8098149 5:1069.0339 8:849.76941 9:59.775082 11:18.648535 14:-56324.473 15:0.036446199 16:1328.1853 #
100 3:2.849247 4:2.8520029 5:110.572 8:177.56273 9:53.785717 11:20.181559 14:-16538.338 15:0.0067607556 16:31.981525 #
22.514910311569473 3:4.8849821 4:4.884006 5:499.72729 8:387.53384 9:59.459209 11:24.215954 14:-32100.822 15:0.026484661 16:706.5531 #
100 3:4.6328239 4:4.5975566 5:441.8461 8:260.75894 9:74.118248 11:39.025581 14:-30745.988 15:0.0021063737 16:160.96869 #
-28.901833444944728 3:6.8303852 4:6.8370023 5:783.43774 8:630.57935 9:68.679733 11:26.667946 14:-48995.09 15:0.0068842038 16:186.59866 #
100 3:2.8966568 4:2.8994932 5:111.23006 8:146.9539 9:58.528191 11:20.820274 14:-16732.377 15:0.0069188704 16:33.314819 #
-64.381557001927149 3:5.9675875 4:5.9724317 5:624.15967 8:489.22769 9:55.265926 11:21.102945 14:-43206.551 15:0.0021402813 16:59.074116 #
-100 3:3.828357 4:3.8226364 5:328.30164 8:169.59126 9:67.756111 11:29.336658 14:-23723.109 15:0.0049505099 16:34.881889 #
22.011776308652806 3:6.6914601 4:6.6674905 5:673.0061 8:605.51965 9:53.627651 11:23.867437 14:-54020.633 15:0.0037954173 16:134.5477 #
100 3:3.6388884 4:3.6412365 5:278.30878 8:303.13763 9:97.855186 11:54.508423 14:-17762.459 15:0.035454471 16:298.73993 #
-100 3:4.5947862 4:4.5932884 5:408.78497 8:348.34744 9:112.67018 11:47.687641 14:-26564.955 15:0.033006925 16:345.87399 #
100 3:9.4147806 4:9.3558159 5:1263.3448 8:947.13983 9:127.01462 11:59.816906 14:-62944.141 15:0.020871775 16:1199.3479 #
-100 3:3.3406053 4:3.3413494 5:169.28175 8:266.99823 9:66.2285 11:35.408085 14:-18755.891 15:0.031508323 16:197.20198 #
-100 3:5.3958216 4:5.3332067 5:753.76959 8:386.74637 9:106.79133 11:45.600117 14:-32009.15 15:0.0062427185 16:74.801216 #
0.73157108152237527 3:9.6864443 4:9.5324287 5:1446.7627 8:759.85925 9:73.006126 11:30.684158 14:-70648.086 15:0.0067346985 16:370.52139 #
-0.44738287603193583 3:1.29067 4:1.2345268 5:182.0386 8:127.95447 9:26.879187 11:6.5573397 14:-5723.1943 15:0.002314243 16:2.2121189 #
-100 3:4.2681441 4:4.2668843 5:492.66586 8:304.95416 9:75.716576 11:39.694244 14:-25566.604 15:0.033094786 16:345.64447 #
100 3:4.4438519 4:4.441113 5:351.92969 8:305.41229 9:86.747093 11:48.191391 14:-27317.141 15:0.020815615 16:330.27121 #
-100 3:9.0174456 4:9.0032339 5:1333.7426 8:660.07825 9:85.483971 11:34.39254 14:-57238.012 15:0.0067113908 16:279.83707 #
100 3:4.2607546 4:4.2472744 5:408.71967 8:354.8277 9:103.16076 11:58.063347 14:-23327.184 15:0.0052723307 16:118.14499 #
-100 3:4.0607004 4:4.0392294 5:307.65552 8:224.93327 9:113.77941 11:53.239468 14:-20518.314 15:0.031670492 16:281.32187 #
-100 3:5.1489263 4:5.1534901 5:406.43732 8:540.0401 9:101.75867 11:54.24781 14:-33225.535 15:0.028224597 16:370.73984 #
100 3:3.7908571 4:3.7927535 5:361.15793 8:360.00827 9:64.863197 11:24.925379 14:-23416.957 15:0.0063109919 16:51.558693 #
9.2470293197115243 3:7.4423933 4:7.4231191 5:626.41046 8:1055.9711 9:109.5954 11:49.938801 14:-48287.094 15:0.014518751 16:858.4975 #
-100 3:4.774509 4:4.7242074 5:562.31372 8:227.71962 9:109.40665 11:60.445305 14:-25084.359 15:0.028949859 16:320.50366 #
-100 3:3.9237642 4:3.9061584 5:374.2713 8:353.57941 9:48.480732 11:24.418005 14:-27361.328 15:0.0053045894 16:37.76878 #
100 3:6.3785067 4:6.3344793 5:604.86322 8:200.05327 9:201.97641 11:123.91743 14:-25100.604 15:0.022923337 16:352.67682 #
-100 3:4.8994308 4:4.8686075 5:583.28485 8:356.74591 9:77.31794 11:29.292284 14:-31496.482 15:0.0056806006 16:51.843361 #
100 3:3.6297953 4:3.6305869 5:334.12378 8:198.40944 9:58.895317 11:18.850918 14:-23349.502 15:0.007705241 16:56.04623 #
100 3:3.9098058 4:3.9106495 5:229.2684 8:297.17896 9:78.933304 11:40.37532 14:-23804.105 15:0.015809311 16:142.75253 #
-8.2248480787067386 3:12.913589 4:12.873013 5:1988.9873 8:987.09491 9:64.930389 11:30.048792 14:-81613.109 15:0.0067348359 16:495.96783 #
