SVM-light Version V6.02
2 # kernel type
3 # kernel parameter -d 
1e-006 # kernel parameter -g 
1 # kernel parameter -s 
1 # kernel parameter -r 
empty# kernel parameter -u 
16 # highest feature index 
4717 # number of training documents 
1957 # number of support vectors plus 1 
0.62485026 # threshold b, each following line is a SV (starting with alpha*y)
-0.0028697357642830852 3:3.6678896 4:3.6689682 5:242.8761 8:352.47299 9:56.678226 11:19.40143 14:-22231.852 15:0.0075350702 16:54.315395 #
-0.082314459233412185 3:3.4677782 4:3.4467335 5:273.52094 8:135.76883 9:52.234478 11:17.445993 14:-19469.746 15:0.003147702 16:25.450705 #
-1.1440674645561719 3:19.884668 4:19.90407 5:2658.4351 8:1849.1447 9:150.87827 11:74.830772 14:-142957.11 15:0.031064285 16:4930.3691 #
-30.762555423136241 3:5.1622205 4:5.1672726 5:504.40121 8:436.09518 9:87.302605 11:50.221333 14:-31748.084 15:0.029665964 16:838.09564 #
40.446214191470325 3:10.749831 4:10.759837 5:1361.0175 8:1121.3325 9:75.902443 11:33.353348 14:-75204.828 15:0.036097351 16:1965.8322 #
1.2337141984867399 3:24.149723 4:24.1269 5:3078.6313 8:1268.1406 9:86.637962 11:39.26371 14:-139442.33 15:0.036369517 16:10099.399 #
11.162510017804227 3:12.170127 4:12.180367 5:1546.7887 8:1431.1473 9:75.850975 11:27.955172 14:-87413.266 15:0.036207449 16:2069.6699 #
62.618445816148821 3:7.5336394 4:7.4372296 5:1046.4678 8:595.91833 9:74.347885 11:27.609217 14:-51402.32 15:0.029113192 16:1440.9036 #
1.5190846577894264 3:28.016918 4:28.028421 5:4048.2092 8:2064.605 9:142.91672 11:76.815331 14:-197391.27 15:0.035968155 16:8891.7881 #
-56.008432602041992 3:6.4261813 4:6.3515387 5:652.22046 8:432.61771 9:94.805695 11:45.142799 14:-43973.281 15:0.027930884 16:1350.7489 #
0.74236506224097054 3:10.39109 4:10.385615 5:1450.3574 8:643.37317 9:58.905163 11:21.044022 14:-59326.52 15:0.037246346 16:4372.8579 #
-100 3:8.3443022 4:8.3398371 5:1145.0381 8:534.5163 9:100.88414 11:48.993797 14:-51695.531 15:0.034167014 16:1580.2478 #
-0.55454689248508005 3:20.60947 4:20.613359 5:1360.902 8:746.18817 9:700.66022 11:421.56052 14:-84695.625 15:0.008264197 16:1568.3428 #
100 3:4.9016771 4:4.9064803 5:360.29871 8:524.96228 9:48.255505 11:19.470419 14:-31666.053 15:0.027320437 16:632.57233 #
-1.1777815561297311 3:26.368578 4:25.776043 5:3325.4995 8:2989.7727 9:223.94104 11:137.48869 14:-189867.11 15:0.034309726 16:8186.4126 #
0.62195768404997831 3:17.132175 4:17.036352 5:2744.8972 8:1266.952 9:71.79425 11:28.860863 14:-111747.47 15:0.038558524 16:7092.4614 #
-56.93552297079566 3:7.0624652 4:7.0496316 5:802.68201 8:448.79105 9:55.855488 11:21.661566 14:-51077.879 15:0.020561902 16:1474.0394 #
100 3:7.9768987 4:7.8621163 5:1188.2677 8:698.12689 9:72.894157 11:30.541351 14:-52508.148 15:0.033677224 16:1654.6846 #
1.1691822087837118 3:12.328979 4:12.301175 5:1642.7382 8:524.38446 9:58.574955 11:25.161818 14:-69856.484 15:0.035461362 16:5115.0156 #
37.506935045882983 3:9.5999775 4:9.6091995 5:1269.453 8:662.04968 9:70.077217 11:30.106503 14:-66193.484 15:0.036504537 16:2303.3818 #
-0.52201761223478493 3:25.706478 4:25.548079 5:2828.7407 8:3066.2368 9:463.4183 11:206.85277 14:-175432.89 15:0.025571551 16:5622.2778 #
100 3:7.3135915 4:7.274013 5:925.24817 8:564.35193 9:77.315758 11:25.831127 14:-51437.934 15:0.032870535 16:1411.7499 #
15.149929734364726 3:9.95994 4:9.9607067 5:1243.6398 8:1126.7317 9:65.617455 11:21.473263 14:-77433.414 15:0.034122653 16:3072.8804 #
29.681402174947021 3:7.283484 4:7.2904043 5:849.87848 8:662.11737 9:48.165344 11:21.938025 14:-50712.707 15:0.036714621 16:1284.0566 #
-0.30040551512219715 3:24.564932 4:24.39826 5:2734.6443 8:3034.405 9:278.57343 11:104.8694 14:-192217.92 15:0.038222425 16:7884.7744 #
-100 3:7.7010531 4:7.7073054 5:969.69177 8:687.23804 9:106.55872 11:59.776878 14:-50695.523 15:0.027512323 16:1395.9845 #
-0.20737818995276525 3:17.616138 4:17.601738 5:2131.2634 8:1023.8336 9:392.12955 11:205.38329 14:-120774.11 15:0.0081509771 16:1211.2057 #
-38.295598916259586 3:5.37885 4:5.3665099 5:572.66022 8:482.93192 9:107.94576 11:58.37495 14:-31961.98 15:0.028866982 16:541.95007 #
-0.067699559007895926 3:22.318615 4:22.274065 5:2960.5037 8:845.14929 9:250.22551 11:261.16779 14:-126923.81 15:0.0063042371 16:908.04791 #
85.515429558501467 3:7.9249926 4:7.6057482 5:1280.6628 8:600.98645 9:51.034313 11:23.322716 14:-51870.363 15:0.034515157 16:1477.3179 #
33.348733171035676 3:7.6385627 4:7.6325917 5:1025.3018 8:624.4516 9:69.406082 11:24.085997 14:-51730.887 15:0.031323057 16:1968.1199 #
-100 3:8.6478252 4:8.6399088 5:1284.5038 8:778.46277 9:78.943375 11:42.519081 14:-52342.246 15:0.040614571 16:2006.3754 #
70.967440994227672 3:6.9453797 4:6.9506216 5:763.78888 8:700.3537 9:66.102119 11:23.883194 14:-50432.672 15:0.030569352 16:1675.3687 #
33.672957568137008 3:6.2279916 4:6.2206612 5:829.73779 8:450.17258 9:58.426476 11:24.425625 14:-38866.844 15:0.034432895 16:1466.9788 #
-100 3:7.639214 4:7.6447101 5:865.50616 8:792.5293 9:119.86951 11:65.324394 14:-49844.746 15:0.036473788 16:1384.4341 #
-100 3:6.0003257 4:5.9876885 5:769.24292 8:395.9866 9:90.236824 11:36.047234 14:-38286.477 15:0.030592823 16:1024.4696 #
100 3:7.0076404 4:7.0123944 5:789.28625 8:551.33539 9:68.087219 11:24.040375 14:-52138.164 15:0.034829602 16:1451.0543 #
-100 3:8.1959572 4:8.1953917 5:1157.9631 8:670.19562 9:104.67236 11:55.081341 14:-51915.512 15:0.034721047 16:1318.4894 #
1.2503928669978901 3:33.887016 4:33.84391 5:4769.9614 8:2466.9189 9:171.92915 11:81.806328 14:-226413.47 15:0.035716571 16:11771.58 #
-100 3:6.9453244 4:6.9417381 5:755.065 8:648.82922 9:49.857883 11:18.991714 14:-52333.883 15:0.035879761 16:1408.6588 #
-5.6418357846833311 3:9.4147806 4:9.3558159 5:1263.3448 8:947.13983 9:127.01462 11:59.816906 14:-62944.141 15:0.020871773 16:1199.3479 #
-1.1330261019190837 3:25.304379 4:25.292467 5:3624.3723 8:1630.205 9:165.1826 11:113.11094 14:-170570.44 15:0.027217422 16:5601.0479 #
11.567494797672058 3:7.5162458 4:7.3782558 5:1168.9907 8:527.26459 9:54.677849 11:21.253626 14:-50289.383 15:0.035841782 16:2536.2354 #
53.916473357728933 3:5.875288 4:5.8649406 5:606.72534 8:593.65955 9:61.756523 11:20.229912 14:-38001.352 15:0.033387475 16:909.80121 #
-0.15405638841573785 3:24.167091 4:23.806158 5:3636.7341 8:1470.7034 9:370.85785 11:150.76401 14:-159730.45 15:0.031769942 16:7182.791 #
-71.089981752830013 3:7.316936 4:7.2829537 5:923.02655 8:847.07343 9:70.728584 11:36.678379 14:-50228.883 15:0.038090952 16:1986.4263 #
-41.53071886478898 3:8.4594288 4:8.4379854 5:1215.5659 8:491.74265 9:101.06033 11:48.905144 14:-50074.641 15:0.030384744 16:1739.0032 #
100 3:5.6409764 4:5.6461253 5:629.69897 8:364.48486 9:69.787346 11:26.76951 14:-38720.125 15:0.033994041 16:1244.3191 #
50.943979830246654 3:7.0663562 4:7.0627856 5:690.36871 8:808.42249 9:79.904747 11:34.320873 14:-49583.656 15:0.03062568 16:1897.8798 #
-24.840520900178205 3:7.4788065 4:7.3300214 5:931.09894 8:436.13419 9:99.338036 11:54.337704 14:-48646.883 15:0.038871538 16:1270.2502 #
0.94164313552644574 3:21.324749 4:21.345333 5:3050.865 8:1116.171 9:79.196663 11:28.570457 14:-126721.24 15:0.038308877 16:9034.3955 #
-100 3:6.6425853 4:6.6190553 5:732.03918 8:587.6615 9:52.446278 11:19.569839 14:-49408.629 15:0.038302612 16:1465.95 #
-36.805895440507477 3:8.4442987 4:8.3723173 5:1167.0215 8:682.14124 9:120.09246 11:81.611961 14:-49734.973 15:0.0263135 16:1575.8844 #
0.83920892067979513 3:29.8414 4:29.510597 5:4627.4624 8:1868.6837 9:119.40189 11:54.070248 14:-212848.02 15:0.035624992 16:10820.085 #
-0.16045576509417492 3:20.537806 4:20.510193 5:3156.3782 8:1167.6715 9:181.97098 11:107.06007 14:-126940.38 15:0.0067029949 16:853.14063 #
-100 3:11.276231 4:11.097474 5:1492.6727 8:1002.2247 9:134.14009 11:71.94416 14:-77947.672 15:0.029403003 16:2947.5808 #
-25.988123570421582 3:11.0797 4:11.018827 5:1352.1566 8:971.00928 9:109.75178 11:70.255997 14:-77188.102 15:0.039372284 16:3190.6621 #
79.27556848606244 3:6.682198 4:6.6587296 5:846.27887 8:664.30664 9:60.554668 11:22.805132 14:-49645.129 15:0.032904886 16:1305.6667 #
47.801704743339428 3:7.4835734 4:7.2357817 5:1081.2037 8:790.03607 9:82.217979 11:37.819546 14:-49718.508 15:0.029709548 16:1250.7673 #
-89.860026761262702 3:7.554935 4:7.4132886 5:1120.8965 8:585.17035 9:93.865891 11:66.297203 14:-49583.094 15:0.035029802 16:1216.9506 #
50.053092743033218 3:6.2400184 4:6.2456169 5:753.75189 8:593.55011 9:60.864151 11:23.382801 14:-44284.059 15:0.027011091 16:1241.2864 #
100 3:7.4449887 4:7.4041109 5:1008.8253 8:640.98956 9:71.61319 11:36.246578 14:-49837.465 15:0.035415638 16:1505.4183 #
-100 3:7.9642029 4:7.8151193 5:1148.1115 8:738.21936 9:123.78232 11:61.280743 14:-53023.652 15:0.027894514 16:1378.0049 #
54.524783781618893 3:7.3038697 4:7.3106928 5:816.71405 8:685.0556 9:59.890812 11:24.313303 14:-52488.027 15:0.035816815 16:1318.6587 #
38.144326124290615 3:7.0720391 4:7.0764937 5:777.20593 8:827.09058 9:50.045639 11:23.162519 14:-53252.621 15:0.035677027 16:1301.1547 #
-59.346313083440648 3:7.3093648 4:7.3151751 5:923.56921 8:500.90302 9:89.465569 11:41.624363 14:-49853.516 15:0.039292503 16:1874.8876 #
40.707670675690551 3:11.483356 4:11.492586 5:1559.5269 8:1106.7097 9:65.355827 11:25.270927 14:-78419.336 15:0.037781663 16:2712.5381 #
-77.076460117508304 3:12.303511 4:12.289108 5:1815.2667 8:1223.3026 9:97.826218 11:54.489189 14:-78380.469 15:0.039482284 16:2811.8975 #
-100 3:7.2530818 4:7.2392311 5:905.57257 8:780.01398 9:83.335861 11:32.698513 14:-53459.898 15:0.037189033 16:1434.5087 #
-13.434923138803857 3:7.6915631 4:7.6219678 5:983.11053 8:965.35498 9:62.931675 11:34.348721 14:-53221.637 15:0.040074825 16:2207.5469 #
-9.9671314977124403 3:7.0137696 4:7.0066347 5:701.1134 8:600.59863 9:82.144905 11:43.193855 14:-52771.52 15:0.033404976 16:1290.9348 #
-11.665508124275251 3:8.1469383 4:8.0147095 5:1163.1324 8:490.72562 9:104.82021 11:51.664177 14:-52674.375 15:0.020334458 16:1417.158 #
0.0073498402992803191 3:27.423815 4:27.32148 5:4324.0786 8:1844.2013 9:65.594017 11:34.491501 14:-179568.28 15:0.038225196 16:11611.236 #
82.341066223282269 3:7.9189196 4:7.9220529 5:1019.0261 8:661.61938 9:71.930733 11:23.360729 14:-53557.406 15:0.034942374 16:1336.1697 #
59.854437990469968 3:7.3989406 4:7.3852057 5:985.25482 8:706.14124 9:61.516815 11:29.773636 14:-50418.633 15:0.036195643 16:1659.8634 #
-2.5695899541998468 3:24.894875 4:24.87886 5:3509.168 8:2234.4126 9:282.16095 11:125.349 14:-179074.23 15:0.029407185 16:6401.6006 #
-19.484479853429939 3:7.6876631 4:7.5063019 5:826.13599 8:821.3421 9:109.46671 11:57.865467 14:-53728.16 15:0.016657721 16:1232.6029 #
100 3:4.3689713 4:4.3245997 5:442.94131 8:419.97815 9:51.499046 11:19.107964 14:-30693.787 15:0.028964724 16:587.50189 #
100 3:4.8849821 4:4.884006 5:499.72729 8:387.53384 9:59.459209 11:24.215954 14:-32100.822 15:0.026484661 16:706.5531 #
43.922394857445738 3:12.521626 4:12.532327 5:1762.3771 8:910.26477 9:110.45615 11:49.09206 14:-77828.359 15:0.03657867 16:3135.3369 #
-0.26617890403421063 3:22.071802 4:21.936758 5:2669.0471 8:2215.1748 9:392.65189 11:336.71652 14:-147944.98 15:0.0057855672 16:973.09534 #
-0.40864539449589704 3:18.301708 4:18.317322 5:1993.5538 8:999.84015 9:187.66679 11:103.0769 14:-115936.33 15:0.028684102 16:4864.792 #
0.57075178790034164 3:19.10865 4:18.602306 5:3181.1189 8:1055.053 9:98.649178 11:36.493809 14:-118535.47 15:0.034601558 16:4257.1538 #
-0.84252985126584434 3:10.644277 4:10.618976 5:1487.8682 8:891.24512 9:113.64325 11:62.144196 14:-76241.555 15:0.040461112 16:3082.665 #
-100 3:7.8655887 4:7.8254619 5:1040.3308 8:633.01685 9:86.552284 11:42.098988 14:-53564.469 15:0.035697073 16:1856.3628 #
-100 3:5.4865646 4:5.3929987 5:631.28656 8:633.80554 9:73.72448 11:33.475994 14:-37476.176 15:0.036073446 16:993.18542 #
100 3:7.7827163 4:7.778163 5:940.60291 8:557.64581 9:64.940231 11:22.058426 14:-53287.746 15:0.031514768 16:2019.5093 #
25.227512844269626 3:8.1446905 4:8.0489159 5:1214.3529 8:758.2923 9:94.423851 11:31.747738 14:-53594.672 15:0.030455489 16:1693.1479 #
-0.52649325729327501 3:14.291502 4:14.275498 5:819.51929 8:726.91626 9:466.52994 11:315.46881 14:-58441.883 15:0.0080854911 16:723.44043 #
-1.9358081000515313 3:5.713069 4:5.6103973 5:751.46985 8:314.61847 9:127.75626 11:79.276466 14:-29332.631 15:0.032302603 16:646.71588 #
-51.764588636527478 3:6.7410054 4:6.7088466 5:862.98792 8:413.1813 9:93.933975 11:60.226845 14:-42015.258 15:0.031947017 16:1180.7111 #
-3.3695446586016677 3:25.477888 4:25.501152 5:3328.3545 8:2321.5313 9:359.9989 11:215.90437 14:-178169.33 15:0.021646796 16:6213.5483 #
-50.752472954284684 3:9.2077227 4:9.2115221 5:1276.184 8:941.80951 9:101.28055 11:59.073009 14:-56264.375 15:0.039886728 16:2087.6228 #
67.581738378345051 3:7.8477716 4:7.8553276 5:864.24146 8:932.34802 9:59.71048 11:24.829023 14:-54166.352 15:0.03486554 16:2277.5383 #
-63.310824734417466 3:7.6406288 4:7.4792528 5:1076.5397 8:376.97919 9:56.228367 11:21.816069 14:-54244.785 15:0.028316962 16:2105.4387 #
-100 3:7.7779751 4:7.7742004 5:1038.7736 8:812.28485 9:68.493103 11:25.890238 14:-54068.047 15:0.038335051 16:2356.4414 #
100 3:7.7381773 4:7.7006216 5:875.74133 8:622.54346 9:79.59977 11:26.80228 14:-54402.855 15:0.030963618 16:1895.7826 #
-50.318594564716555 3:4.9373507 4:4.9414473 5:396.853 8:389.03107 9:85.477234 11:48.351532 14:-33439.539 15:0.032995772 16:645.53546 #
-0.17812559431515285 3:12.571166 4:12.358235 5:2046.7603 8:810.84052 9:136.79799 11:99.287422 14:-74067.094 15:0.0068879989 16:577.50885 #
-100 3:9.159214 4:9.1594343 5:1320.525 8:828.92969 9:88.592781 11:50.162277 14:-54595.41 15:0.040511794 16:2113.0481 #
100 3:8.6114721 4:8.5512333 5:1263.5614 8:593.93939 9:89.215149 11:38.811405 14:-55073.691 15:0.030193629 16:1687.0697 #
100 3:5.4895782 4:5.3901339 5:745.41113 8:538.84125 9:57.248119 11:20.734144 14:-37052.156 15:0.030987915 16:912.38733 #
2.8942110861597632 3:21.918798 4:21.885157 5:2991.064 8:2481.6243 9:149.63858 11:70.356728 14:-164637.3 15:0.034472048 16:5870.3018 #
-100 3:5.540381 4:5.5426402 5:678.8941 8:442.10867 9:74.842529 11:28.403854 14:-37116.484 15:0.032316972 16:989.81097 #
24.513275094275173 3:8.9425144 4:8.9512606 5:1265.3625 8:572.52509 9:73.995651 11:32.819363 14:-54213.285 15:0.036476489 16:2241.0061 #
-100 3:4.6031241 4:4.6018376 5:424.71423 8:434.66565 9:59.343361 11:20.636648 14:-32448.891 15:0.033453129 16:752.12158 #
-96.169912607801152 3:4.8487029 4:4.852778 5:306.12143 8:391.91763 9:99.97023 11:51.719391 14:-31564.414 15:0.016191874 16:574.57129 #
100 3:5.0489912 4:5.0469379 5:457.4068 8:481.45404 9:51.285992 11:18.686621 14:-37243.137 15:0.030518588 16:746.42218 #
94.519065707824566 3:8.1111965 4:8.0169258 5:1251.3186 8:716.65594 9:74.935921 11:26.985004 14:-54315.352 15:0.028193904 16:2250.9387 #
-14.923488537825406 3:4.9649105 4:4.9462166 5:239.51654 8:414.30084 9:109.57992 11:55.300835 14:-30848.664 15:0.015792893 16:483.6395 #
-2.5447519507224312 3:26.073746 4:25.549555 5:3245.3181 8:3008.9351 9:234.69899 11:138.68497 14:-188879.77 15:0.034553062 16:8125.4619 #
-29.119180524707417 3:5.0401082 4:5.0428944 5:206.45416 8:470.7612 9:76.936195 11:42.535378 14:-37179.129 15:0.0091274427 16:669.15338 #
95.574138383550789 3:7.571383 4:7.5646291 5:914.12207 8:704.55304 9:58.060867 11:22.039293 14:-54417.793 15:0.03592087 16:1305.4314 #
94.863091619758052 3:5.6135859 4:5.6040864 5:709.40704 8:468.61249 9:65.333359 11:22.263475 14:-37404.961 15:0.035294652 16:1215.4268 #
67.831710566571843 3:5.5281258 4:5.4987254 5:673.95374 8:405.75943 9:56.37936 11:17.19195 14:-37610.602 15:0.034356225 16:875.3891 #
1.2705492576256336 3:23.207109 4:23.04043 5:3609.0313 8:1955.4398 9:145.06267 11:65.513527 14:-163716.05 15:0.0370262 16:6707.645 #
0.28980220843380267 3:12.749062 4:12.575129 5:2040.1718 8:885.72601 9:73.186012 11:32.453106 14:-82065.016 15:0.035772346 16:2893.4363 #
-100 3:5.7586503 4:5.7597132 5:762.34955 8:370.75958 9:74.469162 11:27.118774 14:-33298.586 15:0.031204266 16:982.74615 #
-100 3:5.0883961 4:5.0921359 5:592.8443 8:473.37872 9:76.934944 11:28.845621 14:-32542.266 15:0.034676708 16:860.33459 #
58.687501742260437 3:5.3526106 4:5.1027484 5:824.82025 8:393.44168 9:44.669983 11:17.817554 14:-33630.871 15:0.031530324 16:892.72833 #
5.3530263950770047 3:25.522715 4:25.07839 5:3604.7388 8:2495.1646 9:190.9747 11:74.765137 14:-176498.31 15:0.033973798 16:7777.2749 #
-0.55579161424766066 3:22.663528 4:22.675274 5:3162.4875 8:2243.8337 9:154.36896 11:72.019753 14:-166301.58 15:0.038445413 16:6244.1162 #
100 3:4.6607776 4:4.6587434 5:336.59775 8:407.04245 9:47.47823 11:19.534451 14:-33400.359 15:0.025497172 16:576.52533 #
-57.655094876545036 3:7.2526035 4:7.2591105 5:842.91882 8:616.86316 9:71.953079 11:38.473404 14:-54297.336 15:0.037362393 16:2035.8003 #
-0.0093068208202843339 3:29.296322 4:29.253445 5:4247.748 8:1803.6267 9:176.44162 11:155.9164 14:-200174.78 15:0.033916824 16:7753.7871 #
63.509328693016336 3:5.383121 4:5.3725743 5:677.81287 8:408.7326 9:67.134071 11:25.046547 14:-35067.598 15:0.032803152 16:1094.188 #
-100 3:10.106125 4:10.052276 5:1127.0863 8:1340.8915 9:95.95488 11:41.129143 14:-77918.266 15:0.034017511 16:2394.9915 #
-100 3:5.4060454 4:5.3745108 5:545.49048 8:349.66272 9:67.876877 11:29.374193 14:-37869.059 15:0.030739116 16:932.1181 #
100 3:4.899796 4:4.8773746 5:601.55859 8:355.65118 9:49.746643 11:16.710747 14:-33832.305 15:0.028967241 16:644.07495 #
-0.22463738431275573 3:21.231594 4:21.185642 5:2968.0437 8:974.20251 9:238.43164 11:149.13045 14:-127756.88 15:0.0067481389 16:969.10345 #
-76.831811383372624 3:4.4936733 4:4.4947124 5:485.43579 8:329.09827 9:70.745956 11:39.979614 14:-29105.574 15:0.033246696 16:558.02368 #
96.24410994847176 3:10.79382 4:10.744842 5:1601.2402 8:1004.6138 9:78.439247 11:46.235641 14:-74697.867 15:0.035645295 16:2261.4316 #
-100 3:5.0875611 4:4.9584036 5:585.33099 8:464.68768 9:69.989403 11:30.33987 14:-33807.445 15:0.0227696 16:671.33301 #
12.931682202086606 3:5.8137994 4:5.7319951 5:798.87537 8:232.9756 9:62.597843 11:25.713634 14:-37215.449 15:0.031244943 16:1131.969 #
-11.881885329337365 3:5.4558053 4:5.4363484 5:583.09796 8:503.4386 9:74.205521 11:32.274281 14:-37346.648 15:0.005958356 16:278.13174 #
100 3:10.408771 4:10.411482 5:1182.3748 8:1181.5123 9:93.173058 11:44.725082 14:-77879.297 15:0.033855028 16:2742.1313 #
79.136354343210982 3:10.525723 4:10.532234 5:1082.7744 8:1157.4589 9:98.567978 11:51.510429 14:-78179.195 15:0.029735914 16:2421.4214 #
-22.296853752525461 3:9.7552357 4:9.7643423 5:891.4649 8:865.78699 9:90.390587 11:46.385902 14:-77980 15:0.031265326 16:2846.3662 #
-1.2851714634819251 3:16.352518 4:16.363094 5:1950.1741 8:1940.6616 9:123.98759 11:47.791698 14:-126053.77 15:0.040312249 16:4980.7378 #
-100 3:5.8288536 4:5.7870207 5:762.52734 8:328.9201 9:78.973961 11:39.112598 14:-37336.383 15:0.037807371 16:856.30945 #
-0.14259351839667955 3:25.462381 4:25.474655 5:3208.8381 8:1656.9055 9:491.78552 11:361.38269 14:-154075.25 15:0.0057612518 16:1155.5573 #
46.097913726027699 3:5.5259004 4:5.4326487 5:729.79968 8:341.96078 9:54.559807 11:15.667601 14:-33093.375 15:0.030058583 16:1047.7191 #
3.6716847308296687 3:23.612719 4:23.560829 5:3262.936 8:2556.7842 9:107.66493 11:47.351566 14:-188733.06 15:0.035510998 16:7069.9507 #
-1.6259778799374631 3:24.351027 4:24.135939 5:3726.0688 8:2242.0752 9:157.11583 11:77.419304 14:-188385.28 15:0.036887299 16:7424.6782 #
-2.8737786786406962 3:24.564047 4:24.383511 5:3549.9165 8:3009.1211 9:138.16856 11:68.038231 14:-176263.64 15:0.03611061 16:7763.5781 #
-1.9974066997814097 3:22.078768 4:22.097366 5:3046.2654 8:2236.5669 9:168.68938 11:76.690971 14:-163516.59 15:0.037634939 16:5924.9844 #
9.7621843613741675 3:6.1894264 4:6.1577659 5:887.09827 8:578.03094 9:62.189823 11:21.347351 14:-40453.57 15:0.033560164 16:1448.0875 #
-100 3:5.1270814 4:5.1247945 5:505.14905 8:535.31201 9:65.670395 11:23.204037 14:-37233.824 15:0.035373837 16:907.66553 #
100 3:4.9056096 4:4.880765 5:582.36359 8:510.06583 9:59.294441 11:22.235075 14:-32778.266 15:0.030192902 16:825.71204 #
-21.097666247255745 3:5.1419373 4:5.0407619 5:578.75366 8:449.33893 9:71.932434 11:39.292587 14:-33039.473 15:0.03162536 16:650.52295 #
-13.926209546725715 3:6.0267138 4:6.0310988 5:790.80304 8:523.7641 9:81.220383 11:45.010941 14:-33148.07 15:0.038998149 16:1286.8397 #
-100 3:5.1413155 4:5.1438098 5:530.88208 8:581.21246 9:59.095585 11:36.678089 14:-36329.578 15:0.021929845 16:764.24042 #
-63.088106355450307 3:5.598249 4:5.587955 5:654.39655 8:325.83881 9:78.658623 11:49.842472 14:-36468.301 15:0.03646085 16:782.02472 #
90.828737208684913 3:5.2021775 4:5.2071257 5:601.27539 8:505.37198 9:50.35593 11:23.543739 14:-36176.23 15:0.031375933 16:781.80023 #
-6.4327293250889284 3:5.3268957 4:5.330966 5:564.4278 8:624.92432 9:89.479378 11:53.432114 14:-32765.131 15:0.035705138 16:1109.1451 #
100 3:4.9768486 4:4.9671655 5:546.41608 8:445.41385 9:68.819794 11:25.912369 14:-36624.438 15:0.02718509 16:861.93927 #
-0.37447816950901247 3:26.885496 4:26.636648 5:3897.8572 8:1581.7992 9:335.53302 11:252.90453 14:-188522.13 15:0.0064917458 16:1405.037 #
-100 3:10.528761 4:10.489391 5:1357.9224 8:1158.2384 9:61.648071 11:29.975754 14:-78093.375 15:0.039814912 16:2501.7896 #
1.3265512906169148 3:17.153145 4:16.861403 5:2801.887 8:1189.1208 9:75.171898 11:35.757477 14:-115071.22 15:0.038439348 16:6070.1553 #
-40.316407093054934 3:10.515254 4:10.383834 5:1263.5773 8:1100.9618 9:120.43165 11:65.035599 14:-78913.047 15:0.0306857 16:2544.7915 #
-19.160640715052995 3:6.8730636 4:6.8576856 5:751.70667 8:242.94608 9:129.69618 11:114.85831 14:-34206.781 15:0.03600077 16:793.65704 #
100 3:5.013319 4:5.0086136 5:517.3092 8:506.67807 9:53.514225 11:23.014378 14:-34120.215 15:0.025988439 16:637.6026 #
1.1941869521403992 3:10.400638 4:10.316655 5:1635.311 8:734.62756 9:63.667152 11:20.071281 14:-64538.207 15:0.037327461 16:4438.4707 #
-0.25492298256515111 3:24.059708 4:24.082642 5:3177.2598 8:1620.1757 9:345.36096 11:230.45233 14:-158656.13 15:0.0061793341 16:1141.8164 #
-23.625447318702317 3:11.025932 4:11.031128 5:1517.1373 8:937.34113 9:93.243835 11:43.443455 14:-78552.93 15:0.039579082 16:2869.1526 #
-24.469265267669066 3:5.401495 4:5.3712506 5:466.32031 8:428.44501 9:82.714111 11:47.834854 14:-34198.664 15:0.015504429 16:448.29675 #
-48.689345854933208 3:5.5105639 4:5.4944682 5:609.42914 8:320.92343 9:67.324638 11:43.522999 14:-36134.773 15:0.017128186 16:653.93872 #
-0.6088641659194084 3:30.048075 4:29.893921 5:4549.002 8:2108.9392 9:121.29609 11:60.214756 14:-200420.69 15:0.031449687 16:7325.457 #
-12.812187353108243 3:5.5352583 4:5.509645 5:671.24133 8:449.19089 9:70.667961 11:30.460829 14:-37524.879 15:0.006607044 16:294.5553 #
36.062649254578865 3:11.333145 4:11.342691 5:1526.5602 8:828.68805 9:72.509125 11:29.559267 14:-77929.211 15:0.036762748 16:2736.7253 #
1.7064401020656368 3:20.177015 4:20.193726 5:2715.1787 8:2332.8311 9:108.53429 11:53.230686 14:-128517.95 15:0.036942668 16:6235.1895 #
-6.5740152190015682 3:11.93078 4:11.898225 5:1550.8871 8:977.29089 9:91.145027 11:34.279182 14:-93102.273 15:0.033452254 16:3698.3496 #
6.7116720556720679 3:11.135329 4:10.950331 5:1702.4167 8:1190.0441 9:77.087807 11:27.856358 14:-77790.25 15:0.035607066 16:1795.1848 #
12.376355833868814 3:10.544753 4:10.537277 5:1016.6618 8:1513.6553 9:90.971245 11:42.084953 14:-78032.344 15:0.035903394 16:1831.9816 #
100 3:5.3202386 4:5.3187928 5:565.61316 8:522.2934 9:54.440895 11:20.275833 14:-36560.727 15:0.027032927 16:801.72729 #
-26.51040360865565 3:11.161868 4:11.152404 5:1500.0636 8:1002.6047 9:114.85584 11:75.092209 14:-77732.992 15:0.027832711 16:1844.9647 #
-53.646913795385743 3:11.561422 4:11.572692 5:1493.8628 8:946.04645 9:105.06322 11:80.269714 14:-77418.375 15:0.029018644 16:2062.9536 #
-71.43328567545565 3:5.7298317 4:5.7321963 5:656.70142 8:545.27966 9:95.670143 11:44.552116 14:-35838.898 15:0.036103625 16:1012.7842 #
84.011584163602294 3:5.6052966 4:5.6053462 5:642.89832 8:574.24915 9:53.09692 11:20.123833 14:-39023.574 15:0.032169167 16:1006.9352 #
84.446050904465991 3:10.835569 4:10.830949 5:1443.6578 8:1099.1899 9:62.337036 11:30.467815 14:-77479.656 15:0.036082484 16:2009.9036 #
24.250223999472819 3:11.358271 4:11.347042 5:1555.6259 8:1123.7595 9:83.262207 11:33.772861 14:-77805.727 15:0.037607849 16:2631.7568 #
-100 3:4.7105069 4:4.7096834 5:436.56107 8:413.58978 9:66.249153 11:29.943024 14:-35335.109 15:0.021067051 16:670.89569 #
-0.26079611217844156 3:33.78595 4:33.44759 5:5465.8452 8:2755.1973 9:179.54994 11:97.800285 14:-261653 15:0.033006024 16:11742.646 #
-0.49076726093705259 3:22.678982 4:22.308115 5:3174.7573 8:1947.7607 9:160.90758 11:82.286461 14:-153669.97 15:0.034121286 16:6646.728 #
-30.972933553259619 3:5.4871583 4:5.4882879 5:295.96179 8:419.52829 9:105.31487 11:64.540817 14:-36030.98 15:0.010870502 16:859.62091 #
-100 3:5.4120297 4:5.34622 5:644.53912 8:318.59482 9:87.434959 11:40.245354 14:-35365.324 15:0.014497394 16:970.25146 #
100 3:5.2168822 4:5.1828742 5:559.73248 8:433.89111 9:70.354996 11:24.672518 14:-35774.02 15:0.02554946 16:811.65454 #
-19.755957420755681 3:10.314156 4:10.214952 5:1379.3726 8:967.98901 9:128.79686 11:65.945251 14:-77230.266 15:0.01691889 16:2530.729 #
-0.51492327118081616 3:28.386351 4:28.391438 5:3136.0391 8:2947.8508 9:530.40118 11:259.64188 14:-201444.53 15:0.021336185 16:6563.7295 #
100 3:5.1850505 4:5.1821871 5:450.08273 8:434.10287 9:58.225006 11:21.317474 14:-35196.641 15:0.030942678 16:787.46252 #
-85.363225794552719 3:5.2892995 4:5.2665415 5:510.30548 8:532.24524 9:87.319733 11:49.405888 14:-35060.707 15:0.034557518 16:963.59375 #
-100 3:5.5320625 4:5.5374312 5:534.68323 8:335.03632 9:75.384933 11:34.844791 14:-34838.672 15:0.020671602 16:857.93414 #
24.116789875373914 3:17.300779 4:17.117685 5:2570.1738 8:1906.0171 9:137.62267 11:55.746819 14:-127960.58 15:0.032616664 16:3792.9246 #
83.260265561809575 3:5.288434 4:5.2896414 5:589.95251 8:253.72606 9:59.985348 11:20.782761 14:-34945.523 15:0.031331524 16:1058.7677 #
100 3:5.395103 4:5.3978567 5:452.37009 8:587.87714 9:51.602871 11:22.011839 14:-34929.539 15:0.031996321 16:819.4317 #
100 3:11.305372 4:11.245539 5:1607.0039 8:1212.366 9:75.064087 11:30.451662 14:-78411.172 15:0.036977008 16:2626.4907 #
-0.46643372440108632 3:15.793087 4:15.605391 5:2484.7407 8:1365.2526 9:98.581627 11:38.961369 14:-112567.58 15:0.037499979 16:4806.334 #
15.762870158240689 3:16.011646 4:16.010254 5:2088.6123 8:1856.1102 9:82.975525 11:43.120689 14:-118943.63 15:0.037497647 16:3642.6748 #
-0.5887547496222727 3:28.57358 4:28.586634 5:3320.7903 8:2646.1218 9:357.62961 11:172.20418 14:-224830.3 15:0.031417578 16:9451.2363 #
47.612266863353526 3:8.1833639 4:8.1889629 5:976.71228 8:903.15924 9:72.583534 11:26.218433 14:-57260.813 15:0.036873657 16:1455.6715 #
3.8967161343883308 3:18.419029 4:18.217321 5:2983.5771 8:1353.0325 9:88.961121 11:34.159321 14:-125594.23 15:0.033936601 16:3871.0793 #
2.8993386066847444 3:17.043903 4:17.056181 5:2362.8035 8:1672.4098 9:98.632637 11:57.004967 14:-121825.25 15:0.036719166 16:3534.5476 #
7.4363923094186015 3:15.879449 4:15.765368 5:2260.981 8:1749.3413 9:83.077446 11:38.669075 14:-120173.96 15:0.037621729 16:3601.6338 #
93.232677334137946 3:11.263096 4:11.223667 5:1523.2 8:1070.9451 9:100.47134 11:39.460926 14:-79646.133 15:0.034687944 16:2650.1313 #
-0.36611072231241093 3:28.09576 4:27.852629 5:3841.5254 8:1347.1362 9:253.51509 11:157.60532 14:-183760.63 15:0.036521386 16:11570.459 #
-23.762544594050862 3:13.297285 4:13.294122 5:1701.7823 8:1261.4509 9:250.94295 11:108.85885 14:-79413.805 15:0.03024308 16:2312.2393 #
28.292690912954104 3:12.292667 4:12.272168 5:1893.558 8:964.9436 9:85.963593 11:40.170284 14:-79112.914 15:0.037542369 16:3135.3694 #
-68.447421622377277 3:11.703168 4:11.714048 5:1604.7927 8:967.81848 9:105.72204 11:73.427536 14:-79656.867 15:0.037119787 16:2892.1133 #
1.6465565112028757 3:10.990199 4:10.999321 5:1397.136 8:1262.3678 9:72.211494 11:25.891819 14:-78837.938 15:0.036534466 16:1893.3365 #
-19.026792292420907 3:10.873518 4:10.858666 5:1147.458 8:1303.8049 9:113.11845 11:64.316093 14:-80006.305 15:0.035327744 16:2212.7583 #
-9.7732269578131419 3:11.593373 4:11.485951 5:1170.4117 8:1504.4847 9:139.64886 11:86.145653 14:-76627.492 15:0.036390524 16:3189.321 #
-1.4807121793440301 3:11.787589 4:11.732514 5:1654.9104 8:1123.9398 9:140.39503 11:71.171722 14:-78876.555 15:0.020031516 16:1457.5428 #
21.254310573882304 3:11.920049 4:11.914691 5:1602.3174 8:1355.7559 9:103.25152 11:45.346699 14:-80227.109 15:0.029414371 16:3296.4265 #
-0.3909711806853835 3:5.2895827 4:5.272233 5:357.22153 8:670.68945 9:87.254478 11:29.807795 14:-35012.34 15:0.025038457 16:608.97095 #
18.898124376617886 3:10.861609 4:10.849112 5:1521.626 8:1081.6306 9:64.24118 11:31.826807 14:-76367.367 15:0.037648775 16:2373.5989 #
-14.747665327618535 3:11.246697 4:11.257484 5:1375.5018 8:959.17194 9:100.18015 11:45.748859 14:-80141.016 15:0.027256679 16:2880.2385 #
16.607869858522196 3:12.413751 4:12.39391 5:1834.1322 8:655.84564 9:81.946083 11:27.714741 14:-80510.648 15:0.035591599 16:2918.4595 #
5.8461581200114558 3:10.440824 4:10.450916 5:1389.024 8:1000.5682 9:75.112473 11:42.033066 14:-76396.516 15:0.034707498 16:3456.884 #
3.8422777543610298 3:10.68285 4:10.684931 5:1414.5245 8:1046.5206 9:77.275497 11:28.063574 14:-80295.047 15:0.03733873 16:2374.4363 #
-37.085560669486867 3:12.664245 4:12.618223 5:1911.8993 8:1192.0831 9:134.8618 11:77.630997 14:-80166.57 15:0.039609872 16:3186.6594 #
-2.798120702947025 3:12.061724 4:11.98145 5:1651.4034 8:1267.0583 9:160.20695 11:72.691216 14:-76778.914 15:0.030470056 16:2222.196 #
68.372259578710612 3:10.522304 4:10.530356 5:1391.0178 8:1076.8549 9:79.991486 11:35.260174 14:-76496.469 15:0.037002552 16:2287.978 #
-4.9218294503584916 3:6.7081904 4:6.6567655 5:790.58972 8:592.16492 9:88.621689 11:41.274723 14:-47105.313 15:0.024558449 16:1011.3685 #
-0.83643939507980014 3:10.60108 4:10.40848 5:1423.4053 8:1328.0697 9:114.19733 11:43.025948 14:-76458.641 15:0.034677885 16:1833.1228 #
-100 3:10.328741 4:10.241978 5:1477.8082 8:1097.7369 9:87.17395 11:44.575119 14:-76544.102 15:0.035634395 16:2342.1143 #
18.553317384799215 3:10.849311 4:10.713446 5:1668.8375 8:1071.6104 9:82.239319 11:33.418533 14:-76461.313 15:0.034391183 16:2537.9695 #
45.412284565972776 3:10.601341 4:10.598511 5:1465.1216 8:1060.8508 9:72.941078 11:33.434914 14:-76751.547 15:0.037444629 16:2323.0488 #
19.686479476404859 3:13.037089 4:13.019288 5:1995.5814 8:947.07764 9:68.421364 11:33.603386 14:-80291.602 15:0.036553644 16:3333.4807 #
-9.5670723269661124 3:11.552511 4:11.383428 5:1642.241 8:880.12616 9:108.26862 11:65.074722 14:-80920.297 15:0.035097729 16:2632.6882 #
-0.37447459676477723 3:21.801558 4:21.821426 5:1808.7435 8:2535.3567 9:303.79419 11:150.75264 14:-182110.08 15:0.024261378 16:4025.1545 #
-0.5632556690047914 3:24.93453 4:24.954573 5:2259.8948 8:2467.6667 9:358.77206 11:188.38525 14:-175000.25 15:0.030340998 16:7218.9199 #
27.919027111054895 3:11.783546 4:11.637893 5:1808.4127 8:1045.5435 9:107.56331 11:44.594879 14:-81320.852 15:0.036904171 16:2419.0479 #
11.120823847222887 3:11.273327 4:11.261393 5:1467.2772 8:1277.123 9:84.084824 11:32.869514 14:-81179.742 15:0.037028141 16:1990.9827 #
-100 3:10.267027 4:10.238568 5:1435.5641 8:903.98883 9:78.238922 11:33.673496 14:-76228.305 15:0.037754163 16:3151.105 #
-100 3:5.2572379 4:5.1641893 5:554.25092 8:596.97778 9:72.207741 11:35.531349 14:-34529.309 15:0.033166349 16:851.2262 #
-0.23734031990578819 3:24.346615 4:24.277933 5:3671.5703 8:1536.8298 9:195.2672 11:165.31657 14:-167708.31 15:0.033501111 16:5106.0259 #
-100 3:6.3236394 4:6.311975 5:719.12793 8:573.64441 9:91.318169 11:59.201748 14:-42510.133 15:0.034696329 16:1208.6587 #
0.7082434711759118 3:10.716505 4:10.726992 5:1309.3026 8:686.48517 9:63.19278 11:30.286861 14:-66680.492 15:0.036569864 16:4463.3857 #
26.816876849995928 3:5.2174878 4:5.0836458 5:704.9942 8:527.07513 9:59.754009 11:23.202375 14:-34614.516 15:0.02658328 16:745.08313 #
-0.30279454228053765 3:21.72472 4:21.695644 5:3123.2041 8:1084.4603 9:196.89601 11:231.51282 14:-135245.28 15:0.0064841742 16:910.82941 #
7.9286300349070444 3:12.192411 4:12.112475 5:1655.475 8:1494.4113 9:66.982857 11:27.07036 14:-90720.086 15:0.035438694 16:1990.5519 #
1.6828909612176775 3:16.658663 4:16.667822 5:2244.332 8:1838.6964 9:77.887039 11:30.908113 14:-120773.77 15:0.037658703 16:3862.8362 #
-0.70327052443231752 3:22.448013 4:22.298738 5:3165.9756 8:1587.4723 9:206.88152 11:93.333557 14:-161777.33 15:0.03927961 16:9206.0117 #
2.0013080313645943 3:14.700714 4:14.702624 5:1955.1573 8:1583.2548 9:70.970764 11:35.774605 14:-105913.19 15:0.035305094 16:2642.3196 #
99.392080369605992 3:9.9366102 4:9.7566538 5:1461.5598 8:977.33337 9:56.897255 11:18.161282 14:-76250.758 15:0.034953147 16:3264.3081 #
-8.3084203957042746 3:6.6507821 4:6.6342382 5:688.33289 8:477.82336 9:80.946022 11:42.651421 14:-48250.813 15:0.020281576 16:1283.78 #
32.339903275084339 3:7.4045324 4:7.2809496 5:1141.3853 8:756.21082 9:73.20797 11:20.290071 14:-48364.875 15:0.035676777 16:1208.7731 #
-100 3:5.5579863 4:5.5511184 5:619.54248 8:433.33636 9:83.31707 11:41.970238 14:-38310.965 15:0.036436625 16:1168.2721 #
-95.305753848410689 3:5.9386239 4:5.8323793 5:614.29291 8:449.89481 9:90.093208 11:43.207367 14:-39177.906 15:0.033867992 16:1345.8386 #
-100 3:5.8860521 4:5.8916674 5:665.1377 8:342.50641 9:80.862648 11:38.435036 14:-38805.328 15:0.038439393 16:1455.8613 #
100 3:5.7017875 4:5.6538682 5:705.32104 8:377.40201 9:77.586845 11:26.058687 14:-38280.578 15:0.03269032 16:1155.0565 #
76.796799538353184 3:5.8135166 4:5.8125257 5:705.39459 8:438.60904 9:61.081352 11:21.947763 14:-38840.613 15:0.034608111 16:1329.0891 #
-100 3:5.9146919 4:5.9167309 5:724.8009 8:538.91443 9:85.178024 11:33.843887 14:-38557.777 15:0.036727909 16:1092.5823 #
38.435987378197879 3:6.6619101 4:6.6056685 5:852.83795 8:532.82581 9:61.322021 11:22.443373 14:-47961.578 15:0.034057792 16:1346.6602 #
48.102659688430776 3:7.2471404 4:7.2537251 5:850.9892 8:688.84033 9:44.434368 11:18.652571 14:-48001.801 15:0.035370637 16:1212.9424 #
-100 3:6.7935915 4:6.729609 5:867.42499 8:748.6283 9:73.752785 11:25.436508 14:-47762.418 15:0.038847309 16:1921.7162 #
-100 3:6.8793535 4:6.8165069 5:813.15875 8:593.45148 9:66.869576 11:27.552689 14:-47988.43 15:0.035485189 16:1427.8121 #
-100 3:5.810586 4:5.7077909 5:765.04437 8:514.64337 9:70.721046 11:36.65921 14:-39238.121 15:0.035517633 16:861.67706 #
-0.19512771498713466 3:22.17804 4:22.110561 5:2555.6423 8:1053.186 9:526.38715 11:343.54062 14:-122650.3 15:0.0048866528 16:783.48749 #
-9.8338331790127356 3:7.3671918 4:7.2719049 5:1136.0938 8:536.45532 9:82.701736 11:42.144348 14:-47759.613 15:0.036916003 16:1223.5737 #
-100 3:6.9376602 4:6.8504467 5:847.94031 8:795.38983 9:80.092834 11:35.150574 14:-48448.371 15:0.036964856 16:1349.3625 #
-54.286147159195799 3:5.6448469 4:5.5792279 5:563.8465 8:601.55731 9:90.249413 11:60.721607 14:-36675.117 15:0.031589162 16:895.11212 #
-15.454290041976009 3:6.6220284 4:6.5940566 5:495.99142 8:952.29773 9:103.41352 11:40.347095 14:-43875.602 15:0.024340207 16:771.0816 #
-42.747615163907312 3:5.9085298 4:5.9142532 5:288.15396 8:526.54749 9:104.63634 11:60.946774 14:-38441.367 15:0.036660627 16:873.89246 #
-100 3:7.0858459 4:6.9050355 5:941.75745 8:801.84491 9:82.391151 11:32.305096 14:-48377.344 15:0.032775909 16:1152.3141 #
26.705698146540854 3:6.2304735 4:6.2195048 5:781.25287 8:582.95514 9:56.574875 11:28.951635 14:-42376.16 15:0.034055933 16:1315.3481 #
96.043167951070586 3:5.4886909 4:5.4940667 5:550.89502 8:429.78522 9:68.241104 11:24.731945 14:-38517.074 15:0.030957278 16:980.73309 #
-16.882778769191191 3:6.6062059 4:6.512363 5:725.41846 8:505.59747 9:96.884842 11:55.598946 14:-45662.805 15:0.038750369 16:1105.3098 #
-0.34040747079245781 3:17.830462 4:17.847605 5:2229.1555 8:1572.0951 9:171.60461 11:97.733223 14:-121773.61 15:0.032602981 16:5535.02 #
-100 3:5.7219076 4:5.6920614 5:713.13928 8:501.98474 9:59.639301 11:22.582912 14:-39856.75 15:0.036362227 16:1083.6429 #
-0.19998481230084697 3:24.582508 4:24.089848 5:3763.8325 8:1380.866 9:245.02527 11:111.78625 14:-162834.34 15:0.001418221 16:449.80984 #
100 3:6.6476288 4:6.6455383 5:700.24939 8:702.89557 9:72.445755 11:34.055901 14:-48234.617 15:0.032940671 16:1706.8857 #
36.062072129623942 3:7.5932212 4:7.5737972 5:1139.6936 8:635.60767 9:55.64006 11:22.653395 14:-47539.887 15:0.036103781 16:1909.8501 #
-0.3747902750337595 3:51.687904 4:51.719337 5:7132.3994 8:5634.564 9:529.59534 11:297.63162 14:-414693.59 15:0.017344421 16:12927.466 #
66.744956667575366 3:5.7022905 4:5.7074718 5:613.43756 8:399.88647 9:61.90414 11:18.405697 14:-37979.078 15:0.034391891 16:940.52643 #
11.168577202168745 3:5.7971563 4:5.8012533 5:511.54953 8:686.03076 9:59.84272 11:22.62225 14:-38494.602 15:0.033476256 16:929.56555 #
-81.480562352784546 3:7.4065576 4:7.3061614 5:1081.0112 8:635.91919 9:56.849636 11:22.848339 14:-47120.512 15:0.03422045 16:1418.9811 #
100 3:9.2851772 4:9.2921457 5:1193.2991 8:803.39301 9:78.85672 11:36.674599 14:-68975.563 15:0.032944866 16:2922.5496 #
32.156806267600075 3:9.5722952 4:9.512414 5:1430.6359 8:1038.02 9:54.77145 11:23.706186 14:-63089.918 15:0.036281027 16:2306.5525 #
-0.044606202600814299 3:17.192598 4:17.184879 5:2515.8933 8:1393.2659 9:133.01149 11:57.617004 14:-118167.77 15:0.0074197748 16:1156.0321 #
74.401857625728837 3:5.5097461 4:5.5033307 5:512.09454 8:488.97858 9:51.532761 11:21.863636 14:-37431.195 15:0.026269285 16:706.07202 #
8.4319611697403776 3:6.8017163 4:6.7750115 5:641.00629 8:914.68542 9:54.926655 11:23.918917 14:-48825.258 15:0.036723901 16:1314.5144 #
39.530267614178378 3:6.5857439 4:6.4219322 5:949.7818 8:418.04559 9:58.919281 11:21.303104 14:-39919.434 15:0.032396641 16:968.59088 #
-17.429314426715692 3:6.7872586 4:6.7936649 5:672.02667 8:392.9259 9:72.045723 11:27.10519 14:-48379.773 15:0.038484339 16:1876.178 #
-0.32132205955675242 3:27.46558 4:27.418385 5:3826.7742 8:3011.7756 9:178.95529 11:99.525078 14:-200246.09 15:0.0070521571 16:1446.1989 #
0.26572901851672315 3:17.292885 4:17.172485 5:2763.1682 8:1492.0524 9:65.34259 11:29.2034 14:-112696.67 15:0.038050648 16:7091.5303 #
-0.099279018370927341 3:21.610786 4:21.338854 5:3449.5857 8:1269.0822 9:216.27948 11:164.33188 14:-134221.3 15:0.0064209891 16:868.72711 #
-0.36334121069627567 3:52.634796 4:52.674908 5:7264.0249 8:5317.3223 9:508.75354 11:293.00424 14:-426070.78 15:0.019020204 16:13134.349 #
100 3:6.88236 4:6.8777542 5:839.87738 8:524.5968 9:60.72657 11:30.391043 14:-49065.152 15:0.034869038 16:1402.0258 #
94.996693957604862 3:5.7184315 4:5.6933198 5:740.07959 8:437.51813 9:49.262455 11:16.543491 14:-39647.594 15:0.033749681 16:883.82324 #
-100 3:6.9737101 4:6.9304304 5:814.22192 8:526.25415 9:80.790306 11:29.648975 14:-48886.93 15:0.017963327 16:1450.5637 #
100 3:5.7731109 4:5.7682638 5:606.21057 8:476.24622 9:68.308441 11:23.071806 14:-40277.73 15:0.033879839 16:975.6333 #
-0.051455703560476351 3:6.0803909 4:6.0817475 5:373.04114 8:201.80925 9:176.24973 11:152.99902 14:-21911.111 15:0.023869559 16:535.64581 #
100 3:6.8360295 4:6.7763786 5:857.63745 8:548.71191 9:70.509827 11:23.982515 14:-48757.148 15:0.034916218 16:1432.2557 #
-19.236691193251211 3:5.4327927 4:5.4255924 5:554.22473 8:345.63763 9:54.864765 11:21.493837 14:-40083.828 15:0.01952425 16:677.66034 #
-1.7936279810684361 3:7.2714686 4:7.2751408 5:916.3194 8:605.79193 9:74.653564 11:74.9459 14:-48552.992 15:0.025317958 16:1050.4161 #
-3.418048864738501 3:9.4904184 4:9.4142265 5:1207.8096 8:753.05243 9:129.58711 11:98.076469 14:-63086.957 15:0.029386563 16:2821.457 #
2.9318062799150137 3:17.013706 4:16.863537 5:2598.4893 8:1226.7521 9:123.37047 11:43.930042 14:-107497.77 15:0.037119478 16:4317.4312 #
29.906075231173681 3:7.4423933 4:7.4231191 5:626.41046 8:1055.9711 9:109.5954 11:49.938801 14:-48287.094 15:0.014518751 16:858.4975 #
-100 3:7.4075093 4:7.2905436 5:992.90405 8:613.96149 9:87.897171 11:63.605198 14:-48778.547 15:0.034350734 16:1867.3463 #
-0.050307261803589735 3:14.443687 4:14.386798 5:1974.825 8:1577.781 9:91.926865 11:52.332607 14:-110039.68 15:0.0068035438 16:844.5946 #
1.4873297704441588 3:22.692383 4:22.661814 5:3462.8794 8:1614.8684 9:88.832207 11:32.931484 14:-154949.25 15:0.033136737 16:5114.4136 #
-3.5104922222436952 3:13.013231 4:13.013523 5:1627.1228 8:739.16919 9:200.63982 11:130.30006 14:-80510.484 15:0.030331865 16:2090.7415 #
-100 3:6.569468 4:6.5103335 5:906.04175 8:303.18436 9:78.446442 11:43.428333 14:-40536.746 15:0.037682462 16:976.35388 #
100 3:6.0869355 4:6.0926194 5:708.69934 8:312.97495 9:58.933872 11:19.903011 14:-39778.258 15:0.034235846 16:1352.3938 #
-0.75251818379914515 3:11.78593 4:11.729097 5:1551.5928 8:680.24243 9:91.518105 11:47.58176 14:-87101.305 15:0.038476352 16:4862.0845 #
35.794763658663911 3:7.0318618 4:7.0352702 5:878.0791 8:699.64258 9:45.716427 11:18.464664 14:-48531.77 15:0.036426719 16:1213.2571 #
0.74156256448107227 3:27.198833 4:27.224531 5:3825.8413 8:1820.8517 9:74.961914 11:37.741104 14:-177778.41 15:0.038181551 16:11388.614 #
-2.7256460200424328 3:6.1909013 4:6.1042514 5:709.29022 8:426.10007 9:105.4437 11:55.06654 14:-39791.227 15:0.038454913 16:1017.5018 #
100 3:7.0553727 4:7.0512152 5:883.79803 8:649.59125 9:76.15271 11:28.482065 14:-48007.559 15:0.032720864 16:1539.0339 #
-10.889573614258893 3:6.2470884 4:6.2519245 5:516.23254 8:293.35001 9:76.232628 11:28.936861 14:-47244.426 15:0.024476007 16:1302.8387 #
100 3:6.072906 4:6.0786991 5:603.00458 8:575.38763 9:65.158707 11:19.85766 14:-39963.277 15:0.033148304 16:975.74884 #
100 3:5.9141364 4:5.8818932 5:701.32318 8:410.75443 9:65.768135 11:20.343515 14:-42316.75 15:0.030449079 16:1063.5238 #
51.587939019955911 3:7.0256906 4:7.0301781 5:826.73608 8:815.25946 9:57.171932 11:25.63945 14:-47132.352 15:0.033193134 16:1943.9451 #
-3.8477064389618301 3:18.454929 4:18.468054 5:1986.4469 8:1897.5293 9:360.38391 11:163.73218 14:-123611.19 15:0.021679213 16:2607.8284 #
100 3:6.4690976 4:6.4651184 5:799.19464 8:479.35321 9:66.582809 11:21.740961 14:-47435.16 15:0.034403615 16:1315.9491 #
-9.9593654120160693 3:17.096127 4:17.101892 5:2415.8076 8:1409.8027 9:176.20233 11:104.84121 14:-125512.4 15:0.033550706 16:3566.9995 #
-6.2725754168824048 3:5.8823419 4:5.8777213 5:734.27338 8:529.12219 9:68.212181 11:35.935917 14:-39616.52 15:0.023162214 16:613.03497 #
-0.30997342369259251 3:34.409485 4:34.243839 5:5142.6362 8:1608.662 9:406.15784 11:236.54778 14:-232190.44 15:0.026110744 16:13061.744 #
-88.938547011650812 3:6.0421343 4:6.0242496 5:602.83405 8:726.86194 9:74.867706 11:40.735088 14:-40687.105 15:0.028203113 16:833.74622 #
41.350496028187038 3:6.6978045 4:6.6067581 5:849.67523 8:612.64789 9:57.017021 11:21.88658 14:-48325.793 15:0.028906189 16:1783.5886 #
-2.6511345635182639 3:25.91082 4:25.929207 5:3329.1536 8:2001.6942 9:285.6416 11:115.60403 14:-194531.16 15:0.02892312 16:8308.7451 #
11.758789253578783 3:23.356852 4:23.179829 5:3655.9153 8:2062.677 9:126.32422 11:63.937191 14:-168910.13 15:0.037341077 16:6798.1797 #
-11.630758327885614 3:7.0644584 4:6.9152741 5:1055.7533 8:615.35541 9:85.684723 11:56.690754 14:-46066.75 15:0.035053171 16:1105.9647 #
71.051332048479253 3:5.6868062 4:5.6472955 5:745.3811 8:523.02454 9:45.291664 11:20.724728 14:-40439.352 15:0.029838702 16:786.25 #
-0.37449075409312993 3:29.003124 4:28.768084 5:4067.4941 8:1298.7969 9:329.14462 11:198.96748 14:-192482.44 15:0.033044122 16:11660.916 #
-100 3:5.5307012 4:5.5163574 5:565.12787 8:371.16251 9:78.349045 11:28.941973 14:-40452.047 15:0.025818724 16:978.46515 #
-28.245468700893639 3:6.8693995 4:6.787919 5:845.2572 8:527.27502 9:83.371704 11:38.303257 14:-47462.453 15:0.038330387 16:1902.1647 #
-83.394442527286003 3:6.9637985 4:6.9200349 5:801.7536 8:494.42554 9:93.050713 11:63.148811 14:-47370.863 15:0.022365293 16:1342.2504 #
-1.6649907417550238 3:26.95784 4:26.538727 5:4017.1357 8:1387.1858 9:302.68106 11:168.89687 14:-182552.59 15:0.026195521 16:8789.9629 #
-46.1147666108821 3:5.8377156 4:5.7431068 5:674.75958 8:438.57645 9:74.712234 11:36.999706 14:-40277.496 15:0.035621349 16:1444.7941 #
41.791714551289274 3:7.0030022 4:6.9213071 5:820.58673 8:712.63019 9:59.928246 11:24.795033 14:-47273.297 15:0.03268633 16:1366.7357 #
59.307490473121248 3:5.7246614 4:5.725069 5:641.74036 8:354.97238 9:70.447258 11:20.70319 14:-41039.426 15:0.030781304 16:1034.6475 #
0.85449136821034699 3:10.82539 4:10.801634 5:1519.1122 8:1028.6119 9:83.520485 11:41.434158 14:-76074.227 15:0.037080165 16:2276.0935 #
-100 3:6.9243536 4:6.9207377 5:934.57526 8:335.75742 9:86.637642 11:33.179195 14:-41306.23 15:0.027573265 16:1311.8894 #
-0.14542371268083309 3:20.256289 4:20.156498 5:3033.3296 8:1675.2827 9:138.30896 11:72.536453 14:-152610.08 15:0.039314013 16:7908.8569 #
-0.37558650435280083 3:29.960667 4:29.405102 5:4739.6196 8:1580.3336 9:356.14764 11:165.83681 14:-204824.69 15:0.035090972 16:11894.745 #
1.2984449831218556 3:17.169622 4:17.165182 5:2145.0046 8:964.62921 9:72.291428 11:31.95653 14:-99020.898 15:0.037293542 16:7388.2598 #
-31.37389807558402 3:5.9964147 4:6.0006771 5:553.31512 8:324.98779 9:63.128254 11:25.451654 14:-41319.797 15:0.031657357 16:1346.5781 #
100 3:7.1918254 4:7.1709266 5:1002.92 8:777.23108 9:68.340248 11:25.618858 14:-48425.641 15:0.035440955 16:1388.312 #
-0.25639973630772772 3:23.578539 4:23.47576 5:3582.8877 8:1169.4282 9:151.8864 11:74.639297 14:-155329.28 15:0.0066483612 16:1064.2915 #
-100 3:6.2482123 4:6.2536368 5:784.4538 8:479.22403 9:82.849327 11:35.314407 14:-41270.633 15:0.03437075 16:1229.2637 #
26.289631740945978 3:13.017506 4:12.953989 5:2032.2764 8:1148.3425 9:63.732029 11:33.041767 14:-86940.273 15:0.036668446 16:3309.4031 #
68.699139458014685 3:7.715404 4:7.6969824 5:1124.6547 8:528.84503 9:82.324829 11:33.060795 14:-49512.926 15:0.035997842 16:1888.2711 #
2.4258243596697184 3:7.8883739 4:7.7753258 5:1135.2853 8:766.67328 9:89.701904 11:31.564449 14:-54317.91 15:0.026037404 16:1466.6873 #
100 3:6.2961116 4:6.301291 5:756.13318 8:392.36652 9:77.313797 11:27.560289 14:-41777.891 15:0.033433426 16:1375.9961 #
0.75889176526969704 3:21.225204 4:21.125847 5:3388.9822 8:1349.7767 9:59.469425 11:22.249567 14:-131508.67 15:0.038693588 16:9161.7881 #
-30.941826269330488 3:5.9548917 4:5.9553156 5:463.50137 8:307.15756 9:83.212593 11:52.466759 14:-41881.605 15:0.016767368 16:1023.5156 #
-69.88049599604561 3:18.70509 4:18.594467 5:2873.1101 8:1765.1577 9:169.50035 11:82.076645 14:-126935.07 15:0.038544439 16:4572.6943 #
100 3:6.3377681 4:6.3056021 5:804.99933 8:449.1474 9:83.265732 11:34.312672 14:-41487.656 15:0.034679472 16:1236.2197 #
21.577681354900424 3:7.3771076 4:7.3682737 5:1048.8776 8:581.54651 9:59.511906 11:31.476641 14:-48593.457 15:0.033933003 16:2269.074 #
52.788850284277885 3:6.5001273 4:6.379612 5:846.43079 8:341.74408 9:64.813843 11:26.246065 14:-40672.309 15:0.028274367 16:1143.3525 #
1.8480738847322284 3:23.817924 4:23.841246 5:2939.1409 8:1347.7113 9:99.019402 11:47.48988 14:-147629.86 15:0.036911543 16:9878.2139 #
-100 3:6.8900127 4:6.8938451 5:893.43732 8:400.30493 9:84.771484 11:35.759003 14:-41847.789 15:0.032317169 16:1235.9535 #
-3.4926344389187411 3:7.6253805 4:7.6315536 5:864.5694 8:626.85309 9:104.40342 11:53.483242 14:-52632.906 15:0.03736937 16:1700.6078 #
100 3:6.2807217 4:6.2188001 5:857.82062 8:393.68005 9:83.331413 11:26.792917 14:-41094.227 15:0.032566503 16:1281.6283 #
19.458754389391181 3:6.009604 4:6.0154881 5:641.75836 8:522.9234 9:47.18071 11:17.951338 14:-41574.16 15:0.035499789 16:1025.3983 #
32.773866139979404 3:17.448427 4:17.253117 5:2636.0471 8:1840.6859 9:90.728806 11:38.199047 14:-128907.52 15:0.037334412 16:3903.5627 #
59.660118103941841 3:11.212793 4:11.211732 5:1593.9213 8:728.92328 9:63.674622 11:20.56411 14:-72484.633 15:0.035030559 16:2666.188 #
1.4984224337927536 3:24.558125 4:24.533865 5:3106.7346 8:3090.1545 9:135.35066 11:63.490952 14:-170679.66 15:0.037069216 16:7370.0459 #
-100 3:6.157445 4:6.0169549 5:763.28955 8:698.77283 9:72.864067 11:30.647858 14:-42218.352 15:0.032916445 16:999.82953 #
7.5016994398210981 3:11.769345 4:11.655763 5:1679.4225 8:721.64972 9:64.951126 11:23.946039 14:-78404.68 15:0.035283968 16:4366.3901 #
-0.63395016490740597 3:22.105692 4:21.807961 5:2321.4307 8:2595.0527 9:501.85052 11:230.96619 14:-165268.53 15:0.025788523 16:5264.3428 #
46.031653646156521 3:6.6400652 4:6.6407714 5:515.73352 8:767.42914 9:100.16879 11:47.275318 14:-42805.98 15:0.024018573 16:977.75012 #
-72.619726834748533 3:7.868576 4:7.8228731 5:1048.6261 8:505.23154 9:68.115158 11:27.102158 14:-58896.73 15:0.036537886 16:2306.1638 #
-100 3:5.8835754 4:5.8749619 5:567.83063 8:451.13043 9:52.580246 11:20.141184 14:-42943.195 15:0.035129305 16:1159.3595 #
-99.982567526119752 3:6.014472 4:5.9830513 5:611.289 8:611.95776 9:93.967323 11:64.255676 14:-43170.895 15:0.014281941 16:980.01807 #
79.07697543084133 3:6.3064599 4:6.2515583 5:894.69666 8:527.94043 9:68.271828 11:26.038603 14:-42999.402 15:0.034926049 16:1231.0078 #
100 3:5.8267393 4:5.8172975 5:595.24615 8:598.15405 9:57.297821 11:19.443777 14:-43102.719 15:0.033302024 16:954.12988 #
8.0152462390781736 3:10.969552 4:10.966918 5:1414.2189 8:1253.1014 9:80.647232 11:35.685585 14:-72634.617 15:0.036944468 16:3402.9456 #
-94.247031767826897 3:6.5211806 4:6.3710017 5:902.16602 8:551.73474 9:99.481995 11:42.299179 14:-43659.727 15:0.026512654 16:1060.2345 #
100 3:6.2093148 4:6.1966014 5:797.66284 8:570.47308 9:65.576996 11:24.98694 14:-42638.914 15:0.031661738 16:1334.5966 #
-0.83348719980380581 3:22.202301 4:22.190546 5:2635.7419 8:1643.0857 9:483.13086 11:319.86157 14:-137887.36 15:0.03676001 16:5239.5303 #
66.149949643896377 3:8.5404539 4:8.5178251 5:1151.587 8:812.06958 9:69.132797 11:35.066738 14:-58740.145 15:0.036532782 16:1775.2162 #
-58.209108300302049 3:6.0077791 4:5.9569178 5:646.6358 8:609.3819 9:94.309746 11:53.657871 14:-40185.398 15:0.036403231 16:1185.6798 #
-19.436509825527949 3:7.3298612 4:7.3336821 5:831.81989 8:433.39597 9:51.587841 11:24.232845 14:-51459.316 15:0.027696352 16:1795.3297 #
-7.0291090242309222 3:11.355905 4:11.227505 5:1559.9252 8:492.25476 9:136.38051 11:74.082405 14:-78200.336 15:0.035453014 16:4354.0073 #
-34.205549461680455 3:6.111649 4:6.114398 5:586.90289 8:507.47092 9:57.860718 11:18.72121 14:-46969.754 15:0.02303442 16:855.11615 #
-0.62712842349547193 3:12.600307 4:12.558769 5:1521.7109 8:1180.4246 9:273.07047 11:140.696 14:-83325.297 15:0.0067068408 16:607.43805 #
100 3:6.3610735 4:6.3659735 5:743.68561 8:573.41772 9:77.526863 11:28.924366 14:-43961.438 15:0.033871263 16:1085.8962 #
-100 3:7.0872512 4:6.9789691 5:900.05975 8:698.03674 9:94.456482 11:67.776093 14:-48174.73 15:0.03602048 16:1374.3499 #
92.421402267590992 3:5.9430094 4:5.9404922 5:728.26416 8:493.20935 9:66.042015 11:25.170033 14:-43591.391 15:0.03380049 16:1302.2749 #
-34.836109498554151 3:5.9416404 4:5.9359674 5:597.88879 8:426.42633 9:64.242943 11:25.550362 14:-43822.414 15:0.018803332 16:1165.2561 #
-100 3:6.5213852 4:6.5004134 5:792.66571 8:579.62231 9:89.157806 11:61.471901 14:-44315.012 15:0.036165725 16:1319.0387 #
-0.078092227021648933 3:18.651653 4:18.36619 5:2312.094 8:2302.5283 9:145.41533 11:65.650124 14:-128740.53 15:0.03983466 16:5466.6587 #
86.667679749211857 3:6.2977104 4:6.2596521 5:852.27893 8:409.02151 9:60.544437 11:16.609018 14:-44636.223 15:0.033593044 16:1388.3436 #
-18.405128369272401 3:6.4291739 4:6.4209299 5:833.72705 8:634.62775 9:65.222137 11:24.953743 14:-43096.133 15:0.039316893 16:1906.603 #
-100 3:6.0017648 4:5.8583608 5:771.46094 8:421.54321 9:89.220787 11:38.270191 14:-39937.953 15:0.025615212 16:935.96857 #
-67.422709145230641 3:6.4669237 4:6.4624672 5:716.1709 8:563.68317 9:95.219925 11:64.338135 14:-46873.16 15:0.028757082 16:1431.7509 #
-100 3:6.3827062 4:6.3587546 5:865.7702 8:424.62189 9:55.712032 11:23.231073 14:-44759.461 15:0.027839595 16:1389.8124 #
35.862260268444864 3:8.0203447 4:7.9385791 5:863.27246 8:1106.8113 9:81.844139 11:37.300491 14:-58236.668 15:0.033890173 16:1341.1353 #
69.552636492102778 3:6.1965575 4:6.1869121 5:731.13007 8:527.68573 9:61.991856 11:28.291018 14:-45120.371 15:0.032229412 16:1567.012 #
-0.082199731040642487 3:20.013813 4:20.029913 5:1895.0671 8:1976.8513 9:241.06314 11:131.52464 14:-144117.14 15:0.032575697 16:6133.647 #
-7.1171716195910308 3:16.787449 4:16.753145 5:2415.4917 8:1618.0546 9:178.06445 11:92.862518 14:-119566.28 15:0.03551003 16:4844.7124 #
-20.275458935605041 3:6.3268418 4:6.2968717 5:802.76654 8:761.02155 9:58.020508 11:33.465702 14:-44563.141 15:0.036244363 16:1590.308 #
9.6852365902613631 3:7.5013704 4:7.3825555 5:1241.3743 8:502.52094 9:47.143555 11:21.379433 14:-44259.805 15:0.035059996 16:1811.9363 #
-0.056666238508935318 3:3.0530572 4:3.0047021 5:334.46143 8:153.91797 9:54.793045 11:18.940662 14:-17320.256 15:0.0071058879 16:37.612926 #
26.119525039034045 3:7.6960831 4:7.3561568 5:1271.2026 8:601.67053 9:46.553154 11:19.893085 14:-50212.758 15:0.03487061 16:1421.1154 #
-0.023389163965949089 3:21.656404 4:21.481331 5:3097.6125 8:1827.2894 9:181.66138 11:115.51602 14:-165002.48 15:0.026381174 16:4664.0469 #
38.48846681121465 3:6.5792551 4:6.5856614 5:663.29297 8:783.44379 9:60.763084 11:23.333057 14:-44986.664 15:0.033411235 16:1056.0637 #
-36.225082076957897 3:5.7632279 4:5.7445569 5:480.62848 8:360.07837 9:62.850609 11:31.362206 14:-39900.566 15:0.030245069 16:1123.921 #
-3.5352348189844474 3:12.873733 4:12.870547 5:1344.5417 8:664.54865 9:115.62025 11:59.960461 14:-80936.023 15:0.032100335 16:3909.1472 #
-0.22826136418081688 3:10.016654 4:9.9874525 5:1163.4358 8:1093.9585 9:113.05834 11:79.226936 14:-72263.219 15:0.034199476 16:2455.9851 #
100 3:6.2192292 4:6.2010169 5:789.73077 8:471.2775 9:60.907757 11:17.587414 14:-46466.555 15:0.031366609 16:1275.2634 #
100 3:6.6945095 4:6.6726747 5:896.48193 8:533.59869 9:79.493301 11:29.948786 14:-44434.195 15:0.035071768 16:1304.2869 #
-0.20201397974538138 3:26.897972 4:26.777855 5:3439.2358 8:3522.248 9:236.30325 11:124.84251 14:-200857.11 15:0.036061086 16:8770.3105 #
0.79458163581736463 3:30.1702 4:30.199223 5:4286.4902 8:1953.2008 9:76.30426 11:35.789684 14:-198429.27 15:0.038466334 16:12599.31 #
-0.089606162307084181 3:29.401157 4:29.4298 5:1619.6627 8:1162.3964 9:847.77423 11:708.39783 14:-109956.67 15:0.005961882 16:1406.4221 #
0.39328265248992145 3:17.67853 4:17.394115 5:2887.9968 8:1111.6766 9:79.706657 11:41.283573 14:-114926.55 15:0.037760753 16:6153.2041 #
-33.204563223305989 3:7.1320138 4:7.0947881 5:706.36395 8:896.47968 9:97.92012 11:43.193752 14:-45386.258 15:0.025915649 16:803.44653 #
-0.02834887660127916 3:19.032602 4:18.706696 5:2682.0229 8:589.53113 9:345.79352 11:195.75688 14:-112329.41 15:0.0083512999 16:1445.0298 #
-0.030615558893819728 3:15.482832 4:15.494761 5:1741.4806 8:698.25659 9:268.30521 11:185.04211 14:-101888.63 15:0.005860792 16:496.88635 #
1.7067001994804913 3:12.463991 4:12.444518 5:1274.3757 8:1848.6619 9:86.101974 11:42.494617 14:-94263.734 15:0.03770452 16:2431.1694 #
-100 3:6.6472726 4:6.590064 5:769.42377 8:590.78406 9:88.197411 11:44.19149 14:-45400.332 15:0.026218208 16:1037.3159 #
-0.37428196536082314 3:29.467787 4:29.425501 5:2767.1772 8:3453.54 9:532.03168 11:267.79233 14:-246724.25 15:0.023970101 16:6428.77 #
-28.676055780871941 3:7.5610504 4:7.5641785 5:985.59564 8:714.54718 9:122.85231 11:77.482529 14:-45479.641 15:0.037498783 16:1741.5691 #
-0.10973039374678395 3:17.282719 4:17.295868 5:2171.2263 8:782.5835 9:271.97501 11:254.11073 14:-103130.19 15:0.0058704871 16:520.27277 #
-100 3:6.4101057 4:6.3782954 5:570.77966 8:517.94324 9:82.448608 11:37.573051 14:-45388.613 15:0.031651255 16:1319.2268 #
18.510698695145361 3:7.3321776 4:7.2502947 5:1047.4517 8:476.36124 9:70.380417 11:23.448925 14:-46075.711 15:0.035601892 16:1831.0438 #
82.87772428446965 3:5.9755173 4:5.9716277 5:651.74951 8:554.24103 9:52.128967 11:19.030931 14:-45776.637 15:0.033626899 16:1013.9056 #
31.869406311104772 3:6.9268365 4:6.8986835 5:826.71832 8:390.95853 9:52.905182 11:22.12055 14:-45728.25 15:0.031082118 16:1578.1166 #
-49.028110765106561 3:6.8424773 4:6.7903824 5:827.75702 8:464.8931 9:82.540672 11:43.055012 14:-46165.457 15:0.032717224 16:1432.8281 #
-100 3:6.8910179 4:6.8121653 5:1029.9049 8:527.16711 9:77.205719 11:40.229687 14:-45933.906 15:0.037203062 16:1137.6763 #
-7.5197743019578667 3:5.8674164 4:5.8698845 5:543.14825 8:483.81702 9:70.605804 11:37.041767 14:-45442.578 15:0.020642724 16:802.11841 #
74.337176107986366 3:7.4408016 4:7.279727 5:1142.2006 8:666.53204 9:73.707718 11:23.053345 14:-45761.758 15:0.033418443 16:1132.4349 #
-0.30140842775367271 3:21.420084 4:21.308527 5:2749.637 8:2768.937 9:190.09654 11:81.859589 14:-160503.97 15:0.037381504 16:7227.3711 #
1.2262773204871402 3:24.313271 4:24.337055 5:2923.0854 8:1301.8147 9:97.557518 11:41.909981 14:-146356.27 15:0.036575254 16:10013.352 #
0.71859491400555497 3:26.544327 4:26.215233 5:4345.0894 8:1636.2633 9:143.56876 11:80.35817 14:-173853.8 15:0.029683424 16:6196.8403 #
-100 3:8.5212698 4:8.397543 5:1126.9229 8:852.79547 9:94.059258 11:53.818436 14:-60400.887 15:0.037640426 16:1793.142 #
-39.842895002311941 3:9.1744204 4:9.1525202 5:1241.5854 8:688.42578 9:105.29813 11:67.718872 14:-60507.102 15:0.02933998 16:1567.4823 #
47.25167186744163 3:8.4131927 4:8.4192715 5:1023.9633 8:867.57831 9:66.50782 11:28.196228 14:-60316.762 15:0.036346674 16:1552.3721 #
2.1635353238152217 3:24.968603 4:24.516851 5:4109.0723 8:1676.6603 9:94.886513 11:48.664627 14:-173303.08 15:0.038173143 16:8618.7119 #
-1.0945437517529772 3:18.409477 4:18.414343 5:2309.3428 8:2196.8757 9:156.84666 11:77.877563 14:-136804.25 15:0.033999793 16:4538.8481 #
-100 3:8.1556864 4:8.0496292 5:1090.0129 8:846.95502 9:64.838234 11:32.063976 14:-60798.566 15:0.039412066 16:1950.0452 #
11.76188623371425 3:8.4043627 4:8.3724661 5:1040.2849 8:1006.2475 9:80.611252 11:27.841806 14:-61630.547 15:0.03313002 16:2165.0381 #
19.872358501384635 3:8.3789558 4:8.3163023 5:869.18353 8:1116.6846 9:90.555984 11:35.84861 14:-60173.945 15:0.028120073 16:1781.9979 #
1.0940930956124926 3:18.54162 4:18.559593 5:2287.7173 8:1038.1329 9:80.201653 11:39.777973 14:-113107.42 15:0.036803614 16:7743.0898 #
-0.16047194425839906 3:4.1956 4:4.1871891 5:276.55676 8:228.77025 9:148.91722 11:88.678642 14:-14195.223 15:0.032486428 16:327.26834 #
100 3:9.1239567 4:9.0742884 5:1303.2314 8:774.99353 9:105.05827 11:41.575481 14:-60352.703 15:0.026835334 16:1794.7435 #
-21.520033794059675 3:8.1395807 4:8.1304502 5:914.6098 8:944.33307 9:98.574821 11:71.24543 14:-59664.57 15:0.03228014 16:2132.7961 #
-16.289620611941061 3:9.9992371 4:10.009008 5:1358.6674 8:954.21509 9:131.06963 11:82.099777 14:-60268.18 15:0.038066186 16:2172.7097 #
-27.912225941336935 3:8.8708792 4:8.8679428 5:1232.2144 8:638.76642 9:120.74561 11:65.477409 14:-60170.188 15:0.031527992 16:2449.6279 #
-84.603963164548318 3:9.5800629 4:9.5423098 5:1452.5029 8:881.32245 9:101.90307 11:56.128433 14:-59786.285 15:0.040646467 16:2435.6072 #
-0.47355338656421919 3:12.391859 4:12.387468 5:1627.8931 8:834.43744 9:103.45515 11:67.320641 14:-90908.102 15:0.0086065698 16:621.3941 #
81.283006900121038 3:9.009284 4:9.0177517 5:1244.8555 8:885.36591 9:64.223442 11:29.98617 14:-59782.859 15:0.032570925 16:2522.1965 #
15.774741846957816 3:9.197649 4:9.1815376 5:1309.4838 8:706.95349 9:67.037926 11:24.741764 14:-60190.781 15:0.036773499 16:2255.5466 #
100 3:8.9366302 4:8.9384689 5:1140.1586 8:748.49976 9:79.711433 11:23.474218 14:-59601.906 15:0.035744268 16:1827.5887 #
-95.654813607610947 3:9.0449057 4:9.0530863 5:1088.0803 8:694.789 9:96.90892 11:57.702591 14:-59609.797 15:0.022528639 16:1849.4973 #
21.978586629157505 3:9.3004084 4:9.3065596 5:899.00861 8:1133.3905 9:92.162025 11:42.918583 14:-67287.195 15:0.031052291 16:2523.8008 #
-41.806878083508757 3:5.5778122 4:5.5775247 5:496.12207 8:588.62006 9:73.847153 11:46.348389 14:-42457.477 15:0.014823805 16:847.97955 #
67.916251458694035 3:6.8641143 4:6.8567004 5:990.81293 8:643.70123 9:54.424137 11:17.927597 14:-41974.117 15:0.035886154 16:1175.0974 #
56.160648644122418 3:8.4236879 4:8.4128914 5:1151.0936 8:826.19366 9:59.591454 11:19.606133 14:-60593.336 15:0.036431547 16:1737.2727 #
47.069598096698613 3:9.1537132 4:9.1338549 5:1357.803 8:679.55035 9:90.431343 11:42.610622 14:-59371.57 15:0.036070455 16:2255.6921 #
-0.022262419672995915 3:24.062437 4:23.986219 5:3389.8657 8:1597.259 9:139.9635 11:83.89312 14:-166195.7 15:0.035814445 16:6674.3652 #
-100 3:8.4383497 4:8.4462519 5:1062.5209 8:674.78894 9:91.584908 11:48.697311 14:-59202.719 15:0.037330586 16:1945.8152 #
41.102802961666896 3:8.1626482 4:8.1690283 5:1065.9147 8:748.2533 9:73.590569 11:28.605223 14:-55466.672 15:0.035837352 16:1705.3777 #
-0.33330806318602968 3:43.317844 4:43.322281 5:5664.5845 8:2651.2056 9:233.08853 11:143.59552 14:-321586.22 15:0.001371812 16:1065.2808 #
-0.52668153146645835 3:13.214968 4:13.166928 5:1756.0029 8:1115.0308 9:123.36513 11:54.183594 14:-100867.95 15:0.02602895 16:3509.613 #
-100 3:8.4487572 4:8.3855667 5:1238.0223 8:703.27386 9:78.661186 11:26.083298 14:-58805.449 15:0.037462503 16:1739.9288 #
8.1648662172864341 3:13.387701 4:13.381319 5:1813.7607 8:1374.9351 9:63.181332 11:26.525553 14:-104629.01 15:0.035676412 16:4123.1846 #
-0.25292771518567303 3:26.800884 4:26.748325 5:3724.053 8:1707.1807 9:226.51672 11:144.70508 14:-183171.58 15:0.034111831 16:7363.0674 #
-0.37387557234733937 3:53.45499 4:53.345318 5:7815.5547 8:5589.9575 9:495.53253 11:288.79276 14:-428435.38 15:0.017841017 16:13357.041 #
100 3:8.3075237 4:8.2375946 5:983.3183 8:780.65002 9:109.97971 11:41.32959 14:-59025.465 15:0.023379263 16:1712.079 #
2.2252300088727379 3:8.2915554 4:8.1480608 5:1235.0107 8:837.17407 9:73.872635 11:25.755791 14:-59396.859 15:0.034591757 16:1575.9866 #
100 3:9.18507 4:9.1907892 5:1242.1176 8:517.12286 9:55.974358 11:21.315304 14:-59042.344 15:0.036026604 16:2183.4961 #
-100 3:8.0492468 4:7.9953856 5:992.89032 8:944.68207 9:72.159569 11:27.554119 14:-58864.613 15:0.039342314 16:2332.8987 #
4.2349679901020814 3:12.213777 4:12.202523 5:1792.6127 8:633.77094 9:71.611237 11:30.787764 14:-75447.727 15:0.035851896 16:2860.2454 #
-47.801326546011786 3:6.9753547 4:6.9814038 5:932.69293 8:592.90204 9:96.698952 11:54.050217 14:-42543.836 15:0.036949053 16:1439.1439 #
94.191290804604733 3:7.8486838 4:7.8510604 5:861.96271 8:866.99097 9:55.08506 11:19.04421 14:-58639.941 15:0.03138249 16:2288.51 #
76.622112769932116 3:8.042923 4:8.0450621 5:966.07159 8:875.92505 9:68.609673 11:25.218628 14:-59036.617 15:0.033157405 16:2113.6292 #
-0.27395257929830835 3:24.261244 4:24.269407 5:3268.3071 8:1276.8357 9:103.33415 11:57.474937 14:-149995.13 15:0.0068808561 16:1230.8041 #
-100 3:6.6886597 4:6.6710172 5:802.01984 8:573.13373 9:71.259918 11:51.053413 14:-42648.59 15:0.029744651 16:1157.0704 #
-100 3:7.8607903 4:7.8501887 5:918.31769 8:790.47284 9:58.311859 11:21.7248 14:-58423.281 15:0.03758651 16:1704.7654 #
-0.49541938939498209 3:6.8994951 4:6.8057747 5:845.17493 8:448.09683 9:86.879425 11:44.832066 14:-46542.266 15:0.01792689 16:1133.2318 #
100 3:8.3410091 4:8.3144207 5:1153.7775 8:682.12927 9:83.3097 11:27.265818 14:-58434.773 15:0.031174541 16:1784.7531 #
-10.113035502730412 3:8.2427349 4:8.2504511 5:667.38361 8:795.29401 9:100.72626 11:36.556301 14:-58371.418 15:0.034535058 16:2215.8235 #
-9.7829797203593962 3:9.0816927 4:8.8926392 5:1239.2454 8:639.08374 9:95.840149 11:60.603359 14:-63307.621 15:0.0348759 16:2003.479 #
-1.4782682692652658 3:17.57312 4:17.208691 5:2223.396 8:1993.4968 9:129.91655 11:46.154724 14:-128626.24 15:0.036540125 16:5774.2329 #
67.74059996734043 3:9.06001 4:8.8593044 5:1094.1133 8:652.43036 9:83.756821 11:26.228958 14:-58357.48 15:0.032159209 16:2646.155 #
-10.21054939699342 3:5.5138168 4:5.5101895 5:582.4046 8:313.52094 9:113.44664 11:63.226433 14:-34153.453 15:0.03685021 16:1276.2889 #
5.1211058067977717 3:18.261921 4:18.263704 5:2495.6406 8:1735.7401 9:104.15134 11:55.71629 14:-129543.91 15:0.035305172 16:6125.2305 #
-1.4233539666357231 3:29.353155 4:29.1672 5:4443.4487 8:2601.812 9:319.86026 11:213.70796 14:-201902.09 15:0.028663278 16:7666.9707 #
-41.249444337929532 3:9.4215698 4:9.41119 5:1119.6571 8:784.63873 9:154.2003 11:94.456268 14:-58221.406 15:0.031803329 16:2700.1646 #
0.4061869767742281 3:16.084047 4:16.050398 5:2281.8335 8:946.05426 9:90.144394 11:39.346161 14:-94323.898 15:0.036510825 16:5940.8179 #
-0.24238850635309883 3:25.186787 4:25.203604 5:3184.6792 8:1323.6871 9:394.08109 11:327.31781 14:-146239.88 15:0.0059956438 16:1108.3599 #
-31.580885764454038 3:8.2935724 4:8.2605486 5:1171.5978 8:452.20737 9:94.965363 11:60.065315 14:-57995.516 15:0.035859935 16:2497.0396 #
-0.18355936915385049 3:14.43617 4:14.209428 5:2213.5994 8:718.39313 9:115.11736 11:60.842346 14:-98017.531 15:0.037816908 16:5981.8687 #
-0.84074997382447536 3:12.463913 4:12.250898 5:2024.2834 8:800.65564 9:136.8643 11:98.428192 14:-73383.773 15:0.0068852068 16:573.52655 #
-35.290216446375133 3:10.505555 4:10.515626 5:1416.4292 8:968.46948 9:133.08142 11:86.048347 14:-65043.938 15:0.036782842 16:2268.4622 #
-1.2881634612862645 3:21.376383 4:21.350676 5:2292.1487 8:1929.9125 9:501.92355 11:283.24954 14:-137672.13 15:0.020815881 16:4734.7529 #
-84.562159156619629 3:8.3294058 4:8.1584692 5:1098.8889 8:1050.6484 9:98.204475 11:36.427429 14:-58133.262 15:0.035385497 16:1462.9673 #
100 3:8.4761047 4:8.4743681 5:1020.0949 8:745.32202 9:61.661434 11:28.110704 14:-58007.797 15:0.034280915 16:1477.4722 #
-0.21037935488612997 3:20.643042 4:20.362066 5:3300.05 8:1459.0809 9:129.32092 11:64.959579 14:-147885.8 15:0.0067652878 16:979.91791 #
33.211468976844785 3:8.8749037 4:8.8304873 5:1297.3801 8:656.60303 9:79.340492 11:36.732082 14:-57447.586 15:0.031864371 16:1906.2151 #
-24.45210073520397 3:9.3847132 4:9.0630875 5:1502.6509 8:640.74872 9:125.60789 11:48.691765 14:-58442.688 15:0.023343127 16:1608.6335 #
18.145540633622687 3:5.6566758 4:5.6388049 5:749.05182 8:450.19138 9:58.030037 11:27.493805 14:-39856.945 15:0.031562954 16:1166.6315 #
19.162149520238451 3:6.2732973 4:6.2794104 5:716.15131 8:512.43805 9:63.425705 11:25.806158 14:-44698.332 15:0.034511138 16:1258.4651 #
49.618041605232619 3:8.7947235 4:8.8028183 5:1134.0497 8:774.82513 9:65.380249 11:27.16618 14:-60973.172 15:0.033718996 16:2521.7437 #
-0.37553648353594293 3:32.966377 4:32.908203 5:4565.562 8:3370.7942 9:431.12375 11:187.69632 14:-242083.41 15:0.019492695 16:8945.4971 #
-1.2776950040036716 3:21.15929 4:21.179413 5:2448.8406 8:2542.7878 9:170.38713 11:70.897598 14:-166542.88 15:0.039377887 16:6305.5088 #
-100 3:6.0579309 4:6.0329847 5:626.49573 8:495.5889 9:90.003731 11:48.143276 14:-41565.977 15:0.028364358 16:1272.6062 #
100 3:6.372025 4:6.3744426 5:746.79816 8:556.63562 9:58.0196 11:24.699266 14:-45377.836 15:0.034242924 16:1112.0685 #
-0.34710330523484911 3:23.777933 4:23.631887 5:3415.9624 8:2163.3733 9:218.65344 11:130.34148 14:-187836.81 15:0.03649113 16:7551.7915 #
-100 3:6.1773434 4:6.1758909 5:685.37567 8:595.96478 9:79.139412 11:46.578594 14:-46683.301 15:0.032779906 16:1449.7078 #
100 3:6.8773584 4:6.8840947 5:750.40619 8:517.39038 9:69.389038 11:30.460751 14:-46850.578 15:0.033580832 16:1340.1581 #
19.258356411799596 3:11.267033 4:11.269985 5:1523.7041 8:1174.3101 9:96.239815 11:41.249302 14:-75000.711 15:0.034148529 16:3321.6084 #
-11.737598768504274 3:11.002906 4:10.941193 5:1542.1428 8:969.33429 9:135.72998 11:87.445541 14:-74965.781 15:0.039347574 16:3102.2837 #
-2.9328970789127231 3:10.267942 4:10.168756 5:1319.703 8:958.05334 9:110.10211 11:68.346352 14:-75221.828 15:0.036133006 16:2625.137 #
-0.044874683701860429 3:11.941648 4:11.908862 5:1718.5959 8:1064.1566 9:85.796944 11:47.752056 14:-87274.438 15:0.006819434 16:575.42163 #
8.8997490141573881 3:10.037523 4:10.009939 5:1038.1294 8:1475.9319 9:78.629883 11:35.512367 14:-74167.211 15:0.037579793 16:1969.6124 #
-100 3:10.562104 4:10.425876 5:1490.0731 8:1067.1937 9:130.61107 11:67.590927 14:-74957.953 15:0.033838384 16:2048.2681 #
-5.8584721545171021 3:11.552851 4:11.515251 5:1753.2406 8:894.91449 9:97.071114 11:55.899555 14:-74403.672 15:0.03327506 16:1810.1262 #
-34.455567235323912 3:6.6098332 4:6.5429249 5:748.81805 8:343.20239 9:78.082291 11:39.439144 14:-46660.551 15:0.019436043 16:1049.8148 #
-67.48172600388358 3:11.696492 4:11.704848 5:1679.2908 8:1118.9674 9:96.829987 11:59.408836 14:-74391.844 15:0.039546218 16:2690.5051 #
-88.004779027575296 3:11.467862 4:11.458635 5:1618.6694 8:925.16974 9:123.24234 11:69.181831 14:-74475.414 15:0.035811022 16:2201.9587 #
-89.248448661919497 3:10.222518 4:10.21426 5:1299.9722 8:1102.9869 9:98.795509 11:51.71986 14:-74103.352 15:0.033965535 16:2001.757 #
-4.7643356187234227 3:4.0880575 4:4.0889101 5:361.83682 8:342.81821 9:62.663994 11:24.493225 14:-26962.428 15:0.021596877 16:477.06088 #
78.630797031235886 3:10.565228 4:10.554975 5:1388.8289 8:1149.938 9:84.697502 11:29.732512 14:-74258.492 15:0.036571112 16:1852.9006 #
-0.21710290518952058 3:21.238335 4:21.120062 5:2992.6475 8:2122.5935 9:214.24146 11:159.94846 14:-157493.86 15:0.017127624 16:3907.6262 #
-0.27216178451404205 3:25.989786 4:25.87652 5:3427.335 8:2320.762 9:421.21231 11:325.91245 14:-176346.81 15:0.0055276188 16:1127.7499 #
1.1200510179738909 3:26.440216 4:26.220972 5:4339.6743 8:1883.5822 9:80.903107 11:33.283283 14:-177187.5 15:0.038594369 16:10743.204 #
28.111727028040747 3:9.5758696 4:9.556982 5:1283.9257 8:1125.991 9:55.872787 11:18.366846 14:-73757.75 15:0.036052119 16:2589.4075 #
78.017121399946603 3:9.7530289 4:9.7472935 5:1275.1228 8:912.00543 9:80.627838 11:26.70785 14:-73617.961 15:0.037178662 16:2157.4321 #
52.012944062919836 3:10.980102 4:10.907152 5:1655.4983 8:828.29944 9:79.75145 11:27.207886 14:-73951.898 15:0.034993142 16:2663.3523 #
-49.063194468462726 3:10.853216 4:10.861683 5:1416.9602 8:884.40002 9:107.32035 11:75.143929 14:-73903.953 15:0.032649804 16:2775.7234 #
-3.0674532782366595 3:10.593677 4:10.598265 5:1299.1252 8:1301.7328 9:92.995026 11:49.324387 14:-76459.344 15:0.024682578 16:1483.6497 #
-0.18457985815259925 3:24.764961 4:24.314142 5:3722.8501 8:1376.35 9:401.93289 11:279.09216 14:-149012.73 15:0.005826036 16:1025.8162 #
100 3:10.600313 4:10.513334 5:1540.0435 8:1010.4532 9:86.959953 11:44.176567 14:-74502.922 15:0.035774734 16:2284.7327 #
-0.35764843170148275 3:31.782833 4:31.543913 5:3587.1563 8:2824.3767 9:380.03488 11:184.71497 14:-228369.77 15:0.029719016 16:9044.7813 #
30.935336919388693 3:8.0587397 4:8.026413 5:1211.4038 8:752.65692 9:72.071167 11:22.339827 14:-52571.242 15:0.034002654 16:1300.5939 #
-100 3:9.9750681 4:9.9552803 5:1315.7555 8:1070.1061 9:112.01889 11:41.634563 14:-73577.977 15:0.036595784 16:1968.6432 #
-0.11343083689238434 3:26.520607 4:26.076719 5:3951.5073 8:2001.7737 9:437.48978 11:232.54053 14:-182595.92 15:0.021735054 16:5733.314 #
10.663020497074269 3:8.7477322 4:8.7493458 5:1112.413 8:853.41541 9:48.103638 11:19.69334 14:-69490.75 15:0.033770375 16:2560.6741 #
11.44376773300985 3:19.545414 4:19.512329 5:2675.4868 8:2128.0159 9:92.012627 11:39.63747 14:-155385.72 15:0.035817403 16:5963.0371 #
-33.07691637956853 3:5.205267 4:5.2016168 5:450.77554 8:204.51088 9:60.106556 11:24.173414 14:-35253.59 15:0.018765207 16:865.16461 #
-0.1857231668081504 3:24.708284 4:24.618179 5:3470.333 8:3173.0913 9:143.17609 11:75.815399 14:-181004.56 15:0.037915513 16:7922.9248 #
-3.0569376380327746 3:7.8288875 4:7.7228379 5:915.13837 8:483.5376 9:80.659317 11:45.042557 14:-56121.07 15:0.035401329 16:2095.8464 #
7.1441442683557854 3:16.671843 4:16.658302 5:2256.844 8:1954.1958 9:125.74855 11:57.943615 14:-109425.98 15:0.029659083 16:4616.4521 #
34.254615375437837 3:10.526107 4:10.345484 5:1628.2437 8:1022.3557 9:96.550964 11:40.868931 14:-73098.234 15:0.03696423 16:2171.6487 #
-0.82249464827920571 3:23.198586 4:23.191782 5:2423.3455 8:2209.2268 9:492.75302 11:279.3718 14:-167249.56 15:0.025390755 16:6309.1084 #
-0.36542096446631989 3:25.953375 4:25.954758 5:2980.5703 8:3083.5393 9:220.78497 11:104.21757 14:-200641.5 15:0.017520996 16:4634.2842 #
-18.521094722599635 3:12.565014 4:12.510106 5:1867.993 8:620.44708 9:134.37712 11:70.488503 14:-73618.016 15:0.026459701 16:2310.5049 #
-6.4467820197906462 3:8.2958508 4:8.3035088 5:868.742 8:500.19125 9:65.625717 11:27.602015 14:-57635.613 15:0.041274831 16:2506.7471 #
-0.39226785931581398 3:34.901718 4:34.70454 5:4783.6821 8:2008.1875 9:307.47955 11:170.7682 14:-235107.27 15:0.019944161 16:9336.165 #
-58.278450319659981 3:10.782783 4:10.781424 5:1499.4659 8:970.63538 9:131.45615 11:68.553543 14:-72705.086 15:0.028030803 16:1983.3826 #
53.038749318406609 3:10.395247 4:10.401518 5:1365.1389 8:1098.1969 9:75.066711 11:22.324926 14:-73340.828 15:0.036434345 16:1791.0145 #
3.9917488303081834 3:10.477692 4:10.476921 5:1388.9872 8:1057.3958 9:76.443008 11:25.026056 14:-72273.586 15:0.036591951 16:1839.1527 #
99.383517861921263 3:10.457057 4:10.43546 5:1472.8779 8:912.3819 9:61.740833 11:29.230864 14:-72268.414 15:0.037549257 16:2323.4446 #
-100 3:10.207375 4:10.109658 5:1496.7327 8:831.24219 9:100.37353 11:57.652344 14:-72522.445 15:0.035900809 16:2519.9153 #
7.2559913003686063 3:11.303952 4:11.303791 5:1619.1249 8:602.58423 9:58.723072 11:23.35914 14:-70990.234 15:0.036209196 16:2698.8501 #
3.174035939447212 3:19.137867 4:18.807482 5:3134.1626 8:1144.7075 9:90.274101 11:47.806702 14:-123537.67 15:0.03775122 16:6637.4878 #
-55.964009429273908 3:11.372443 4:11.354788 5:1680.6646 8:844.68817 9:126.82439 11:68.471924 14:-71865.75 15:0.032694135 16:2422.7556 #
16.197992329695715 3:11.950658 4:11.710942 5:1943.8961 8:657.30255 9:91.180954 11:32.378162 14:-71651.531 15:0.035338677 16:2688.4905 #
1.1269369506757416 3:24.151573 4:24.154037 5:2991.3628 8:1286.8938 9:92.380882 11:40.910385 14:-137867.42 15:0.036865193 16:10197.739 #
-0.32121932724568086 3:18.080835 4:17.966337 5:2660.2195 8:1376.4664 9:118.49239 11:67.790016 14:-124823.55 15:0.0073526488 16:1295.2572 #
-43.082749058222888 3:9.4149446 4:9.4231901 5:1144.0474 8:782.19995 9:102.72868 11:39.946781 14:-71792.445 15:0.029430529 16:2283.8848 #
-0.15844002619637798 3:14.614429 4:14.626598 5:1927.0624 8:1218.771 9:153.04033 11:87.973679 14:-104994.45 15:0.0061758491 16:466.71985 #
-0.56048207604360689 3:17.485971 4:17.330803 5:2300.939 8:1440.8977 9:159.26018 11:72.969101 14:-122986.27 15:0.037531901 16:4928.6372 #
1.2964167890760441 3:17.765711 4:17.777712 5:2510.0962 8:1097.1046 9:61.342545 11:23.666952 14:-109188.72 15:0.038527593 16:7614.3647 #
-7.5283354195414729 3:17.628649 4:17.541187 5:2642.0029 8:1503.5817 9:239.75453 11:130.33525 14:-113973.67 15:0.029616488 16:4829.0469 #
54.775032340084493 3:9.2409487 4:9.2301216 5:1140.712 8:846.78906 9:77.476326 11:36.580956 14:-71452.977 15:0.033451822 16:2420.8696 #
-6.6911478673222389 3:11.541573 4:11.357626 5:1660.4532 8:873.99115 9:165.85075 11:118.94467 14:-71372.422 15:0.024803506 16:2075.8748 #
-25.790705566815085 3:8.7789173 4:8.7469816 5:1085.4963 8:644.88416 9:65.075668 11:35.36264 14:-71073.133 15:0.039134871 16:2517.8484 #
-1.9133294243319476 3:17.042929 4:16.954107 5:2182.5068 8:2164.9478 9:150.56326 11:59.114723 14:-129407.3 15:0.035354555 16:5609.7061 #
8.333889924141797 3:11.088437 4:11.075744 5:1674.8112 8:862.37207 9:88.457321 11:42.236061 14:-71187.039 15:0.037329506 16:2825.4341 #
8.308706213457981 3:16.088964 4:16.021177 5:2331.436 8:1301.7327 9:74.056267 11:34.163319 14:-119440 15:0.032293238 16:4611.4258 #
0.82558834949285176 3:20.937639 4:20.784575 5:3279.2361 8:1687.7981 9:109.79626 11:54.884384 14:-146890.27 15:0.037128977 16:6106.147 #
19.598735185167016 3:10.431479 4:10.223487 5:1583.4196 8:986.75409 9:93.878471 11:41.646278 14:-72268.391 15:0.036243044 16:2127.292 #
-0.37432723638376175 3:54.021671 4:54.012741 5:6353.813 8:3028.5139 9:379.87091 11:196.93828 14:-383212.19 15:0.020947943 16:15741.413 #
-8.2758216080844882 3:11.1758 4:11.035651 5:1556.4425 8:1090.0664 9:143.97034 11:83.060768 14:-71690.922 15:0.029112769 16:2781.8364 #
-2.2703131062097306 3:13.506986 4:13.497134 5:1640.4403 8:1665.3645 9:107.70793 11:69.061646 14:-99413.836 15:0.03767319 16:3993.176 #
-37.80162052245862 3:11.545104 4:11.487847 5:1791.1819 8:1073.6046 9:106.38025 11:56.890881 14:-73511.563 15:0.040488981 16:2937.551 #
-27.711865079939688 3:10.391129 4:10.270091 5:1212.3662 8:1308.9193 9:98.573853 11:58.492001 14:-69416.531 15:0.039197318 16:3017.9578 #
-1.171452226966851 3:24.16963 4:24.186281 5:3306.4031 8:1750.0201 9:128.55411 11:68.12619 14:-177753.08 15:0.039512902 16:7844.4702 #
-0.20726921350291472 3:29.671522 4:29.523033 5:4489.0278 8:2085.3623 9:118.30298 11:60.684067 14:-197842.77 15:0.031475235 16:7249.1836 #
14.81400499775512 3:10.671017 4:10.680758 5:1385.3633 8:1211.605 9:88.296814 11:43.743958 14:-74235.906 15:0.034124792 16:3450.3416 #
-8.7877043442841725 3:7.5060558 4:7.4680066 5:781.65314 8:690.3808 9:101.89553 11:54.005581 14:-51458.004 15:0.03792898 16:2028.2529 #
-0.50858160702477739 3:21.982212 4:21.520449 5:3531.1462 8:914.93848 9:181.43336 11:102.26293 14:-144448.97 15:0.034646876 16:8839.416 #
16.914282821174854 3:8.079134 4:7.9619541 5:1260.3536 8:541.14331 9:63.564297 11:20.502588 14:-50568.785 15:0.036260925 16:2043.845 #
-0.30536632931885416 3:20.924393 4:20.761086 5:3134.6804 8:1021.5654 9:209.92601 11:127.6929 14:-141165.22 15:0.0066326088 16:917.70062 #
-1.1160263460356588 3:21.998802 4:22.001156 5:2075.1731 8:2269.4795 9:379.56232 11:216.23956 14:-153489.42 15:0.024501547 16:5679.6504 #
-0.12374227626829248 3:3.6934955 4:3.6898029 5:237.5473 8:199.8569 9:62.81686 11:20.010788 14:-23422.834 15:0.0077747488 16:54.273796 #
12.086216763719701 3:7.7774234 4:7.7317414 5:1146.8694 8:403.55292 9:73.115303 11:29.432911 14:-47493.438 15:0.036242686 16:1965.8932 #
-0.2672718772366538 3:26.478577 4:26.031441 5:3949.6765 8:1997.8695 9:437.67548 11:231.32867 14:-182002.27 15:0.021681827 16:5703.7612 #
-11.480094059724076 3:6.9757009 4:6.9410677 5:706.9707 8:646.8324 9:91.823273 11:36.966373 14:-51974.41 15:0.033510119 16:1964.1355 #
-35.355653450836655 3:7.5389996 4:7.3861613 5:976.15674 8:509.79364 9:89.221634 11:36.916733 14:-51714.547 15:0.02253093 16:1185.2869 #
-0.061391650095234465 3:32.300961 4:32.32222 5:1693.8239 8:1153.9276 9:1029.3372 11:811.74341 14:-115516.55 15:0.0058917161 16:1676.3258 #
-2.5634752701609615 3:6.5848751 4:6.5498171 5:597.38879 8:603.26147 9:100.01899 11:44.459717 14:-48421.34 15:0.0022990061 16:207.01128 #
-1.572805667957502 3:12.877737 4:12.704966 5:1834.4945 8:556.2265 9:94.410057 11:42.55238 14:-90115.922 15:0.035280064 16:5343.4829 #
26.450918769123888 3:9.1802282 4:8.920701 5:1220.0862 8:977.71216 9:64.74321 11:19.84033 14:-69523.5 15:0.034132022 16:2888.4614 #
-100 3:8.3609734 4:8.3384495 5:1057.1376 8:877.00171 9:86.804893 11:56.759163 14:-57272.262 15:0.033701714 16:1600.2798 #
-90.426644417616103 3:7.108314 4:7.0960598 5:937.74915 8:558.72546 9:111.09225 11:47.425873 14:-44605.664 15:0.031942181 16:1256.8184 #
97.215352399866845 3:7.581882 4:7.5830297 5:960.9679 8:751.18811 9:79.423859 11:20.871424 14:-53205.016 15:0.036232784 16:1568.588 #
-23.006251616259895 3:5.9865932 4:5.9519262 5:728.07312 8:409.45654 9:96.376358 11:58.317593 14:-38734.301 15:0.032460764 16:1031.8271 #
2.2531303868035124 3:8.8301506 4:8.8386097 5:966.22174 8:1148.8428 9:55.644348 11:26.192785 14:-60944.785 15:0.036194235 16:2665.3491 #
-44.146911501107866 3:7.5562949 4:7.4801607 5:961.8775 8:487.05283 9:71.127068 11:40.91671 14:-52942.293 15:0.032355312 16:2015.9141 #
2.4996104575352618 3:15.754682 4:15.770112 5:1855.5198 8:1147.7537 9:95.895042 11:42.63504 14:-101971.53 15:0.037294339 16:6615.7324 #
2.0706715499585302 3:26.631037 4:26.14436 5:4403.4844 8:1723.8542 9:100.36246 11:52.722775 14:-182012.3 15:0.038169976 16:9149.8984 #
36.427700076011391 3:13.312881 4:13.324872 5:1822.8658 8:1311.1498 9:88.418442 11:37.835823 14:-92563.82 15:0.037102848 16:2830.4026 #
38.210319202287927 3:17.424585 4:17.209896 5:2852.1216 8:1198.1407 9:86.214043 11:39.204868 14:-115238.35 15:0.034417208 16:3673.7034 #
36.831732963563532 3:14.535341 4:14.51613 5:2085.3904 8:1462.9766 9:82.002762 11:42.367733 14:-102591.3 15:0.037399743 16:3117.363 #
-0.24812681549987131 3:27.253891 4:27.110302 5:3851.9919 8:1771.0284 9:487.05688 11:392.68912 14:-158241.02 15:0.0053558652 16:1330.953 #
-0.17457579210325469 3:16.152473 4:16.16592 5:2125.3901 8:1677.0725 9:130.22057 11:71.212112 14:-115382.52 15:0.007173988 16:1057.0387 #
24.813263644753967 3:8.8916931 4:8.4621944 5:1494.489 8:729.28094 9:52.206242 11:25.20113 14:-58262.055 15:0.035467584 16:1683.4825 #
78.727058158509209 3:8.0094872 4:7.8515191 5:1046.5134 8:780.0047 9:71.749245 11:26.938044 14:-52345.859 15:0.030359201 16:2284.5388 #
-78.839446819018661 3:7.6932497 4:7.6873674 5:850.29388 8:721.64642 9:88.014107 11:49.834869 14:-57711.211 15:0.035097502 16:1508.4496 #
-35.922572460687896 3:8.6485958 4:8.5660648 5:1305.2551 8:728.10657 9:94.804535 11:58.425488 14:-57718.141 15:0.034431577 16:1408.4473 #
-37.077188507156329 3:7.4598942 4:7.4228687 5:774.00458 8:741.77802 9:91.81115 11:37.382828 14:-52512.844 15:0.038085561 16:2118.4741 #
-79.131952814433731 3:8.4355211 4:8.4080048 5:1163.4752 8:656.59363 9:99.425278 11:64.57756 14:-57269.363 15:0.037018038 16:1843.9767 #
-0.094362949623456371 3:2.8966568 4:2.8994932 5:111.23006 8:146.9539 9:58.528191 11:20.820274 14:-16732.377 15:0.0069188699 16:33.314819 #
60.090097361531889 3:8.7627459 4:8.7686825 5:1030.5168 8:823.14343 9:57.367336 11:22.590189 14:-57343.637 15:0.036230884 16:1519.7311 #
-46.046102341006275 3:8.3618717 4:8.3641891 5:1079.8124 8:683.09241 9:79.61351 11:66.579407 14:-57033.391 15:0.025973644 16:1246.5167 #
0.52219973046831747 3:14.845313 4:14.74867 5:2376.5313 8:960.01892 9:57.526428 11:20.702412 14:-89179.43 15:0.038331185 16:6444.4668 #
-36.368032405131913 3:8.5711174 4:8.4390421 5:1249.3164 8:445.39667 9:87.16468 11:54.349789 14:-54324.656 15:0.035766985 16:1239.1101 #
-87.703543626113657 3:7.8783751 4:7.8448229 5:1011.0323 8:796.63672 9:113.32265 11:58.17857 14:-54558.969 15:0.029892692 16:1521.3739 #
-84.703307605682653 3:7.2533979 4:7.2070484 5:876.88226 8:604.58032 9:81.769966 11:41.297443 14:-54199.586 15:0.036599383 16:1539.8937 #
-0.14309285022773977 3:5.7018213 4:5.7067771 5:284.92807 8:259.77759 9:174.8134 11:140.25185 14:-16173.32 15:0.021932861 16:396.19049 #
-3.6222163311789775 3:7.1776023 4:7.1521554 5:870.33289 8:645.11041 9:101.26029 11:57.214699 14:-52239.266 15:0.039635487 16:1987.0552 #
3.7282304934330286 3:10.159045 4:10.149261 5:1400.0284 8:1073.1458 9:75.692482 11:33.322945 14:-70137.875 15:0.036558758 16:2119.301 #
0.72837554175986818 3:16.386354 4:16.387585 5:1890.5221 8:992.17871 9:91.635582 11:35.148819 14:-93461.852 15:0.037218571 16:6990.0415 #
82.264554411166287 3:8.0994091 4:8.0998201 5:1037.2836 8:778.03754 9:64.262009 11:19.253386 14:-55848.086 15:0.036445376 16:1425.1503 #
-7.3375311999396331 3:7.2284312 4:7.2261953 5:861.29529 8:805.85004 9:73.695274 11:49.929737 14:-54928.156 15:0.037118088 16:2009.8632 #
-13.333946879125046 3:7.8979025 4:7.8401537 5:962.8866 8:647.78833 9:92.438698 11:45.444431 14:-55059.559 15:0.031895645 16:1641.4188 #
3.3582661527558542 3:8.6173868 4:8.6129484 5:1239.0306 8:817.09167 9:58.785984 11:20.943857 14:-55183.625 15:0.03657892 16:1501.3525 #
100 3:8.8796921 4:8.8790436 5:1141.2469 8:647.72296 9:92.136246 11:39.20718 14:-56741.563 15:0.031166071 16:1836.4301 #
52.913212981230132 3:8.0438881 4:7.9574027 5:1174.9646 8:740.04346 9:65.975433 11:22.028027 14:-56829.063 15:0.034579638 16:1291.1238 #
-100 3:8.3727112 4:8.3320608 5:1114.85 8:619.18695 9:116.21404 11:55.45639 14:-56503.836 15:0.026822122 16:1719.9764 #
-8.0093174945076164 3:15.065588 4:14.974672 5:2204.324 8:1753.5198 9:93.436531 11:44.112675 14:-109786.85 15:0.039749861 16:5063.0186 #
9.3931423232406139 3:7.4385638 4:7.4424791 5:850.99933 8:736.53253 9:50.721245 11:23.495304 14:-56527.539 15:0.035716444 16:1355.6685 #
-20.665234644241611 3:8.6111507 4:8.5984135 5:1125.9288 8:799.51971 9:112.44943 11:65.097076 14:-56687.063 15:0.037213352 16:1689.533 #
-14.219260248065817 3:8.7043695 4:8.6733179 5:1003.5655 8:1068.2755 9:105.60271 11:52.016842 14:-56309.086 15:0.030662132 16:1324.201 #
17.533465838733122 3:10.523596 4:10.533524 5:1186.9558 8:762.78986 9:59.408607 11:21.534077 14:-69023.617 15:0.036038686 16:3576.0967 #
-0.038193755604616186 3:3.0637105 4:3.0177195 5:333.85724 8:160.00301 9:51.587337 11:18.426912 14:-17955.828 15:0.007102658 16:37.670818 #
-2.3584344693051582 3:7.762404 4:7.6745539 5:883.823 8:624.33502 9:91.265244 11:41.807354 14:-56568.305 15:0.028949637 16:1674.5482 #
1.6307352833298103 3:16.205591 4:16.211351 5:2052.2859 8:1012.2335 9:105.8613 11:46.832115 14:-99304.961 15:0.034787659 16:5250.5464 #
-78.017083589161658 3:9.0482473 4:8.9950209 5:1192.3325 8:931.61224 9:121.54748 11:60.730179 14:-55798.191 15:0.031954166 16:1729.4802 #
-0.3468766323139586 3:25.073997 4:25.09222 5:3680.9407 8:2028.4148 9:159.32407 11:85.87014 14:-181623.02 15:0.0067873439 16:1461.5605 #
-42.865700890794756 3:8.2610989 4:8.0621853 5:1145.2318 8:885.23108 9:100.36007 11:43.10535 14:-55917.836 15:0.026197482 16:1344.7943 #
88.36973536119757 3:8.475564 4:8.4249229 5:1180.2527 8:891.97278 9:74.356888 11:24.542408 14:-55953.934 15:0.036938954 16:1929.363 #
-8.0394528251726314 3:10.972767 4:10.956398 5:1617.967 8:804.10199 9:147.15063 11:77.746284 14:-71598.055 15:0.032851469 16:3168.9016 #
9.0323477660372617 3:9.87076 4:9.8734684 5:1384.6028 8:962.79865 9:60.279137 11:30.277496 14:-67926.602 15:0.035432477 16:2972.3279 #
-0.31050910693009759 3:20.039146 4:20.053383 5:2788.8718 8:1959.2218 9:146.51237 11:79.281593 14:-142643.14 15:0.0065832469 16:777.73761 #
10.09485686013474 3:8.2354383 4:8.1372089 5:1242.9275 8:849.25543 9:84.190575 11:26.736643 14:-54598.105 15:0.033854797 16:1286.0128 #
-64.951494962428228 3:10.207882 4:10.216626 5:1339.3977 8:769.49634 9:95.436562 11:49.490753 14:-70184.617 15:0.036951751 16:2372.6001 #
0.94830534447058734 3:15.545273 4:15.458687 5:2447.249 8:1196.7882 9:62.003262 11:26.476503 14:-100282.01 15:0.03843144 16:6439.5864 #
-0.31443622396886117 3:3.850533 4:3.837414 5:146.80055 8:162.76736 9:135.73138 11:67.267952 14:-12987.482 15:0.020897824 16:172.96207 #
-20.247145252912283 3:8.1592226 4:8.1604052 5:1049.2568 8:848.72345 9:69.804192 11:25.122282 14:-57293.852 15:0.040619966 16:2527.1111 #
69.277283360889044 3:7.8083515 4:7.8012352 5:989.29736 8:712.09375 9:70.649673 11:31.803045 14:-57591.203 15:0.035483643 16:2179.896 #
5.7096984759836689 3:9.5697861 4:9.5587568 5:1307.5842 8:755.51886 9:71.945122 11:26.892563 14:-57960.324 15:0.036085583 16:3458.72 #
-0.01986651702074127 3:13.48969 4:13.252568 5:2041.8667 8:1279.3224 9:82.750923 11:50.182339 14:-97532.578 15:0.0065241428 16:355.95786 #
-1.7176452372629125 3:20.280502 4:20.15386 5:2860.5854 8:2036.584 9:228.36104 11:106.7716 14:-149479.81 15:0.030435789 16:5596.0547 #
100 3:8.6895952 4:8.6428785 5:1273.7244 8:720.68958 9:75.074409 11:27.051054 14:-61180.031 15:0.034570649 16:2005.947 #
-0.23193736387023203 3:29.155096 4:28.969213 5:4408.1929 8:2589.1646 9:322.80908 11:207.86618 14:-200586.38 15:0.028688071 16:7627.8423 #
-15.514219502200394 3:10.521296 4:10.513621 5:1460.4578 8:888.48145 9:135.79872 11:96.337936 14:-67522.211 15:0.024617719 16:1894.2357 #
-23.034820894814111 3:9.6085987 4:9.3316431 5:1290.2534 8:502.58594 9:111.65736 11:58.973396 14:-61596.063 15:0.037025549 16:1585.0726 #
-35.901557179207003 3:8.3705616 4:8.3381681 5:1042.0522 8:822.40802 9:88.764397 11:39.95108 14:-61297.023 15:0.039424732 16:2522.9983 #
40.769689313102404 3:6.4758315 4:6.4733787 5:774.80347 8:640.34985 9:67.887238 11:17.256294 14:-45448.879 15:0.035692647 16:1102.0162 #
6.4903717344195782 3:17.922153 4:17.892023 5:2338.3035 8:2139.2205 9:134.565 11:58.288151 14:-118883.52 15:0.035861488 16:5325.6182 #
-0.3716242757946121 3:25.068201 4:24.828276 5:4019.5137 8:1784.656 9:181.41696 11:148.51573 14:-179512.83 15:0.0074097421 16:1399.4469 #
-0.78024170516299252 3:20.619358 4:20.589611 5:2849.739 8:1102.9111 9:287.01566 11:190.23425 14:-130738.3 15:0.028737821 16:3088.2119 #
-0.23539195039054828 3:18.970034 4:18.616339 5:2473.3909 8:513.18292 9:312.29593 11:257.16525 14:-109318.27 15:0.0055621448 16:687.07092 #
2.7806151577164906 3:22.297468 4:21.917177 5:2976.4094 8:2518.4177 9:101.34566 11:46.821369 14:-181405.64 15:0.035163436 16:7079.8359 #
13.173672998730641 3:9.5095387 4:9.514225 5:1319.2429 8:538.58942 9:61.614349 11:25.815233 14:-61875.211 15:0.03580581 16:2223.0972 #
-24.259603772739805 3:8.9411478 4:8.8427467 5:1109.9084 8:1164.6127 9:85.542633 11:54.421608 14:-61771.633 15:0.038135074 16:2496.7417 #
-100 3:8.8683586 4:8.7461452 5:1213.923 8:894.88824 9:108.64228 11:67.918274 14:-61582.43 15:0.035526797 16:1768.5564 #
-0.37827388499837933 3:26.903467 4:26.63707 5:3991.8386 8:2155.5771 9:291.51654 11:180.14496 14:-186084.03 15:0.032733962 16:6710.061 #
-18.987943745285634 3:8.2023211 4:8.193121 5:1019.0718 8:459.90759 9:69.870811 11:33.575348 14:-62205.637 15:0.024985364 16:1896.9421 #
-0.35023266321639823 3:28.098711 4:28.014868 5:4213.6436 8:1233.29 9:327.00952 11:255.5424 14:-182904.36 15:0.006427967 16:1618.1648 #
20.582756687908663 3:8.9771948 4:8.9779959 5:1181.1251 8:956.15942 9:62.942394 11:47.886272 14:-61200.699 15:0.037065856 16:2061.8501 #
-100 3:9.6474094 4:9.6544924 5:1274.0697 8:718.5957 9:103.04051 11:65.83403 14:-61237.578 15:0.0341863 16:2008.2271 #
-60.643026704894375 3:9.5211458 4:9.4900331 5:1111.681 8:1157.493 9:152.09081 11:91.560699 14:-61966.68 15:0.035133038 16:1690.2985 #
29.47793049248898 3:9.4482269 4:9.4573908 5:1229.9667 8:965.62885 9:85.499672 11:29.77091 14:-61781.777 15:0.034174349 16:1551.3893 #
56.416878742547709 3:8.7163754 4:8.7147255 5:1083.1077 8:814.66364 9:62.176334 11:36.245201 14:-61159.629 15:0.034520738 16:1564.7583 #
100 3:9.3694553 4:9.3241091 5:1307.0737 8:649.49243 9:99.118202 11:42.088737 14:-61529.895 15:0.035103966 16:1840.037 #
-13.678030440902463 3:15.917237 4:15.779566 5:2237.1226 8:1341.8315 9:201.7067 11:122.35023 14:-107189.58 15:0.033713836 16:4150.2529 #
-92.356652260774524 3:5.1653981 4:5.1370425 5:514.10498 8:349.18863 9:72.808731 11:34.313137 14:-33574.074 15:0.023380749 16:590.9989 #
-0.28877557889440075 3:15.74781 4:15.451708 5:2582.7283 8:876.05927 9:145.42313 11:74.919647 14:-104106.61 15:0.007685978 16:1006.613 #
76.990969414904725 3:8.9565792 4:8.9537201 5:1048.822 8:1088.3678 9:84.081871 11:67.665253 14:-61792.703 15:0.035693672 16:1987.7842 #
1.5225283122572031 3:14.742629 4:14.750509 5:2086.7185 8:904.1908 9:60.948837 11:23.582125 14:-88920.055 15:0.03824643 16:6317.8501 #
-0.37512588310788197 3:41.135124 4:41.069382 5:5702.4019 8:2945.7532 9:233.93561 11:140.39632 14:-316874.34 15:0.00096999999 16:921.51373 #
-0.29960656111337947 3:25.086027 4:25.047159 5:1812.0858 8:1576.444 9:829.79993 11:569.94818 14:-104000.66 15:0.006098249 16:1087.8976 #
2.3405940381467332 3:8.7090988 4:8.6668711 5:1345.3704 8:741.25708 9:49.749557 11:26.25601 14:-54100.465 15:0.036940672 16:3510.1008 #
-6.2623181091221642 3:7.3355794 4:7.3424754 5:682.19183 8:591.48517 9:87.63871 11:40.580578 14:-56159.32 15:0.021729616 16:1690.6122 #
-8.3807140045506614 3:10.472771 4:10.478473 5:1371.6438 8:691.69287 9:101.50558 11:57.535015 14:-74134.953 15:0.038007259 16:3791.9653 #
100 3:9.4681406 4:9.4392385 5:1306.0881 8:855.34558 9:88.142212 11:29.372934 14:-65999.578 15:0.034951035 16:2256.9624 #
2.6570955156041038 3:8.9636936 4:8.965127 5:902.60938 8:868.09363 9:84.502724 11:31.238579 14:-56325.727 15:0.032891423 16:3353.3733 #
5.7255350928087561 3:8.5476131 4:8.4283619 5:1317.1289 8:685.32269 9:59.753849 11:23.821419 14:-55866.168 15:0.036136515 16:2891.4053 #
100 3:4.5834346 4:4.5733352 5:316.44269 8:382.95181 9:55.80452 11:18.866522 14:-30754.146 15:0.025446044 16:557.12225 #
-0.19297445847501837 3:27.650158 4:27.547091 5:3635.8159 8:2861.394 9:283.30304 11:144.82845 14:-221443.34 15:0.035448138 16:9567.2207 #
0.98739681380819944 3:22.512018 4:22.478584 5:3437.3713 8:1581.5101 9:89.593964 11:32.718918 14:-153669.39 15:0.033231456 16:5082.7056 #
-0.90324344646654009 3:20.116465 4:20.110701 5:2842.4246 8:1800.4069 9:109.77579 11:56.260586 14:-153252.33 15:0.036963377 16:5757.8486 #
-35.532477116258178 3:9.3324652 4:9.2767229 5:1426.7465 8:713.82861 9:89.75502 11:48.974857 14:-60864.059 15:0.034728039 16:1520.4585 #
100 3:4.3625898 4:4.3522449 5:331.50488 8:360.37711 9:50.148014 11:19.633852 14:-31276.609 15:0.025545722 16:528.7052 #
-100 3:4.6487584 4:4.6525211 5:397.56119 8:466.08261 9:65.761971 11:36.947056 14:-30898.193 15:0.014004931 16:493.70578 #
-23.051585347773063 3:4.9822111 4:4.9865136 5:516.65125 8:409.93649 9:82.997208 11:33.973053 14:-31358.168 15:0.033337235 16:788.44763 #
-100 3:4.6761885 4:4.6619158 5:515.33673 8:399.96146 9:55.492897 11:21.11413 14:-30859.303 15:0.033727918 16:803.47644 #
98.796735252372457 3:4.9480791 4:4.8423529 5:695.41656 8:337.51764 9:54.464668 11:14.41938 14:-30630.877 15:0.032177307 16:717.40942 #
-0.47370581298241077 3:21.101557 4:20.927097 5:3100.2273 8:2022.9114 9:130.00531 11:68.609734 14:-167638.13 15:0.035650723 16:6183.4888 #
-74.787881445143171 3:5.4989481 4:5.5024872 5:568.9444 8:468.63315 9:124.23481 11:78.239136 14:-29438.234 15:0.034207817 16:630.10693 #
22.284108841057993 3:5.0325913 4:4.9398336 5:733.92383 8:370.8533 9:60.997871 11:17.455494 14:-31021.934 15:0.033268411 16:759.65997 #
-65.43749382211854 3:4.9115658 4:4.8282113 5:556.96991 8:282.75018 9:79.565407 11:55.668922 14:-30923.059 15:0.024818748 16:567.47839 #
-84.687392368019275 3:10.187054 4:10.107442 5:1584.4655 8:908.00647 9:111.69057 11:64.130829 14:-62668.484 15:0.040371582 16:2568.937 #
1.6717629817915518 3:25.93836 4:25.960541 5:3334.7783 8:2828.0234 9:154.09766 11:79.326439 14:-187595.73 15:0.035599481 16:8579.2549 #
84.40220071689366 3:4.7325387 4:4.7322702 5:603.15039 8:455.00336 9:49.082329 11:20.143103 14:-30656.271 15:0.027795279 16:622.63861 #
-100 3:9.1944027 4:9.0462837 5:1484.9036 8:775.18591 9:67.576759 11:29.875805 14:-62439.801 15:0.035981722 16:1832.6356 #
-13.658736475712047 3:6.1257181 4:6.1184659 5:804.66779 8:691.43176 9:89.781898 11:52.372875 14:-37176.863 15:0.039541967 16:1466.4619 #
100 3:9.2656994 4:9.2675228 5:1160.0153 8:736.65454 9:101.04526 11:34.87772 14:-62805.762 15:0.027809698 16:1870.2775 #
51.603305383770817 3:8.964366 4:8.8934507 5:1309.1365 8:952.90735 9:77.45401 11:25.482943 14:-62800.535 15:0.03635421 16:1768.6152 #
-23.985120653393082 3:8.6924887 4:8.6978855 5:992.67896 8:526.84076 9:112.93663 11:67.352097 14:-62792.898 15:0.017224021 16:1645.3735 #
-100 3:8.7437887 4:8.6747561 5:1127.3362 8:1076.267 9:92.430229 11:39.19067 14:-62983.48 15:0.036865551 16:1709.0385 #
81.682976372436173 3:9.3435841 4:9.2784786 5:1365.6874 8:782.85626 9:88.612099 11:34.669498 14:-62380.848 15:0.036686651 16:1909.6415 #
26.453961771368256 3:8.8265057 4:8.7908583 5:1112.1727 8:1054.5288 9:82.755775 11:30.2323 14:-62589.063 15:0.034505796 16:1429.1146 #
2.077919029279105 3:10.949841 4:10.671147 5:1796.5026 8:579.8064 9:65.371704 11:23.03714 14:-65398.48 15:0.035833068 16:2518.4531 #
-0.14035692982954906 3:8.6281538 4:8.4821253 5:1010.8246 8:884.48248 9:96.43206 11:34.973289 14:-62586.711 15:0.035981532 16:2744.5864 #
-0.60411295306037849 3:24.19763 4:24.217545 5:1151.9723 8:1400.2855 9:827.33002 11:620.78088 14:-83236.852 15:0.0072505092 16:1235.2587 #
26.268832803611645 3:9.3132801 4:9.2743988 5:1401.8311 8:520.46466 9:57.925663 11:17.770031 14:-63371.867 15:0.035791818 16:2224.4136 #
-100 3:4.7301536 4:4.6778483 5:631.65552 8:483.15704 9:50.296188 11:20.183609 14:-30274.123 15:0.025562678 16:645.04321 #
-0.057189357830109366 3:3.7902882 4:3.753994 5:439.5864 8:326.99316 9:67.271355 11:25.537048 14:-21252.211 15:0.0044792532 16:46.821781 #
80.709060653557302 3:8.8792162 4:8.8870649 5:1107.5247 8:940.78229 9:61.794708 11:26.729788 14:-63462.949 15:0.036413915 16:1644.667 #
100 3:16.526579 4:16.498442 5:2205.0474 8:1424.0571 9:162.17397 11:62.087315 14:-119561.02 15:0.026858252 16:4010.4832 #
-100 3:9.1723576 4:9.1278334 5:1314.2681 8:765.8233 9:104.18523 11:61.997078 14:-63051.906 15:0.036925446 16:2009.2942 #
-0.03866501571311233 3:3.5054085 4:3.4916852 5:346.68622 8:349.58594 9:55.5345 11:19.596281 14:-20206.834 15:0.0029196059 16:25.345284 #
-73.247957930207022 3:5.0745625 4:5.0661259 5:441.86731 8:538.38159 9:72.54998 11:42.258911 14:-33565.246 15:0.02796112 16:676.93298 #
100 3:4.8901467 4:4.8933587 5:437.11911 8:324.57666 9:64.46904 11:27.813293 14:-29994.154 15:0.027832922 16:711.37677 #
-78.55836310029089 3:8.6882648 4:8.6105528 5:1159.0809 8:710.92749 9:88.564491 11:52.498974 14:-63839.895 15:0.036089469 16:2107.8496 #
-0.11812762124231124 3:17.459045 4:17.449516 5:2558.8074 8:1415.918 9:129.44231 11:58.722424 14:-120234.83 15:0.0074525881 16:1168.985 #
14.656164442256621 3:8.7374201 4:8.7148552 5:845.16724 8:1212.5168 9:63.759201 11:25.770302 14:-63239.324 15:0.036146682 16:1664.4146 #
-0.23886657319336285 3:13.707767 4:13.646005 5:1845.9457 8:597.89154 9:188.32915 11:129.38809 14:-81339 15:0.0075123729 16:759.23175 #
-0.17558000173462374 3:19.037336 4:19.039354 5:2106.2788 8:967.80194 9:451.73187 11:322.01038 14:-101533.81 15:0.0072908248 16:1305.751 #
61.277940698598591 3:8.5893135 4:8.5878544 5:1162.6897 8:854.96576 9:56.577614 11:19.565384 14:-64090.141 15:0.034732245 16:2249.48 #
-100 3:4.399262 4:4.3454237 5:420.63074 8:309.53387 9:74.30143 11:31.053637 14:-30318.994 15:0.015970048 16:729.3349 #
69.059984380204114 3:4.5100513 4:4.436059 5:575.62103 8:450.06296 9:56.62294 11:20.134384 14:-29112.818 15:0.024300549 16:582.60669 #
-50.719609014380922 3:10.275894 4:10.246241 5:1365.4841 8:1109.1217 9:113.29478 11:53.239033 14:-64040.582 15:0.027942384 16:1684.8672 #
-24.750858701815133 3:8.8253946 4:8.8174896 5:1049.2538 8:923.58459 9:123.07505 11:85.828369 14:-63568.719 15:0.023250466 16:1437.0642 #
84.057064476226742 3:9.0045185 4:8.9122887 5:1340.9542 8:838.7522 9:59.232338 11:23.118132 14:-62533.934 15:0.035924293 16:2607.8071 #
-0.17197892378532498 3:20.123268 4:19.850042 5:3071.4175 8:1635.8149 9:172.6349 11:126.91483 14:-133979.67 15:0.0059920428 16:802.90692 #
14.328762844089795 3:8.8784466 4:8.8694286 5:1115.541 8:908.93842 9:53.099739 11:23.601271 14:-64156.141 15:0.036321793 16:1619.274 #
-0.32080603231192362 3:20.036634 4:19.992483 5:2452.0266 8:1108.3114 9:305.17346 11:249.10255 14:-130510.93 15:0.0057394211 16:752.78522 #
-9.4879454142928825 3:5.404407 4:5.3978925 5:479.19962 8:423.43124 9:143.6938 11:71.19091 14:-29446.234 15:0.037936177 16:707.82904 #
-1.4842760615620776 3:10.125657 4:9.9701157 5:1523.8192 8:868.17035 9:110.03893 11:84.413483 14:-67229.742 15:0.006590114 16:397.87778 #
-0.26013250312800262 3:33.918575 4:33.584908 5:5487.4224 8:2767.5139 9:179.50383 11:98.565399 14:-262557.88 15:0.03273784 16:11742.497 #
-0.016147547945218145 3:13.358226 4:12.891102 5:2094.2422 8:839.22369 9:137.39455 11:124.80357 14:-84316.648 15:0.018207571 16:1778.7205 #
-0.2449246811251361 3:28.303221 4:27.925886 5:4338.2432 8:1860.9169 9:235.71866 11:116.54729 14:-203036 15:0.038655717 16:11727.043 #
28.985327528220051 3:4.7786479 4:4.7710762 5:639.77026 8:357.77673 9:53.023125 11:15.721802 14:-28884.549 15:0.028726896 16:638.11932 #
-31.12274055481366 3:4.7752051 4:4.7783809 5:462.10345 8:190.21196 9:72.691666 11:41.91444 14:-29858.049 15:0.03508145 16:612.2019 #
-0.4736554217384456 3:26.876925 4:26.739321 5:3926.356 8:2404.1599 9:172.83546 11:87.324478 14:-211162.06 15:0.039247725 16:10279.574 #
20.192669891726549 3:9.4310131 4:9.3876257 5:1332.9678 8:792.32147 9:75.407394 11:28.799009 14:-63543.625 15:0.036429342 16:2134.2813 #
-12.699142113359077 3:8.5175629 4:8.524641 5:1018.9251 8:1004.8798 9:90.280533 11:53.666531 14:-63138.301 15:0.035744708 16:2284.325 #
-0.12988994515012242 3:26.354343 4:26.331713 5:3301.7205 8:1191.3646 9:503.59641 11:377.09387 14:-143959.48 15:0.005774294 16:1192.9412 #
