SVM-light Version V6.02
2 # kernel type
3 # kernel parameter -d 
1e-007 # kernel parameter -g 
1 # kernel parameter -s 
1 # kernel parameter -r 
empty# kernel parameter -u 
16 # highest feature index 
4717 # number of training documents 
1616 # number of support vectors plus 1 
1.5238958 # threshold b, each following line is a SV (starting with alpha*y)
-17.011246581384285 3:7.9922767 4:7.9527216 5:956.08337 8:540.97345 9:101.77548 11:53.637871 14:-50797.855 15:0.037988868 16:2267.4321 #
10.148241647968149 3:20.523144 4:20.543232 5:2794.3875 8:2320.7363 9:98.629234 11:45.120705 14:-155540.31 15:0.036613092 16:5539.0464 #
100 3:6.2304735 4:6.2195048 5:781.25287 8:582.95514 9:56.574875 11:28.951635 14:-42376.16 15:0.034055933 16:1315.3481 #
100 3:5.875288 4:5.8649406 5:606.72534 8:593.65955 9:61.756523 11:20.229912 14:-38001.352 15:0.033387475 16:909.80121 #
-100 3:11.467862 4:11.458635 5:1618.6694 8:925.16974 9:123.24234 11:69.181831 14:-74475.414 15:0.035811022 16:2201.9587 #
4.4614830477242204 3:24.149723 4:24.1269 5:3078.6313 8:1268.1406 9:86.637962 11:39.26371 14:-139442.33 15:0.036369517 16:10099.399 #
100 3:6.2481422 4:6.2222834 5:904.39178 8:415.53149 9:70.074455 11:34.402798 14:-38099.5 15:0.03436337 16:1453.505 #
100 3:6.3064599 4:6.2515583 5:894.69666 8:527.94043 9:68.271828 11:26.038603 14:-42999.402 15:0.034926049 16:1231.0078 #
-20.718046913710559 3:26.481598 4:26.44659 5:3876.2532 8:2633.2073 9:296.92245 11:151.02252 14:-196012.97 15:0.023264235 16:5963.0889 #
-100 3:7.9927287 4:7.9420199 5:944.89026 8:645.09778 9:101.23417 11:61.798588 14:-52720.27 15:0.037188563 16:2124.9333 #
100 3:8.0438881 4:7.9574027 5:1174.9646 8:740.04346 9:65.975433 11:22.028027 14:-56829.063 15:0.034579638 16:1291.1238 #
56.967280087235849 3:10.324037 4:10.199203 5:1622.7804 8:661.57135 9:63.034809 11:22.373743 14:-68456.266 15:0.035496119 16:2244.4285 #
-100 3:6.1773434 4:6.1758909 5:685.37567 8:595.96478 9:79.139412 11:46.578594 14:-46683.301 15:0.032779906 16:1449.7078 #
41.07371948847959 3:31.695082 4:31.709082 5:4635.9927 8:2332.6777 9:151.55278 11:80.556381 14:-223304.05 15:0.035023831 16:9761.8545 #
33.600125915421131 3:9.3132801 4:9.2743988 5:1401.8311 8:520.46466 9:57.925663 11:17.770031 14:-63371.867 15:0.035791818 16:2224.4136 #
-100 3:6.9453244 4:6.9417381 5:755.065 8:648.82922 9:49.857883 11:18.991714 14:-52333.883 15:0.035879761 16:1408.6588 #
-100 3:6.7872586 4:6.7936649 5:672.02667 8:392.9259 9:72.045723 11:27.10519 14:-48379.773 15:0.038484339 16:1876.178 #
-10.218989125341807 3:19.884668 4:19.90407 5:2658.4351 8:1849.1447 9:150.87827 11:74.830772 14:-142957.11 15:0.031064285 16:4930.3691 #
-100 3:6.8910179 4:6.8121653 5:1029.9049 8:527.16711 9:77.205719 11:40.229687 14:-45933.906 15:0.037203062 16:1137.6763 #
-100 3:6.157445 4:6.0169549 5:763.28955 8:698.77283 9:72.864067 11:30.647858 14:-42218.352 15:0.032916445 16:999.82953 #
-100 3:11.764943 4:11.54528 5:1421.1165 8:983.08191 9:96.56311 11:52.849323 14:-75655.719 15:0.03903719 16:3624.6248 #
-100 3:7.316936 4:7.2829537 5:923.02655 8:847.07343 9:70.728584 11:36.678379 14:-50228.883 15:0.038090952 16:1986.4263 #
-16.76515179206627 3:27.650158 4:27.547091 5:3635.8159 8:2861.394 9:283.30304 11:144.82845 14:-221443.34 15:0.035448138 16:9567.2207 #
13.380076403406107 3:19.442234 4:19.41888 5:2958.0208 8:1634.2469 9:92.410538 11:42.74054 14:-127258.87 15:0.034970652 16:4788.5776 #
-85.590037138880774 3:18.505478 4:18.413494 5:2595.7271 8:1314.3374 9:170.311 11:71.517395 14:-132148.78 15:0.03926396 16:7636.3296 #
100 3:6.221776 4:6.227448 5:730.93005 8:641.97998 9:56.285248 11:24.778166 14:-46609.297 15:0.034564499 16:1264.6168 #
-100 3:6.934351 4:6.9095821 5:905.79688 8:574.31195 9:114.11889 11:73.284416 14:-44949.801 15:0.030613817 16:1245.0857 #
100 3:5.9430094 4:5.9404922 5:728.26416 8:493.20935 9:66.042015 11:25.170033 14:-43591.391 15:0.03380049 16:1302.2749 #
100 3:4.9016771 4:4.9064803 5:360.29871 8:524.96228 9:48.255505 11:19.470419 14:-31666.053 15:0.027320437 16:632.57233 #
-11.713974234252177 3:7.4391346 4:7.4291706 5:798.19153 8:565.62292 9:85.667999 11:40.875343 14:-58622.758 15:0.021755472 16:1683.8313 #
-100 3:9.9895658 4:9.98454 5:1175.6492 8:584.32831 9:78.326279 11:33.424759 14:-68876.648 15:0.041555792 16:3048.4885 #
100 3:6.3610735 4:6.3659735 5:743.68561 8:573.41772 9:77.526863 11:28.924366 14:-43961.438 15:0.033871263 16:1085.8962 #
-32.400057209884281 3:21.545229 4:21.340879 5:3138.5212 8:675.62347 9:197.40297 11:120.66059 14:-138547.67 15:0.032609399 16:8816.8057 #
-100 3:6.1257181 4:6.1184659 5:804.66779 8:691.43176 9:89.781898 11:52.372875 14:-37176.863 15:0.039541967 16:1466.4619 #
100 3:6.6400652 4:6.6407714 5:515.73352 8:767.42914 9:100.16879 11:47.275318 14:-42805.98 15:0.024018573 16:977.75012 #
-100 3:6.5211806 4:6.3710017 5:902.16602 8:551.73474 9:99.481995 11:42.299179 14:-43659.727 15:0.026512654 16:1060.2345 #
-100 3:6.5213852 4:6.5004134 5:792.66571 8:579.62231 9:89.157806 11:61.471901 14:-44315.012 15:0.036165725 16:1319.0387 #
34.338163467135693 3:26.382339 4:26.013172 5:4355.3623 8:1662.5835 9:153.8866 11:62.764992 14:-174504.17 15:0.032079849 16:5804.75 #
-100 3:6.4291739 4:6.4209299 5:833.72705 8:634.62775 9:65.222137 11:24.953743 14:-43096.133 15:0.039316893 16:1906.603 #
100 3:7.7381773 4:7.7006216 5:875.74133 8:622.54346 9:79.59977 11:26.80228 14:-54402.855 15:0.030963618 16:1895.7826 #
100 3:6.0169458 4:5.9510479 5:769.28369 8:477.73877 9:67.507172 11:23.69899 14:-41409.508 15:0.032507926 16:1214.5803 #
100 3:8.6114721 4:8.5512333 5:1263.5614 8:593.93939 9:89.215149 11:38.811405 14:-55073.691 15:0.030193629 16:1687.0697 #
-100 3:4.4936733 4:4.4947124 5:485.43579 8:329.09827 9:70.745956 11:39.979614 14:-29105.574 15:0.033246696 16:558.02368 #
-100 3:9.159214 4:9.1594343 5:1320.525 8:828.92969 9:88.592781 11:50.162277 14:-54595.41 15:0.040511794 16:2113.0481 #
100 3:10.390275 4:10.391439 5:1395.7294 8:1004.1822 9:69.078491 11:30.645443 14:-73198.273 15:0.037244737 16:2232.5073 #
-100 3:5.8835754 4:5.8749619 5:567.83063 8:451.13043 9:52.580246 11:20.141184 14:-42943.195 15:0.035129305 16:1159.3595 #
-100 3:6.0003257 4:5.9876885 5:769.24292 8:395.9866 9:90.236824 11:36.047234 14:-38286.477 15:0.030592823 16:1024.4696 #
-48.177781653762366 3:29.353155 4:29.1672 5:4443.4487 8:2601.812 9:319.86026 11:213.70796 14:-201902.09 15:0.028663278 16:7666.9707 #
-100 3:8.1959572 4:8.1953917 5:1157.9631 8:670.19562 9:104.67236 11:55.081341 14:-51915.512 15:0.034721047 16:1318.4894 #
-100 3:9.0816927 4:8.8926392 5:1239.2454 8:639.08374 9:95.840149 11:60.603359 14:-63307.621 15:0.0348759 16:2003.479 #
-100 3:10.679306 4:10.686668 5:1285.458 8:810.68567 9:76.134125 11:32.264324 14:-77263.047 15:0.038619392 16:3057.5313 #
-75.423424490331456 3:16.820776 4:16.827141 5:2373.5256 8:1362.032 9:175.84335 11:103.25788 14:-122928.7 15:0.033708654 16:3523.8145 #
100 3:11.800943 4:11.765074 5:1666.8124 8:980.92542 9:80.548935 11:39.601898 14:-77319.516 15:0.033867866 16:2682.3696 #
100 3:7.0076404 4:7.0123944 5:789.28625 8:551.33539 9:68.087219 11:24.040375 14:-52138.164 15:0.034829602 16:1451.0543 #
-100 3:10.275894 4:10.246241 5:1365.4841 8:1109.1217 9:113.29478 11:53.239033 14:-64040.582 15:0.027942384 16:1684.8672 #
-100 3:7.0624652 4:7.0496316 5:802.68201 8:448.79105 9:55.855488 11:21.661566 14:-51077.879 15:0.020561902 16:1474.0394 #
100 3:6.2961116 4:6.301291 5:756.13318 8:392.36652 9:77.313797 11:27.560289 14:-41777.891 15:0.033433426 16:1375.9961 #
-100 3:12.789933 4:12.802106 5:1693.6302 8:1231.5886 9:183.89465 11:103.10378 14:-81001.641 15:0.033499856 16:2498.7163 #
10.341172120566995 3:12.568892 4:12.556051 5:1778.0632 8:1131.4156 9:82.573242 11:38.472141 14:-83078.688 15:0.036742978 16:2729.1484 #
-100 3:5.7586503 4:5.7597132 5:762.34955 8:370.75958 9:74.469162 11:27.118774 14:-33298.586 15:0.031204266 16:982.74615 #
100 3:9.95994 4:9.9607067 5:1243.6398 8:1126.7317 9:65.617455 11:21.473263 14:-77433.414 15:0.034122653 16:3072.8804 #
66.742153508230061 3:17.476839 4:17.462103 5:2653.4663 8:1500.7706 9:100.27692 11:52.182041 14:-113753.98 15:0.036670756 16:4314.5093 #
100 3:6.9453797 4:6.9506216 5:763.78888 8:700.3537 9:66.102119 11:23.883194 14:-50432.672 15:0.030569352 16:1675.3687 #
100 3:5.9141364 4:5.8818932 5:701.32318 8:410.75443 9:65.768135 11:20.343515 14:-42316.75 15:0.030449079 16:1063.5238 #
-54.222914768110002 3:7.2526035 4:7.2591105 5:842.91882 8:616.86316 9:71.953079 11:38.473404 14:-54297.336 15:0.037362393 16:2035.8003 #
-39.160358151527049 3:10.625834 4:10.458698 5:1365.4773 8:470.90402 9:74.798042 11:29.435982 14:-63495.879 15:0.037140746 16:3179.3806 #
-100 3:7.6406288 4:7.4792528 5:1076.5397 8:376.97919 9:56.228367 11:21.816069 14:-54244.785 15:0.028316962 16:2105.4387 #
99.76164679871691 3:7.7755322 4:7.7676048 5:752.54224 8:1083.4778 9:62.792843 11:28.81724 14:-55933.258 15:0.037142094 16:1519.1851 #
100 3:8.9425144 4:8.9512606 5:1265.3625 8:572.52509 9:73.995651 11:32.819363 14:-54213.285 15:0.036476489 16:2241.0061 #
100 3:7.8477716 4:7.8553276 5:864.24146 8:932.34802 9:59.71048 11:24.829023 14:-54166.352 15:0.03486554 16:2277.5383 #
-100 3:12.724056 4:12.682505 5:1830.6074 8:1209.4238 9:127.88772 11:64.93441 14:-90264.469 15:0.037869129 16:3844.6396 #
21.746482921379879 3:6.2915993 4:6.2438111 5:652.16711 8:775.73804 9:56.860859 11:21.526041 14:-43991.637 15:0.033565763 16:1107.73 #
-100 3:8.6478252 4:8.6399088 5:1284.5038 8:778.46277 9:78.943375 11:42.519081 14:-52342.246 15:0.040614571 16:2006.3754 #
100 3:6.2977104 4:6.2596521 5:852.27893 8:409.02151 9:60.544437 11:16.609018 14:-44636.223 15:0.033593044 16:1388.3436 #
-19.369109339777282 3:9.3006172 4:9.3092794 5:1140.2139 8:583.026 9:75.343132 11:28.209459 14:-69001.102 15:0.039027438 16:3079.2 #
-100 3:6.9753547 4:6.9814038 5:932.69293 8:592.90204 9:96.698952 11:54.050217 14:-42543.836 15:0.036949053 16:1439.1439 #
100 3:7.7827163 4:7.778163 5:940.60291 8:557.64581 9:64.940231 11:22.058426 14:-53287.746 15:0.031514768 16:2019.5093 #
100 3:8.1446905 4:8.0489159 5:1214.3529 8:758.2923 9:94.423851 11:31.747738 14:-53594.672 15:0.030455489 16:1693.1479 #
99.966454649791785 3:13.387701 4:13.381319 5:1813.7607 8:1374.9351 9:63.181332 11:26.525553 14:-104629.01 15:0.035676412 16:4123.1846 #
-100 3:7.6915631 4:7.6219678 5:983.11053 8:965.35498 9:62.931675 11:34.348721 14:-53221.637 15:0.040074825 16:2207.5469 #
-100 3:7.7779751 4:7.7742004 5:1038.7736 8:812.28485 9:68.493103 11:25.890238 14:-54068.047 15:0.038335051 16:2356.4414 #
-100 3:8.2935724 4:8.2605486 5:1171.5978 8:452.20737 9:94.965363 11:60.065315 14:-57995.516 15:0.035859935 16:2497.0396 #
-100 3:5.7632279 4:5.7445569 5:480.62848 8:360.07837 9:62.850609 11:31.362206 14:-39900.566 15:0.030245069 16:1123.921 #
100 3:5.0913744 4:5.086338 5:642.68146 8:424.71536 9:48.568275 11:25.808136 14:-33326.473 15:0.030973429 16:1063.4496 #
-100 3:6.8900127 4:6.8938451 5:893.43732 8:400.30493 9:84.771484 11:35.759003 14:-41847.789 15:0.032317169 16:1235.9535 #
100 3:6.3377681 4:6.3056021 5:804.99933 8:449.1474 9:83.265732 11:34.312672 14:-41487.656 15:0.034679472 16:1236.2197 #
-100 3:6.9243536 4:6.9207377 5:934.57526 8:335.75742 9:86.637642 11:33.179195 14:-41306.23 15:0.027573265 16:1311.8894 #
-100 3:8.8502493 4:8.7029428 5:1217.6041 8:598.32861 9:108.79535 11:50.820381 14:-61235.93 15:0.028955674 16:2048.8076 #
-100 3:10.207882 4:10.216626 5:1339.3977 8:769.49634 9:95.436562 11:49.490753 14:-70184.617 15:0.036951751 16:2372.6001 #
-100 3:5.9964147 4:6.0006771 5:553.31512 8:324.98779 9:63.128254 11:25.451654 14:-41319.797 15:0.031657357 16:1346.5781 #
100 3:5.7246614 4:5.725069 5:641.74036 8:354.97238 9:70.447258 11:20.70319 14:-41039.426 15:0.030781304 16:1034.6475 #
-100 3:12.381155 4:12.320883 5:1755.4695 8:1301.9193 9:144.77802 11:60.840378 14:-87220.477 15:0.033586621 16:3301.3977 #
-100 3:6.2482123 4:6.2536368 5:784.4538 8:479.22403 9:82.849327 11:35.314407 14:-41270.633 15:0.03437075 16:1229.2637 #
-100 3:6.569468 4:6.5103335 5:906.04175 8:303.18436 9:78.446442 11:43.428333 14:-40536.746 15:0.037682462 16:976.35388 #
-100 3:7.7001252 4:7.7076468 5:952.30457 8:724.15765 9:99.350372 11:59.396786 14:-53376.887 15:0.034943938 16:2136.3921 #
-100 3:10.125193 4:10.011332 5:1266.6008 8:822.1286 9:104.68221 11:55.189747 14:-67747.289 15:0.038959593 16:2895.8464 #
100 3:5.2885981 4:5.2841449 5:515.07666 8:618.45844 9:48.542377 11:21.722158 14:-38332.781 15:0.025908902 16:681.39209 #
-100 3:7.8783751 4:7.8448229 5:1011.0323 8:796.63672 9:113.32265 11:58.17857 14:-54558.969 15:0.029892692 16:1521.3739 #
100 3:6.5001273 4:6.379612 5:846.43079 8:341.74408 9:64.813843 11:26.246065 14:-40672.309 15:0.028274367 16:1143.3525 #
79.722208193531756 3:15.003476 4:14.99497 5:1998.9072 8:1666.947 9:85.668129 11:39.436504 14:-109171.2 15:0.037661958 16:3440.6716 #
-100 3:7.7010531 4:7.7073054 5:969.69177 8:687.23804 9:106.55872 11:59.776878 14:-50695.523 15:0.027512323 16:1395.9845 #
100 3:7.6654234 4:7.6673765 5:732.77136 8:1024.65 9:72.034927 11:30.929642 14:-55236.797 15:0.03552375 16:1315.6912 #
-84.582068280548228 3:8.5711174 4:8.4390421 5:1249.3164 8:445.39667 9:87.16468 11:54.349789 14:-54324.656 15:0.035766985 16:1239.1101 #
-100 3:6.0421343 4:6.0242496 5:602.83405 8:726.86194 9:74.867706 11:40.735088 14:-40687.105 15:0.028203113 16:833.74622 #
-100 3:6.0077791 4:5.9569178 5:646.6358 8:609.3819 9:94.309746 11:53.657871 14:-40185.398 15:0.036403231 16:1185.6798 #
100 3:13.249206 4:13.259874 5:1762.9214 8:1443.418 9:97.188095 11:29.017195 14:-95053.461 15:0.036393449 16:2729.9817 #
100 3:7.3135915 4:7.274013 5:925.24817 8:564.35193 9:77.315758 11:25.831127 14:-51437.934 15:0.032870535 16:1411.7499 #
-100 3:8.5175629 4:8.524641 5:1018.9251 8:1004.8798 9:90.280533 11:53.666531 14:-63138.301 15:0.035744708 16:2284.325 #
100 3:6.2807217 4:6.2188001 5:857.82062 8:393.68005 9:83.331413 11:26.792917 14:-41094.227 15:0.032566503 16:1281.6283 #
-100 3:8.4947376 4:8.4515829 5:993.59155 8:731.71399 9:99.186638 11:67.391609 14:-56108.859 15:0.037585929 16:2293.0698 #
-100 3:16.716837 4:16.561241 5:2442.5979 8:1508.6036 9:159.05492 11:105.26503 14:-117246.98 15:0.027637864 16:4333.6929 #
100 3:5.4444003 4:5.4474268 5:734.08868 8:433.85629 9:62.032627 11:17.079439 14:-31785.492 15:0.0343007 16:886.17438 #
19.390843198297119 3:18.419029 4:18.217321 5:2983.5771 8:1353.0325 9:88.961121 11:34.159321 14:-125594.23 15:0.033936601 16:3871.0793 #
100 3:5.8267393 4:5.8172975 5:595.24615 8:598.15405 9:57.297821 11:19.443777 14:-43102.719 15:0.033302024 16:954.12988 #
-100 3:7.0644584 4:6.9152741 5:1055.7533 8:615.35541 9:85.684723 11:56.690754 14:-46066.75 15:0.035053171 16:1105.9647 #
100 3:25.696575 4:25.706751 5:3409.2222 8:2532.4094 9:139.75986 11:71.637421 14:-185078.05 15:0.035150453 16:8426.9424 #
95.873368665707929 3:20.091396 4:19.880899 5:3057.0039 8:1257.1813 9:88.30896 11:35.733826 14:-137976 15:0.036261115 16:7542.9053 #
-100 3:4.7105069 4:4.7096834 5:436.56107 8:413.58978 9:66.249153 11:29.943024 14:-35335.109 15:0.021067051 16:670.89569 #
-100 3:8.1556864 4:8.0496292 5:1090.0129 8:846.95502 9:64.838234 11:32.063976 14:-60798.566 15:0.039412066 16:1950.0452 #
100 3:8.3410091 4:8.3144207 5:1153.7775 8:682.12927 9:83.3097 11:27.265818 14:-58434.773 15:0.031174541 16:1784.7531 #
-22.592930162263116 3:28.980682 4:28.938494 5:4203.3169 8:1802.4965 9:179.17915 11:154.08177 14:-198340.45 15:0.034027033 16:7690.7798 #
-89.690741200056067 3:23.155954 4:23.080196 5:3176.5669 8:2399.1885 9:143.43021 11:65.18692 14:-182309.08 15:0.037524614 16:7064.5132 #
1.3982307859955398 3:39.756145 4:39.793972 5:4790.979 8:2392.3125 9:162.1953 11:70.894341 14:-253400.09 15:0.035977252 16:15607.63 #
-100 3:11.616732 4:11.568623 5:1683.7562 8:1050.5574 9:121.39323 11:66.500748 14:-83859.648 15:0.035291549 16:2501.1665 #
100 3:9.1239567 4:9.0742884 5:1303.2314 8:774.99353 9:105.05827 11:41.575481 14:-60352.703 15:0.026835334 16:1794.7435 #
100 3:10.74907 4:10.737805 5:1441.2386 8:1054.7208 9:77.062294 11:27.46282 14:-79793.297 15:0.036912676 16:2368.9158 #
-40.967784688862395 3:29.169912 4:28.272692 5:3922.103 8:3008.113 9:163.1476 11:73.860741 14:-196660.94 15:0.030193109 16:8310.2549 #
100 3:12.521626 4:12.532327 5:1762.3771 8:910.26477 9:110.45615 11:49.09206 14:-77828.359 15:0.03657867 16:3135.3369 #
100 3:10.525723 4:10.532234 5:1082.7744 8:1157.4589 9:98.567978 11:51.510429 14:-78179.195 15:0.029735914 16:2421.4214 #
-100 3:9.0449057 4:9.0530863 5:1088.0803 8:694.789 9:96.90892 11:57.702591 14:-59609.797 15:0.022528639 16:1849.4973 #
-100 3:10.106125 4:10.052276 5:1127.0863 8:1340.8915 9:95.95488 11:41.129143 14:-77918.266 15:0.034017511 16:2394.9915 #
0.7424041940941245 3:30.830742 4:30.735655 5:4577.5938 8:2789.6943 9:97.63279 11:53.621067 14:-239458.88 15:0.032784689 16:9288.082 #
100 3:7.0663562 4:7.0627856 5:690.36871 8:808.42249 9:79.904747 11:34.320873 14:-49583.656 15:0.03062568 16:1897.8798 #
35.410021236235558 3:25.339279 4:25.165836 5:3523.2852 8:2638.9116 9:238.30104 11:89.351288 14:-197066.03 15:0.033193082 16:7531.7754 #
-100 3:6.7935915 4:6.729609 5:867.42499 8:748.6283 9:73.752785 11:25.436508 14:-47762.418 15:0.038847309 16:1921.7162 #
-33.739215261707429 3:13.81163 4:13.550308 5:1731.0562 8:1271.5925 9:109.81596 11:56.593578 14:-88908.961 15:0.038764693 16:4254.5869 #
100 3:6.3005509 4:6.2708449 5:877.31763 8:359.64523 9:67.766396 11:24.384109 14:-39714.188 15:0.03391742 16:1418.8914 #
-100 3:11.927734 4:11.817275 5:1530.3899 8:1277.4789 9:113.60201 11:60.588951 14:-78295.18 15:0.037276786 16:3304.5928 #
92.702899299904502 3:7.4423933 4:7.4231191 5:626.41046 8:1055.9711 9:109.5954 11:49.938801 14:-48287.094 15:0.014518751 16:858.4975 #
-100 3:6.6425853 4:6.6190553 5:732.03918 8:587.6615 9:52.446278 11:19.569839 14:-49408.629 15:0.038302612 16:1465.95 #
86.073516195775611 3:7.0256906 4:7.0301781 5:826.73608 8:815.25946 9:57.171932 11:25.63945 14:-47132.352 15:0.033193134 16:1943.9451 #
100 3:10.408771 4:10.411482 5:1182.3748 8:1181.5123 9:93.173058 11:44.725082 14:-77879.297 15:0.033855028 16:2742.1313 #
-100 3:12.303511 4:12.289108 5:1815.2667 8:1223.3026 9:97.826218 11:54.489189 14:-78380.469 15:0.039482284 16:2811.8975 #
100 3:6.946568 4:6.941359 5:718.27454 8:677.76239 9:66.132805 11:34.212772 14:-47190.75 15:0.024032064 16:1218.1693 #
-100 3:7.0858459 4:6.9050355 5:941.75745 8:801.84491 9:82.391151 11:32.305096 14:-48377.344 15:0.032775909 16:1152.3141 #
100 3:9.5032358 4:9.5098104 5:1245.2565 8:987.78687 9:80.777641 11:21.139906 14:-67202.227 15:0.036583252 16:1975.6538 #
-100 3:12.59141 4:12.578655 5:1829.8108 8:845.94269 9:100.79695 11:55.029236 14:-85798.547 15:0.039097775 16:4824.7031 #
100 3:6.88236 4:6.8777542 5:839.87738 8:524.5968 9:60.72657 11:30.391043 14:-49065.152 15:0.034869038 16:1402.0258 #
12.535442608730003 3:6.0038104 4:5.9950118 5:784.54803 8:551.29388 9:65.951172 11:26.96814 14:-40666.297 15:0.03298464 16:1059.4331 #
100 3:13.395332 4:13.406606 5:1781.9581 8:1032.3241 9:84.264984 11:31.192316 14:-91789.031 15:0.031576328 16:3690.9507 #
-24.526860644099351 3:25.161688 4:25.177784 5:3193.0984 8:2552.4355 9:161.11009 11:81.469154 14:-191425.53 15:0.036941979 16:7450.6763 #
-100 3:16.039156 4:16.054617 5:2196.9084 8:1382.0908 9:178.85732 11:107.40948 14:-106718.52 15:0.024480484 16:2881.7832 #
68.300486438969813 3:7.7774234 4:7.7317414 5:1146.8694 8:403.55292 9:73.115303 11:29.432911 14:-47493.438 15:0.036242686 16:1965.8932 #
3.1358904276343367 3:12.292667 4:12.272168 5:1893.558 8:964.9436 9:85.963593 11:40.170284 14:-79112.914 15:0.037542369 16:3135.3694 #
100 3:6.0629668 4:6.0561013 5:734.12775 8:505.96671 9:48.688999 11:21.776882 14:-42558.98 15:0.035646658 16:1281.887 #
100 3:6.6476288 4:6.6455383 5:700.24939 8:702.89557 9:72.445755 11:34.055901 14:-48234.617 15:0.032940671 16:1706.8857 #
100 3:7.1371126 4:7.0637612 5:1038.2715 8:678.15833 9:79.677101 11:26.446253 14:-48624.73 15:0.035955198 16:1402.8777 #
-100 3:19.800371 4:19.784826 5:2642.2556 8:2137.7854 9:115.34738 11:43.966328 14:-151993.38 15:0.040342025 16:6148.853 #
67.609983350352607 3:15.00689 4:14.993202 5:2242.9565 8:1095.5573 9:86.622444 11:44.767536 14:-101384.81 15:0.036161471 16:4931.3955 #
-100 3:6.111649 4:6.114398 5:586.90289 8:507.47092 9:57.860718 11:18.72121 14:-46969.754 15:0.02303442 16:855.11615 #
-100 3:6.9376602 4:6.8504467 5:847.94031 8:795.38983 9:80.092834 11:35.150574 14:-48448.371 15:0.036964856 16:1349.3625 #
-40.305102099561125 3:15.811397 4:15.820448 5:1915.7097 8:1243.3839 9:125.75081 11:62.083332 14:-111789.63 15:0.040926844 16:6014.394 #
-100 3:10.528761 4:10.489391 5:1357.9224 8:1158.2384 9:61.648071 11:29.975754 14:-78093.375 15:0.039814912 16:2501.7896 #
100 3:6.8773584 4:6.8840947 5:750.40619 8:517.39038 9:69.389038 11:30.460751 14:-46850.578 15:0.033580832 16:1340.1581 #
-100 3:5.2572379 4:5.1641893 5:554.25092 8:596.97778 9:72.207741 11:35.531349 14:-34529.309 15:0.033166349 16:851.2262 #
-100 3:7.4065576 4:7.3061614 5:1081.0112 8:635.91919 9:56.849636 11:22.848339 14:-47120.512 15:0.03422045 16:1418.9811 #
100 3:7.4408016 4:7.279727 5:1142.2006 8:666.53204 9:73.707718 11:23.053345 14:-45761.758 15:0.033418443 16:1132.4349 #
-24.567561873812949 3:17.552032 4:17.457453 5:2418.4321 8:1402.2283 9:188.48222 11:122.63068 14:-132759.98 15:0.026082741 16:5177.3125 #
100 3:12.650631 4:12.548491 5:1819.2776 8:1344.7074 9:85.572571 11:37.619801 14:-93792.625 15:0.037051134 16:2789.9155 #
-100 3:10.328741 4:10.241978 5:1477.8082 8:1097.7369 9:87.17395 11:44.575119 14:-76544.102 15:0.035634395 16:2342.1143 #
100 3:11.135329 4:10.950331 5:1702.4167 8:1190.0441 9:77.087807 11:27.856358 14:-77790.25 15:0.035607066 16:1795.1848 #
65.497065019032192 3:10.544753 4:10.537277 5:1016.6618 8:1513.6553 9:90.971245 11:42.084953 14:-78032.344 15:0.035903394 16:1831.9816 #
100 3:4.899796 4:4.8773746 5:601.55859 8:355.65118 9:49.746643 11:16.710747 14:-33832.305 15:0.028967241 16:644.07495 #
-18.844188534565717 3:31.171833 4:31.019957 5:4574.6055 8:1741.4821 9:416.83524 11:240.19588 14:-223166.13 15:0.024574218 16:10121.393 #
-100 3:18.440289 4:18.002544 5:3005.3071 8:1582.8265 9:143.90662 11:85.995163 14:-137330.58 15:0.02886756 16:5650.4976 #
-61.578963377144191 3:13.619197 4:13.368031 5:1895.6331 8:853.35406 9:121.05901 11:60.867928 14:-100745.6 15:0.035464171 16:5211.7036 #
100 3:8.8119421 4:8.6981096 5:1381.7521 8:587.46338 9:84.197701 11:32.537514 14:-55995.441 15:0.032697596 16:1835.129 #
-44.690550638805384 3:26.611168 4:26.494249 5:3597.2471 8:1899.6219 9:302.50644 11:177.63255 14:-191174.66 15:0.023968983 16:7577.1948 #
100 3:7.0553727 4:7.0512152 5:883.79803 8:649.59125 9:76.15271 11:28.482065 14:-48007.559 15:0.032720864 16:1539.0339 #
100 3:25.433157 4:25.403246 5:3514.8801 8:2383.6865 9:96.875015 11:43.05196 14:-192748.66 15:0.035597779 16:8110.2944 #
100 3:10.440824 4:10.450916 5:1389.024 8:1000.5682 9:75.112473 11:42.033066 14:-76396.516 15:0.034707498 16:3456.884 #
100 3:10.522304 4:10.530356 5:1391.0178 8:1076.8549 9:79.991486 11:35.260174 14:-76496.469 15:0.037002552 16:2287.978 #
100 3:5.2174878 4:5.0836458 5:704.9942 8:527.07513 9:59.754009 11:23.202375 14:-34614.516 15:0.02658328 16:745.08313 #
100 3:7.0030022 4:6.9213071 5:820.58673 8:712.63019 9:59.928246 11:24.795033 14:-47273.297 15:0.03268633 16:1366.7357 #
-100 3:8.9834623 4:8.9341211 5:1108.8242 8:1004.0179 9:109.70134 11:43.309658 14:-68887.648 15:0.035200581 16:2899.2957 #
100 3:10.133686 4:10.083635 5:1465.4429 8:622.89581 9:104.33382 11:44.531605 14:-64222.289 15:0.033959549 16:1931.2006 #
61.861088063075286 3:18.188351 4:18.16783 5:2502.2373 8:1471.4285 9:103.7394 11:54.142597 14:-124828.5 15:0.032869805 16:5727.772 #
3.5395138407795401 3:24.151573 4:24.154037 5:2991.3628 8:1286.8938 9:92.380882 11:40.910385 14:-137867.42 15:0.036865193 16:10197.739 #
-100 3:10.82966 4:10.772648 5:1296.2826 8:1263.6443 9:121.69449 11:61.877956 14:-75110.328 15:0.035533018 16:2555.0989 #
100 3:12.213777 4:12.202523 5:1792.6127 8:633.77094 9:71.611237 11:30.787764 14:-75447.727 15:0.035851896 16:2860.2454 #
43.620045200929042 3:27.675226 4:27.684814 5:4011.4207 8:2035.1366 9:143.31946 11:78.363754 14:-194674.66 15:0.036002345 16:8797.7646 #
100 3:19.114542 4:18.945179 5:2785.8066 8:1928.8621 9:74.181335 11:34.698063 14:-151166.09 15:0.035171483 16:6281.1455 #
100 3:14.155424 4:14.115222 5:2002.9498 8:1263.0546 9:65.989662 11:22.958492 14:-105332.66 15:0.035758335 16:4647.6211 #
-5.5946332161154668 3:24.936119 4:24.960546 5:2907.686 8:3035.4985 9:212.72218 11:115.69817 14:-179005.03 15:0.031051351 16:6472.7539 #
-96.481168620079202 3:25.91082 4:25.929207 5:3329.1536 8:2001.6942 9:285.6416 11:115.60403 14:-194531.16 15:0.02892312 16:8308.7451 #
-3.3057996983700519 3:30.179607 4:30.193956 5:3620.5518 8:1749.8931 9:445.23239 11:266.62506 14:-194448.11 15:0.023698743 16:6376.8242 #
100 3:10.631824 4:10.640813 5:1376.974 8:951.92432 9:88.081947 11:40.307304 14:-75969.492 15:0.035822675 16:2285.5068 #
-100 3:8.3727112 4:8.3320608 5:1114.85 8:619.18695 9:116.21404 11:55.45639 14:-56503.836 15:0.026822122 16:1719.9764 #
-100 3:10.267027 4:10.238568 5:1435.5641 8:903.98883 9:78.238922 11:33.673496 14:-76228.305 15:0.037754163 16:3151.105 #
-100 3:12.95449 4:12.79136 5:1740.1932 8:1309.6326 9:121.05918 11:64.048096 14:-95279.422 15:0.036577135 16:3349.5515 #
100 3:24.578423 4:24.487165 5:3516.8242 8:2324.7234 9:106.67147 11:52.205803 14:-194205.89 15:0.034633081 16:7232.3662 #
-100 3:17.844566 4:17.610365 5:2530.0833 8:1845.3029 9:133.11682 11:63.649185 14:-133840.02 15:0.034962956 16:4455.582 #
-5.5118115236878449 3:27.241171 4:27.231941 5:3689.8418 8:2374.3945 9:367.27319 11:183.79649 14:-195087.03 15:0.023456397 16:6021.0835 #
-12.564635555981102 3:26.953823 4:26.724697 5:4093.0295 8:2053.3723 9:234.77643 11:120.30298 14:-207888.66 15:0.030339669 16:7889.0288 #
-10.063068455119918 3:23.876902 4:23.884604 5:2617.6897 8:2382.9175 9:479.04004 11:273.14996 14:-170893.89 15:0.024534797 16:6422.8047 #
100 3:11.641921 4:11.646323 5:1576.0721 8:1220.9131 9:79.500473 11:35.388805 14:-85863.188 15:0.037333172 16:2540.0671 #
-100 3:27.461327 4:27.482185 5:3630.575 8:2112.3772 9:229.85045 11:107.37734 14:-192350.13 15:0.03605707 16:8456.1631 #
-100 3:25.646059 4:25.492706 5:3766.6904 8:2472.781 9:127.19854 11:62.002651 14:-194329.58 15:0.038421582 16:7685.0269 #
79.609629616789334 3:9.8318567 4:9.7769718 5:1395.2491 8:1079.5958 9:105.97401 11:34.245285 14:-65896.859 15:0.031935014 16:1449.6803 #
96.312780821913321 3:26.200426 4:26.211576 5:3697.2051 8:2199.3992 9:155.94019 11:74.925034 14:-191781.19 15:0.036420114 16:8405.6504 #
100 3:14.263304 4:14.264026 5:1910.1462 8:1486.5702 9:93.174187 11:37.626022 14:-107288.2 15:0.036933575 16:3114.2759 #
-100 3:25.409298 4:25.249075 5:3744.3923 8:2443.1885 9:125.64353 11:60.299755 14:-192508.27 15:0.038567461 16:7628.4448 #
-13.483850237124877 3:9.2287207 4:9.2002354 5:1132.6173 8:1015.7574 9:123.8106 11:55.971432 14:-64477.598 15:0.033513281 16:2422.7476 #
62.16313078610203 3:11.676153 4:11.657291 5:1654.572 8:680.65796 9:72.760208 11:30.462337 14:-74593.68 15:0.034976628 16:4150.311 #
-100 3:13.132872 4:12.998659 5:1658.16 8:738.46381 9:83.552765 11:35.249306 14:-75413.258 15:0.038304806 16:4001.6375 #
100 3:24.240835 4:24.152039 5:3474.1936 8:2292.0303 9:106.86832 11:51.263798 14:-191246.2 15:0.034657039 16:7144.8926 #
-100 3:10.593677 4:10.598265 5:1299.1252 8:1301.7328 9:92.995026 11:49.324387 14:-76459.344 15:0.024682578 16:1483.6497 #
71.486237957501146 3:26.864317 4:26.802517 5:3768.0908 8:2016.9749 9:92.582527 11:45.347519 14:-194168.8 15:0.034674603 16:8410.4678 #
-77.435420647916459 3:24.628241 4:24.57703 5:3343.3982 8:2659.5537 9:140.1731 11:72.714561 14:-190294.44 15:0.039714824 16:7471.6514 #
14.835285260035523 3:20.156282 4:20.153509 5:2457.6511 8:1140.6053 9:85.775482 11:37.058788 14:-115763.05 15:0.037409879 16:8644.3623 #
-100 3:6.8994951 4:6.8057747 5:845.17493 8:448.09683 9:86.879425 11:44.832066 14:-46542.266 15:0.01792689 16:1133.2318 #
-100 3:4.6761885 4:4.6619158 5:515.33673 8:399.96146 9:55.492897 11:21.11413 14:-30859.303 15:0.033727918 16:803.47644 #
100 3:23.612719 4:23.560829 5:3262.936 8:2556.7842 9:107.66493 11:47.351566 14:-188733.06 15:0.035510998 16:7069.9507 #
100 3:17.63838 4:17.63978 5:2341.793 8:2025.391 9:82.850876 11:31.97361 14:-137124.69 15:0.035570011 16:5638.0576 #
-12.736484042837901 3:24.812807 4:24.82284 5:3579.3198 8:2113.8582 9:219.26869 11:108.57085 14:-188288.95 15:0.026667632 16:6546.2432 #
100 3:5.5097461 4:5.5033307 5:512.09454 8:488.97858 9:51.532761 11:21.863636 14:-37431.195 15:0.026269285 16:706.07202 #
1.5743382534441537 3:6.994699 4:6.8421025 5:1102.3784 8:426.84543 9:55.639019 11:19.678991 14:-44017.117 15:0.035107959 16:1719.2378 #
100 3:20.942783 4:20.912252 5:2907.0796 8:1945.8591 9:89.702591 11:34.80809 14:-158058.53 15:0.035859607 16:6799.8843 #
-14.217518561517863 3:16.730589 4:16.569904 5:2586.4028 8:1264.24 9:143.17477 11:101.16541 14:-109938.55 15:0.030846355 16:2449.0955 #
100 3:11.783546 4:11.637893 5:1808.4127 8:1045.5435 9:107.56331 11:44.594879 14:-81320.852 15:0.036904171 16:2419.0479 #
100 3:4.9768486 4:4.9671655 5:546.41608 8:445.41385 9:68.819794 11:25.912369 14:-36624.438 15:0.02718509 16:861.93927 #
-100 3:5.1270814 4:5.1247945 5:505.14905 8:535.31201 9:65.670395 11:23.204037 14:-37233.824 15:0.035373837 16:907.66553 #
100 3:9.7530289 4:9.7472935 5:1275.1228 8:912.00543 9:80.627838 11:26.70785 14:-73617.961 15:0.037178662 16:2157.4321 #
100 3:9.3276653 4:9.3097954 5:1271.8284 8:845.90765 9:72.989471 11:23.790619 14:-68352.93 15:0.036647581 16:2042.5969 #
85.615413906136453 3:16.583691 4:16.473763 5:2383.9585 8:1881.9626 9:114.61446 11:48.572174 14:-126157.11 15:0.036512922 16:3566.1978 #
-100 3:5.540381 4:5.5426402 5:678.8941 8:442.10867 9:74.842529 11:28.403854 14:-37116.484 15:0.032316972 16:989.81097 #
-57.30662897355559 3:8.3622904 4:8.2415152 5:875.29004 8:1179.7939 9:133.03668 11:55.213169 14:-55850.891 15:0.011816884 16:658.2171 #
-100 3:12.061724 4:11.98145 5:1651.4034 8:1267.0583 9:160.20695 11:72.691216 14:-76778.914 15:0.030470056 16:2222.196 #
100 3:6.3332696 4:6.2926121 5:862.84363 8:417.18616 9:58.572247 11:18.566458 14:-43624.852 15:0.031862669 16:1358.4052 #
-86.666671836797931 3:11.161868 4:11.152404 5:1500.0636 8:1002.6047 9:114.85584 11:75.092209 14:-77732.992 15:0.027832711 16:1844.9647 #
25.577107377948145 3:21.761562 4:21.76572 5:2516.5999 8:1448.151 9:116.91211 11:47.241436 14:-130877.79 15:0.037131932 16:9171.4307 #
-100 3:5.4060454 4:5.3745108 5:545.49048 8:349.66272 9:67.876877 11:29.374193 14:-37869.059 15:0.030739116 16:932.1181 #
-100 3:4.6834283 4:4.6793194 5:544.53186 8:287.85257 9:71.857933 11:37.421211 14:-30163.447 15:0.036046959 16:637.81525 #
100 3:12.141887 4:12.12446 5:1634.1112 8:1275.5524 9:72.263443 11:33.212063 14:-84670.828 15:0.036117401 16:2090.802 #
-100 3:10.222518 4:10.21426 5:1299.9722 8:1102.9869 9:98.795509 11:51.71986 14:-74103.352 15:0.033965535 16:2001.757 #
-100 3:5.1413155 4:5.1438098 5:530.88208 8:581.21246 9:59.095585 11:36.678089 14:-36329.578 15:0.021929845 16:764.24042 #
100 3:17.300779 4:17.117685 5:2570.1738 8:1906.0171 9:137.62267 11:55.746819 14:-127960.58 15:0.032616664 16:3792.9246 #
-3.1748492469956959 3:9.6864443 4:9.5324287 5:1446.7627 8:759.85925 9:73.006126 11:30.684158 14:-70648.086 15:0.006734699 16:370.52139 #
100 3:5.2168822 4:5.1828742 5:559.73248 8:433.89111 9:70.354996 11:24.672518 14:-35774.02 15:0.02554946 16:811.65454 #
-100 3:7.5060558 4:7.4680066 5:781.65314 8:690.3808 9:101.89553 11:54.005581 14:-51458.004 15:0.03792898 16:2028.2529 #
-46.38427693064088 3:28.364374 4:27.863363 5:4243.9346 8:2011.4972 9:373.62836 11:146.13486 14:-210042.48 15:0.026185114 16:7684.1323 #
-79.472602939647004 3:26.073746 4:25.549555 5:3245.3181 8:3008.9351 9:234.69899 11:138.68497 14:-188879.77 15:0.034553062 16:8125.4619 #
-100 3:9.30406 4:9.3122501 5:1250.9081 8:849.71057 9:126.50978 11:66.727158 14:-59256.328 15:0.035207663 16:1946.5702 #
84.808154213586889 3:26.182732 4:26.193716 5:3465.3899 8:2606.9194 9:140.48236 11:72.438286 14:-189330.09 15:0.035125025 16:8570.1436 #
-57.299475420740833 3:21.235645 4:21.191206 5:2937.1697 8:2244.3696 9:282.35818 11:98.528877 14:-151684.77 15:0.031197255 16:5102.8779 #
100 3:8.7147417 4:8.6190519 5:1276.1018 8:780.45441 9:79.480392 11:34.633736 14:-61816.758 15:0.037047021 16:1808.0482 #
12.679602876840852 3:25.93836 4:25.960541 5:3334.7783 8:2828.0234 9:154.09766 11:79.326439 14:-187595.73 15:0.035599481 16:8579.2549 #
2.1962433623614288 3:28.258938 4:27.769186 5:3725.6833 8:2995.8364 9:185.54138 11:90.55957 14:-186841.48 15:0.030554269 16:7829.9336 #
69.348843519996109 3:10.724758 4:10.634622 5:1622.5623 8:884.54175 9:81.328705 11:27.424494 14:-72282.672 15:0.037103359 16:2449.1956 #
14.527080573530952 3:10.035449 4:9.8957052 5:1550.1959 8:753.12018 9:81.02269 11:31.259958 14:-65254.574 15:0.036065787 16:2910.8235 #
100 3:10.671017 4:10.680758 5:1385.3633 8:1211.605 9:88.296814 11:43.743958 14:-74235.906 15:0.034124792 16:3450.3416 #
-100 3:11.696492 4:11.704848 5:1679.2908 8:1118.9674 9:96.829987 11:59.408836 14:-74391.844 15:0.039546218 16:2690.5051 #
100 3:10.79382 4:10.744842 5:1601.2402 8:1004.6138 9:78.439247 11:46.235641 14:-74697.867 15:0.035645295 16:2261.4316 #
-3.4749814245971189 3:8.2692318 4:8.2771463 5:739.76105 8:586.01031 9:70.562798 11:41.981934 14:-69268.719 15:0.035918508 16:2280.4165 #
-100 3:16.519958 4:16.299429 5:2243.8936 8:1113.6606 9:140.09987 11:113.50203 14:-106969.98 15:0.03090333 16:4738.4712 #
9.3706230068408729 3:21.894987 4:21.915546 5:2853.1812 8:2404.249 9:127.29977 11:68.074287 14:-155858.56 15:0.035935801 16:7369.6548 #
-100 3:10.187054 4:10.107442 5:1584.4655 8:908.00647 9:111.69057 11:64.130829 14:-62668.484 15:0.040371582 16:2568.937 #
-73.37835318644207 3:5.0745625 4:5.0661259 5:441.86731 8:538.38159 9:72.54998 11:42.258911 14:-33565.246 15:0.02796112 16:676.93298 #
100 3:5.3202386 4:5.3187928 5:565.61316 8:522.2934 9:54.440895 11:20.275833 14:-36560.727 15:0.027032927 16:801.72729 #
-100 3:11.552851 4:11.515251 5:1753.2406 8:894.91449 9:97.071114 11:55.899555 14:-74403.672 15:0.03327506 16:1810.1262 #
-100 3:10.267942 4:10.168756 5:1319.703 8:958.05334 9:110.10211 11:68.346352 14:-75221.828 15:0.036133006 16:2625.137 #
100 3:10.565228 4:10.554975 5:1388.8289 8:1149.938 9:84.697502 11:29.732512 14:-74258.492 15:0.036571112 16:1852.9006 #
-100 3:8.8864679 4:8.8085213 5:1124.1292 8:829.1178 9:99.576126 11:53.412666 14:-60940.43 15:0.033742443 16:1963.7162 #
-100 3:10.179522 4:10.052889 5:1517.5214 8:814.82526 9:79.123428 11:36.381008 14:-71982.797 15:0.035451937 16:3117.3557 #
100 3:9.906992 4:9.8837948 5:1314.4769 8:924.87146 9:69.267036 11:41.35532 14:-66806.594 15:0.034554105 16:1779.7645 #
-100 3:7.108314 4:7.0960598 5:937.74915 8:558.72546 9:111.09225 11:47.425873 14:-44605.664 15:0.031942181 16:1256.8184 #
-100 3:6.1792641 4:6.1114979 5:713.99139 8:339.66202 9:63.680473 11:26.865847 14:-43232.563 15:0.012523325 16:976.58966 #
-100 3:5.205267 4:5.2016168 5:450.77554 8:204.51088 9:60.106556 11:24.173414 14:-35253.59 15:0.018765207 16:865.16461 #
61.521856767265923 3:5.288434 4:5.2896414 5:589.95251 8:253.72606 9:59.985348 11:20.782761 14:-34945.523 15:0.031331524 16:1058.7677 #
-100 3:5.8670301 4:5.8540125 5:751.44824 8:640.80139 9:96.485542 11:53.541477 14:-35714.453 15:0.037538923 16:1306.1985 #
-91.85849515867335 3:18.558075 4:18.397453 5:2725.4094 8:1205.1906 9:188.84477 11:120.12984 14:-130892.52 15:0.028755354 16:6961.522 #
100 3:5.1850505 4:5.1821871 5:450.08273 8:434.10287 9:58.225006 11:21.317474 14:-35196.641 15:0.030942678 16:787.46252 #
100 3:5.1119766 4:5.0868468 5:683.6261 8:539.00287 9:62.328522 11:19.570757 14:-32311.91 15:0.031625893 16:755.93292 #
-52.116334589519681 3:5.8674164 4:5.8698845 5:543.14825 8:483.81702 9:70.605804 11:37.041767 14:-45442.578 15:0.020642724 16:802.11841 #
-100 3:9.9750681 4:9.9552803 5:1315.7555 8:1070.1061 9:112.01889 11:41.634563 14:-73577.977 15:0.036595784 16:1968.6432 #
-100 3:8.9489899 4:8.9373016 5:1089.9009 8:1022.9332 9:67.586456 11:30.320763 14:-66531.344 15:0.035389502 16:1840.4098 #
100 3:11.267033 4:11.269985 5:1523.7041 8:1174.3101 9:96.239815 11:41.249302 14:-75000.711 15:0.034148529 16:3321.6084 #
100 3:9.8829393 4:9.8712769 5:1370.4767 8:791.04742 9:66.605843 11:26.245083 14:-65204.625 15:0.03636539 16:2401.532 #
-100 3:11.545104 4:11.487847 5:1791.1819 8:1073.6046 9:106.38025 11:56.890881 14:-73511.563 15:0.040488981 16:2937.551 #
100 3:5.5281258 4:5.4987254 5:673.95374 8:405.75943 9:56.37936 11:17.19195 14:-37610.602 15:0.034356225 16:875.3891 #
100 3:28.421059 4:28.434383 5:4059.2307 8:2282.2319 9:169.18089 11:81.378426 14:-201572.45 15:0.028876098 16:7254.1035 #
100 3:9.6733608 4:9.6417885 5:1368.0215 8:702.17059 9:68.810875 11:28.292454 14:-63860.289 15:0.036692649 16:2105.6404 #
-100 3:17.249596 4:16.928093 5:2578.313 8:1185.5038 9:122.76764 11:68.195152 14:-115948.73 15:0.032505013 16:3772.7285 #
100 3:10.205178 4:10.173577 5:1445.1216 8:867.95691 9:78.461861 11:38.942757 14:-73139.117 15:0.031613838 16:3129.0225 #
-100 3:10.11728 4:9.9975138 5:1341.1134 8:930.80646 9:97.203453 11:48.81308 14:-74498.32 15:0.037671305 16:2290.2739 #
100 3:7.205976 4:7.1935625 5:851.14856 8:701.27533 9:48.567417 11:21.536736 14:-52893.965 15:0.035599444 16:1278.6382 #
100 3:5.395103 4:5.3978567 5:452.37009 8:587.87714 9:51.602871 11:22.011839 14:-34929.539 15:0.031996321 16:819.4317 #
2.3441137495732889 3:18.631927 4:18.612305 5:2362.5928 8:911.88788 9:77.486656 11:31.149704 14:-102584.34 15:0.036752723 16:7934.6436 #
1.3988660815099985 3:39.983673 4:40.021721 5:4809.1895 8:2398.5918 9:162.03497 11:72.535164 14:-254870.77 15:0.035975367 16:15688.616 #
-100 3:15.721585 4:15.662796 5:2226.0112 8:1223.3143 9:103.33408 11:51.615055 14:-110378.89 15:0.031363819 16:4704.3086 #
-1.4923628834968528 3:33.01469 4:32.896168 5:5075.271 8:2347.928 9:282.62231 11:152.96768 14:-240450.06 15:0.02569107 16:11562.893 #
100 3:18.685778 4:18.478144 5:3036.1123 8:1379.4817 9:88.56572 11:35.223339 14:-127045.11 15:0.033787519 16:3917.0764 #
-36.533157586645011 3:12.157743 4:12.15601 5:1743.1451 8:762.32318 9:131.21307 11:58.731979 14:-76632.258 15:0.031865206 16:2158.6497 #
100 3:12.275965 4:12.286934 5:1675.069 8:1127.5297 9:91.905113 11:33.899094 14:-86014.492 15:0.033277299 16:3331.7654 #
100 3:10.526107 4:10.345484 5:1628.2437 8:1022.3557 9:96.550964 11:40.868931 14:-73098.234 15:0.03696423 16:2171.6487 #
100 3:20.33275 4:20.335392 5:2927.0964 8:2128.0842 9:109.59129 11:57.026623 14:-151706.2 15:0.03495504 16:5277.228 #
66.114141062619396 3:5.1440959 4:5.1309118 5:664.57513 8:395.01346 9:48.201019 11:20.399155 14:-33280.965 15:0.033901937 16:986.90625 #
100 3:10.600313 4:10.513334 5:1540.0435 8:1010.4532 9:86.959953 11:44.176567 14:-74502.922 15:0.035774734 16:2284.7327 #
100 3:8.9366302 4:8.9384689 5:1140.1586 8:748.49976 9:79.711433 11:23.474218 14:-59601.906 15:0.035744268 16:1827.5887 #
100 3:10.431479 4:10.223487 5:1583.4196 8:986.75409 9:93.878471 11:41.646278 14:-72268.391 15:0.036243044 16:2127.292 #
-100 3:10.207375 4:10.109658 5:1496.7327 8:831.24219 9:100.37353 11:57.652344 14:-72522.445 15:0.035900809 16:2519.9153 #
-97.332839736757421 3:11.175775 4:11.077522 5:1410.8456 8:997.0249 9:118.32624 11:59.264874 14:-75624.125 15:0.038355596 16:3146.2424 #
41.281197485825942 3:8.6083202 4:8.6163282 5:1032.6578 8:560.67761 9:56.271332 11:27.814474 14:-54884.074 15:0.034740262 16:3422.5911 #
100 3:10.330938 4:10.204134 5:1064.8145 8:1297.5981 9:120.16535 11:47.719852 14:-71888.813 15:0.024441699 16:1904.9377 #
3.0420213627887538 3:22.938614 4:22.960779 5:3289.7048 8:1173.9497 9:93.816452 11:34.59425 14:-137542.95 15:0.03826208 16:9679.3154 #
100 3:9.7158155 4:9.7243938 5:1205.3822 8:889.76331 9:75.889694 11:31.946802 14:-70556.547 15:0.036248919 16:2114.6646 #
-100 3:7.2533979 4:7.2070484 5:876.88226 8:604.58032 9:81.769966 11:41.297443 14:-54199.586 15:0.036599383 16:1539.8937 #
100 3:9.2409487 4:9.2301216 5:1140.712 8:846.78906 9:77.476326 11:36.580956 14:-71452.977 15:0.033451822 16:2420.8696 #
-24.73490017201696 3:24.668722 4:24.601303 5:3722.3079 8:1553.2747 9:195.10796 11:167.23242 14:-170085.53 15:0.033470981 16:5164.8574 #
-100 3:9.3677921 4:9.2907686 5:1270.6113 8:1029.4792 9:52.990376 11:23.773289 14:-70374.438 15:0.040238723 16:2274.5178 #
-6.4954626996320739 3:11.411054 4:11.229136 5:1502.075 8:448.09067 9:94.817657 11:41.36517 14:-81410.172 15:0.035395436 16:4491.1265 #
-100 3:11.372443 4:11.354788 5:1680.6646 8:844.68817 9:126.82439 11:68.471924 14:-71865.75 15:0.032694135 16:2422.7556 #
100 3:11.583285 4:11.581985 5:1451.0326 8:749.58881 9:82.65992 11:32.31134 14:-71162.719 15:0.033526309 16:3663.6084 #
-64.761724512695281 3:10.827044 4:10.837505 5:1316.3408 8:628.40643 9:95.0504 11:43.821583 14:-73321.211 15:0.039956033 16:4034.4448 #
31.317813958087527 3:10.969552 4:10.966918 5:1414.2189 8:1253.1014 9:80.647232 11:35.685585 14:-72634.617 15:0.036944468 16:3402.9456 #
-41.83271021182577 3:17.467724 4:17.411751 5:2122.5637 8:1738.2335 9:225.42201 11:129.63091 14:-129279.89 15:0.023224106 16:3171.2117 #
-89.943476429049554 3:6.1430984 4:6.1280499 5:503.80994 8:541.89355 9:89.68811 11:34.91293 14:-44231.695 15:0.034832645 16:1728.3234 #
-15.101631780733442 3:9.15203 4:9.1330624 5:946.57855 8:886.10852 9:115.73871 11:59.724155 14:-67890.953 15:0.0340495 16:2227.3787 #
-2.7721196031704141 3:23.841335 4:23.760933 5:3344.1367 8:2533.9705 9:216.10486 11:117.1376 14:-169761.22 15:0.032520369 16:6800.1943 #
100 3:26.142282 4:25.784109 5:4309.9844 8:1643.4063 9:153.58939 11:60.758801 14:-173187.55 15:0.032143135 16:5765.3706 #
100 3:11.358271 4:11.347042 5:1555.6259 8:1123.7595 9:83.262207 11:33.772861 14:-77805.727 15:0.037607849 16:2631.7568 #
-100 3:9.9326525 4:9.7657423 5:1477.5085 8:648.41541 9:90.690369 11:64.154358 14:-66573.008 15:0.034042213 16:1392.2665 #
-100 3:5.804441 4:5.7864637 5:700.38824 8:519.78314 9:111.45864 11:78.55545 14:-34189.719 15:0.028117854 16:1178.8458 #
100 3:9.0922127 4:9.0904751 5:1142.2288 8:806.92493 9:74.619965 11:25.224665 14:-69551.586 15:0.036983572 16:2002.3315 #
-100 3:11.0843 4:10.925606 5:1720.7582 8:841.84442 9:122.99306 11:96.383614 14:-70330.75 15:0.033180442 16:1740.0513 #
36.806516291092294 3:12.720238 4:12.617122 5:1931.5834 8:1063.2886 9:84.421959 11:33.898407 14:-86276.586 15:0.0366062 16:2872.0015 #
-100 3:10.660214 4:10.664143 5:1444.7144 8:698.03271 9:119.71181 11:75.54174 14:-70248.992 15:0.036131684 16:2440.418 #
-100 3:8.6882648 4:8.6105528 5:1159.0809 8:710.92749 9:88.564491 11:52.498974 14:-63839.895 15:0.036089469 16:2107.8496 #
100 3:10.567163 4:10.516383 5:1466.4487 8:885.28571 9:109.20053 11:42.036655 14:-70102.641 15:0.036071852 16:2166.8093 #
-51.176801324425945 3:5.5651169 4:5.5688105 5:585.1756 8:562.78644 9:112.88192 11:71.831253 14:-31427.131 15:0.027916055 16:802.90161 #
35.146587188694987 3:25.883337 4:25.885872 5:3420.491 8:2729.9856 9:173.8868 11:83.761627 14:-196114.88 15:0.035751548 16:7040.3027 #
100 3:10.297422 4:10.297236 5:1311.7742 8:1194.9462 9:65.263374 11:32.224197 14:-70141.055 15:0.037193399 16:3204.9683 #
-100 3:6.2298408 4:6.1876554 5:829.19513 8:306.96732 9:80.699928 11:47.451317 14:-38400.977 15:0.020787407 16:772.12012 #
100 3:10.749831 4:10.759837 5:1361.0175 8:1121.3325 9:75.902443 11:33.353348 14:-75204.828 15:0.036097351 16:1965.8322 #
100 3:9.3110533 4:9.2196207 5:1318.3575 8:899.63293 9:83.755997 11:29.762987 14:-69856.844 15:0.03320007 16:2846.6721 #
-100 3:10.391129 4:10.270091 5:1212.3662 8:1308.9193 9:98.573853 11:58.492001 14:-69416.531 15:0.039197318 16:3017.9578 #
-100 3:9.7920017 4:9.767498 5:1300.8564 8:967.91138 9:96.554001 11:48.174782 14:-68591.852 15:0.037029684 16:2496.8335 #
-4.6480810642854342 3:19.095642 4:18.993088 5:2409.8577 8:1894.9315 9:168.50247 11:89.861893 14:-141952.22 15:0.03221564 16:4904.668 #
-100 3:9.3013363 4:9.2373266 5:1341.5757 8:743.65729 9:69.486031 11:28.674438 14:-68976.82 15:0.039030641 16:2975.2898 #
-12.744844564738855 3:8.8476925 4:8.739502 5:1118.4879 8:652.84692 9:88.185188 11:47.21199 14:-64861.184 15:0.034654513 16:2355.031 #
-100 3:9.9029455 4:9.8622828 5:1164.1667 8:1185.7848 9:123.02348 11:53.340504 14:-70509.023 15:0.035160709 16:2822.8171 #
100 3:5.3767967 4:5.3818021 5:496.08707 8:420.79037 9:58.817501 11:17.711628 14:-36696.465 15:0.02742609 16:828.92224 #
-100 3:10.837213 4:10.727438 5:1486.6924 8:503.36633 9:69.975716 11:22.371037 14:-68008.914 15:0.040806163 16:3473.6296 #
100 3:9.2851772 4:9.2921457 5:1193.2991 8:803.39301 9:78.85672 11:36.674599 14:-68975.563 15:0.032944866 16:2922.5496 #
100 3:10.492174 4:10.254906 5:1324.7623 8:629.19458 9:114.83815 11:41.661667 14:-68301.539 15:0.026120272 16:2545.3616 #
-100 3:7.3093648 4:7.3151751 5:923.56921 8:500.90302 9:89.465569 11:41.624363 14:-49853.516 15:0.039292503 16:1874.8876 #
-75.389719554966675 3:16.16164 4:16.106028 5:2108.7468 8:1014.6368 9:141.52147 11:75.974091 14:-107359.54 15:0.038422216 16:4803.1128 #
100 3:16.088964 4:16.021177 5:2331.436 8:1301.7327 9:74.056267 11:34.163319 14:-119440 15:0.032293238 16:4611.4258 #
-100 3:8.1592226 4:8.1604052 5:1049.2568 8:848.72345 9:69.804192 11:25.122282 14:-57293.852 15:0.040619966 16:2527.1111 #
-8.5891956308874775 3:23.868317 4:23.60177 5:3344.2537 8:1111.6403 9:188.50888 11:106.87472 14:-159267.73 15:0.037821703 16:10123.465 #
100 3:6.6978045 4:6.6067581 5:849.67523 8:612.64789 9:57.017021 11:21.88658 14:-48325.793 15:0.028906189 16:1783.5886 #
100 3:12.211566 4:12.21315 5:1177.9669 8:1449.1561 9:125.61553 11:54.374393 14:-86906.289 15:0.029247303 16:3919.9285 #
-100 3:16.458893 4:16.151979 5:2496.5366 8:1331.2828 9:193.92184 11:117.93166 14:-114336.73 15:0.02373047 16:3968.0596 #
5.3548935124731756 3:5.0391412 4:4.8191643 5:777.67096 8:452.02994 9:45.640099 11:18.65943 14:-31857.709 15:0.031718217 16:851.33917 #
-19.74830986698468 3:19.273701 4:19.261726 5:2371.9248 8:1571.1343 9:147.55362 11:69.939316 14:-139513.81 15:0.040885527 16:7402.3481 #
-100 3:5.5105639 4:5.4944682 5:609.42914 8:320.92343 9:67.324638 11:43.522999 14:-36134.773 15:0.017128186 16:653.93872 #
-15.878701891553932 3:19.406338 4:19.170191 5:2944.9421 8:1157.5093 9:153.87 11:67.182762 14:-137143.16 15:0.040531792 16:8374.9082 #
100 3:10.597899 4:10.577957 5:1422.9479 8:983.79755 9:62.094444 11:17.997158 14:-80646.922 15:0.035254937 16:3440.3123 #
100 3:12.413751 4:12.39391 5:1834.1322 8:655.84564 9:81.946083 11:27.714741 14:-80510.648 15:0.035591599 16:2918.4595 #
100 3:11.920049 4:11.914691 5:1602.3174 8:1355.7559 9:103.25152 11:45.346699 14:-80227.109 15:0.029414371 16:3296.4265 #
-100 3:12.664245 4:12.618223 5:1911.8993 8:1192.0831 9:134.8618 11:77.630997 14:-80166.57 15:0.039609872 16:3186.6594 #
-100 3:11.552511 4:11.383428 5:1642.241 8:880.12616 9:108.26862 11:65.074722 14:-80920.297 15:0.035097729 16:2632.6882 #
-85.410049064137738 3:13.161407 4:13.152831 5:1837.0341 8:1226.6466 9:117.25557 11:64.597687 14:-94079.164 15:0.040424023 16:3830.6394 #
-100 3:11.923029 4:11.862679 5:1521.4891 8:1250.3395 9:142.89851 11:107.31173 14:-81349.453 15:0.021822331 16:2431.5645 #
0.33119166915696241 3:13.648729 4:13.448541 5:2055.5735 8:1524.0947 9:88.253853 11:36.810188 14:-98978.945 15:0.035216212 16:2151.4509 #
-46.285698420779568 3:24.351027 4:24.135939 5:3726.0688 8:2242.0752 9:157.11583 11:77.419304 14:-188385.28 15:0.036887299 16:7424.6782 #
100 3:8.9190435 4:8.9128962 5:1238.476 8:822.07135 9:89.810066 11:35.019936 14:-61567.836 15:0.028578781 16:1849.7797 #
100 3:11.263096 4:11.223667 5:1523.2 8:1070.9451 9:100.47134 11:39.460926 14:-79646.133 15:0.034687944 16:2650.1313 #
19.924140990574703 3:23.817924 4:23.841246 5:2939.1409 8:1347.7113 9:99.019402 11:47.48988 14:-147629.86 15:0.036911543 16:9878.2139 #
-100 3:11.703168 4:11.714048 5:1604.7927 8:967.81848 9:105.72204 11:73.427536 14:-79656.867 15:0.037119787 16:2892.1133 #
88.655577880163193 3:21.063902 4:20.912474 5:3295.2673 8:1712.5112 9:112.20901 11:54.863663 14:-148102.28 15:0.037122965 16:6140.1938 #
-100 3:10.873518 4:10.858666 5:1147.458 8:1303.8049 9:113.11845 11:64.316093 14:-80006.305 15:0.035327744 16:2212.7583 #
-100 3:11.96384 4:11.715905 5:1758.9725 8:1251.8104 9:126.09105 11:55.676529 14:-80466.773 15:0.023608312 16:1919.4821 #
-100 3:16.240215 4:16.193748 5:2337.825 8:1729.6664 9:136.34749 11:60.203289 14:-118066.32 15:0.038397048 16:4948.79 #
-15.172755074978259 3:27.68388 4:27.491365 5:3937.0876 8:1533.4807 9:338.36008 11:206.50916 14:-190073.95 15:0.032163814 16:10857.006 #
29.339058845544457 3:13.944335 4:13.916845 5:2002.8112 8:1420.5732 9:99.682625 11:42.890575 14:-97051.422 15:0.037250724 16:2985.0427 #
100 3:7.1683097 4:7.1296997 5:1059.6877 8:594.73676 9:55.050671 11:21.074673 14:-45735.156 15:0.033741225 16:1142.9012 #
-6.6581601762314797 3:8.4893684 4:8.4661407 5:1033.2203 8:420.82529 9:83.628479 11:47.0639 14:-61186.254 15:0.022263372 16:1688.577 #
-100 3:17.395315 4:17.30476 5:2324.1741 8:1954.3254 9:186.79073 11:135.77788 14:-125585.08 15:0.022536444 16:3621.958 #
61.449180336784913 3:11.273327 4:11.261393 5:1467.2772 8:1277.123 9:84.084824 11:32.869514 14:-81179.742 15:0.037028141 16:1990.9827 #
100 3:18.703573 4:18.564856 5:2884.9424 8:2000.8309 9:103.05619 11:45.977188 14:-131894.73 15:0.034353137 16:4293.3677 #
14.369843838641785 3:6.1074262 4:6.1040664 5:755.93378 8:293.97366 9:54.612839 11:19.650963 14:-39574.25 15:0.033087716 16:1349.5532 #
100 3:8.042923 4:8.0450621 5:966.07159 8:875.92505 9:68.609673 11:25.218628 14:-59036.617 15:0.033157405 16:2113.6292 #
-28.282507084345507 3:5.1979146 4:4.9508982 5:741.89081 8:421.19028 9:97.343361 11:57.013508 14:-29452.109 15:0.03264245 16:457.78925 #
-100 3:10.744522 4:10.68856 5:1496.803 8:840.31897 9:84.983971 11:53.716572 14:-81344.656 15:0.038111266 16:3075.0376 #
-100 3:11.246697 4:11.257484 5:1375.5018 8:959.17194 9:100.18015 11:45.748859 14:-80141.016 15:0.027256679 16:2880.2385 #
-100 3:17.668571 4:17.571978 5:2832.1431 8:1293.1809 9:155.21858 11:107.05766 14:-115044.88 15:0.028165236 16:3917.6816 #
-50.348082246400445 3:16.787449 4:16.753145 5:2415.4917 8:1618.0546 9:178.06445 11:92.862518 14:-119566.28 15:0.03551003 16:4844.7124 #
-100 3:10.515254 4:10.383834 5:1263.5773 8:1100.9618 9:120.43165 11:65.035599 14:-78913.047 15:0.0306857 16:2544.7915 #
-87.255346457987116 3:5.9085298 4:5.9142532 5:288.15396 8:526.54749 9:104.63634 11:60.946774 14:-38441.367 15:0.036660627 16:873.89246 #
-100 3:6.8523989 4:6.832634 5:836.20831 8:639.65802 9:99.956238 11:63.310043 14:-45910.082 15:0.029721973 16:1521.3701 #
-37.704442952794437 3:11.787589 4:11.732514 5:1654.9104 8:1123.9398 9:140.39503 11:71.171722 14:-78876.555 15:0.020031516 16:1457.5428 #
1.3547620411547066 3:35.757149 4:35.758568 5:4360.2876 8:1972.8997 9:123.39639 11:68.244164 14:-213021.67 15:0.036775064 16:14684.439 #
-100 3:10.60108 4:10.40848 5:1423.4053 8:1328.0697 9:114.19733 11:43.025948 14:-76458.641 15:0.034677885 16:1833.1228 #
100 3:19.545414 4:19.512329 5:2675.4868 8:2128.0159 9:92.012627 11:39.63747 14:-155385.72 15:0.035817403 16:5963.0371 #
43.905401360332988 3:22.16235 4:22.170706 5:2637.1138 8:2909.2952 9:111.4099 11:50.802845 14:-154385.34 15:0.03775822 16:6798.332 #
-100 3:10.935828 4:10.945983 5:1336.4417 8:1244.8381 9:147.69847 11:69.88868 14:-76679.438 15:0.030763442 16:2856.1128 #
-12.527876447472934 3:21.185646 4:21.058964 5:3203.937 8:1190.0349 9:358.15155 11:136.24393 14:-130840.77 15:0.019003792 16:5146.4072 #
-55.9247699849426 3:8.8253946 4:8.8174896 5:1049.2538 8:923.58459 9:123.07505 11:85.828369 14:-63568.719 15:0.023250466 16:1437.0642 #
-83.60129123077698 3:24.550024 4:24.523827 5:3094.6589 8:2139.9458 9:175.06047 11:85.543785 14:-185203.28 15:0.040699139 16:9336.5674 #
100 3:27.311941 4:27.336092 5:3228.5178 8:1755.6256 9:114.8388 11:61.589401 14:-184809.27 15:0.036910258 16:9184.8682 #
0.4737196207978478 3:25.81761 4:25.40255 5:3600.4404 8:2802.8674 9:214.18091 11:100.09118 14:-184258.94 15:0.03399023 16:7924.4087 #
100 3:11.703122 4:11.679969 5:1636.1385 8:1156.3306 9:95.202301 11:47.292633 14:-79815.164 15:0.036891922 16:2667.3818 #
-40.657621501857363 3:26.032127 4:25.889477 5:3810.4473 8:1766.787 9:287.28918 11:166.85838 14:-185115.98 15:0.028896092 16:9549.7012 #
-82.321344613852403 3:25.09576 4:25.102438 5:3306.917 8:2285.6882 9:207.39417 11:120.65768 14:-184643.22 15:0.037745997 16:8231.5596 #
-100 3:7.2530818 4:7.2392311 5:905.57257 8:780.01398 9:83.335861 11:32.698513 14:-53459.898 15:0.037189033 16:1434.5087 #
26.59771285987668 3:8.9636936 4:8.965127 5:902.60938 8:868.09363 9:84.502724 11:31.238579 14:-56325.727 15:0.032891423 16:3353.3733 #
-21.508455551124591 3:26.95784 4:26.538727 5:4017.1357 8:1387.1858 9:302.68106 11:168.89687 14:-182552.59 15:0.026195521 16:8789.9629 #
96.685954226045027 3:26.074776 4:25.73686 5:3972.1038 8:2404.5115 9:202.51472 11:90.477791 14:-182124.64 15:0.033028446 16:7890.4023 #
-54.979333735581477 3:24.708284 4:24.618179 5:3470.333 8:3173.0913 9:143.17609 11:75.815399 14:-181004.56 15:0.037915513 16:7922.9248 #
1.1768627802024696 3:26.480465 4:26.478033 5:3169.8911 8:1658.3481 9:113.73849 11:58.194691 14:-181054.69 15:0.035393625 16:8648.2441 #
35.79359789705498 3:23.618422 4:23.624191 5:3105.4841 8:2453.6868 9:158.5565 11:86.210297 14:-180835.45 15:0.036496934 16:6581.3809 #
-1.9517941532378131 3:25.741196 4:25.559856 5:3339.385 8:2385.7573 9:466.35193 11:215.14226 14:-181893.48 15:0.028619368 16:7778.1006 #
100 3:22.297468 4:21.917177 5:2976.4094 8:2518.4177 9:101.34566 11:46.821369 14:-181405.64 15:0.035163436 16:7079.8359 #
6.889899926836307 3:11.254877 4:11.259593 5:1646.4122 8:776.20886 9:66.320557 11:36.135056 14:-69714.047 15:0.037515089 16:2885.7549 #
52.250985085205116 3:18.91852 4:18.840319 5:2966.4519 8:1364.421 9:110.68439 11:65.78653 14:-116987.07 15:0.037018746 16:4800.5977 #
-100 3:11.025932 4:11.031128 5:1517.1373 8:937.34113 9:93.243835 11:43.443455 14:-78552.93 15:0.039579082 16:2869.1526 #
-100 3:6.4261813 4:6.3515387 5:652.22046 8:432.61771 9:94.805695 11:45.142799 14:-43973.281 15:0.027930884 16:1350.7489 #
-100 3:23.846478 4:23.858009 5:3272.3647 8:1734.8625 9:129.6875 11:69.29673 14:-175544.95 15:0.039790981 16:7781.2559 #
-42.365484982716168 3:26.717531 4:26.420837 5:3829.793 8:1768.2133 9:176.73985 11:118.19563 14:-181445.41 15:0.027831268 16:7211.7876 #
42.72695986635658 3:26.339951 4:26.339062 5:3147.1084 8:1624.4043 9:114.3127 11:58.506153 14:-179529.78 15:0.035431094 16:8612.0703 #
-63.565846473322601 3:23.834692 4:23.813927 5:3235.7207 8:2284.8433 9:189.52974 11:103.79455 14:-179989.78 15:0.036466777 16:7629.3403 #
-41.111285918914511 3:22.892769 4:22.70933 5:2425.6235 8:2652.0261 9:395.23206 11:218.67012 14:-179270.66 15:0.028402463 16:5893.9565 #
100 3:23.385702 4:23.391594 5:3068.7354 8:2421.5874 9:156.30156 11:85.480469 14:-178568.67 15:0.036517616 16:6523.9932 #
-92.437092073230005 3:24.16963 4:24.186281 5:3306.4031 8:1750.0201 9:128.55411 11:68.12619 14:-177753.08 15:0.039512902 16:7844.4702 #
79.497555850980675 3:17.677235 4:17.675522 5:2419.2122 8:1905.5764 9:105.81656 11:51.301575 14:-130250.89 15:0.037010442 16:3948.2656 #
100 3:25.522715 4:25.07839 5:3604.7388 8:2495.1646 9:190.9747 11:74.765137 14:-176498.31 15:0.033973798 16:7777.2749 #
64.589415028868657 3:26.207094 4:26.222923 5:3080.2725 8:1655.1056 9:103.87655 11:55.359631 14:-177129.42 15:0.036575604 16:8788.9717 #
-96.628155063971008 3:10.223919 4:9.8395691 5:1622.2866 8:728.59674 9:169.19707 11:66.110847 14:-62631.668 15:0.020016942 16:1656.3101 #
-9.9879665391976857 3:24.269581 4:24.167648 5:3599.2686 8:2591.0583 9:190.8784 11:84.83049 14:-177159.53 15:0.03755318 16:7161.7754 #
31.83923989393514 3:24.968603 4:24.516851 5:4109.0723 8:1676.6603 9:94.886513 11:48.664627 14:-173303.08 15:0.038173143 16:8618.7119 #
100 3:19.977491 4:19.956923 5:3040.0662 8:1619.5245 9:122.29926 11:80.118431 14:-135422.25 15:0.036429882 16:4856.7793 #
-100 3:22.709126 4:22.623549 5:3248.5242 8:1988.3783 9:154.72737 11:75.985458 14:-176007.25 15:0.040255122 16:8885.124 #
100 3:25.861038 4:25.876581 5:3039.9841 8:1626.7239 9:103.57422 11:53.525959 14:-175237.95 15:0.036626443 16:8686.1729 #
-95.160995528942308 3:24.015358 4:23.916119 5:3563.7837 8:2557.542 9:189.53299 11:83.660828 14:-175125.83 15:0.037571285 16:7094.2744 #
40.545398483273175 3:21.555344 4:21.282431 5:3070.896 8:2250.8828 9:82.215286 11:35.444538 14:-173047.92 15:0.035865735 16:7099.3647 #
-59.566608753161901 3:25.63765 4:25.640245 5:3493.667 8:1676.615 9:267.64722 11:166.87694 14:-174319.45 15:0.034486827 16:9432.4102 #
6.6102427309719678 3:28.954882 4:28.928368 5:4047.5962 8:1777.7048 9:142.98256 11:67.456863 14:-174968.17 15:0.036948249 16:10388.73 #
-6.3756649946662369 3:25.25989 4:25.087107 5:3157.9697 8:2878.5286 9:272.76709 11:198.41142 14:-177838.22 15:0.031853706 16:6398.3223 #
100 3:23.806587 4:23.829311 5:3123.7664 8:2148.3586 9:203.90672 11:94.172813 14:-175057.14 15:0.031831097 16:6451.5059 #
62.766244441769182 3:23.888844 4:23.911266 5:3127.2097 8:2169.0447 9:211.00177 11:97.768265 14:-175629.94 15:0.03186981 16:6471.3579 #
-13.695646175236737 3:27.108667 4:26.446714 5:4269.7383 8:1960.6783 9:296.7326 11:155.69774 14:-175071.02 15:0.023554893 16:5717.644 #
21.943873796331083 3:24.532791 4:24.531706 5:3002.9077 8:3174.3401 9:125.15829 11:59.818634 14:-173456.11 15:0.037633315 16:7458.3931 #
34.041205690017883 3:25.268675 4:24.807804 5:4159.9126 8:1681.2312 9:97.89991 11:48.767094 14:-174996.56 15:0.038149778 16:8711.0449 #
-100 3:25.461287 4:25.469826 5:3390.676 8:1828.5768 9:167.13101 11:113.17387 14:-173223.23 15:0.027463367 16:6037.7549 #
-31.384062293292612 3:21.391314 4:21.411871 5:2411.6938 8:1957.9908 9:253.3717 11:131.76361 14:-172116.09 15:0.033074696 16:7234.563 #
-30.686865327510187 3:24.011856 4:23.964092 5:2729.7737 8:2958.1238 9:215.78416 11:120.29001 14:-174744.61 15:0.030207476 16:6240.811 #
-73.498553067630525 3:4.9161353 4:4.8127971 5:598.22021 8:313.24237 9:80.314819 11:59.554585 14:-30188.482 15:0.026240272 16:551.4458 #
-86.220066926240335 3:26.947321 4:26.290949 5:4253.5586 8:1934.1226 9:291.11459 11:154.25163 14:-173590.06 15:0.023597956 16:5689.9448 #
-75.476061152777447 3:5.7719598 4:5.6342573 5:634.86511 8:343.85034 9:69.869652 11:34.601067 14:-33545.746 15:0.0031692081 16:249.45006 #
-3.7464581376470525 3:35.387524 4:34.667801 5:5681.9053 8:1407.9193 9:375.46976 11:209.80434 14:-229044.94 15:0.028644059 16:13111.024 #
-100 3:12.630838 4:12.566193 5:1838.6788 8:1245.6128 9:82.236488 11:32.699306 14:-92195.898 15:0.038967647 16:3943.4897 #
-10.305390142027179 3:24.93453 4:24.954573 5:2259.8948 8:2467.6667 9:358.77206 11:188.38525 14:-175000.25 15:0.030340998 16:7218.9199 #
41.122308331633498 3:20.967854 4:20.980959 5:3089.3818 8:1516.0771 9:130.44301 11:95.92894 14:-138511.69 15:0.036817949 16:5128.2275 #
100 3:19.211733 4:19.019617 5:2971.0732 8:1644.6787 9:112.80183 11:58.994934 14:-134223.89 15:0.036193807 16:4195.6919 #
-27.889039855700748 3:25.502668 4:25.244608 5:3916.4736 8:1877.4648 9:279.97412 11:130.37321 14:-176858.14 15:0.02558252 16:5544.0078 #
8.8529135053090791 3:13.974042 4:13.898692 5:1930.095 8:1585.7269 9:97.682747 11:51.029491 14:-104591.79 15:0.037255734 16:3165.3564 #
-100 3:9.6474094 4:9.6544924 5:1274.0697 8:718.5957 9:103.04051 11:65.83403 14:-61237.578 15:0.0341863 16:2008.2271 #
-94.254555756189419 3:22.324951 4:21.801758 5:3347.8003 8:991.11731 9:147.20499 11:108.10647 14:-134124.08 15:0.028203607 16:4360.6714 #
18.920757267797647 3:17.719151 4:17.719103 5:2370.2312 8:2009.7838 9:92.974075 11:48.032425 14:-133541.58 15:0.03739842 16:3994.0063 #
3.1132832432662942 3:20.564777 4:20.374868 5:3354.7341 8:1255.2635 9:84.076462 11:30.511938 14:-132269.7 15:0.03804452 16:8358.7734 #
-100 3:12.354322 4:12.265552 5:1630.0745 8:1294.7953 9:131.68182 11:81.981628 14:-92353.219 15:0.024620024 16:2786.2292 #
47.103405189074863 3:9.8629045 4:9.8314419 5:1444.2504 8:821.5885 9:78.282257 11:36.198692 14:-67361.25 15:0.03346942 16:3023.1641 #
-2.2905352834048216 3:16.532633 4:16.538292 5:2230.7976 8:1355.1503 9:241.73907 11:87.534142 14:-118352.09 15:0.025240475 16:3818.4958 #
14.905158656215963 3:30.088465 4:30.061495 5:4226.127 8:1867.1005 9:144.27069 11:75.260483 14:-186418.03 15:0.036612872 16:10734.358 #
100 3:12.540586 4:12.538339 5:1779.7128 8:951.84137 9:70.742676 11:33.373581 14:-85608.141 15:0.036185812 16:2986.5469 #
-50.621791327894492 3:24.182724 4:23.878162 5:3693.8853 8:1552.1792 9:197.38649 11:87.572578 14:-172362.02 15:0.039561927 16:10240.261 #
69.204201184388651 3:23.251564 4:23.259781 5:3229.0994 8:2374.3684 9:157.44987 11:71.76252 14:-172054.86 15:0.033695977 16:6180.7964 #
1.6563389117758334 3:12.513429 4:12.513828 5:1699.1467 8:953.3847 9:79.287086 11:34.759144 14:-76918.453 15:0.034140486 16:3051.8252 #
-42.841601427916224 3:24.801533 4:24.472191 5:3905.1445 8:2057.3101 9:263.96387 11:143.14127 14:-171969.13 15:0.033732925 16:7479.3394 #
100 3:23.356852 4:23.179829 5:3655.9153 8:2062.677 9:126.32422 11:63.937191 14:-168910.13 15:0.037341077 16:6798.1797 #
100 3:19.297724 4:19.138674 5:3037.6296 8:1644.833 9:103.12371 11:52.158371 14:-135932.55 15:0.037591476 16:5718.2788 #
-100 3:11.549984 4:11.534984 5:1343.6117 8:1448.7605 9:146.38895 11:56.93317 14:-85305.047 15:0.033156998 16:2071.8992 #
-100 3:8.3264179 4:8.279994 5:979.49023 8:511.51096 9:70.895454 11:29.67462 14:-61172.281 15:0.032260317 16:2202.4492 #
29.055313544175171 3:27.146545 4:27.173145 5:3220.7314 8:1638.9606 9:125.29462 11:60.689495 14:-173605.14 15:0.037238836 16:11221.18 #
18.147053104427442 3:24.413815 4:24.148987 5:3734.5347 8:1608.9163 9:115.90791 11:52.366405 14:-171222.34 15:0.036575824 16:9113.4336 #
14.143008117027501 3:19.385988 4:19.401247 5:2549.6101 8:2295.9214 9:126.35399 11:64.894653 14:-137434.14 15:0.034905523 16:6329.1616 #
-100 3:18.29277 4:18.213335 5:2758.9656 8:1743.1178 9:118.74092 11:60.42345 14:-136132.31 15:0.03906469 16:5404.6201 #
1.4677897623209342 3:40.017323 4:40.016731 5:4948.5132 8:2169.9878 9:137.33391 11:67.511703 14:-238948.64 15:0.035923719 16:15989.813 #
-100 3:19.2719 4:19.032036 5:3081.6428 8:1887.9454 9:148.71745 11:74.524345 14:-136020.23 15:0.035188377 16:4625.6484 #
80.340903976436607 3:23.892214 4:23.912947 5:3071.9897 8:2856.1663 9:155.27094 11:76.949768 14:-169553.67 15:0.034396566 16:7612.5327 #
-60.459889157163161 3:23.43231 4:23.341442 5:3170.843 8:2849.3457 9:301.2298 11:118.55753 14:-169285.27 15:0.032882895 16:6143.2939 #
100 3:23.027384 4:23.036896 5:3200.8823 8:2345.6475 9:154.60001 11:69.612862 14:-170165.33 15:0.033693302 16:6126.5557 #
98.794863702632284 3:19.636635 4:19.590235 5:2930.4412 8:1911.6587 9:84.884689 11:48.681698 14:-137149.5 15:0.036131386 16:4837.1436 #
100 3:22.003494 4:22.000963 5:2827.9065 8:2257.8828 9:196.36098 11:77.508789 14:-169455.91 15:0.032919165 16:5949.9663 #
-100 3:21.375071 4:21.18708 5:3153.2295 8:2055.0645 9:132.42136 11:69.409874 14:-169554.77 15:0.035465855 16:6236.373 #
100 3:7.3414679 4:7.2999158 5:991.20178 8:612.83752 9:59.071285 11:20.85376 14:-53441.18 15:0.033846825 16:1655.1642 #
0.70884406369519604 3:31.121111 4:30.998386 5:4946.3462 8:1814.4176 9:75.224762 11:30.753336 14:-197508.69 15:0.038513307 16:13102.306 #
-100 3:18.410925 4:18.229015 5:2682.4497 8:2092.1809 9:100.1368 11:42.053356 14:-136785.17 15:0.037240565 16:4233.8237 #
-100 3:23.485329 4:23.343058 5:3322.8479 8:2726.1416 9:164.85524 11:76.865891 14:-169292.53 15:0.038061995 16:6954.8306 #
90.330017841243944 3:12.651278 4:12.614178 5:1856.4009 8:909.65338 9:81.800148 11:33.078686 14:-82212.992 15:0.036365923 16:3066.6516 #
-43.535388773752743 3:18.454929 4:18.468054 5:1986.4469 8:1897.5293 9:360.38391 11:163.73218 14:-123611.19 15:0.021679213 16:2607.8284 #
-16.074622563698654 3:21.101557 4:20.927097 5:3100.2273 8:2022.9114 9:130.00531 11:68.609734 14:-167638.13 15:0.035650723 16:6183.4888 #
100 3:18.86076 4:18.707527 5:2814.7297 8:2116.2263 9:125.37213 11:44.846081 14:-135452.92 15:0.035919856 16:4466.7661 #
-95.652789802478821 3:5.3163118 4:5.3171353 5:440.58203 8:460.83218 9:84.456711 11:59.716099 14:-37205.051 15:0.015420161 16:705.3902 #
100 3:7.9820938 4:7.9814925 5:1022.8345 8:592.4845 9:57.131863 11:25.65201 14:-54113.984 15:0.036323763 16:1679.7344 #
100 3:17.880117 4:17.876726 5:2278.5352 8:1753.1324 9:157.77472 11:59.23848 14:-135177.42 15:0.033511862 16:4938.6719 #
-100 3:18.755461 4:18.733177 5:2597.261 8:2166.0186 9:134.08376 11:66.12822 14:-135846.05 15:0.038341165 16:5961.4629 #
100 3:17.51276 4:17.521811 5:2412.9355 8:2062.6465 9:79.237961 11:36.630318 14:-132194.2 15:0.03721527 16:4821.749 #
-100 3:18.637043 4:18.542816 5:2594.4338 8:2175.1294 9:136.18251 11:59.352467 14:-134766.13 15:0.038983483 16:5675.7559 #
-32.710674299096134 3:14.813154 4:14.656529 5:1735.1956 8:811.60571 9:98.033119 11:41.807785 14:-83388.695 15:0.035162564 16:4198.0171 #
-100 3:21.621071 4:21.543541 5:3445.5864 8:1558.6276 9:164.96658 11:122.12503 14:-140406.05 15:0.024727795 16:4554.7622 #
-19.287152190821033 3:18.552038 4:18.550642 5:2337.6248 8:2257.676 9:151.16161 11:87.133827 14:-135367.41 15:0.034691818 16:5464.8638 #
-100 3:18.148235 4:18.15027 5:2623.8381 8:1496.7377 9:162.12746 11:89.908646 14:-134814 15:0.01927595 16:4643.9932 #
-5.3918792725181763 3:12.01772 4:12.017053 5:1457.0435 8:1396.3119 9:100.78306 11:38.100346 14:-90649.711 15:0.040850598 16:3728.7366 #
100 3:5.5306134 4:5.5332503 5:650.41882 8:498.83908 9:55.793045 11:21.005039 14:-36119.844 15:0.032798432 16:1030.0261 #
100 3:21.401999 4:21.401367 5:2887.4583 8:2504.9705 9:94.446236 11:43.830204 14:-166836.66 15:0.035207625 16:6707.9106 #
-27.774385663755236 3:23.508286 4:23.521338 5:2674.4983 8:2612.5183 9:178.13263 11:105.34732 14:-167766.67 15:0.033300862 16:7011.2979 #
-100 3:11.1758 4:11.035651 5:1556.4425 8:1090.0664 9:143.97034 11:83.060768 14:-71690.922 15:0.029112769 16:2781.8364 #
-100 3:7.0872512 4:6.9789691 5:900.05975 8:698.03674 9:94.456482 11:67.776093 14:-48174.73 15:0.03602048 16:1374.3499 #
0.88255906608134183 3:15.121619 4:15.107202 5:1491.8268 8:2295.3525 9:100.97338 11:53.928509 14:-115568.76 15:0.037352689 16:2890.0803 #
-100 3:13.214968 4:13.166928 5:1756.0029 8:1115.0308 9:123.36513 11:54.183594 14:-100867.95 15:0.02602895 16:3509.613 #
100 3:20.235329 4:20.171595 5:3028.4111 8:1526.3627 9:105.21643 11:48.135479 14:-136034.84 15:0.036294475 16:4773.6733 #
-100 3:19.513393 4:19.492441 5:2892.7332 8:1350.1868 9:133.27008 11:82.215111 14:-135626.59 15:0.034668162 16:4266.2451 #
-1.7283838256925037 3:21.86941 4:21.890829 5:2651.3113 8:2666.21 9:304.11615 11:151.58928 14:-157788.89 15:0.029286304 16:5404.2949 #
40.73128298481538 3:9.5615978 4:9.5591345 5:1265.8306 8:1027.9377 9:51.617916 11:19.92275 14:-75604.852 15:0.03637642 16:2619.7856 #
66.220027067714412 3:20.697195 4:20.322515 5:2897.1157 8:1929.7047 9:160.55493 11:56.203506 14:-139686.59 15:0.034436356 16:6454.3491 #
-100 3:12.587949 4:12.516898 5:1875.2698 8:1304.0095 9:80.646042 11:35.863426 14:-91392.563 15:0.040112365 16:4234.4902 #
-100 3:19.865402 4:19.644773 5:3170.2104 8:1752.8474 9:137.89713 11:63.097546 14:-132792.63 15:0.038215224 16:4788.0405 #
-15.242298022222791 3:22.720881 4:22.716459 5:2803.0447 8:2963.6062 9:247.11533 11:120.94655 14:-161666.47 15:0.032329783 16:6065.9326 #
100 3:5.3084989 4:5.221283 5:675.65674 8:473.48798 9:57.575508 11:21.014635 14:-34434.297 15:0.026178079 16:748.76898 #
100 3:18.787064 4:18.665945 5:2430.4702 8:2356.6523 9:151.43831 11:63.905895 14:-140347.55 15:0.033127256 16:4758.9966 #
100 3:19.514343 4:19.500898 5:2496.863 8:2419.3728 9:109.53075 11:49.15778 14:-134415.83 15:0.037557147 16:6012.2666 #
100 3:19.734739 4:19.547791 5:3027.9387 8:1400.2679 9:127.93985 11:44.589897 14:-133201.48 15:0.03738153 16:5002.6611 #
100 3:16.011646 4:16.010254 5:2088.6123 8:1856.1102 9:82.975525 11:43.120689 14:-118943.63 15:0.037497647 16:3642.6748 #
-100 3:8.6111507 4:8.5984135 5:1125.9288 8:799.51971 9:112.44943 11:65.097076 14:-56687.063 15:0.037213352 16:1689.533 #
26.894808427615526 3:17.060711 4:16.949585 5:2437.6162 8:1963.9261 9:109.40903 11:50.330151 14:-130261.02 15:0.036418326 16:3653.0188 #
-100 3:18.258236 4:18.132526 5:2515.7292 8:2129.9387 9:101.18831 11:45.580105 14:-132047.31 15:0.038034912 16:4201.0898 #
100 3:18.749264 4:18.63435 5:2647.9619 8:1519.7825 9:154.53229 11:71.483696 14:-123787.31 15:0.030541787 16:5740.0786 #
-100 3:18.169863 4:18.173563 5:2533.1453 8:1781.4459 9:133.68137 11:67.269165 14:-131401.09 15:0.039364371 16:5149.3936 #
-100 3:17.994541 4:17.740725 5:2589.1292 8:1995.9696 9:135.4826 11:61.166775 14:-130688.27 15:0.037473042 16:4653.9282 #
100 3:7.8486838 4:7.8510604 5:861.96271 8:866.99097 9:55.08506 11:19.04421 14:-58639.941 15:0.03138249 16:2288.51 #
100 3:16.847548 4:16.853191 5:2270.4822 8:1646.8879 9:117.47523 11:57.402149 14:-124237.7 15:0.036601719 16:5506.0962 #
100 3:17.50667 4:17.477987 5:2381.6931 8:1971.2389 9:120.89065 11:50.992149 14:-130330.02 15:0.0349342 16:4804.2852 #
-100 3:5.7425437 4:5.6903758 5:729.39935 8:476.17761 9:84.391045 11:46.160927 14:-38562.043 15:0.034322713 16:801.922 #
-100 3:11.760646 4:11.592423 5:1871.2866 8:1042.6055 9:91.676689 11:36.398922 14:-82357.109 15:0.036254019 16:2376.2 #
100 3:11.476007 4:11.477253 5:1470.47 8:955.98779 9:79.88755 11:30.918335 14:-81861.5 15:0.033380952 16:3164.1167 #
100 3:12.404417 4:12.415887 5:1684.8611 8:1198.2728 9:114.01524 11:42.310173 14:-82527.563 15:0.036285114 16:2595.6775 #
-100 3:8.5212698 4:8.397543 5:1126.9229 8:852.79547 9:94.059258 11:53.818436 14:-60400.887 15:0.037640426 16:1793.142 #
-18.083688933149595 3:9.6238623 4:9.47721 5:1435.7772 8:774.35626 9:70.194862 11:31.329321 14:-69877.414 15:0.0067329002 16:369.07059 #
-100 3:11.193801 4:11.149563 5:1489.4667 8:1135.4089 9:108.93774 11:56.024273 14:-82527.438 15:0.035364602 16:3411.731 #
-100 3:13.41446 4:13.377831 5:1755.6879 8:1630.7321 9:148.20398 11:59.962372 14:-97206.305 15:0.035215672 16:3865.0547 #
-62.545490951953859 3:21.191475 4:20.824371 5:3493.1597 8:1594.3108 9:127.26416 11:59.882736 14:-149392.84 15:0.03374901 16:3933.8967 #
-100 3:11.234623 4:11.177571 5:1460.0884 8:1392.2587 9:111.59928 11:43.42643 14:-83547.453 15:0.03582916 16:2165.6448 #
100 3:11.578774 4:11.452865 5:1436.1326 8:1142.3046 9:162.79411 11:63.001572 14:-83898.984 15:0.019291274 16:2521.9153 #
100 3:11.703546 4:11.663017 5:1644.8851 8:921.97162 9:113.1059 11:44.592583 14:-83240.438 15:0.028616404 16:3069.3311 #
12.709477962053811 3:19.043434 4:19.021866 5:2450.2078 8:2300.9536 9:145.49808 11:73.954124 14:-120491.02 15:0.025220387 16:4444.5469 #
100 3:19.480141 4:19.29397 5:2924.0398 8:1465.8228 9:120.87621 11:64.12075 14:-133028.42 15:0.033152796 16:4788.8608 #
-100 3:6.6886597 4:6.6710172 5:802.01984 8:573.13373 9:71.259918 11:51.053413 14:-42648.59 15:0.029744651 16:1157.0704 #
83.061810515116647 3:9.2818289 4:9.2649422 5:1264.0056 8:785.16089 9:52.716583 11:26.838833 14:-65351.797 15:0.037126165 16:2039.4755 #
-100 3:8.7401581 4:8.740859 5:1006.4785 8:896.75665 9:103.49136 11:43.952538 14:-67052.859 15:0.02703077 16:2093.6069 #
100 3:11.539343 4:11.539014 5:1503.7228 8:1117.8416 9:85.161819 11:42.46069 14:-82982.391 15:0.036914732 16:3353.4805 #
-100 3:11.130018 4:11.041649 5:1528.6987 8:1231.749 9:62.488121 11:27.195505 14:-83522.914 15:0.040178984 16:2709.6094 #
-74.399943338750163 3:22.042957 4:22.010551 5:3187.4219 8:2106.759 9:122.40488 11:51.429119 14:-165262.69 15:0.038109925 16:6424.8833 #
-100 3:19.571716 4:19.548557 5:2707.3225 8:1324.2288 9:104.18219 11:48.859573 14:-134627.17 15:0.041676667 16:6595.7173 #
-100 3:5.5778122 4:5.5775247 5:496.12207 8:588.62006 9:73.847153 11:46.348389 14:-42457.477 15:0.014823805 16:847.97955 #
100 3:26.407938 4:26.088366 5:3817.3704 8:2922.8069 9:190.09198 11:85.822151 14:-203102.45 15:0.034809016 16:8244.7461 #
5.4408780808099779 3:32.638824 4:32.279308 5:5169.3042 8:1883.4857 9:131.89424 11:59.592579 14:-232438.59 15:0.033753037 16:11268.89 #
-100 3:8.3705616 4:8.3381681 5:1042.0522 8:822.40802 9:88.764397 11:39.95108 14:-61297.023 15:0.039424732 16:2522.9983 #
100 3:18.488832 4:18.440451 5:2557.4236 8:1463.5806 9:75.501892 11:27.892252 14:-134959.73 15:0.035141882 16:5982.1787 #
24.51146904403635 3:18.87002 4:18.682735 5:2919.0305 8:1617.041 9:109.08009 11:56.819584 14:-132016.22 15:0.036266293 16:4132.7725 #
-100 3:5.1414671 4:5.1436572 5:393.96542 8:397.58606 9:86.193237 11:36.613022 14:-35112.879 15:0.019553544 16:802.60352 #
-100 3:21.142349 4:21.116772 5:2894.9758 8:1636.0851 9:155.34752 11:105.10731 14:-150680.56 15:0.030847926 16:5481.6172 #
-100 3:13.004331 4:12.902262 5:2039.3992 8:961.66626 9:103.87659 11:59.221832 14:-84151.125 15:0.032839313 16:2018.3687 #
-100 3:9.7833681 4:9.7514153 5:1282.4148 8:679.56525 9:73.947624 11:28.413727 14:-69211.008 15:0.03046149 16:2815.032 #
100 3:19.873142 4:19.8906 5:2781.4783 8:1572.3683 9:94.350876 11:49.395672 14:-138149.73 15:0.035972483 16:4606.6938 #
-100 3:17.55809 4:17.356541 5:2800.9597 8:1593.8142 9:109.841 11:51.417839 14:-127363.83 15:0.030745933 16:3549.2056 #
100 3:8.2739782 4:8.2815208 5:990.83032 8:858.44965 9:63.45953 11:22.800739 14:-56753.16 15:0.036859669 16:1466.5403 #
-46.257647647325371 3:12.154586 4:12.105341 5:1470.134 8:1265.8252 9:134.44177 11:106.75795 14:-84864.453 15:0.027737604 16:2625.6677 #
-100 3:12.817762 4:12.802308 5:1774.189 8:1322.9226 9:152.21893 11:79.563522 14:-84588.25 15:0.029793957 16:2373.7358 #
54.42390428831331 3:22.0739 4:21.838036 5:3441.4919 8:1453.9238 9:178.67851 11:94.825432 14:-144450.72 15:0.032041211 16:5362.1909 #
100 3:11.93515 4:11.934971 5:1585.8152 8:1130.2375 9:87.065346 11:29.287121 14:-84705.641 15:0.034508221 16:3307.4392 #
-100 3:13.235038 4:13.129726 5:2077.4846 8:1000.2854 9:104.23873 11:58.970032 14:-85759.5 15:0.032737806 16:2046.0422 #
-100 3:20.165352 4:20.037531 5:2931.4526 8:1765.4761 9:185.55388 11:114.61398 14:-141177.61 15:0.02388278 16:4936.4478 #
100 3:12.411996 4:12.281466 5:1951.3403 8:931.73962 9:69.614693 11:28.392389 14:-84747.977 15:0.034498096 16:2683.1509 #
100 3:12.6127 4:12.492245 5:1910.4078 8:968.5094 9:84.759712 11:32.202549 14:-86698.93 15:0.036938693 16:2849.3979 #
100 3:11.700702 4:11.660487 5:1436.6089 8:1154.3105 9:118.19381 11:44.333012 14:-86100.523 15:0.033230241 16:3111.665 #
-100 3:11.688272 4:11.578281 5:1703.3354 8:1244.8177 9:69.459518 11:33.204426 14:-86092.352 15:0.037831631 16:2763.8289 #
-100 3:11.966794 4:11.939628 5:1532.3337 8:1125.3875 9:124.34505 11:71.157982 14:-85241.992 15:0.035152107 16:3206.1406 #
-21.785810184096551 3:9.9801788 4:9.9454803 5:1301.4222 8:805.17944 9:87.487724 11:40.01017 14:-72895.961 15:0.036226988 16:3159.2195 #
-100 3:4.9115658 4:4.8282113 5:556.96991 8:282.75018 9:79.565407 11:55.668922 14:-30923.059 15:0.024818748 16:567.47839 #
100 3:12.479304 4:12.460528 5:1626.1412 8:1441.8807 9:90.192154 11:34.200523 14:-91067.789 15:0.036815383 16:2179.865 #
-100 3:12.571594 4:12.544526 5:1810.907 8:964.02252 9:78.855644 11:35.688976 14:-86274.32 15:0.032884948 16:3360.8711 #
20.111607385856527 3:22.274305 4:22.294685 5:2657.1914 8:1417.7596 9:96.936707 11:50.19722 14:-149407.14 15:0.037194695 16:7631.0522 #
100 3:10.711557 4:10.696359 5:1440.0123 8:914.08588 9:70.231979 11:30.105022 14:-73365.875 15:0.037438888 16:2370.634 #
-100 3:17.373072 4:17.175133 5:2761.6125 8:1595.7238 9:107.67902 11:52.389652 14:-126452.84 15:0.031015892 16:3540.8682 #
-100 3:6.9737101 4:6.9304304 5:814.22192 8:526.25415 9:80.790306 11:29.648975 14:-48886.93 15:0.017963327 16:1450.5637 #
-2.0877216421054379 3:30.984751 4:31.013304 5:4127.5752 8:3176.6082 9:418.90616 11:174.51431 14:-237007.13 15:0.018449439 16:8229.1191 #
53.992273496767211 3:9.2843962 4:9.2927628 5:1053.7291 8:881.46283 9:60.029121 11:22.347931 14:-67646.633 15:0.03537178 16:3064.5222 #
-100 3:11.194676 4:11.077443 5:1444.4989 8:1080.8409 9:75.103363 11:37.322567 14:-85365.719 15:0.019406201 16:2779.8855 #
-39.829776549879384 3:19.703209 4:19.682184 5:2919.53 8:1375.7959 9:136.05473 11:83.065033 14:-137094.77 15:0.034634911 16:4298.6484 #
-37.863664658909222 3:19.030321 4:19.032446 5:2090.9954 8:1792.1104 9:242.10533 11:94.472382 14:-138655.05 15:0.029828414 16:4657.4873 #
-100 3:12.535336 4:12.547599 5:1593.2938 8:1062.941 9:148.24835 11:63.904221 14:-86422.367 15:0.035373908 16:2794.5083 #
-14.840046872204539 3:5.2508459 4:5.0631309 5:727.42645 8:183.1187 9:78.756836 11:30.657591 14:-26598.887 15:0.0047125588 16:122.85067 #
-6.2221252640919005 3:18.52483 4:18.517731 5:2649.8826 8:1295.1191 9:183.80499 11:98.288216 14:-122871.16 15:0.032330077 16:3231.9009 #
87.429059477302417 3:5.7022905 4:5.7074718 5:613.43756 8:399.88647 9:61.90414 11:18.405697 14:-37979.078 15:0.034391891 16:940.52643 #
99.8686645746767 3:20.239603 4:20.056664 5:3103.4519 8:1426.7273 9:133.30002 11:46.008575 14:-136165.03 15:0.037308551 16:5113.7061 #
70.263264687534956 3:12.177728 4:12.033706 5:1357.7621 8:1549.2935 9:137.0999 11:56.575008 14:-87498.617 15:0.018456716 16:2077.7932 #
-4.3858399521831188 3:16.832142 4:16.829866 5:1982.4298 8:1781.2532 9:118.86898 11:47.813255 14:-137386.08 15:0.035581518 16:5974.2603 #
-58.103660460762342 3:16.128166 4:16.14397 5:2183.5786 8:1416.6976 9:156.41591 11:90.117462 14:-119609.98 15:0.029556168 16:3971.8323 #
100 3:17.109816 4:16.926785 5:2535.9795 8:1889.7906 9:136.42232 11:54.488739 14:-127050.4 15:0.032642607 16:3754.8171 #
31.269481371675081 3:9.5746231 4:9.5520716 5:1477.6252 8:673.56561 9:80.041649 11:36.210098 14:-59050.18 15:0.037148062 16:2421.0256 #
44.209820888585938 3:11.797079 4:11.579576 5:1756.7188 8:1251.6097 9:83.81813 11:32.873451 14:-83285.023 15:0.03494893 16:1864.4594 #
-100 3:18.435938 4:18.404819 5:2663.4116 8:1752.9421 9:104.00119 11:45.739925 14:-139808.58 15:0.039272536 16:5527.978 #
-22.916850696594899 3:22.720795 4:22.734905 5:2713.0388 8:2651.7107 9:302.31015 11:164.9429 14:-177760.42 15:0.030011814 16:6660.7754 #
-100 3:8.5114365 4:8.3982353 5:1123.7855 8:651.96552 9:118.36617 11:57.015881 14:-55542.211 15:0.028179068 16:2149.616 #
-100 3:17.323692 4:17.117172 5:2738 8:1515.7008 9:129.51065 11:53.41502 14:-125688.94 15:0.035411276 16:3381.5764 #
76.461797527723078 3:20.573671 4:20.355524 5:3154.9268 8:1431.712 9:139.8997 11:44.005417 14:-141443.06 15:0.03681143 16:5131.4097 #
100 3:20.17371 4:20.192459 5:2805.5356 8:1566.896 9:93.530357 11:47.417446 14:-141168.39 15:0.035993505 16:4671.4771 #
-100 3:19.346628 4:19.362099 5:2733.321 8:1824.3931 9:106.89775 11:58.778202 14:-142516.89 15:0.036979098 16:4729.5498 #
54.05537322760253 3:20.307028 4:20.309612 5:2579.542 8:1561.8934 9:201.90042 11:77.322014 14:-140366.42 15:0.023913929 16:4350.0405 #
100 3:14.671535 4:14.528013 5:2101.7986 8:1510.7184 9:119.25727 11:48.298645 14:-111034.3 15:0.034627087 16:4646.8936 #
100 3:4.3689713 4:4.3245997 5:442.94131 8:419.97815 9:51.499046 11:19.107964 14:-30693.787 15:0.028964724 16:587.50189 #
-100 3:19.5217 4:19.540829 5:2605.4707 8:1827.6991 9:147.59152 11:75.113304 14:-140134.69 15:0.031391848 16:4869.0225 #
-6.1090826587927491 3:4.1037798 4:4.102376 5:426.82465 8:401.40826 9:63.130711 11:21.871212 14:-26759.268 15:0.021378709 16:421.79132 #
100 3:5.5261946 4:5.4837208 5:682.96564 8:350.84097 9:56.610027 11:15.740368 14:-39512.07 15:0.030491 16:1090.8663 #
88.358048253096513 3:21.552967 4:21.459957 5:3352.6677 8:1508.066 9:140.76234 11:102.38405 14:-140699.2 15:0.036778517 16:5376.3608 #
-24.454910660637641 3:7.9613738 4:7.9354634 5:983.20563 8:685.03772 9:119.44184 11:72.844246 14:-52357.629 15:0.029891597 16:1868.5054 #
-38.815592046547536 3:6.014472 4:5.9830513 5:611.289 8:611.95776 9:93.967323 11:64.255676 14:-43170.895 15:0.014281941 16:980.01807 #
-1.9919738305474652 3:15.264546 4:15.025537 5:2282.5024 8:1350.6624 9:196.59688 11:127.3722 14:-97529.281 15:0.026873829 16:3689.7021 #
41.993738301392725 3:26.27401 4:26.299683 5:3125.2119 8:1670.5463 9:135.51329 11:63.482708 14:-171632.64 15:0.036721949 16:8782.3984 #
100 3:21.918798 4:21.885157 5:2991.064 8:2481.6243 9:149.63858 11:70.356728 14:-164637.3 15:0.034472048 16:5870.3018 #
100 3:6.3364434 4:6.3420687 5:558.41901 8:657.20276 9:86.569786 11:34.530617 14:-42886.938 15:0.026658868 16:1061.2717 #
35.998537644254341 3:23.207109 4:23.04043 5:3609.0313 8:1955.4398 9:145.06267 11:65.513527 14:-163716.05 15:0.0370262 16:6707.645 #
7.6395758069447339 3:14.15072 4:14.035938 5:2080.1152 8:1491.5905 9:84.583633 11:34.890553 14:-101765.6 15:0.037779789 16:3241.4197 #
-60.152043911790791 3:22.887609 4:22.870905 5:2883.821 8:2747.5959 9:175.29637 11:100.19547 14:-166270.58 15:0.033736687 16:6555.2808 #
76.999722038297591 3:11.42631 4:11.416556 5:1515.0422 8:1206.2075 9:74.601326 11:33.091564 14:-79757 15:0.037779365 16:2659.6433 #
-100 3:6.8424773 4:6.7903824 5:827.75702 8:464.8931 9:82.540672 11:43.055012 14:-46165.457 15:0.032717224 16:1432.8281 #
-59.440808757756621 3:21.405161 4:21.035948 5:3388.772 8:1090.0719 9:158.6441 11:75.450638 14:-147328.23 15:0.038204204 16:8983.9492 #
-100 3:15.317996 4:15.202412 5:2092.9622 8:1620.608 9:158.11604 11:96.403084 14:-119050.79 15:0.01467586 16:3721.6641 #
-7.2844382652732591 3:24.034849 4:24.056343 5:2878.8367 8:1998.3235 9:120.79167 11:87.042076 14:-169729.53 15:0.0405205 16:7179.9336 #
100 3:11.637169 4:11.64848 5:1536.0266 8:1231.8779 9:64.103203 11:25.848831 14:-89041.195 15:0.036103252 16:3185.3718 #
-100 3:17.913397 4:17.741413 5:2619.9492 8:1800.1599 9:193.82385 11:117.44002 14:-129650.02 15:0.019647654 16:3590.126 #
-30.01816702434628 3:22.161348 4:21.648113 5:3308.0581 8:985.05847 9:146.95091 11:110.94669 14:-133462.38 15:0.028309872 16:4344.5752 #
100 3:18.608158 4:18.422562 5:2920.1819 8:1174.0883 9:85.624977 11:38.76086 14:-130786.91 15:0.03504619 16:6835.5918 #
100 3:9.0686903 4:9.0709848 5:1148.7841 8:931.24567 9:50.597332 11:25.577652 14:-66896.398 15:0.036396775 16:1699.0013 #
-100 3:6.6062059 4:6.512363 5:725.41846 8:505.59747 9:96.884842 11:55.598946 14:-45662.805 15:0.038750369 16:1105.3098 #
-100 3:12.767827 4:12.666039 5:1711.239 8:887.92841 9:101.51405 11:51.891376 14:-84223.078 15:0.038604744 16:3775.4373 #
29.638909173408418 3:16.410824 4:16.299816 5:2386.4304 8:1293.0781 9:120.46446 11:54.068535 14:-109286.52 15:0.031796813 16:5271.8105 #
-100 3:11.630061 4:11.618571 5:1512.9004 8:1268.8326 9:107.69074 11:53.102989 14:-83655.617 15:0.036838658 16:2978.7334 #
-49.326768240175738 3:4.8336167 4:4.814702 5:389.38046 8:210.45316 9:86.494171 11:40.211056 14:-30169.414 15:0.021020519 16:749.83862 #
100 3:20.491547 4:20.493206 5:2950.8674 8:2138.9207 9:111.29826 11:58.225468 14:-152660.45 15:0.034886088 16:5305.3301 #
17.407647955118179 3:17.153145 4:16.861403 5:2801.887 8:1189.1208 9:75.171898 11:35.757477 14:-115071.22 15:0.038439348 16:6070.1553 #
100 3:18.261921 4:18.263704 5:2495.6406 8:1735.7401 9:104.15134 11:55.71629 14:-129543.91 15:0.035305172 16:6125.2305 #
100 3:10.835569 4:10.830949 5:1443.6578 8:1099.1899 9:62.337036 11:30.467815 14:-77479.656 15:0.036082484 16:2009.9036 #
-100 3:21.038683 4:20.919115 5:2857.9084 8:1282.1533 9:115.17038 11:46.689053 14:-130408.04 15:0.041668314 16:6942.856 #
-37.70512681890154 3:16.300976 4:16.254349 5:2103.856 8:1545.1339 9:118.38763 11:42.40498 14:-130246.68 15:0.03763964 16:5874.8486 #
-100 3:12.737332 4:12.705646 5:1817.9747 8:916.04022 9:78.44191 11:37.546383 14:-88042.211 15:0.030855181 16:3839.8757 #
7.6747647492685056 3:28.333801 4:28.361565 5:3981.1741 8:2508.0046 9:168.98497 11:75.444511 14:-205402.06 15:0.031259935 16:7028.0698 #
100 3:10.980102 4:10.907152 5:1655.4983 8:828.29944 9:79.75145 11:27.207886 14:-73951.898 15:0.034993142 16:2663.3523 #
100 3:10.601341 4:10.598511 5:1465.1216 8:1060.8508 9:72.941078 11:33.434914 14:-76751.547 15:0.037444629 16:2323.0488 #
100 3:29.677063 4:29.47443 5:4716.6851 8:2571.8606 9:171.75877 11:79.167076 14:-211451.33 15:0.029966488 16:8487.6357 #
100 3:6.009604 4:6.0154881 5:641.75836 8:522.9234 9:47.18071 11:17.951338 14:-41574.16 15:0.035499789 16:1025.3983 #
79.049535475624111 3:12.600428 4:12.606439 5:1479.146 8:1360.8618 9:87.706367 11:38.747337 14:-82346.219 15:0.032515191 16:4105.1475 #
49.998604554830763 3:10.495806 4:10.495275 5:1339.6953 8:1077.0531 9:71.951569 11:24.247766 14:-74500.711 15:0.036197949 16:1828.9985 #
-90.295319962448502 3:11.164438 4:11.148968 5:1488.8199 8:762.41693 9:114.00562 11:40.074841 14:-81614.125 15:0.023802351 16:2969.8152 #
-26.737465298097874 3:22.678982 4:22.308115 5:3174.7573 8:1947.7607 9:160.90758 11:82.286461 14:-153669.97 15:0.034121286 16:6646.728 #
-81.121358689364257 3:18.027424 4:18.010832 5:2249.3789 8:2304.3745 9:201.96114 11:82.991905 14:-129019.78 15:0.033587068 16:5036.1187 #
-100 3:8.2958508 4:8.3035088 5:868.742 8:500.19125 9:65.625717 11:27.602015 14:-57635.613 15:0.041274831 16:2506.7471 #
100 3:7.3998041 4:7.4070096 5:928.56848 8:664.20166 9:57.018566 11:22.774744 14:-51963.699 15:0.036563523 16:1569.8767 #
100 3:9.0357246 4:9.0398388 5:1168.9893 8:834.07428 9:72.851662 11:31.002859 14:-65594.852 15:0.036948305 16:1951.5936 #
93.027092589607051 3:14.370805 4:14.346055 5:2194.6201 8:1196.6902 9:103.18982 11:51.305481 14:-96477.883 15:0.036450967 16:3565.9753 #
-100 3:13.592665 4:13.167186 5:2163.1245 8:1086.6818 9:177.90088 11:70.009827 14:-85269.633 15:0.015541865 16:2225.9465 #
100 3:15.988479 4:15.745911 5:2313.2607 8:1638.1573 9:67.943825 11:26.805573 14:-125531.95 15:0.036016315 16:5353.564 #
100 3:5.7412615 4:5.7175741 5:670.8548 8:497.34116 9:61.014755 11:20.820877 14:-40715.461 15:0.032438148 16:1101.96 #
-100 3:5.598249 4:5.587955 5:654.39655 8:325.83881 9:78.658623 11:49.842472 14:-36468.301 15:0.03646085 16:782.02472 #
100 3:19.429216 4:19.422775 5:2658.7715 8:2446.4346 9:86.076828 11:42.212959 14:-143509.86 15:0.036392976 16:5190 #
43.970068503127422 3:22.523407 4:22.530087 5:2680.9277 8:2944.4839 9:113.31492 11:51.272503 14:-156673.8 15:0.037740834 16:6900.188 #
-30.807615390071447 3:20.903307 4:20.923561 5:2744.8745 8:1489.1218 9:148.59235 11:68.622314 14:-142337.72 15:0.037486628 16:6756.8438 #
100 3:17.911617 4:17.563683 5:2425.2456 8:1999.8306 9:78.855911 11:32.372501 14:-143384.69 15:0.035603527 16:5821.1167 #
32.975389712033113 3:20.612755 4:20.615162 5:2510.5583 8:2667.0825 9:104.68294 11:52.427441 14:-142794.47 15:0.037791505 16:6365.4048 #
-100 3:19.277031 4:19.217684 5:2872.4192 8:1731.1326 9:156.08937 11:88.319099 14:-144137.02 15:0.019572796 16:5767.522 #
-29.095475680813372 3:20.61652 4:20.318527 5:2397.3994 8:2569.3538 9:164.00923 11:83.079338 14:-144274.05 15:0.038921326 16:5916.4204 #
100 3:11.248631 4:11.173862 5:1566.5461 8:1283.455 9:59.273277 11:27.872383 14:-83430.258 15:0.036094777 16:1872.3304 #
50.297322133823947 3:13.018834 4:12.485123 5:2148.9438 8:1143.2207 9:90.931129 11:35.505203 14:-87235.602 15:0.036633018 16:2745.387 #
100 3:5.0075264 4:5.0117579 5:436.21524 8:451.11746 9:45.161362 11:19.798538 14:-36647.809 15:0.031125171 16:892.91296 #
-100 3:17.358633 4:17.171034 5:2641.5569 8:1860.9023 9:90.077606 11:41.678707 14:-128331.66 15:0.035881586 16:3920.9529 #
100 3:17.066956 4:17.06794 5:2272.4556 8:1843.1698 9:111.43886 11:46.466309 14:-128797.73 15:0.036468383 16:3647.019 #
-100 3:6.1909013 4:6.1042514 5:709.29022 8:426.10007 9:105.4437 11:55.06654 14:-39791.227 15:0.038454913 16:1017.5018 #
-100 3:15.875473 4:15.624192 5:2167.1018 8:1732.4155 9:122.52421 11:73.577202 14:-128260.2 15:0.035096638 16:3172.228 #
-48.990159885688854 3:22.704922 4:22.224836 5:3370.7839 8:2063.1321 9:135.03876 11:69.550514 14:-170847.56 15:0.035891183 16:6905.0195 #
8.7144857778264964 3:18.444344 4:18.31443 5:2876.5452 8:1764.9156 9:94.839561 11:49.728111 14:-128223.5 15:0.036629658 16:4356.5205 #
-100 3:18.70509 4:18.594467 5:2873.1101 8:1765.1577 9:169.50035 11:82.076645 14:-126935.07 15:0.038544439 16:4572.6943 #
97.696590054828278 3:17.272461 4:17.260847 5:2376.8198 8:1863.0092 9:118.39548 11:32.492161 14:-127730.38 15:0.035765819 16:3449.5491 #
-100 3:15.880587 4:15.615446 5:2248.1238 8:1673.9459 9:126.34216 11:69.274071 14:-126271.9 15:0.033635225 16:3051.0461 #
-28.293467599311661 3:18.651653 4:18.36619 5:2312.094 8:2302.5283 9:145.41533 11:65.650124 14:-128740.53 15:0.03983466 16:5466.6587 #
-21.795163989897688 3:4.9222498 4:4.8656001 5:551.80066 8:242.55437 9:111.25931 11:69.764328 14:-26069.65 15:0.030716201 16:516.4469 #
-100 3:12.246934 4:12.078633 5:1697.5173 8:1246.9479 9:105.05479 11:52.233162 14:-87222.266 15:0.039165664 16:3310.7595 #
-100 3:28.995766 4:28.550638 5:4618.4448 8:2354.5635 9:132.45096 11:67.018234 14:-211306.64 15:0.035571747 16:8311.2256 #
-100 3:9.5608072 4:9.5447416 5:1293.526 8:806.84045 9:135.00101 11:47.707001 14:-68274.398 15:0.027017649 16:2573.5713 #
-100 3:17.107344 4:16.919746 5:2601.9971 8:1826.4781 9:88.423477 11:39.482082 14:-126791.6 15:0.03598585 16:3874.4871 #
-100 3:22.078768 4:22.097366 5:3046.2654 8:2236.5669 9:168.68938 11:76.690971 14:-163516.59 15:0.037634939 16:5924.9844 #
-20.735681539770166 3:20.335306 4:20.248877 5:2919.8301 8:2526.8052 9:121.77457 11:60.636112 14:-147592.14 15:0.038792823 16:6674.0137 #
84.910634298120499 3:13.690998 4:13.639874 5:2041.8969 8:893.92255 9:82.078812 11:30.682148 14:-89555.688 15:0.036719661 16:3320.1248 #
5.280078102636983 3:20.110775 4:20.07139 5:3100.1016 8:1218.2601 9:86.78022 11:32.518879 14:-133067.17 15:0.034708396 16:4655.3032 #
40.425755056837986 3:24.358418 4:24.352886 5:3281.8398 8:1647.7339 9:144.65025 11:58.069645 14:-146756.64 15:0.036641516 16:8704.6836 #
-100 3:17.326735 4:17.224787 5:1872.5005 8:2341.6177 9:178.63406 11:96.211746 14:-125237.76 15:0.032120895 16:3742.239 #
-100 3:17.203291 4:17.1227 5:2518.0952 8:1704.9647 9:89.453407 11:33.640072 14:-127399.48 15:0.039192941 16:5333.0659 #
100 3:12.280138 4:12.272561 5:1667.3024 8:1231.6044 9:94.676292 11:45.362389 14:-87762.477 15:0.036671665 16:4046.3936 #
-100 3:16.991148 4:16.68202 5:2533.4021 8:1187.6791 9:122.77013 11:68.480186 14:-114854.53 15:0.032805026 16:3729.4426 #
-100 3:8.9283323 4:8.8398342 5:1181.8799 8:794.43512 9:89.420837 11:45.329533 14:-65360.105 15:0.037721563 16:2021.447 #
100 3:17.050163 4:17.063681 5:2229.7407 8:1856.6003 9:125.28416 11:39.116211 14:-125963.55 15:0.035750646 16:3423.3669 #
-100 3:5.5138168 4:5.5101895 5:582.4046 8:313.52094 9:113.44664 11:63.226433 14:-34153.453 15:0.03685021 16:1276.2889 #
-100 3:10.782783 4:10.781424 5:1499.4659 8:970.63538 9:131.45615 11:68.553543 14:-72705.086 15:0.028030803 16:1983.3826 #
100 3:19.98591 4:19.995525 5:2987.5642 8:1418.9353 9:108.08257 11:66.846039 14:-126550.42 15:0.036838379 16:4915.6016 #
100 3:13.162314 4:12.941109 5:2126.8577 8:891.30151 9:63.93354 11:29.018986 14:-88447.773 15:0.038178671 16:4675.9038 #
100 3:12.69703 4:12.640604 5:1831.8447 8:1194.931 9:103.83318 11:46.645157 14:-88190.898 15:0.036680948 16:2632.0564 #
100 3:11.766869 4:11.767918 5:1547.0748 8:1158.8857 9:65.944458 11:27.482677 14:-83185.031 15:0.036121156 16:2037.2054 #
100 3:17.889229 4:17.904665 5:2090.9883 8:1231.4707 9:74.288696 11:36.6087 14:-122430.41 15:0.037144188 16:6184.1113 #
-100 3:17.217957 4:16.994526 5:2738.8127 8:1470.9487 9:131.0571 11:54.972923 14:-124044.85 15:0.035392903 16:3361.0383 #
-100 3:18.390562 4:18.283382 5:2822.5974 8:1724.826 9:167.90738 11:82.588844 14:-124640.58 15:0.03863813 16:4506.0815 #
-100 3:13.236871 4:13.048295 5:2120.501 8:993.01361 9:88.992363 11:36.529541 14:-88716.547 15:0.033975542 16:2551.4031 #
-100 3:12.120013 4:11.910444 5:1600.5677 8:886.72375 9:108.0559 11:77.532066 14:-79649.875 15:0.035217728 16:3645.1162 #
-100 3:5.7222519 4:5.7245469 5:502.24951 8:419.38422 9:80.270218 11:40.261345 14:-40508.879 15:0.033712205 16:1382.4291 #
-3.0444402069837802 3:28.57358 4:28.586634 5:3320.7903 8:2646.1218 9:357.62961 11:172.20418 14:-224830.3 15:0.031417578 16:9451.2363 #
-100 3:12.529116 4:12.470627 5:1565.9606 8:1487.3228 9:126.76254 11:51.196983 14:-88830.188 15:0.0393929 16:3819.9248 #
-100 3:12.102535 4:12.085118 5:1378.4591 8:1450.0497 9:130.68596 11:84.963875 14:-87909.242 15:0.033762578 16:3499.8347 #
-100 3:13.794856 4:13.619546 5:2203.7161 8:1258.4929 9:119.12502 11:65.737892 14:-87820.57 15:0.039490733 16:3435.6301 #
-100 3:12.632635 4:12.496712 5:1861.7283 8:1320.5232 9:86.842178 11:40.657619 14:-88179.313 15:0.036912415 16:4119.1279 #
-100 3:11.74204 4:11.752235 5:1559.0448 8:1051.6205 9:122.08439 11:59.414696 14:-82877.164 15:0.040429875 16:3129.2969 #
5.5873584169270316 3:8.079134 4:7.9619541 5:1260.3536 8:541.14331 9:63.564297 11:20.502588 14:-50568.785 15:0.036260925 16:2043.845 #
-20.972184897522855 3:19.602352 4:19.487356 5:3035.9153 8:1624.4995 9:241.18857 11:118.66167 14:-131897.08 15:0.033874724 16:5804.3008 #
91.548085631331645 3:10.959504 4:10.970193 5:1035.071 8:1422.9142 9:106.48695 11:62.718689 14:-75526.82 15:0.013690004 16:1717.0842 #
-100 3:15.115001 4:15.032249 5:2063.1292 8:1416.6422 9:150.14549 11:84.303764 14:-106044.04 15:0.036965698 16:4193.4424 #
-96.474251122838282 3:12.829245 4:12.752382 5:1881.13 8:1065.9578 9:119.96584 11:94.916763 14:-92371.336 15:0.03479306 16:3439.9719 #
-12.762697106476239 3:13.818482 4:13.643126 5:1943.2441 8:260.58301 9:131.422 11:63.721046 14:-88180.82 15:0.035841405 16:5764.8032 #
-100 3:10.654179 4:10.541447 5:1417.077 8:741.6712 9:90.33271 11:49.414909 14:-69523.898 15:0.0390376 16:3136.3535 #
100 3:13.33436 4:13.343106 5:1644.9847 8:1640.8508 9:83.817398 11:39.813564 14:-89942.047 15:0.037353676 16:4134.5142 #
100 3:12.51501 4:12.510622 5:1736.3682 8:1288.8124 9:76.711472 11:42.314648 14:-91599.789 15:0.037279136 16:2719.6331 #
-64.098390371007383 3:13.084078 4:13.030622 5:1767.0674 8:760.45782 9:77.213379 11:29.645617 14:-88916.422 15:0.042818792 16:4491.7852 #
-100 3:12.493966 4:12.359439 5:1885.3746 8:1159.4011 9:112.66566 11:59.161907 14:-89909.773 15:0.0374199 16:3189.2476 #
-45.286517204418317 3:14.391784 4:14.360331 5:2112.7493 8:857.29352 9:147.07736 11:117.63936 14:-91849.242 15:0.03473134 16:3199.4338 #
100 3:13.92764 4:13.611828 5:1761.3713 8:1182.7574 9:119.83471 11:42.312042 14:-89845.359 15:0.03400657 16:4293.5361 #
100 3:7.571383 4:7.5646291 5:914.12207 8:704.55304 9:58.060867 11:22.039293 14:-54417.793 15:0.03592087 16:1305.4314 #
49.018055963287757 3:12.579438 4:12.375866 5:1904.2804 8:1367.9203 9:80.417282 11:33.38245 14:-90224.523 15:0.035376918 16:2001.4006 #
100 3:7.3288803 4:7.3303261 5:887.15192 8:687.04529 9:57.920254 11:21.295374 14:-52366.402 15:0.03664254 16:1289.9083 #
-77.106658923591311 3:4.8628588 4:4.8401265 5:417.2933 8:381.4213 9:91.361313 11:43.97546 14:-31979.07 15:0.030549344 16:760.48145 #
94.102409766812229 3:17.27747 4:17.117407 5:2570.3203 8:1927.8337 9:124.80128 11:53.235687 14:-126199.56 15:0.035337165 16:4062.3811 #
-59.337348466805274 3:6.6507821 4:6.6342382 5:688.33289 8:477.82336 9:80.946022 11:42.651421 14:-48250.813 15:0.020281576 16:1283.78 #
-100 3:14.385729 4:14.391015 5:1874.1459 8:1534.6499 9:111.99834 11:52.297173 14:-108750.38 15:0.031766627 16:2715.2261 #
100 3:13.488319 4:13.206798 5:1801.4037 8:1380.5667 9:84.640411 11:39.50518 14:-88949.867 15:0.032811631 16:4108.04 #
-100 3:11.637087 4:11.447302 5:1567.4073 8:1243.6259 9:100.37225 11:60.100941 14:-87403.344 15:0.036254905 16:2381.167 #
-31.786760573280194 3:22.730614 4:22.725519 5:2922.155 8:1721.2354 9:144.94394 11:83.266876 14:-156717.66 15:0.039841771 16:6734.8711 #
100 3:14.385561 4:14.394522 5:2102.2603 8:982.43994 9:84.514755 11:39.536709 14:-88423.75 15:0.036643066 16:3597.7476 #
100 3:16.564125 4:16.391365 5:2535.8496 8:1736.5034 9:113.34335 11:39.399879 14:-124892.41 15:0.035621967 16:3155.7827 #
100 3:12.574429 4:12.553091 5:1880.277 8:1118.8726 9:132.56224 11:58.369843 14:-84873.109 15:0.036216803 16:3106.4055 #
-1.2103056126801368 3:13.151694 4:13.131139 5:1838.084 8:1038.4016 9:158.53746 11:87.258621 14:-95237.188 15:0.0073271608 16:698.36542 #
84.669036641125984 3:17.067633 4:17.057106 5:2281.2771 8:1857.4539 9:112.8994 11:35.6119 14:-128329.52 15:0.035784323 16:3416.998 #
-100 3:5.0748839 4:5.0643387 5:499.01709 8:412.4704 9:88.729034 11:58.885601 14:-33309.961 15:0.030100862 16:763.64172 #
-100 3:16.734119 4:16.586464 5:2453.4434 8:1798.0585 9:183.40186 11:78.622398 14:-119235.8 15:0.032273334 16:4315.0596 #
-100 3:12.692537 4:12.631163 5:1570.1764 8:1333.9734 9:123.21494 11:63.27544 14:-89861.609 15:0.038635887 16:3611.7747 #
100 3:11.840937 4:11.837437 5:1559.5675 8:1103.8203 9:95.801849 11:45.400658 14:-87351.375 15:0.036937986 16:3420.7051 #
25.751868320476365 3:8.0094872 4:7.8515191 5:1046.5134 8:780.0047 9:71.749245 11:26.938044 14:-52345.859 15:0.030359201 16:2284.5388 #
-98.495082407491864 3:8.1469383 4:8.0147095 5:1163.1324 8:490.72562 9:104.82021 11:51.664177 14:-52674.375 15:0.020334458 16:1417.158 #
-66.817689568089079 3:16.134834 4:16.048349 5:2254.834 8:1384.5481 9:133.26862 11:65.546249 14:-125581.42 15:0.037608061 16:5302.502 #
-100 3:10.754728 4:10.756314 5:1446.941 8:1051.8995 9:131.64305 11:82.9795 14:-67530.844 15:0.03834815 16:2390.4739 #
100 3:11.724899 4:11.734993 5:1637.131 8:1101.1073 9:94.232224 11:37.186886 14:-79259.922 15:0.036325734 16:2454.9871 #
100 3:8.0994091 4:8.0998201 5:1037.2836 8:778.03754 9:64.262009 11:19.253386 14:-55848.086 15:0.036445376 16:1425.1503 #
-51.14258379568868 3:12.904802 4:12.812988 5:1744.9626 8:1318.1611 9:147.57474 11:71.781464 14:-96621.203 15:0.03484264 16:3676.8706 #
21.492633897472661 3:8.8835878 4:8.8890572 5:888.33362 8:1173.9005 9:77.172844 11:35.246986 14:-66086.008 15:0.033770844 16:1445.1591 #
100 3:13.03134 4:12.819823 5:1884.8551 8:1305.415 9:83.560425 11:33.508141 14:-93043.688 15:0.035175644 16:4215.1167 #
100 3:12.82373 4:12.742674 5:1680.2765 8:1049.7191 9:73.280167 11:44.489868 14:-89400.836 15:0.033394359 16:3088.8906 #
-21.140617584370997 3:12.533881 4:12.125939 5:1752.2429 8:687.0603 9:132.993 11:92.778999 14:-82637.586 15:0.035525657 16:1991.437 #
100 3:13.446544 4:13.459709 5:1808.149 8:948.51343 9:80.041306 11:35.692513 14:-91017.664 15:0.03633289 16:3201.0466 #
84.647340427304357 3:9.4042358 4:9.3703585 5:1334.8755 8:756.34631 9:59.779594 11:18.890133 14:-67126.492 15:0.034170665 16:2981.6047 #
-5.845539155899913 3:21.982212 4:21.520449 5:3531.1462 8:914.93848 9:181.43336 11:102.26293 14:-144448.97 15:0.034646876 16:8839.416 #
-100 3:12.597503 4:12.525213 5:1783.0764 8:1228.0267 9:108.90198 11:43.724556 14:-90167.219 15:0.03963789 16:3896.5305 #
100 3:8.7959366 4:8.7654619 5:1081.9761 8:1113.7262 9:76.761887 11:44.408272 14:-61935.012 15:0.036374953 16:1974.9022 #
-59.294017014073688 3:18.265564 4:18.244223 5:2208.6226 8:2299.959 9:143.96181 11:82.877159 14:-133811.34 15:0.036981367 16:5283.9546 #
100 3:11.333145 4:11.342691 5:1526.5602 8:828.68805 9:72.509125 11:29.559267 14:-77929.211 15:0.036762748 16:2736.7253 #
-84.252973922051552 3:11.995144 4:12.006877 5:1541.0349 8:1041.6354 9:137.229 11:72.311668 14:-85741.977 15:0.022319406 16:3158.7776 #
100 3:8.7163754 4:8.7147255 5:1083.1077 8:814.66364 9:62.176334 11:36.245201 14:-61159.629 15:0.034520738 16:1564.7583 #
-66.170724897173812 3:12.051866 4:11.882991 5:1826.9911 8:913.76337 9:170.83508 11:126.64029 14:-71598.008 15:0.036188189 16:2793.8066 #
100 3:5.004859 4:5.0092258 5:587.69788 8:447.84698 9:51.044991 11:21.60354 14:-34354.426 15:0.033066396 16:803.25299 #
30.469227910718772 3:8.4015102 4:8.3152809 5:1252.8879 8:540.59082 9:59.897091 11:21.279066 14:-56782.957 15:0.03525614 16:1811.5013 #
100 3:8.5404539 4:8.5178251 5:1151.587 8:812.06958 9:69.132797 11:35.066738 14:-58740.145 15:0.036532782 16:1775.2162 #
-100 3:6.6247797 4:6.5427542 5:787.05676 8:531.76245 9:92.624374 11:38.301983 14:-42990.984 15:0.022693023 16:822.57892 #
-100 3:6.6472726 4:6.590064 5:769.42377 8:590.78406 9:88.197411 11:44.19149 14:-45400.332 15:0.026218208 16:1037.3159 #
100 3:17.728861 4:17.74078 5:2279.8115 8:2082.717 9:145.2184 11:66.869789 14:-121847.15 15:0.03101344 16:4774.6602 #
-100 3:8.2610989 4:8.0621853 5:1145.2318 8:885.23108 9:100.36007 11:43.10535 14:-55917.836 15:0.026197482 16:1344.7943 #
