SVM-light Version V6.02
2 # kernel type
3 # kernel parameter -d 
1e-006 # kernel parameter -g 
1 # kernel parameter -s 
1 # kernel parameter -r 
empty# kernel parameter -u 
16 # highest feature index 
33214 # number of training documents 
2336 # number of support vectors plus 1 
-1.79223 # threshold b, each following line is a SV (starting with alpha*y)
-100 3:5.2392879 4:5.2323041 5:475.40747 8:338.60349 9:133.25731 11:57.008583 14:-29703.682 15:0.033339646 16:449.75085 #
100 3:4.454051 4:4.453805 5:343.55777 8:374.185 9:84.98365 11:46.600803 14:-27903.736 15:0.028849242 16:310.73755 #
-100 3:4.8834338 4:4.8725791 5:447.68726 8:319.05731 9:115.20434 11:53.014076 14:-27877.742 15:0.031419162 16:394.70822 #
-10.448162920260074 3:4.2211938 4:4.2157383 5:373.07086 8:265.63501 9:54.795666 11:22.800953 14:-25044.963 15:0.0020275661 16:33.312107 #
-62.864448021572343 3:4.4065375 4:4.2515597 5:514.19104 8:375.75711 9:73.14753 11:42.315708 14:-26592.262 15:0.031338573 16:303.15149 #
100 3:3.4919674 4:3.4848061 5:311.48624 8:214.4938 9:59.326401 11:23.609684 14:-22098.871 15:0.006119383 16:42.940857 #
100 3:3.4988806 4:3.4034884 5:344.52695 8:258.79605 9:66.798233 11:26.999952 14:-20360.645 15:0.00274606 16:49.015007 #
100 3:5.5722423 4:5.5674949 5:460.52945 8:352.7298 9:153.22969 11:107.69984 14:-24270.502 15:0.0063891378 16:189.94202 #
33.121324194348396 3:9.5858068 4:9.4293919 5:1433.5693 8:754.35388 9:69.435196 11:31.173063 14:-69715.484 15:0.0067201369 16:367.82251 #
-42.184814620115461 3:7.098742 4:7.0722117 5:770.13025 8:587.89496 9:72.939804 11:28.103058 14:-51426.832 15:0.021303959 16:324.49619 #
-100 3:5.55374 4:5.5583305 5:279.44104 8:265.85287 9:61.383797 11:21.329531 14:-37179.906 15:0.0041552479 16:82.354637 #
-95.154168781283374 3:6.2410054 4:6.2219477 5:598.53796 8:622.17816 9:86.499855 11:28.023228 14:-47522.594 15:0.010622956 16:157.01195 #
100 3:4.1560616 4:4.1568003 5:173.79019 8:317.02783 9:102.30547 11:61.119709 14:-21560.861 15:0.027404344 16:339.5856 #
-37.791329462378314 3:4.3794379 4:4.3834777 5:277.42615 8:315.59818 9:126.40881 11:37.887341 14:-20663.309 15:0.029113548 16:317.8226 #
21.687409268670308 3:8.9288044 4:8.8700323 5:1251.369 8:892.22278 9:57.431747 11:22.393009 14:-65089.367 15:0.036453132 16:1502.231 #
100 3:4.1568198 4:4.0190291 5:399.54343 8:151.85042 9:93.794243 11:59.617088 14:-21458.951 15:0.004907296 16:55.968117 #
100 3:5.047729 4:4.9823027 5:558.48676 8:268.27551 9:107.35583 11:56.788906 14:-27818.926 15:0.0067496011 16:81.00325 #
41.850753849156874 3:4.8927379 4:4.8449116 5:529.8382 8:197.90712 9:114.64324 11:93.878105 14:-23374.328 15:0.0069193658 16:85.140816 #
-27.800124501575684 3:6.0293441 4:6.0326467 5:710.66571 8:614.9566 9:71.44001 11:23.755175 14:-40363.445 15:0.013679433 16:156.96304 #
48.47574661770755 3:14.712353 4:14.702143 5:2047.2124 8:772.90717 9:66.441193 11:38.345741 14:-91279.797 15:0.0075623589 16:897.35095 #
-3.6591223060888884 3:15.524179 4:15.493062 5:2055.7002 8:1127.4669 9:113.70265 11:32.939037 14:-119518.55 15:0.001540186 16:97.073181 #
100 3:4.1799612 4:4.1613917 5:281.78629 8:360.70367 9:100.50076 11:60.257217 14:-22783.016 15:0.032393388 16:400.31342 #
100 3:3.6497498 4:3.6295719 5:274.91867 8:230.79517 9:85.123009 11:37.230038 14:-19193.92 15:0.033504523 16:258.39133 #
100 3:3.7902882 4:3.753994 5:439.5864 8:326.99316 9:67.271355 11:25.537048 14:-21252.211 15:0.0044792532 16:46.821781 #
100 3:3.7860761 4:3.7721438 5:302.25995 8:161.55629 9:81.10527 11:41.932663 14:-21304.682 15:0.032288112 16:262.52481 #
-100 3:4.7424326 4:4.6913819 5:444.42191 8:436.789 9:45.382744 11:19.297014 14:-29638.217 15:0.029725032 16:475.63922 #
-100 3:5.0082035 4:4.9757204 5:554.30286 8:329.22635 9:67.441811 11:22.421995 14:-31527.783 15:0.032065645 16:632.4483 #
79.508057951753912 3:4.2726274 4:4.2464542 5:350.70462 8:322.43076 9:113.91684 11:67.56411 14:-20354.377 15:0.031335786 16:426.92786 #
100 3:4.4512043 4:4.4531112 5:416.19528 8:277.43857 9:74.259125 11:43.612747 14:-28501.738 15:0.034467645 16:449.40866 #
-100 3:3.1557751 4:3.1507668 5:306.17542 8:237.21736 9:48.391701 11:24.036228 14:-18771.125 15:0.002460273 16:20.190435 #
-100 3:5.0561032 4:5.0467038 5:422.84982 8:131.94604 9:141.64122 11:59.224712 14:-23550.48 15:0.032399692 16:409.71509 #
-26.024847404767399 3:4.650404 4:4.6221981 5:398.20303 8:316.62665 9:117.48061 11:50.914543 14:-25164.146 15:0.031091558 16:320.51611 #
-100 3:3.381248 4:3.3830717 5:215.11221 8:157.06715 9:50.954208 11:24.649178 14:-20403.258 15:0.007155865 16:45.025955 #
100 3:3.7154634 4:3.718508 5:244.88344 8:285.06042 9:72.811935 11:32.718803 14:-24804.609 15:0.0044474439 16:35.879292 #
-2.0130733047186902 3:10.074483 4:9.9512548 5:1381.6129 8:1016.5358 9:122.97345 11:60.850735 14:-70365.258 15:0.034775462 16:1383.7214 #
-15.356913189942986 3:4.3623834 4:4.3630838 5:328.22775 8:131.71423 9:125.64062 11:52.972599 14:-19668.602 15:0.031330414 16:304.10049 #
100 3:4.0060859 4:4.0089869 5:286.92438 8:202.07692 9:53.486103 11:21.630436 14:-24697.982 15:0.022232667 16:424.23807 #
-100 3:4.1626825 4:4.1551523 5:290.26166 8:300.22766 9:107.67414 11:51.673889 14:-22500.053 15:0.02840472 16:241.7765 #
-100 3:5.6482167 4:5.6438274 5:546.80499 8:439.60797 9:116.06139 11:46.750725 14:-39712.863 15:0.027485719 16:396.79434 #
100 3:4.0120144 4:4.0147123 5:252.45915 8:294.41171 9:106.83003 11:60.795425 14:-20493.447 15:0.03069669 16:298.53351 #
-100 3:3.9502559 4:3.9518063 5:186.87563 8:286.7739 9:84.305573 11:50.169857 14:-21541.25 15:0.029480439 16:221.18394 #
-100 3:4.0174689 4:4.0044522 5:364.08731 8:275.99213 9:103.17393 11:52.191685 14:-22781.34 15:0.031640347 16:254.5405 #
-100 3:4.1704321 4:4.1553783 5:248.54964 8:219.13803 9:129.35919 11:54.340256 14:-18904.002 15:0.028940199 16:253.82384 #
-100 3:5.0635796 4:5.0008135 5:539.38251 8:494.0585 9:43.664917 11:20.095579 14:-34027.012 15:0.032747135 16:560.87866 #
-100 3:4.0158644 4:4.0000458 5:310.11172 8:310.34024 9:90.982597 11:43.988571 14:-23494.316 15:0.031362902 16:272.60617 #
100 3:4.9290056 4:4.9238911 5:450.10883 8:193.29735 9:106.09076 11:67.074265 14:-28550.162 15:0.031330768 16:457.63327 #
100 3:5.0903349 4:5.0761852 5:461.1756 8:346.04144 9:104.60207 11:61.531216 14:-31609.967 15:0.015815051 16:376.39645 #
100 3:4.20403 4:4.2078557 5:265.7948 8:239.22894 9:112.31104 11:61.862492 14:-21305.82 15:0.031221453 16:329.67169 #
100 3:3.5641091 4:3.5630684 5:322.02802 8:165.77324 9:59.44973 11:19.690664 14:-23040.734 15:0.0079286583 16:51.910072 #
-100 3:5.0084553 4:5.0021319 5:429.78696 8:220.09648 9:122.12254 11:50.634686 14:-28529.553 15:0.030843996 16:406.91641 #
-100 3:3.7767789 4:3.7621229 5:230.06279 8:286.11639 9:46.740997 11:21.98135 14:-23641.104 15:0.0039125918 16:26.056828 #
23.174235087191857 3:12.69703 4:12.640604 5:1831.8447 8:1194.931 9:103.83318 11:46.645157 14:-88190.898 15:0.036680948 16:2632.0564 #
100 3:3.418153 4:3.4202907 5:226.81364 8:216.98328 9:49.485718 11:18.426458 14:-21399.082 15:0.003880444 16:26.957481 #
-27.477625080229018 3:6.3308692 4:6.3367105 5:783.24323 8:384.95831 9:93.763344 11:53.080879 14:-39676.309 15:0.032132108 16:488.02966 #
-100 3:4.0537629 4:4.0569887 5:164.91397 8:328.25632 9:112.90457 11:51.077869 14:-21419.867 15:0.027776202 16:236.72314 #
100 3:3.8034759 4:3.7959671 5:340.16541 8:224.67839 9:80.069466 11:37.428173 14:-21766.58 15:0.033594072 16:272.09543 #
-100 3:6.0492339 4:6.0538282 5:657.14252 8:756.61816 9:65.779785 11:29.732964 14:-38548.773 15:0.03291554 16:610.45239 #
100 3:3.7468767 4:3.7391968 5:211.33337 8:212.06517 9:59.736206 11:18.857241 14:-23953.563 15:0.015670286 16:247.28658 #
100 3:5.5638156 4:5.5579977 5:397.10806 8:389.94006 9:71.65538 11:35.049652 14:-42307.188 15:0.002255199 16:185.96648 #
-100 3:7.6681523 4:7.5661778 5:988.57422 8:550.20087 9:79.344032 11:32.289394 14:-44071.551 15:0.035153784 16:1223.7578 #
100 3:3.8357763 4:3.8261549 5:315.69733 8:313.5329 9:64.771805 11:29.803244 14:-23879.656 15:0.0067678271 16:53.506653 #
-100 3:5.8704257 4:5.8748837 5:356.65988 8:560.91119 9:142.00493 11:79.265892 14:-35233.531 15:0.024563204 16:366.78479 #
-16.599962306376053 3:7.5578828 4:7.5652618 5:709.26868 8:729.2774 9:143.0071 11:61.129742 14:-50421.313 15:0.029309021 16:665.06519 #
100 3:4.0921021 4:4.0941892 5:401.04333 8:298.54218 9:93.279404 11:48.587727 14:-22628.283 15:0.030632824 16:304.64899 #
-2.4400019986943029 3:0.74811172 4:0.74329787 5:41.622032 8:20.283787 9:25.60103 11:8.0042629 14:-1813.8085 15:0.002828358 16:0.98682022 #
-100 3:3.5680847 4:3.5390723 5:408.74487 8:256.94064 9:58.284302 11:30.110044 14:-21369.027 15:0.005080393 16:37.690022 #
-91.007342183311408 3:3.9642234 4:3.9670398 5:331.01797 8:350.38098 9:68.070694 11:26.637058 14:-24662.027 15:0.0051292749 16:42.233322 #
100 3:3.6836066 4:3.6872158 5:200.04356 8:210.60071 9:95.776352 11:43.10561 14:-20365.98 15:0.030192489 16:251.94676 #
-33.334022096623258 3:6.8121557 4:6.790256 5:842.04883 8:630.17438 9:45.413849 11:23.649387 14:-48129.836 15:0.036661863 16:923.36255 #
-1.3278099580308549 3:7.2344365 4:7.2317834 5:867.2569 8:845.33173 9:112.58746 11:49.230263 14:-48075.945 15:0.0340758 16:775.97748 #
100 3:4.3892655 4:4.3912253 5:353.82291 8:404.53152 9:72.597603 11:42.443508 14:-30550.398 15:0.033052739 16:390.71466 #
100 3:4.2282658 4:4.1971922 5:374.02887 8:280.1582 9:77.071159 11:43.249657 14:-25918.408 15:0.031957302 16:297.6358 #
100 3:4.3283386 4:4.2837453 5:403.76816 8:470.27335 9:52.55233 11:34.252403 14:-29830.105 15:0.025513481 16:239.33458 #
100 3:2.8087983 4:2.810678 5:123.91405 8:140.46964 9:61.380154 11:24.601767 14:-14840.696 15:0.0053969319 16:29.548841 #
-100 3:3.390317 4:3.3867717 5:313.51291 8:257.13318 9:78.45932 11:46.50938 14:-17823.898 15:0.027222302 16:189.01617 #
-36.798231101378882 3:8.2532425 4:8.2447538 5:1123.7748 8:614.50885 9:81.685349 11:26.826429 14:-54198.715 15:0.006839341 16:276.68719 #
-100 3:3.9811578 4:3.9808517 5:334.82471 8:304.52728 9:76.558502 11:36.591846 14:-24558.859 15:0.015059121 16:101.57332 #
100 3:5.0764074 4:5.0798512 5:568.57892 8:580.97198 9:49.270523 11:22.025414 14:-36001.738 15:0.005319526 16:58.449383 #
100 3:3.7286694 4:3.7046797 5:347.32141 8:234.1134 9:85.96386 11:43.119053 14:-20230.055 15:0.036340319 16:299.64661 #
-6.6903357190851978 3:3.0274072 4:3.0273688 5:122.34003 8:101.28465 9:76.207573 11:42.486671 14:-13627.905 15:0.029406233 16:148.14827 #
-100 3:4.5508571 4:4.5466747 5:535.02136 8:390.22964 9:75.941986 11:42.284966 14:-27134.475 15:0.034356948 16:382.2951 #
100 3:3.7840595 4:3.7874405 5:441.95673 8:262.03546 9:66.531586 11:30.898365 14:-22184.109 15:0.0046737529 16:45.309841 #
-100 3:5.9109931 4:5.9106407 5:621.81665 8:424.01056 9:103.50141 11:42.790222 14:-40250.672 15:0.017433833 16:203.22978 #
100 3:5.4558053 4:5.4363484 5:583.09796 8:503.4386 9:74.205521 11:32.274281 14:-37346.648 15:0.005958356 16:278.13174 #
100 3:4.2980995 4:4.2997971 5:402.56494 8:222.26671 9:92.202049 11:50.420856 14:-23977.186 15:0.030485936 16:280.69858 #
100 3:4.1530113 4:4.0769405 5:388.11124 8:372.6156 9:94.306122 11:55.746315 14:-24193.43 15:0.035422917 16:385.58145 #
0.71400475947839626 3:17.124908 4:17.141548 5:1051.7568 8:797.5722 9:648.38519 11:339.88687 14:-70494.828 15:0.0081987688 16:1045.2126 #
-100 3:3.7628152 4:3.7663825 5:201.21555 8:385.51953 9:83.883026 11:45.281719 14:-21833.26 15:0.0051871529 16:45.19791 #
-100 3:4.7891035 4:4.7930493 5:382.43991 8:501.37354 9:44.208015 11:22.368811 14:-31074.275 15:0.0039967308 16:48.706089 #
-76.928423398741828 3:2.9610641 4:2.9637971 5:237.40053 8:230.84056 9:47.609875 11:25.348087 14:-17774.451 15:0.0045368811 16:27.243151 #
-100 3:4.0704379 4:4.0608153 5:414.9075 8:384.32077 9:78.954826 11:54.726318 14:-20819.031 15:0.025413536 16:173.6705 #
-23.024388171896881 3:4.9125891 4:4.9143372 5:204.92613 8:438.66296 9:61.710365 11:24.231163 14:-35398.168 15:0.027878258 16:395.83145 #
-18.278121420946821 3:11.604468 4:11.615425 5:1512.7001 8:1070.1812 9:66.806236 11:22.999514 14:-87197.891 15:0.019043773 16:449.68951 #
-64.043646441867452 3:5.8300414 4:5.801363 5:689.92548 8:491.99646 9:60.760704 11:25.687037 14:-40369.363 15:0.034696661 16:748.23383 #
-100 3:4.5747766 4:4.5736122 5:256.16953 8:303.78125 9:122.90264 11:68.478218 14:-23769.9 15:0.019448061 16:173.79823 #
25.533108820199772 3:5.8812108 4:5.885684 5:479.59595 8:415.58466 9:130.38631 11:88.77977 14:-35963.445 15:0.0078365067 16:132.77397 #
100 3:4.4664927 4:4.4700222 5:219.98515 8:182.28804 9:168.14131 11:89.891907 14:-16370.175 15:0.030200517 16:331.12106 #
100 3:3.9098058 4:3.9106495 5:229.2684 8:297.17896 9:78.933304 11:40.37532 14:-23804.105 15:0.015809311 16:142.75253 #
-100 3:5.0389142 4:5.0438232 5:400.76511 8:352.51849 9:125.10472 11:49.059692 14:-26155.215 15:0.032834981 16:410.85715 #
-100 3:4.3372688 4:4.3213034 5:381.59637 8:322.07199 9:99.711365 11:54.259544 14:-25082.057 15:0.030495409 16:263.57004 #
-100 3:3.8609622 4:3.8525867 5:288.23816 8:374.28516 9:71.825478 11:39.57259 14:-23342.963 15:0.031240826 16:243.52197 #
-100 3:4.2285914 4:4.2323108 5:473.54224 8:337.60391 9:86.924774 11:45.787998 14:-23953.111 15:0.030522896 16:265.14655 #
-100 3:3.8084567 4:3.8113112 5:300.901 8:371.97351 9:52.106564 11:22.641802 14:-24875.83 15:0.0042014671 16:35.202976 #
-100 3:3.7360127 4:3.7137861 5:433.20071 8:150.99402 9:53.388836 11:25.428352 14:-21983.453 15:0.0049168901 16:34.394527 #
-36.497324166959629 3:3.6707954 4:3.662173 5:339.81049 8:217.731 9:48.812958 11:24.618109 14:-22849.869 15:0.0048828311 16:32.765072 #
-68.703356051950877 3:4.7093964 4:4.6954384 5:412.69315 8:456.73587 9:54.289268 11:22.982046 14:-34325.699 15:0.028826259 16:480.83072 #
15.298289399437108 3:6.2915993 4:6.2438111 5:652.16711 8:775.73804 9:56.860859 11:21.526041 14:-43991.637 15:0.033565763 16:1107.73 #
100 3:3.8830631 4:3.8804507 5:352.25528 8:247.45737 9:85.273193 11:42.392536 14:-22235.186 15:0.018936535 16:173.08481 #
100 3:4.3374424 4:4.147296 5:539.39124 8:261.52808 9:98.752663 11:54.402344 14:-22249.357 15:0.032087415 16:372.83182 #
100 3:5.6868062 4:5.6472955 5:745.3811 8:523.02454 9:45.291664 11:20.724728 14:-40439.352 15:0.029838702 16:786.25 #
-100 3:4.5282512 4:4.5235496 5:343.44724 8:248.7977 9:138.80699 11:61.265049 14:-21674.994 15:0.031140935 16:322.23514 #
100 3:3.7950919 4:3.7464666 5:388.45663 8:233.95033 9:56.164997 11:22.031637 14:-23772.104 15:0.0065900818 16:51.716324 #
-100 3:6.5164814 4:6.5060692 5:706.31744 8:598.20068 9:138.74524 11:93.485352 14:-39054.809 15:0.0071065021 16:158.77008 #
-100 3:4.3765244 4:4.3743887 5:378.17068 8:167.29395 9:120.85416 11:56.717621 14:-21116.68 15:0.032255854 16:314.70471 #
-17.540260379747071 3:4.2495317 4:4.1793356 5:506.38754 8:422.38467 9:57.840786 11:26.36924 14:-24877.504 15:0.0064791772 16:70.31192 #
100 3:5.3332229 4:5.3369155 5:579.44128 8:150.01875 9:113.9772 11:62.14851 14:-23916.24 15:0.0052841981 16:73.843513 #
-100 3:3.9524708 4:3.9523141 5:222.10478 8:341.93268 9:92.196251 11:62.801865 14:-21532.414 15:0.005472389 16:40.363621 #
-72.279552150236597 3:3.7186089 4:3.7221661 5:104.0237 8:175.3252 9:84.92971 11:34.588261 14:-19109.838 15:0.033338569 16:254.17656 #
-31.492940604262611 3:8.8386564 4:8.6401548 5:1361.1605 8:765.25159 9:67.112015 11:26.427942 14:-60107.234 15:0.006702608 16:202.65254 #
100 3:3.5984478 4:3.5988889 5:222.3568 8:330.44254 9:60.799427 11:19.72617 14:-21493.313 15:0.00752794 16:53.470299 #
-100 3:4.0835419 4:4.0537801 5:382.33719 8:376.49905 9:78.867577 11:51.755783 14:-21897.691 15:0.004627354 16:44.313606 #
-2.4265419071310834 3:18.805099 4:18.574509 5:3104.6304 8:1309.3295 9:125.6095 11:73.348267 14:-122858.12 15:0.0068374998 16:758.0683 #
50.201205816505905 3:7.205976 4:7.1935625 5:851.14856 8:701.27533 9:48.567417 11:21.536736 14:-52893.965 15:0.035599444 16:1278.6382 #
-100 3:3.8822844 4:3.8777549 5:301.16745 8:228.32788 9:71.862244 11:32.552986 14:-23575.588 15:0.004659276 16:39.331299 #
100 3:3.8222976 4:3.8183465 5:259.67493 8:279.99542 9:52.678696 11:20.691668 14:-21923.994 15:0.0073104599 16:58.63588 #
100 3:3.9961498 4:3.9963291 5:343.0069 8:270.67783 9:78.846603 11:38.097656 14:-23682.6 15:0.036490519 16:308.5228 #
-2.7374974706246653 3:17.53915 4:17.538301 5:2274.3997 8:1937.0082 9:130.1057 11:51.48925 14:-124310.75 15:0.0069722789 16:672.24744 #
100 3:4.9047604 4:4.904943 5:228.02116 8:386.12024 9:140.0919 11:94.992645 14:-23849.771 15:0.0059694829 16:246.74146 #
100 3:3.1165066 4:3.1146243 5:305.93918 8:179.7737 9:59.51366 11:20.091389 14:-17615.766 15:0.0058476878 16:33.226128 #
0.98240596825390614 3:11.818049 4:11.54941 5:1839.228 8:640.36835 9:119.84853 11:76.120972 14:-73983.625 15:0.033169027 16:1632.3597 #
100 3:4.5648437 4:4.5613413 5:397.35849 8:271.20261 9:92.879929 11:53.020618 14:-26603.971 15:0.0075500701 16:80.359291 #
100 3:3.8574467 4:3.8199675 5:337.07928 8:277.6524 9:75.106659 11:36.012306 14:-21665.555 15:0.03360742 16:271.91721 #
100 3:4.5121174 4:4.4232492 5:442.18326 8:288.72485 9:97.151901 11:59.131844 14:-23735.25 15:0.036062073 16:387.02011 #
-22.154481471280747 3:3.1037414 4:3.1044273 5:92.349907 8:139.39551 9:97.71965 11:43.038048 14:-12897.593 15:0.027475258 16:146.2887 #
100 3:3.7369452 4:3.7392046 5:288.49759 8:243.36305 9:51.304306 11:24.055151 14:-23669.93 15:0.0075543332 16:56.713757 #
100 3:5.3938537 4:5.3857627 5:337.75351 8:277.5043 9:69.275215 11:49.491379 14:-37361.984 15:0.0033473561 16:107.08047 #
100 3:5.7049837 4:5.7102046 5:338.81128 8:374.31497 9:89.323235 11:62.034092 14:-40865.914 15:0.0025124471 16:137.43678 #
-37.600985151739366 3:3.7658355 4:3.7669756 5:138.64146 8:247.65379 9:133.35211 11:47.493458 14:-13985.196 15:0.02938604 16:213.06715 #
100 3:5.70649 4:5.7073727 5:333.67792 8:260.46487 9:115.68015 11:52.949451 14:-38289.59 15:0.0048983959 16:202.56877 #
-100 3:4.2989926 4:4.3028903 5:340.66293 8:251.66794 9:109.62824 11:49.462608 14:-21966.777 15:0.032202851 16:315.60672 #
100 3:3.5260932 4:3.4910648 5:406.37936 8:326.71713 9:51.82349 11:19.965408 14:-21682.779 15:0.002430751 16:28.103727 #
100 3:5.1139927 4:5.0551872 5:560.04797 8:270.12106 9:104.29704 11:58.671059 14:-28038.271 15:0.0067602461 16:82.100243 #
100 3:5.3987961 4:5.402523 5:570.94281 8:577.22931 9:55.516872 11:23.237743 14:-38602.215 15:0.0051562041 16:88.299454 #
-100 3:4.2230783 4:4.2197328 5:457.28189 8:230.4185 9:72.046944 11:31.392817 14:-26617.361 15:0.0054248711 16:57.73827 #
-100 3:3.9561741 4:3.9458063 5:258.19604 8:294.83804 9:114.09541 11:52.713387 14:-20779.52 15:0.027197339 16:226.96347 #
-32.429306761866755 3:4.8504133 4:4.8263855 5:509.40054 8:253.02245 9:98.306961 11:43.953617 14:-27929.869 15:0.029725783 16:336.65295 #
100 3:4.6053848 4:4.6090837 5:411.82959 8:211.06595 9:113.25072 11:80.379311 14:-20543.402 15:0.026053198 16:266.18259 #
-100 3:4.9038796 4:4.8537483 5:474.51733 8:240.64673 9:126.32507 11:46.528091 14:-23024.715 15:0.029472545 16:386.66888 #
1.0092491938097032 3:21.285126 4:21.267368 5:3146.5056 8:1628.1741 9:102.89345 11:59.061913 14:-152555.25 15:0.0067814011 16:986.9754 #
-100 3:4.6907797 4:4.6682696 5:421.83603 8:274.17334 9:69.974564 11:26.418257 14:-25661.072 15:0.031677198 16:393.19672 #
100 3:7.9039459 4:7.7277584 5:1173.3119 8:753.17145 9:74.078033 11:24.332439 14:-55431.367 15:0.00656066 16:259.0303 #
100 3:3.6525087 4:3.6522362 5:322.19739 8:169.59085 9:57.357719 11:20.073685 14:-23885.443 15:0.0079515651 16:53.008846 #
-100 3:3.8017619 4:3.7746456 5:462.78381 8:293.79526 9:53.925995 11:26.777933 14:-23854.113 15:0.0032645061 16:25.90254 #
-100 3:4.3869247 4:4.363677 5:445.82971 8:410.21994 9:56.547291 11:29.132078 14:-28364.621 15:0.0078664618 16:77.282928 #
100 3:4.6046758 4:4.559267 5:574.84607 8:302.07004 9:85.762703 11:53.599709 14:-23939.529 15:0.0070012799 16:76.414093 #
-100 3:4.5362711 4:4.4271765 5:502.10107 8:223.80612 9:88.436646 11:44.959148 14:-21688.273 15:0.03143863 16:302.3317 #
-100 3:3.952863 4:3.9547596 5:371.06699 8:448.15433 9:73.363091 11:31.649416 14:-24428.957 15:0.0053980602 16:46.163303 #
100 3:4.4520106 4:4.4240446 5:475.92899 8:332.49313 9:60.971786 11:24.368227 14:-28698.783 15:0.0051251859 16:51.606194 #
1.6248035545701316 3:15.561587 4:15.523186 5:2181.3923 8:1378.0917 9:117.45153 11:68.582062 14:-110078.32 15:0.0074555241 16:970.96997 #
100 3:3.0530572 4:3.0047021 5:334.46143 8:153.91797 9:54.793045 11:18.940662 14:-17320.256 15:0.0071058879 16:37.612926 #
-100 3:4.0686288 4:4.0315442 5:442.30588 8:360.57495 9:73.316177 11:36.458439 14:-26158.008 15:0.0043939748 16:52.484146 #
-100 3:4.5995684 4:4.5996885 5:370.68152 8:313.30457 9:132.61229 11:54.168739 14:-24138.033 15:0.031521041 16:330.80807 #
-19.389078287270863 3:5.7341528 4:5.7285476 5:434.44122 8:285.98804 9:56.115726 11:21.674175 14:-40118.855 15:0.0058549959 16:79.07019 #
100 3:3.7633033 4:3.7578838 5:265.06284 8:247.68738 9:56.00864 11:19.160404 14:-21072.502 15:0.007347492 16:58.258564 #
-100 3:3.9888706 4:3.9749722 5:452.72736 8:353.97614 9:66.269943 11:28.106194 14:-24849.504 15:0.0041471152 16:40.598938 #
100 3:3.3344493 4:3.3272111 5:271.54532 8:296.35757 9:54.557541 11:20.27787 14:-21279.951 15:0.0040721591 16:34.355888 #
100 3:3.7528784 4:3.7495701 5:404.53659 8:392.54358 9:49.074936 11:18.105473 14:-23638.604 15:0.0075318129 16:61.412197 #
100 3:3.8595161 4:3.8558159 5:250.34766 8:353.30194 9:89.860733 11:47.041737 14:-21373.656 15:0.020725144 16:207.23935 #
-100 3:5.6225896 4:5.5597844 5:605.64087 8:213.84909 9:126.14539 11:58.641212 14:-27227.037 15:0.032421604 16:485.56442 #
-100 3:3.6605201 4:3.6518855 5:346.69431 8:216.38554 9:69.665031 11:34.965698 14:-21163.332 15:0.0052703121 16:35.419003 #
100 3:7.4123535 4:7.4092793 5:753.07898 8:563.54535 9:148.99274 11:111.4772 14:-45022.652 15:0.0070499019 16:410.54901 #
100 3:3.6297953 4:3.6305869 5:334.12378 8:198.40944 9:58.895317 11:18.850918 14:-23349.502 15:0.007705241 16:56.04623 #
100 3:3.60467 4:3.5755537 5:393.86743 8:322.6759 9:54.626663 11:22.73003 14:-23265.332 15:0.0072174231 16:52.439236 #
4.5364134965181115 3:11.248631 4:11.173862 5:1566.5461 8:1283.455 9:59.273277 11:27.872383 14:-83430.258 15:0.036094777 16:1872.3304 #
-2.8343189288034409 3:6.6758962 4:6.6824069 5:767.48425 8:493.70364 9:79.331429 11:41.81292 14:-45110.477 15:0.034625743 16:778.66125 #
-100 3:4.1522989 4:4.1462092 5:419.16653 8:319.08344 9:51.584217 11:25.474663 14:-29700.221 15:0.0061702779 16:49.723843 #
-100 3:3.430387 4:3.4255238 5:269.62592 8:168.23926 9:53.931808 11:27.175341 14:-21224.234 15:0.0033063621 16:20.392376 #
100 3:3.6934955 4:3.6898029 5:237.5473 8:199.8569 9:62.81686 11:20.010788 14:-23422.834 15:0.0077747488 16:54.273796 #
100 3:5.0684514 4:5.0726709 5:518.15344 8:277.49841 9:94.755783 11:58.651978 14:-25954.77 15:0.0064172312 16:88.560623 #
-100 3:3.849359 4:3.830616 5:300.77551 8:256.00958 9:118.43833 11:54.349487 14:-17391.078 15:0.028724231 16:237.85689 #
100 3:3.861062 4:3.8584821 5:237.09985 8:253.16711 9:102.73377 11:56.129086 14:-20096.125 15:0.030263046 16:288.02478 #
-2.6459741537596528 3:3.9663048 4:3.9608328 5:368.35144 8:310.29224 9:96.902466 11:43.91037 14:-21549.842 15:0.031696681 16:251.66632 #
-100 3:5.3921843 4:5.3944535 5:337.99457 8:365.43378 9:130.80223 11:79.660622 14:-32356.225 15:0.023139687 16:315.04099 #
100 3:4.1740932 4:4.1726847 5:239.21201 8:331.53519 9:113.4809 11:62.405125 14:-21108.803 15:0.0059670289 16:146.57649 #
100 3:7.0940151 4:6.9404531 5:963.52356 8:647.65033 9:91.732079 11:75.943344 14:-47489.5 15:0.026190758 16:907.47571 #
100 3:3.7908571 4:3.7927535 5:361.15793 8:360.00827 9:64.863197 11:24.925379 14:-23416.957 15:0.0063109919 16:51.558693 #
7.4596041917101568 3:8.4895277 4:8.4306517 5:1185.535 8:842.04077 9:52.713142 11:20.438782 14:-61247.852 15:0.036679771 16:1440.7797 #
-100 3:4.1183085 4:4.1180668 5:346.5574 8:385.0773 9:48.177731 11:25.04245 14:-29918.648 15:0.03245306 16:264.82245 #
-64.725131599849874 3:4.1676311 4:4.1673732 5:226.23875 8:283.44818 9:109.73459 11:53.419735 14:-23300.615 15:0.022890484 16:202.70164 #
49.389975194575953 3:5.1413155 4:5.1438098 5:530.88208 8:581.21246 9:59.095585 11:36.678089 14:-36329.578 15:0.021929845 16:764.24042 #
-100 3:4.2991667 4:4.302721 5:303.37042 8:476.05856 9:46.668839 11:20.87936 14:-28966.785 15:0.030320819 16:434.22424 #
-100 3:5.6711102 4:5.6338177 5:535.33466 8:513.74133 9:95.330673 11:31.827557 14:-36522.863 15:0.031547207 16:711.73145 #
100 3:3.8304808 4:3.8311908 5:376.05899 8:375.51331 9:65.256813 11:25.641905 14:-23018.758 15:0.0061471038 16:51.149384 #
-10.950594755914686 3:9.038228 4:8.8451347 5:1273.4026 8:530.57764 9:72.257515 11:39.247112 14:-52327.309 15:0.031841386 16:985.33197 #
100 3:3.2502823 4:3.253376 5:278.89206 8:359.75766 9:53.094849 11:19.211996 14:-20977.727 15:0.0044794111 16:31.510565 #
-100 3:4.0199404 4:4.0227313 5:200.45821 8:216.24245 9:148.35262 11:58.272369 14:-14598.364 15:0.028963393 16:234.01582 #
-16.455781263357494 3:5.1943264 4:5.1965966 5:428.97455 8:377.15555 9:124.45419 11:46.233562 14:-31704.422 15:0.033651821 16:450.241 #
100 3:3.515497 4:3.5160036 5:282.80042 8:354.02347 9:71.146149 11:26.089369 14:-21238.75 15:0.0037987749 16:70.469521 #
-100 3:4.3830595 4:4.3759055 5:408.26178 8:409.11392 9:71.567169 11:27.141579 14:-30291.486 15:0.004350997 16:50.771618 #
100 3:5.226748 4:5.2117066 5:451.20206 8:426.80038 9:65.706329 11:32.655518 14:-39295.344 15:0.0054680598 16:109.84364 #
100 3:3.6111012 4:3.5788968 5:402.82419 8:343.56076 9:56.41811 11:21.490311 14:-22736.156 15:0.007261842 16:52.929279 #
-100 3:5.1686368 4:5.1409378 5:411.48828 8:259.36032 9:130.0528 11:58.198727 14:-28865.803 15:0.03187456 16:404.92734 #
-100 3:4.4867487 4:4.4806604 5:468.8454 8:309.7485 9:50.791927 11:20.978827 14:-28318.703 15:0.004662449 16:39.541637 #
14.743349637962254 3:8.8784466 4:8.8694286 5:1115.541 8:908.93842 9:53.099739 11:23.601271 14:-64156.141 15:0.036321793 16:1619.274 #
-0.48364287330323941 3:1.29067 4:1.2345268 5:182.0386 8:127.95447 9:26.879187 11:6.5573397 14:-5723.1943 15:0.002314243 16:2.2121189 #
100 3:7.5319571 4:7.4758024 5:1042.295 8:618.02124 9:90.160645 11:50.732189 14:-53573.133 15:0.006974122 16:217.63321 #
-100 3:3.3594997 4:3.3603547 5:350.75446 8:245.4908 9:55.286385 11:27.746933 14:-20728.184 15:0.0051748059 16:36.749241 #
100 3:3.8786857 4:3.874176 5:285.0553 8:299.39227 9:55.637722 11:20.268044 14:-22581.508 15:0.007388622 16:59.991413 #
-100 3:3.803288 4:3.8064578 5:301.15604 8:396.82959 9:61.536861 11:30.654474 14:-25670.66 15:0.002842041 16:46.91526 #
56.810323415762404 3:7.1320138 4:7.0947881 5:706.36395 8:896.47968 9:97.92012 11:43.193752 14:-45386.258 15:0.025915649 16:803.44653 #
100 3:3.1953685 4:3.1983252 5:242.63937 8:212.49448 9:57.310444 11:21.918139 14:-20719.299 15:0.0062072682 16:36.530022 #
-0.71001626523701655 3:1.3205669 4:1.3166867 5:52.015228 8:54.540134 9:44.807209 11:16.663395 14:-4379.0225 15:0.024678968 16:31.573574 #
100 3:4.0836506 4:4.0842228 5:360.29419 8:192.66101 9:83.146545 11:41.259804 14:-22697.074 15:0.033250801 16:288.76736 #
100 3:5.1273775 4:5.0593619 5:524.4339 8:410.09808 9:78.52021 11:42.244801 14:-32948.621 15:0.031040076 16:628.03577 #
100 3:3.8712959 4:3.815356 5:383.99228 8:431.57718 9:63.1968 11:24.315529 14:-24698.766 15:0.002077288 16:68.168343 #
-100 3:3.4493053 4:3.4384251 5:384.08658 8:163.42331 9:63.696594 11:25.699907 14:-17680.605 15:0.0032401669 16:22.077621 #
100 3:3.7034841 4:3.6999779 5:263.7619 8:246.81378 9:56.295654 11:17.986887 14:-20526.719 15:0.007314506 16:57.203163 #
100 3:3.5293193 4:3.5311201 5:204.32356 8:330.66864 9:56.328297 11:19.677353 14:-20914.475 15:0.007462638 16:52.163502 #
-99.148294988362693 3:5.4822602 4:5.4865336 5:449.36334 8:371.69928 9:154.50218 11:60.568798 14:-29746.445 15:0.032842621 16:464.1705 #
-100 3:4.0281887 4:3.9932365 5:327.66153 8:397.62701 9:58.759518 11:23.686077 14:-26618.705 15:0.026178973 16:424.30197 #
-100 3:3.9028559 4:3.8915009 5:365.86816 8:304.57562 9:88.510483 11:44.89727 14:-22783.305 15:0.033172183 16:259.41354 #
100 3:3.9630842 4:3.9668207 5:266.34201 8:224.91911 9:109.59838 11:65.925621 14:-20667.797 15:0.020257998 16:288.12088 #
-100 3:4.4726801 4:4.4557667 5:234.08965 8:194.49614 9:124.02388 11:78.089561 14:-20897.254 15:0.020635894 16:209.44478 #
-25.756956557030016 3:11.079744 4:11.059555 5:1425.7515 8:946.45453 9:142.8848 11:67.723633 14:-77670.43 15:0.035471041 16:1654.7849 #
100 3:3.6166706 4:3.6133006 5:237.19667 8:207.9174 9:64.22142 11:21.721069 14:-22554.859 15:0.0077754152 16:53.502014 #
100 3:3.5756714 4:3.5521665 5:378.55164 8:200.862 9:67.906113 11:25.856544 14:-20666.09 15:0.0056374529 16:41.532913 #
-100 3:3.0829189 4:3.0754774 5:247.47659 8:192.2623 9:58.411972 11:26.318316 14:-17317.145 15:0.0030515289 16:20.546181 #
-100 3:4.0745893 4:4.0285454 5:468.02298 8:246.74811 9:65.151787 11:31.647606 14:-24986.248 15:0.0047578751 16:37.771988 #
-100 3:3.2897773 4:3.2871506 5:233.25941 8:201.87251 9:50.143551 11:17.679045 14:-20598.396 15:0.0034222039 16:18.020529 #
100 3:3.697607 4:3.6983163 5:336.57428 8:202.09917 9:57.120773 11:20.445454 14:-23790.418 15:0.0077549908 16:57.29734 #
-100 3:4.0299611 4:3.9841173 5:491.63495 8:317.02277 9:64.352165 11:30.84112 14:-22648.961 15:0.005042288 16:37.737808 #
100 3:4.037622 4:4.0079851 5:412.12189 8:286.47528 9:78.343155 11:42.818466 14:-22790.313 15:0.023814598 16:294.37369 #
-100 3:5.3032336 4:5.2915869 5:386.59317 8:268.53989 9:146.96581 11:106.17831 14:-20452.688 15:0.00518591 16:61.996078 #
9.7331680541986731 3:9.7411785 4:9.6488667 5:1167.7866 8:626.91473 9:190.15852 11:192.60995 14:-51869.027 15:0.006713334 16:365.18872 #
42.542629073598832 3:6.0017648 4:5.8583608 5:771.46094 8:421.54321 9:89.220787 11:38.270191 14:-39937.953 15:0.025615212 16:935.96857 #
100 3:4.2679353 4:4.2303782 5:380.76132 8:226.28072 9:112.54427 11:67.610855 14:-20207.422 15:0.0051478841 16:125.07087 #
-52.588920289954785 3:3.552423 4:3.552974 5:269.55545 8:207.23521 9:64.562286 11:35.204315 14:-17176.313 15:0.028863097 16:208.51172 #
-100 3:4.3614674 4:4.3650017 5:354.93286 8:248.49077 9:110.1951 11:49.787384 14:-22578.146 15:0.031947929 16:317.25513 #
-100 3:6.1339545 4:6.123785 5:582.63196 8:701.84784 9:121.41624 11:63.087852 14:-40565.113 15:0.031098934 16:541.133 #
-9.8273633928670474 3:11.289528 4:11.170643 5:1552.4467 8:1114.1592 9:131.21559 11:53.048279 14:-80317.438 15:0.034888823 16:1542.6069 #
95.715880449825107 3:6.9685583 4:6.9279051 5:955.59613 8:647.83295 9:50.841686 11:18.968899 14:-48995.883 15:0.035640065 16:1147.2775 #
-64.382169239397101 3:5.9675875 4:5.9724317 5:624.15967 8:489.22769 9:55.265926 11:21.102945 14:-43206.551 15:0.002140281 16:59.074116 #
9.0854879565460198 3:9.7842398 4:9.7689943 5:1087.4066 8:397.92444 9:129.68036 11:67.257874 14:-68234.367 15:0.018756509 16:1765.5691 #
100 3:3.9442971 4:3.9329734 5:314.07559 8:357.82675 9:66.174019 11:42.612438 14:-26052.242 15:0.024684362 16:214.34033 #
-100 3:4.5936837 4:4.5818982 5:401.5603 8:340.0636 9:112.94662 11:46.450142 14:-27897.043 15:0.031765208 16:355.84308 #
-6.1362348861061484 3:8.6329317 4:8.5733929 5:1290.9508 8:545.94672 9:83.165627 11:37.18919 14:-52950.523 15:0.0071690842 16:277.64658 #
-100 3:3.9180605 4:3.9200187 5:163.14177 8:279.53314 9:84.766403 11:47.510353 14:-21205.359 15:0.030129539 16:224.34521 #
8.1452641621480897 3:10.868109 4:10.876371 5:1245.574 8:712.65533 9:183.7028 11:153.77524 14:-64065.344 15:0.0064013652 16:431.74823 #
100 3:4.1469736 4:4.1502991 5:286.41046 8:517.50079 9:60.771034 11:19.472895 14:-26735.508 15:0.0038923731 16:33.819332 #
-8.6287102565734806 3:13.323277 4:13.244272 5:1988.4722 8:975.21075 9:69.120949 11:34.539108 14:-99467.391 15:0.0078119938 16:681.95245 #
100 3:4.1431174 4:4.0786023 5:378.23947 8:259.94519 9:75.814873 11:39.479546 14:-25135.566 15:0.037943039 16:369.5972 #
100 3:6.3785067 4:6.3344793 5:604.86322 8:200.05327 9:201.97641 11:123.91743 14:-25100.604 15:0.022923337 16:352.67682 #
-100 3:3.2223213 4:3.2252042 5:182.10046 8:260.31458 9:43.488316 11:18.299637 14:-20443.635 15:0.003359447 16:20.493519 #
-100 3:4.5270314 4:4.5307708 5:386.72403 8:396.6702 9:76.24691 11:27.11071 14:-24730.436 15:0.027030461 16:512.69482 #
100 3:4.5296507 4:4.3341084 5:585.15533 8:385.38501 9:91.622437 11:55.301338 14:-26067.619 15:0.035941951 16:435.34595 #
100 3:4.3415871 4:4.2553215 5:539.49445 8:289.10486 9:50.867966 11:15.624807 14:-25956.137 15:0.02515134 16:486.84592 #
100 3:3.1185482 4:3.1158571 5:344.30307 8:257.36624 9:56.252693 11:20.176317 14:-17563.658 15:0.0073971138 16:44.439919 #
-100 3:4.551939 4:4.5563254 5:288.99753 8:514.61365 9:89.639931 11:30.40983 14:-26227.594 15:0.028694004 16:418.96072 #
-18.197945291259032 3:4.6074648 4:4.6116133 5:369.92242 8:460.11435 9:52.229809 11:19.283571 14:-34664.926 15:0.0056974292 16:45.436115 #
-90.981888606249584 3:4.1539578 4:4.1572566 5:178.55911 8:452.17004 9:73.203339 11:29.404886 14:-25952.539 15:0.032850549 16:287.72943 #
9.0473217642548978 3:5.586884 4:5.5771608 5:324.62592 8:375.05432 9:65.855499 11:29.8573 14:-43219.391 15:0.0032701369 16:120.44636 #
100 3:3.4677782 4:3.4467335 5:273.52094 8:135.76883 9:52.234478 11:17.445993 14:-19469.746 15:0.003147702 16:25.450705 #
23.81425299179816 3:5.6296935 4:5.6010823 5:526.60034 8:255.23605 9:49.116871 11:20.687807 14:-43767.734 15:0.0062394198 16:212.16777 #
-100 3:4.3587399 4:4.3629451 5:271.2243 8:356.06445 9:111.92461 11:56.685524 14:-26668.781 15:0.030259864 16:269.63141 #
100 3:4.0227413 4:4.0136762 5:426.61426 8:314.07071 9:49.267185 11:30.811598 14:-25413.127 15:0.005644076 16:53.097759 #
100 3:3.8480618 4:3.8451004 5:228.2634 8:227.78232 9:114.92005 11:54.252705 14:-19146.213 15:0.034441717 16:335.5524 #
100 3:4.2730479 4:4.2676535 5:467.66693 8:159.64018 9:69.840454 11:26.081057 14:-25911.344 15:0.0073556132 16:76.308693 #
100 3:4.9952307 4:4.9900198 5:580.37207 8:421.31497 9:98.588531 11:62.038105 14:-28553.467 15:0.029682927 16:488.9462 #
-100 3:8.1815376 4:8.0496759 5:1181.4902 8:686.78931 9:89.789383 11:29.988796 14:-54565.707 15:0.036529105 16:1230.3883 #
26.452589746215992 3:6.7045584 4:6.3740406 5:992.00208 8:379.22702 9:48.391415 11:22.021317 14:-40908.059 15:0.029597985 16:1070.7028 #
100 3:5.9043102 4:5.8924584 5:678.24957 8:592.82159 9:57.255287 11:28.085417 14:-41688.219 15:0.003108677 16:298.35895 #
100 3:4.798306 4:4.7623382 5:412.91241 8:293.02039 9:66.26548 11:23.842016 14:-32724.145 15:0.0054907752 16:117.95094 #
100 3:6.009604 4:6.0154881 5:641.75836 8:522.9234 9:47.18071 11:17.951338 14:-41574.16 15:0.035499789 16:1025.3983 #
-100 3:3.3406053 4:3.3413494 5:169.28175 8:266.99823 9:66.2285 11:35.408085 14:-18755.891 15:0.031508323 16:197.20198 #
100 3:5.6413813 4:5.6141353 5:583.9635 8:394.96579 9:112.04013 11:82.361984 14:-30794.023 15:0.0265167 16:396.49701 #
3.8673135769967351 3:23.374996 4:23.30509 5:3338.469 8:1595.6085 9:352.70151 11:262.5386 14:-153185.64 15:0.0057834848 16:907.57086 #
100 3:4.6333189 4:4.6372132 5:363.42975 8:417.90411 9:58.47654 11:25.61076 14:-33662.594 15:0.0040112301 16:59.686382 #
100 3:3.6646326 4:3.6493976 5:303.90695 8:182.40999 9:90.777008 11:39.324257 14:-17799.383 15:0.029081468 16:226.91904 #
-100 3:3.9345829 4:3.9059811 5:337.69727 8:363.65536 9:99.007843 11:47.025234 14:-22126.264 15:0.029566996 16:233.34097 #
-100 3:5.7323241 4:5.7337742 5:373.09979 8:447.366 9:49.743282 11:21.574617 14:-42743.359 15:0.004853602 16:55.508804 #
100 3:3.7795725 4:3.7819786 5:287.04407 8:339.78452 9:54.260735 11:26.36231 14:-25525.287 15:0.028420584 16:244.69614 #
-51.917626446278184 3:7.0023608 4:6.994 5:269.68091 8:383.75214 9:51.254993 11:15.807755 14:-44542.93 15:0.00409402 16:77.820076 #
100 3:4.116447 4:4.0408564 5:378.64255 8:347.99988 9:55.263241 11:32.619473 14:-25328.195 15:0.031185754 16:268.73334 #
-12.582352860138235 3:14.876929 4:14.574556 5:2163.1738 8:968.81232 9:117.72839 11:56.080887 14:-88251.039 15:0.032198619 16:2174.2356 #
-0.52362356573251878 3:1.2273233 4:1.2163248 5:106.81047 8:126.05421 9:23.508635 11:8.9406214 14:-4979.9219 15:0.024231402 16:16.743891 #
-100 3:3.7342253 4:3.7363751 5:263.82483 8:258.78317 9:93.925591 11:49.557961 14:-22031.328 15:0.030516028 16:219.94025 #
-100 3:4.0091739 4:4.0131006 5:270.30234 8:175.3941 9:107.21546 11:51.986385 14:-20399.707 15:0.029637402 16:242.39471 #
100 3:7.3074231 4:7.2997813 5:769.41486 8:589.02161 9:99.277184 11:48.88673 14:-54560.859 15:0.003785019 16:337.18167 #
-100 3:3.7026148 4:3.688488 5:307.97964 8:167.96159 9:69.787659 11:32.253498 14:-22507.172 15:0.0075846482 16:56.88195 #
100 3:4.1204991 4:4.1118145 5:438.61575 8:277.40894 9:63.79108 11:33.773312 14:-25512.193 15:0.037879106 16:330.55038 #
-100 3:3.9264324 4:3.929497 5:428.29922 8:354.01926 9:53.753624 11:23.209187 14:-24821.654 15:0.0061452091 16:33.582935 #
-100 3:3.5373266 4:3.5387106 5:265.89401 8:296.51657 9:77.182251 11:35.239307 14:-19080 15:0.032948613 16:233.55478 #
29.069735757636984 3:5.2358322 4:5.2398453 5:341.17227 8:355.9166 9:150.30502 11:116.37692 14:-20751.818 15:0.022345167 16:286.3309 #
-100 3:5.3756132 4:5.2892504 5:585.57721 8:422.17728 9:66.558014 11:27.136641 14:-36431.328 15:0.0073760659 16:110.76781 #
1.6853797807754665 3:16.25111 4:16.265394 5:1918.9319 8:1113.6097 9:249.62003 11:229.1086 14:-105477.34 15:0.0076180701 16:974.33459 #
100 3:3.460248 4:3.4298811 5:275.79102 8:300.11719 9:57.108212 11:19.638737 14:-19356.564 15:0.0071072108 16:48.820705 #
52.893996167628323 3:14.704638 4:14.708454 5:2048.7732 8:991.7572 9:183.4106 11:69.801636 14:-100043.12 15:0.0075673531 16:835.68127 #
-100 3:4.2322164 4:4.2362947 5:296.86935 8:246.71375 9:121.26865 11:52.766026 14:-20258.732 15:0.030843707 16:298.15799 #
-100 3:4.103415 4:4.1025124 5:275.45483 8:253.22183 9:132.64021 11:49.40044 14:-19228.084 15:0.030007038 16:270.4743 #
100 3:3.6678896 4:3.6689682 5:242.8761 8:352.47299 9:56.678226 11:19.40143 14:-22231.852 15:0.0075350702 16:54.315395 #
100 3:4.3956037 4:4.3892922 5:293.95193 8:388.62552 9:97.664536 11:53.357258 14:-26528.045 15:0.03104759 16:404.26492 #
-41.118476699197828 3:5.0561562 4:5.0581503 5:459.63293 8:653.49261 9:61.309681 11:23.958202 14:-34386.168 15:0.032748863 16:502.38925 #
-100 3:3.5940106 4:3.5750325 5:317.1377 8:269.62674 9:69.84375 11:30.478294 14:-22096.178 15:0.0046032509 16:34.155827 #
-100 3:4.0907288 4:4.0939455 5:424.81335 8:371.07901 9:70.535706 11:38.823242 14:-23600.857 15:0.0047240122 16:38.041283 #
-100 3:4.5150352 4:4.515542 5:435.58057 8:349.74625 9:51.237846 11:26.031282 14:-29437.33 15:0.0078056678 16:80.413559 #
100 3:5.5443168 4:5.5398316 5:535.63788 8:247.7298 9:111.2246 11:80.645355 14:-31900.965 15:0.0060558128 16:248.13844 #
100 3:4.3622446 4:4.3334579 5:237.47334 8:215.12782 9:113.33308 11:86.697632 14:-19289.389 15:0.019065615 16:194.31697 #
100 3:3.5054085 4:3.4916852 5:346.68622 8:349.58594 9:55.5345 11:19.596281 14:-20206.834 15:0.0029196059 16:25.345284 #
100 3:3.5236511 4:3.5261958 5:320.01462 8:250.55145 9:55.637436 11:18.392504 14:-21946.963 15:0.0048786812 16:39.432446 #
-100 3:4.8857059 4:4.7867217 5:579.84277 8:272.17264 9:64.5317 11:21.290977 14:-29694.158 15:0.031445663 16:638.84174 #
-100 3:3.550112 4:3.5266416 5:320.77051 8:250.64526 9:55.97403 11:28.385071 14:-21871.551 15:0.0049773059 16:34.958813 #
-39.552629904170736 3:4.0787439 4:4.0816169 5:385.30359 8:429.01059 9:56.376884 11:25.96879 14:-26029.006 15:0.007264582 16:60.67355 #
-0.51459685202591254 3:1.7246133 4:1.6816956 5:134.93608 8:58.814117 9:46.403 11:15.267843 14:-6775.6616 15:0.030618399 16:52.414455 #
-69.939084405926678 3:4.7286558 4:4.7282844 5:239.81276 8:502.2908 9:52.620796 11:19.889614 14:-33848.113 15:0.004456263 16:47.648415 #
-29.585873746414389 3:6.189537 4:6.1943517 5:428.27173 8:362.23907 9:57.647713 11:19.953943 14:-45135.395 15:0.0063418229 16:119.5635 #
26.554783364734426 3:6.827683 4:6.827776 5:747.10791 8:713.30548 9:126.22396 11:84.103012 14:-40495.578 15:0.0072866762 16:163.20914 #
100 3:4.3915544 4:4.3262496 5:376.42688 8:494.95172 9:51.744133 11:18.638617 14:-31033.158 15:0.0059015639 16:49.366432 #
-24.827897505179138 3:8.3498993 4:8.2598476 5:1274.9603 8:861.17645 9:72.624046 11:22.137609 14:-55284.59 15:0.0072047971 16:260.38751 #
11.963021974081064 3:12.31054 4:12.307109 5:1629.3805 8:827.09113 9:100.82764 11:67.408974 14:-90458.438 15:0.0086036092 16:618.89197 #
-100 3:3.257936 4:3.260752 5:210.61546 8:275.33923 9:45.125832 11:22.04281 14:-20527.525 15:0.0044182441 16:24.819883 #
-4.5365763392754843 3:4.5732212 4:4.5607395 5:428.59183 8:399.43744 9:53.218193 11:22.505899 14:-33051.477 15:0.028204806 16:536.07635 #
-51.721225642707253 3:6.9198303 4:6.9153423 5:844.69989 8:376.35303 9:62.554665 11:35.123516 14:-42555.586 15:0.024485629 16:442.58508 #
100 3:4.0916114 4:4.0672498 5:246.85243 8:298.92126 9:78.510231 11:35.515278 14:-21784.01 15:0.0046286709 16:41.584858 #
100 3:5.0202122 4:5.0223036 5:471.22473 8:380.59976 9:134.36195 11:81.382889 14:-21977.434 15:0.0058126212 16:158.46307 #
-100 3:6.4362493 4:6.4265842 5:705.58282 8:586.65271 9:130.03156 11:91.490692 14:-39133.117 15:0.0071429019 16:157.69844 #
-57.131182705250389 3:5.2132964 4:5.2183785 5:335.69141 8:487.66202 9:81.707779 11:34.019855 14:-36412.242 15:0.032552443 16:503.91949 #
-100 3:5.2917471 4:5.2842517 5:566.51038 8:332.69553 9:92.255989 11:51.678211 14:-31192.875 15:0.032332152 16:397.97665 #
29.966826213937821 3:8.3625479 4:8.3216934 5:1082.9336 8:896.13562 9:67.249115 11:22.550247 14:-58680.953 15:0.035447031 16:1378.1298 #
-61.858674709823447 3:4.2798524 4:4.2835679 5:257.31927 8:333.98108 9:47.557644 11:20.993221 14:-29073.199 15:0.0027023021 16:24.219543 #
-100 3:4.1401315 4:3.9798882 5:485.94507 8:280.97101 9:60.559479 11:27.612106 14:-26541.643 15:0.004701592 16:37.148315 #
11.821630175392531 3:7.4385638 4:7.4424791 5:850.99933 8:736.53253 9:50.721245 11:23.495304 14:-56527.539 15:0.035716444 16:1355.6685 #
-100 3:4.2068272 4:4.1957231 5:298.23172 8:335.86041 9:111.36985 11:52.576378 14:-23281.691 15:0.029807182 16:255.51524 #
-9.1832517874989392 3:6.6023912 4:6.5073795 5:918.02014 8:573.91168 9:83.383568 11:27.261532 14:-43695.941 15:0.034575339 16:951.40857 #
-6.4147508888462994 3:5.96279 4:5.9686027 5:689.13959 8:467.35489 9:72.090218 11:23.713242 14:-38830.738 15:0.0063039302 16:135.02975 #
100 3:3.2185581 4:3.221499 5:312.20883 8:232.2099 9:56.794285 11:25.4701 14:-18836.553 15:0.0048081418 16:30.99225 #
-37.354289074119663 3:4.6426697 4:4.5231471 5:614.16272 8:282.96863 9:88.902107 11:36.849899 14:-22497.744 15:0.030212991 16:324.04797 #
-1.1383575332534077 3:8.9424582 4:8.6706352 5:1310.5873 8:667.06744 9:64.552086 11:26.453522 14:-57395.168 15:0.0073191011 16:300.3414 #
-33.631394724212214 3:3.5753694 4:3.5780189 5:98.741852 8:160.38658 9:85.257393 11:46.227917 14:-17132.799 15:0.030135155 16:205.55499 #
100 3:3.2901239 4:3.2884064 5:342.54697 8:293.8638 9:58.834068 11:18.523869 14:-19195.453 15:0.0074975672 16:48.868126 #
-22.619044357284082 3:6.1955504 4:6.1901221 5:701.82428 8:518.72675 9:90.449989 11:40.522366 14:-39091.008 15:0.032619409 16:568.16846 #
100 3:4.1323519 4:4.1036196 5:385.82584 8:182.1429 9:121.2429 11:64.976868 14:-19200.75 15:0.03169807 16:294.45483 #
-100 3:3.6585941 4:3.6093392 5:372.6196 8:243.24149 9:59.328773 11:30.901108 14:-20436.969 15:0.0039518452 16:33.374905 #
63.631923350320861 3:5.598249 4:5.587955 5:654.39655 8:325.83881 9:78.658623 11:49.842472 14:-36468.301 15:0.03646085 16:782.02472 #
100 3:3.9261599 4:3.9098308 5:278.42548 8:253.92532 9:93.667473 11:63.660583 14:-19316.43 15:0.023008235 16:293.2713 #
8.7538238155054984 3:12.01451 4:11.931678 5:1841.6842 8:1051.4377 9:67.080254 11:28.43508 14:-85617.859 15:0.031987011 16:2521.4124 #
100 3:4.2132583 4:4.1775055 5:510.91263 8:277.16074 9:55.062897 11:20.321764 14:-26260.498 15:0.0050537819 16:37.7332 #
-64.637753294703344 3:4.1881967 4:4.1887851 5:215.10159 8:247.24348 9:133.08569 11:81.863617 14:-16316.642 15:0.0068024648 16:63.043545 #
-81.468793957626076 3:4.9885249 4:4.9511681 5:506.73956 8:328.80927 9:67.163414 11:33.114063 14:-34025.039 15:0.0061896341 16:69.099396 #
-6.9104851495705706 3:2.9165807 4:2.9083042 5:309.03726 8:231.01738 9:44.303493 11:17.259558 14:-17999.576 15:0.0041370182 16:20.728565 #
-11.457416882134773 3:4.9440479 4:4.9428654 5:463.19739 8:271.47772 9:74.444298 11:27.90147 14:-32827.668 15:0.0066550798 16:89.336899 #
-100 3:4.4611444 4:4.4642158 5:402.20425 8:517.49744 9:59.756523 11:22.898506 14:-31386.611 15:0.001953522 16:70.155975 #
-100 3:4.3231583 4:4.3107071 5:325.27798 8:245.47783 9:133.4026 11:52.416225 14:-20300.744 15:0.029727418 16:293.53125 #
100 3:3.4959855 4:3.4844186 5:200.1048 8:151.82642 9:120.85953 11:54.860523 14:-15153.628 15:0.030888604 16:252.60925 #
100 3:4.7273769 4:4.7313323 5:362.09198 8:474.82236 9:86.773193 11:50.310249 14:-27679.109 15:0.0025222211 16:92.343124 #
100 3:3.9307609 4:3.9307384 5:394.66437 8:287.74414 9:92.154274 11:49.903904 14:-22164.717 15:0.026972683 16:228.99811 #
-100 3:5.7890949 4:5.7196813 5:492.36737 8:483.36063 9:77.897781 11:31.107265 14:-37743.422 15:0.031609297 16:628.9408 #
100 3:5.2556615 4:5.257916 5:503.61621 8:343.96945 9:85.956863 11:32.566536 14:-33556.832 15:0.002255141 16:240.11676 #
100 3:3.6388884 4:3.6412365 5:278.30878 8:303.13763 9:97.855186 11:54.508423 14:-17762.459 15:0.035454471 16:298.73993 #
-33.941048920635978 3:3.7482755 4:3.750797 5:201.52687 8:364.15335 9:55.290096 11:25.002691 14:-23925.053 15:0.033180635 16:269.8598 #
100 3:3.9961298 4:3.9914596 5:236.50598 8:491.46664 9:65.490906 11:33.865864 14:-25236.453 15:0.0044602752 16:43.593044 #
1.5348972824623786 3:8.6383677 4:8.6438417 5:1099.4774 8:980.97656 9:84.634537 11:38.792881 14:-57112.742 15:0.007304919 16:265.59866 #
-36.994220480922174 3:3.39572 4:3.3935583 5:268.11673 8:250.9012 9:62.398907 11:26.713833 14:-21842.068 15:0.0040306821 16:35.044357 #
-100 3:4.1714644 4:4.1636348 5:270.35645 8:294.97855 9:135.84558 11:59.309116 14:-18624.531 15:0.030299544 16:270.85068 #
-100 3:4.7736917 4:4.7284393 5:491.41907 8:387.01929 9:118.97339 11:60.946491 14:-26551.924 15:0.0072383662 16:87.979782 #
-100 3:3.5997832 4:3.6016119 5:308.16736 8:358.69275 9:58.15612 11:29.011957 14:-21993.221 15:0.0046633501 16:40.809601 #
100 3:4.7421174 4:4.7462101 5:342.09732 8:233.39357 9:144.73781 11:92.38958 14:-19064.482 15:0.0046297889 16:177.2876 #
100 3:3.724179 4:3.7213054 5:250.23454 8:237.77312 9:54.149479 11:19.173063 14:-21005.76 15:0.0072716591 16:57.092838 #
100 3:3.5301998 4:3.5330842 5:234.1826 8:342.48215 9:84.636734 11:43.918873 14:-18894.832 15:0.022774635 16:203.37729 #
100 3:4.0638032 4:4.0623298 5:455.28391 8:335.33084 9:89.142822 11:43.893734 14:-21823.795 15:0.031073792 16:291.01492 #
-46.538611446116846 3:4.3973923 4:4.3833127 5:303.02274 8:311.77045 9:127.7497 11:79.113274 14:-18875.881 15:0.0071401568 16:72.655846 #
-100 3:5.3677688 4:5.33848 5:612.39709 8:395.37344 9:85.170181 11:23.968157 14:-34108.473 15:0.033250786 16:705.99133 #
-100 3:4.6558037 4:4.6560488 5:538.30908 8:397.42987 9:81.624092 11:46.562992 14:-28835.604 15:0.034105331 16:395.39438 #
-56.605516231274962 3:3.5579367 4:3.5592644 5:344.65631 8:268.18875 9:61.939049 11:39.396111 14:-21524.486 15:0.033644848 16:250.37363 #
100 3:3.1507413 4:3.1509888 5:203.75723 8:243.66501 9:67.492432 11:28.910961 14:-18944.143 15:0.004556763 16:28.945461 #
100 3:5.8454852 4:5.8427892 5:693.71539 8:635.89648 9:69.355888 11:50.260307 14:-38699.949 15:0.0030113929 16:133.7729 #
-7.8108718209941799 3:3.6254504 4:3.6289563 5:113.15372 8:176.16522 9:125.96605 11:48.397842 14:-15585.743 15:0.028410351 16:202.2578 #
-100 3:5.4254494 4:5.4223123 5:605.42072 8:252.58377 9:92.40107 11:49.612274 14:-32263.139 15:0.0061827181 16:98.725906 #
-100 3:3.8189204 4:3.8144734 5:442.30807 8:342.84988 9:67.730728 11:29.609949 14:-22484.939 15:0.003710554 16:29.322229 #
-100 3:3.1428983 4:3.1446128 5:268.47507 8:163.32649 9:54.257889 11:26.510096 14:-17421.703 15:0.0054097711 16:33.528957 #
-100 3:3.515594 4:3.5189271 5:267.96188 8:255.48482 9:58.073601 11:29.039059 14:-22195.225 15:0.0063008461 16:46.737099 #
-100 3:4.2032118 4:4.2038598 5:356.23608 8:299.08664 9:77.309433 11:41.759544 14:-25758.781 15:0.004430634 16:35.013363 #
-34.656397724099016 3:8.9400768 4:8.9474316 5:895.2998 8:697.11389 9:226.24516 11:157.05573 14:-44478.391 15:0.0072634281 16:291.50967 #
-100 3:3.9797101 4:3.9699132 5:297.59384 8:271.29984 9:125.2224 11:55.353825 14:-18636.707 15:0.031057835 16:265.52014 #
100 3:4.2343602 4:4.2202511 5:322.42603 8:437.85123 9:63.309811 11:41.452282 14:-27136.594 15:0.025248462 16:413.36087 #
-100 3:4.2746248 4:4.2787251 5:296.94183 8:356.59818 9:143.05003 11:54.182796 14:-18750.281 15:0.030294059 16:268.91827 #
100 3:4.3689713 4:4.3245997 5:442.94131 8:419.97815 9:51.499046 11:19.107964 14:-30693.787 15:0.028964724 16:587.50189 #
100 3:3.4100616 4:3.4033477 5:284.94296 8:349.75748 9:76.532356 11:38.779972 14:-18630.676 15:0.021840263 16:178.89217 #
-100 3:5.6498084 4:5.5845585 5:621.20239 8:216.81465 9:122.67214 11:56.465729 14:-27646.668 15:0.03263871 16:490.58948 #
-100 3:5.7927165 4:5.7837 5:615.63763 8:316.56119 9:103.32063 11:40.047348 14:-37102.926 15:0.015377788 16:186.08969 #
100 3:3.4814188 4:3.4773452 5:129.26007 8:218.96397 9:77.930748 11:40.824562 14:-18769.662 15:0.025038432 16:189.16896 #
-100 3:4.1232476 4:4.1268125 5:188.68846 8:194.44148 9:149.66667 11:57.161884 14:-14169.436 15:0.027111974 16:220.91129 #
61.84231389616577 3:6.8994951 4:6.8057747 5:845.17493 8:448.09683 9:86.879425 11:44.832066 14:-46542.266 15:0.01792689 16:1133.2318 #
-100 3:3.9421833 4:3.8875482 5:434.59586 8:280.89368 9:57.290806 11:33.21405 14:-24415.42 15:0.00497287 16:44.896671 #
100 3:3.4743276 4:3.4751711 5:229.66052 8:326.87341 9:61.938622 11:19.021702 14:-21670.416 15:0.0029323101 16:20.760275 #
-50.338724790914867 3:5.8147826 4:5.8200946 5:462.52689 8:617.72949 9:134.39966 11:46.83997 14:-37349.719 15:0.027963839 16:495.03131 #
1.5676869107752918 3:15.151564 4:14.924986 5:1862.6924 8:547.35986 9:411.31317 11:240.43327 14:-71199.539 15:0.0055166101 16:413.6196 #
-100 3:3.9517262 4:3.9398279 5:248.74846 8:278.29517 9:115.57516 11:53.81208 14:-20554.162 15:0.026941562 16:224.92642 #
100 3:6.6375833 4:6.619576 5:855.69562 8:575.49561 9:68.882065 11:28.037924 14:-46817.055 15:0.0066571012 16:386.74527 #
100 3:4.5965981 4:4.5913653 5:333.89774 8:214.86519 9:134.6786 11:66.543022 14:-20633.131 15:0.0040610312 16:49.512028 #
-100 3:3.4341867 4:3.4353583 5:264.22293 8:280.07596 9:80.522202 11:36.805477 14:-18309.246 15:0.032467365 16:223.80444 #
-1.0009188528953672 3:2.2551177 4:2.1387854 5:323.6752 8:116.36095 9:32.381645 11:12.530106 14:-10486.131 15:0.027953463 16:64.606071 #
-100 3:4.3636312 4:4.3547196 5:456.29837 8:189.92259 9:66.73484 11:32.213638 14:-27954.859 15:0.0048206551 16:42.817543 #
6.628659449769259 3:5.2168822 4:5.1828742 5:559.73248 8:433.89111 9:70.354996 11:24.672518 14:-35774.02 15:0.02554946 16:811.65454 #
-100 3:3.942682 4:3.93679 5:362.16574 8:309.16699 9:96.010864 11:45.166927 14:-21335.227 15:0.031706277 16:250.32625 #
100 3:3.534879 4:3.5347037 5:244.21381 8:239.62315 9:110.25705 11:58.414436 14:-16751.906 15:0.033340015 16:288.93518 #
87.085888675007766 3:4.7301536 4:4.6778483 5:631.65552 8:483.15704 9:50.296188 11:20.183609 14:-30274.123 15:0.025562678 16:645.04321 #
-100 3:4.7792258 4:4.6693959 5:585.5202 8:492.34534 9:66.895874 11:26.971897 14:-30907.428 15:0.032346889 16:504.39783 #
100 3:3.8244596 4:3.8186197 5:270.43127 8:283.56183 9:54.529949 11:20.182068 14:-21880.889 15:0.0073713982 16:59.234295 #
100 3:3.831296 4:3.7833798 5:387.5264 8:246.18687 9:51.461525 11:21.712347 14:-24264.107 15:0.0065947282 16:52.019985 #
22.009911668570538 3:6.6914601 4:6.6674905 5:673.0061 8:605.51965 9:53.627651 11:23.867437 14:-54020.633 15:0.003795417 16:134.5477 #
-100 3:5.7432384 4:5.7045989 5:647.82361 8:531.26776 9:62.774254 11:24.812771 14:-42822.227 15:0.018662807 16:179.38144 #
100 3:3.8182011 4:3.8197896 5:288.5578 8:333.56122 9:103.95303 11:52.199974 14:-18291.494 15:0.034802113 16:309.30881 #
-100 3:4.8763795 4:4.880753 5:515.90448 8:311.71683 9:49.724976 11:17.084503 14:-30405.016 15:0.034263432 16:563.41711 #
100 3:4.1896019 4:4.164444 5:430.98508 8:217.60822 9:83.495125 11:58.003761 14:-23624.795 15:0.0071534519 16:63.986683 #
-100 3:4.4163718 4:4.4037232 5:312.04807 8:313.09702 9:127.2982 11:77.203239 14:-19085.393 15:0.0071451711 16:72.911407 #
100 3:2.9332988 4:2.9272761 5:206.83563 8:211.32738 9:61.362656 11:26.7418 14:-17064.645 15:0.0046328069 16:26.226854 #
-100 3:13.998798 4:13.991331 5:2010.7952 8:884.00018 9:122.55484 11:38.501369 14:-91134.852 15:0.0067471918 16:718.04718 #
-0.21884095503601242 3:12.440208 4:12.397793 5:1847.3322 8:1095.7917 9:86.624519 11:49.382004 14:-89825.828 15:0.0075933109 16:424.12833 #
2.2462205202335062 3:18.670259 4:18.686798 5:937.71338 8:697.18732 9:605.6687 11:500.04739 14:-49105.496 15:0.0083895596 16:1263.896 #
-100 3:4.3469834 4:4.3483462 5:385.88828 8:349.75266 9:67.907265 11:34.388252 14:-27244.771 15:0.034498356 16:327.42386 #
-6.9177783399581152 3:12.621877 4:12.495165 5:1917.7255 8:695.2879 9:78.388123 11:34.689064 14:-85855.641 15:0.0068147331 16:638.92804 #
-100 3:4.4814415 4:4.4846339 5:338.32663 8:393.3927 9:52.824593 11:19.67725 14:-31851.914 15:0.00308181 16:29.380732 #
-100 3:3.1618345 4:3.154042 5:279.41846 8:295.54114 9:47.336067 11:23.258398 14:-20004.908 15:0.0041875578 16:26.445717 #
100 3:4.558259 4:4.5092807 5:525.9505 8:333.73636 9:49.344414 11:31.918877 14:-30571.039 15:0.035232615 16:339.50491 #
-100 3:5.7415385 4:5.746664 5:572.72156 8:470.4455 9:78.933746 11:29.905373 14:-38154.234 15:0.034906033 16:852.27075 #
100 3:3.3220818 4:3.3223643 5:307.24588 8:236.4174 9:54.237888 11:21.387655 14:-19130.029 15:0.0072052269 16:44.759174 #
-16.978131896146969 3:8.4147921 4:8.4119644 5:1168.9738 8:817.72382 9:67.041702 11:32.688087 14:-56597.949 15:0.033653162 16:1021.3427 #
-100 3:5.1949983 4:5.197227 5:508.63309 8:615.7547 9:58.36932 11:20.739904 14:-38977.145 15:0.0067381999 16:101.40688 #
100 3:3.8405099 4:3.844229 5:255.64459 8:301.16382 9:107.33205 11:52.023338 14:-19997.051 15:0.034618162 16:332.6857 #
-10.537426902030115 3:12.011366 4:11.898775 5:1850.6045 8:713.59814 9:87.013535 11:39.742504 14:-76442.93 15:0.006146872 16:323.16602 #
41.459833655744852 3:7.2555132 4:7.1804104 5:829.11957 8:301.71588 9:125.80427 11:65.398361 14:-46630.125 15:0.0068967631 16:359.05786 #
32.751987501829319 3:4.9649105 4:4.9462166 5:239.51654 8:414.30084 9:109.57992 11:55.300835 14:-30848.664 15:0.015792893 16:483.6395 #
100 3:4.9440894 4:4.8896146 5:683.06097 8:353.83685 9:78.276497 11:33.516247 14:-32051.076 15:0.0064028269 16:67.574738 #
100 3:3.3911071 4:3.3834479 5:273.72562 8:174.7888 9:65.346161 11:26.641233 14:-19692.256 15:0.0047167861 16:29.802713 #
100 3:3.5739968 4:3.5461304 5:414.31116 8:267.25195 9:64.047585 11:27.145348 14:-19788.928 15:0.0036646959 16:77.908279 #
100 3:3.3799341 4:3.3824263 5:152.68776 8:256.13019 9:66.216057 11:28.347692 14:-19992.82 15:0.0043183202 16:76.41391 #
-100 3:4.1746058 4:4.1570454 5:313.16559 8:240.40198 9:126.46163 11:55.178356 14:-19610.678 15:0.030470455 16:277.98584 #
10.241448443810331 3:14.982823 4:14.864026 5:2102.3005 8:1633.8267 9:199.38472 11:83.872673 14:-98490.773 15:0.02958666 16:2671.6348 #
100 3:5.4130521 4:5.4175529 5:500.97839 8:539.20074 9:119.57191 11:70.3396 14:-31164.395 15:0.0045820619 16:185.55301 #
-100 3:4.5271492 4:4.5295434 5:359.92252 8:435.15799 9:41.792713 11:20.7791 14:-30638.172 15:0.026575748 16:439.3486 #
-100 3:3.1150336 4:3.1044812 5:335.48624 8:212.69865 9:41.032509 11:21.026741 14:-19606.375 15:0.00341549 16:26.214052 #
100 3:4.1145563 4:4.0460105 5:388.42657 8:386.53656 9:79.058289 11:52.706711 14:-25110.859 15:0.036789302 16:400.32794 #
-100 3:4.3179703 4:4.3221807 5:327.33838 8:257.0759 9:97.170464 11:49.403114 14:-22845.051 15:0.029328343 16:288.37146 #
100 3:3.8477714 4:3.8513026 5:355.62106 8:206.27467 9:47.186386 11:24.164934 14:-24435.26 15:0.0045962129 16:42.588749 #
-8.5852681088222944 3:13.295818 4:13.300077 5:1917.1361 8:1109.4609 9:69.905464 11:39.266544 14:-91579.5 15:0.0067260652 16:367.75931 #
100 3:4.6202316 4:4.6228766 5:432.75104 8:480.54126 9:54.593285 11:19.961472 14:-30502.377 15:0.001979514 16:117.44149 #
-28.176905954714314 3:5.2922196 4:5.288672 5:250.62856 8:267.44849 9:58.516335 11:20.583935 14:-35809.168 15:0.033456881 16:464.97104 #
-0.79812641883184732 3:6.5048966 4:6.4349957 5:850.94971 8:449.13101 9:70.149071 11:30.564789 14:-42841.875 15:0.032586448 16:737.8894 #
100 3:3.2357383 4:3.2353184 5:274.00668 8:221.47981 9:58.358818 11:28.231461 14:-20226.711 15:0.0070630019 16:40.673561 #
100 3:3.5188406 4:3.4990046 5:366.92371 8:188.99934 9:59.514606 11:19.428268 14:-19680.436 15:0.0074021779 16:50.318592 #
-100 3:3.3028328 4:3.3058846 5:267.36307 8:178.95024 9:46.510326 11:21.600283 14:-19779.432 15:0.0039145788 16:20.387514 #
-100 3:4.7422709 4:4.70889 5:401.07095 8:285.54828 9:129.20615 11:60.034409 14:-24243.906 15:0.029734902 16:312.8277 #
100 3:3.7404966 4:3.7417116 5:138.89128 8:320.51852 9:80.415375 11:49.009426 14:-20906.457 15:0.002916612 16:45.149624 #
100 3:4.2671952 4:4.2608089 5:303.9696 8:418.84225 9:64.039177 11:42.644268 14:-26689.705 15:0.019963725 16:377.5051 #
100 3:3.9559562 4:3.9597342 5:349.99246 8:243.98013 9:72.754517 11:38.200874 14:-23564.268 15:0.037212566 16:311.98517 #
-100 3:4.7942924 4:4.7962046 5:566.53284 8:364.86807 9:92.791916 11:57.038338 14:-26347.799 15:0.028340876 16:279.33514 #
19.201846310756771 3:7.9871159 4:7.9931288 5:1079.9729 8:814.38007 9:63.285851 11:20.328348 14:-50527.645 15:0.036348112 16:1382.5776 #
-69.359437087238575 3:3.6003089 4:3.5753663 5:311.08093 8:206.72511 9:73.133614 11:33.490849 14:-19870.77 15:0.003854692 16:29.967726 #
-9.1948711961660337 3:8.7822018 4:8.3664684 5:1403.0551 8:615.09222 9:76.328606 11:40.29953 14:-52711.41 15:0.03122454 16:925.36176 #
-46.494242960373185 3:5.0559387 4:5.0443864 5:556.20776 8:343.26923 9:122.55431 11:52.947075 14:-28550.352 15:0.032888088 16:417.51047 #
-100 3:3.9741197 4:3.9780116 5:252.37651 8:301.1304 9:86.723289 11:44.717537 14:-19982.738 15:0.028363679 16:224.33818 #
-100 3:7.1521702 4:7.0745678 5:927.77411 8:625.65851 9:96.321938 11:35.133251 14:-47391.352 15:0.035724796 16:1014.5756 #
100 3:4.7837925 4:4.778955 5:350.04053 8:432.95877 9:86.869125 11:51.294857 14:-30167.107 15:0.030855609 16:440.60571 #
100 3:5.0573058 4:5.0619769 5:390.62585 8:221.52296 9:81.389359 11:59.762379 14:-30358.33 15:0.0060043479 16:124.19499 #
100 3:3.3070986 4:3.3063412 5:349.04678 8:285.60864 9:52.578732 11:18.57869 14:-19791.699 15:0.0074863108 16:49.039047 #
-100 3:4.8033109 4:4.8074665 5:338.20139 8:234.7477 9:91.285034 11:40.38612 14:-30420.08 15:0.022302207 16:232.72243 #
-100 3:5.2737093 4:5.2625504 5:564.5705 8:341.0766 9:96.84063 11:53.34803 14:-31619.021 15:0.031887475 16:391.3439 #
-8.758167868308071 3:3.584446 4:3.5799649 5:400.41574 8:313.93945 9:59.781437 11:26.521065 14:-19626.447 15:0.0042209518 16:28.113962 #
31.290785492314136 3:7.2846189 4:7.1719613 5:948.82056 8:895.6167 9:61.022137 11:23.494236 14:-51083.246 15:0.033227187 16:1318.208 #
100 3:4.7478604 4:4.7521882 5:423.36865 8:451.41446 9:78.418869 11:43.562317 14:-30333.281 15:0.022371711 16:255.91492 #
-16.628347516809718 3:7.6585317 4:7.5750866 5:950.75232 8:675.27966 9:96.815399 11:36.590549 14:-44143.91 15:0.034435384 16:1189.5063 #
-93.167790433420549 3:5.5100961 4:5.4959588 5:580.96643 8:559.72095 9:55.024654 11:20.808706 14:-38827.465 15:0.003128469 16:49.70351 #
-85.179683373388229 3:5.3083391 4:5.3026328 5:465.49811 8:614.9386 9:120.15938 11:50.302807 14:-31521.975 15:0.029517299 16:447.3844 #
100 3:5.0842595 4:5.0221739 5:570.58923 8:272.1955 9:103.2359 11:56.417133 14:-27919.834 15:0.006756586 16:81.602562 #
-89.673713035774284 3:5.4367809 4:5.4356899 5:301.05222 8:309.45114 9:78.292862 11:30.901154 14:-38029.309 15:0.021403095 16:257.89954 #
100 3:3.656143 4:3.6583993 5:169.85284 8:312.16058 9:95.565933 11:55.819084 14:-18856.543 15:0.029958464 16:260.10355 #
-100 3:4.6478901 4:4.6520238 5:390.42874 8:399.8598 9:93.010651 11:51.959145 14:-30601.432 15:0.026648592 16:297.51865 #
100 3:5.4327927 4:5.4255924 5:554.22473 8:345.63763 9:54.864765 11:21.493837 14:-40083.828 15:0.01952425 16:677.66034 #
-100 3:3.6350193 4:3.6385806 5:310.09454 8:342.40152 9:58.232594 11:28.261648 14:-22854.053 15:0.004553197 16:35.521824 #
100 3:4.7282243 4:4.6546907 5:594.45935 8:427.94156 9:51.008904 11:30.973333 14:-31341.563 15:0.029890409 16:296.0206 #
100 3:4.3625898 4:4.3522449 5:331.50488 8:360.37711 9:50.148014 11:19.633852 14:-31276.609 15:0.025545722 16:528.7052 #
-100 3:4.2372403 4:4.241313 5:263.05014 8:317.38058 9:93.892082 11:55.036793 14:-26686.045 15:0.021643449 16:225.08965 #
100 3:8.5506573 4:8.4081268 5:1288.6548 8:446.91696 9:101.44865 11:55.661415 14:-53075.102 15:0.035630722 16:1241.8826 #
-9.896686194763209 3:9.4804878 4:9.2741146 5:1393.907 8:464.15793 9:97.624672 11:36.732025 14:-52664.551 15:0.028196562 16:706.83893 #
100 3:4.8452687 4:4.8492966 5:512.7962 8:402.64157 9:79.185127 11:40.481647 14:-31133.311 15:0.023968179 16:258.92206 #
-63.601728279874415 3:7.2350674 4:7.1849561 5:744.13989 8:551.34619 9:71.279289 11:39.711117 14:-46627.336 15:0.0065378421 16:151.11676 #
100 3:5.5982599 4:5.515842 5:526.20978 8:244.65898 9:133.61101 11:80.611938 14:-31111.875 15:0.015848061 16:387.41357 #
-76.046752492369222 3:5.0993633 4:5.1042962 5:475.38962 8:516.04041 9:48.979939 11:21.79442 14:-35619.789 15:0.0044946428 16:52.186985 #
0.13919070704037084 3:11.637087 4:11.447302 5:1567.4073 8:1243.6259 9:100.37225 11:60.100941 14:-87403.344 15:0.036254905 16:2381.167 #
-100 3:4.5431781 4:4.5473218 5:395.26031 8:501.2522 9:55.355408 11:22.101202 14:-31248.611 15:0.032618601 16:504.89532 #
-100 3:5.3102078 4:5.3153582 5:345.17813 8:373.953 9:132.45473 11:78.373604 14:-31392.256 15:0.02209405 16:282.18863 #
100 3:4.6987858 4:4.7033596 5:431.50922 8:226.97914 9:68.567841 11:38.631409 14:-30062.037 15:0.033479027 16:559.07397 #
100 3:4.2209492 4:4.1565456 5:384.68314 8:318.80405 9:82.305519 11:34.60976 14:-27758.982 15:0.01254828 16:475.55026 #
-100 3:3.936379 4:3.9339232 5:266.89105 8:362.06091 9:79.900497 11:37.8344 14:-23951.795 15:0.031208886 16:248.86087 #
100 3:5.2796693 4:5.2680259 5:452.67395 8:446.72449 9:95.112976 11:39.273792 14:-38603.336 15:0.003282795 16:147.89493 #
100 3:4.6070685 4:4.6109314 5:370.87372 8:552.30603 9:54.753555 11:19.778948 14:-31458.27 15:0.002464399 16:34.603832 #
-100 3:4.8594236 4:4.8088274 5:482.11914 8:241.25677 9:127.31008 11:47.159496 14:-22702.688 15:0.028936202 16:376.86539 #
100 3:4.7895589 4:4.761004 5:534.83405 8:488.24918 9:83.27713 11:47.892605 14:-29890.756 15:0.019365555 16:200.74472 #
-0.81511235621957923 3:4.807034 4:4.8114367 5:386.58029 8:291.15674 9:109.56786 11:51.295368 14:-28699.637 15:0.02344799 16:239.28648 #
100 3:4.233562 4:4.1225753 5:482.36905 8:373.89835 9:84.529343 11:53.143532 14:-25653.242 15:0.037488308 16:420.18341 #
100 3:6.5211806 4:6.3710017 5:902.16602 8:551.73474 9:99.481995 11:42.299179 14:-43659.727 15:0.026512654 16:1060.2345 #
-27.075397687135631 3:3.6696079 4:3.6684599 5:143.07892 8:264.58047 9:77.815529 11:37.408943 14:-19486.959 15:0.031939149 16:223.66991 #
100 3:4.7712817 4:4.7421927 5:513.17084 8:509.03168 9:50.604973 11:22.167253 14:-31629.18 15:0.003596521 16:35.816811 #
65.566192540143916 3:6.4270997 4:6.4312119 5:350.42102 8:506.6767 9:141.59117 11:78.845093 14:-40740.508 15:0.003125086 16:199.17143 #
100 3:8.0263062 4:7.8642235 5:1244.8231 8:775.88434 9:60.936382 11:20.39439 14:-53066.242 15:0.036071885 16:1319.114 #
100 3:4.9263062 4:4.9310217 5:371.92624 8:492.72733 9:91.344299 11:45.268936 14:-31630.082 15:0.02191118 16:268.69867 #
100 3:4.4957647 4:4.4722619 5:496.48264 8:317.36212 9:51.299313 11:17.2334 14:-31600.266 15:0.006046697 16:55.024017 #
-100 3:3.8359456 4:3.8340068 5:236.50371 8:197.88452 9:88.046989 11:49.891937 14:-22494.277 15:0.021610137 16:187.4086 #
-70.488669947391131 3:4.0015478 4:4.0001836 5:409.88171 8:266.46426 9:53.691505 11:23.631014 14:-24287.396 15:0.0030751789 16:24.481457 #
3.6008377293399967 3:13.783985 4:13.639884 5:1937.1461 8:720.883 9:316.10342 11:180.22037 14:-72275.727 15:0.0056818132 16:466.01129 #
-33.033894039450132 3:3.4037328 4:3.403348 5:324.76465 8:182.87682 9:48.331825 11:19.867575 14:-20800.141 15:0.004922953 16:28.196056 #
100 3:4.5366917 4:4.5100136 5:351.51044 8:306.27747 9:88.347839 11:61.962067 14:-27486.854 15:0.032946948 16:349.17639 #
-0.76541112356993435 3:12.097706 4:12.078632 5:1616.2196 8:991.26221 9:136.26073 11:49.505024 14:-81670.68 15:0.035139829 16:1780.9807 #
4.547404958173253 3:10.737555 4:10.746003 5:1219.5503 8:710.04083 9:184.77213 11:154.77434 14:-63310.539 15:0.0063980818 16:427.15839 #
2.3151233057733904 3:5.9426804 4:5.9442654 5:431.18845 8:334.49976 9:71.124939 11:40.922245 14:-44088.016 15:0.02391663 16:922.70178 #
11.93136574867785 3:14.578999 4:14.447635 5:2147.9333 8:1310.8149 9:212.823 11:99.818176 14:-99518.719 15:0.024782583 16:2750.7681 #
-28.448490211629462 3:6.0517869 4:6.0060015 5:807.12708 8:508.59787 9:76.082138 11:28.33869 14:-42024.996 15:0.033831514 16:879.69427 #
100 3:3.1797035 4:3.1798203 5:264.89465 8:216.33661 9:55.758072 11:28.057318 14:-19790.723 15:0.007056721 16:40.129631 #
-100 3:3.9263287 4:3.9114037 5:415.18481 8:194.42592 9:85.235947 11:60.868553 14:-19743.006 15:0.028108897 16:227.66901 #
-100 3:4.2024331 4:4.2042432 5:452.71585 8:296.38123 9:74.181427 11:28.032145 14:-26438.373 15:0.0048793019 16:37.16766 #
-20.426310324058171 3:4.5579596 4:4.5198293 5:613.53009 8:239.71989 9:59.368767 11:24.152506 14:-27175.012 15:0.003955917 16:43.49683 #
-83.742539982650669 3:4.9542394 4:4.9572392 5:120.50195 8:255.0143 9:70.958641 11:30.682817 14:-28502.732 15:0.034822833 16:448.23877 #
100 3:4.3999443 4:4.3716874 5:504.18399 8:402.84406 9:54.383331 11:20.760632 14:-28538.627 15:0.001752431 16:34.441711 #
-37.585436064022417 3:5.3000784 4:5.3037138 5:192.64098 8:228.41052 9:64.406136 11:23.408957 14:-33047.301 15:0.035409059 16:489.2258 #
-100 3:5.0851603 4:5.0894356 5:179.8723 8:202.96626 9:64.249939 11:24.919184 14:-30935.873 15:0.035023477 16:465.6265 #
100 3:5.1699142 4:5.1499615 5:518.95593 8:368.25635 9:72.433281 11:31.741495 14:-35035.648 15:0.017607531 16:679.73102 #
100 3:4.5834346 4:4.5733352 5:316.44269 8:382.95181 9:55.80452 11:18.866522 14:-30754.146 15:0.025446044 16:557.12225 #
100 3:4.6328239 4:4.5975566 5:441.8461 8:260.75894 9:74.118248 11:39.025581 14:-30745.988 15:0.0021063739 16:160.96869 #
-100 3:4.5308604 4:4.5349989 5:402.41367 8:471.793 9:52.066727 11:22.020279 14:-30837.199 15:0.00358996 16:39.614136 #
4.922393072098771 3:14.339241 4:14.280991 5:2048.3179 8:1228.5992 9:104.40852 11:43.318264 14:-98721.977 15:0.0372223 16:3120.9519 #
-100 3:4.0347257 4:4.0227537 5:354.96149 8:309.47992 9:59.256863 11:27.478111 14:-26746.705 15:0.0066270661 16:60.367863 #
-100 3:2.982399 4:2.9834464 5:216.49284 8:239.04832 9:43.200562 11:26.873026 14:-18312.844 15:0.0062356489 16:34.450504 #
100 3:3.7694969 4:3.761883 5:298.29004 8:321.88315 9:52.657131 11:21.087137 14:-24144.975 15:0.004874853 16:33.223557 #
100 3:4.4720144 4:4.4726806 5:465.26904 8:472.30652 9:52.845573 11:21.799826 14:-30559.854 15:0.003645458 16:31.082403 #
-3.83394671955765 3:14.157276 4:14.162639 5:2091.3462 8:902.50049 9:95.494965 11:43.343987 14:-88745.961 15:0.0067357589 16:744.97314 #
100 3:4.5336318 4:4.5160151 5:409.88843 8:399.2789 9:54.49728 11:19.35146 14:-30682.193 15:0.0041525709 16:47.351929 #
-47.652060332583751 3:5.8351102 4:5.840683 5:664.8363 8:401.1344 9:53.003624 11:21.273777 14:-37253.598 15:0.035622712 16:697.74542 #
-100 3:4.5887375 4:4.5895095 5:307.5881 8:191.94736 9:107.08601 11:62.172741 14:-24270.033 15:0.02636853 16:239.06175 #
-100 3:5.3304048 4:5.2107472 5:668.1618 8:257.50336 9:70.396492 11:28.973619 14:-30255.449 15:0.033047561 16:584.32086 #
100 3:4.4988556 4:4.5032568 5:242.99278 8:377.41519 9:82.881844 11:45.507664 14:-30600.348 15:0.030821007 16:362.68799 #
100 3:4.1585073 4:4.1132216 5:310.56497 8:387.23062 9:85.551201 11:53.013374 14:-26184.35 15:0.033298071 16:360.76538 #
-63.089944009780538 3:3.8109856 4:3.8060114 5:290.8338 8:183.24342 9:90.204208 11:40.933491 14:-18528.395 15:0.032422982 16:247.41127 #
79.160819210558884 3:5.5938854 4:5.5872617 5:784.61261 8:426.57397 9:53.486351 11:14.699528 14:-34026.445 15:0.033750828 16:890.12878 #
0.73348016662061066 3:9.6864443 4:9.5324287 5:1446.7627 8:759.85925 9:73.006126 11:30.684158 14:-70648.086 15:0.006734699 16:370.52139 #
48.204906271662857 3:9.4388247 4:9.4333696 5:1240.8285 8:631.30005 9:95.892845 11:107.5835 14:-62731.277 15:0.025376903 16:1355.2595 #
-50.559619500204199 3:3.6956925 4:3.6977494 5:219.34918 8:209.28583 9:53.919659 11:27.666319 14:-23351.969 15:0.0059947991 16:49.198528 #
-43.440682893044766 3:4.7095079 4:4.6309519 5:682.38556 8:168.34502 9:61.80777 11:24.385283 14:-26294.607 15:0.007046253 16:81.234009 #
100 3:3.7683418 4:3.7481983 5:323.2049 8:248.21114 9:88.29026 11:50.396946 14:-20022.352 15:0.0051924689 16:45.175709 #
-100 3:4.5630407 4:4.5616026 5:439.96323 8:349.58289 9:52.491924 11:25.975378 14:-29874.416 15:0.0077842702 16:80.760574 #
100 3:3.2947042 4:3.2854815 5:282.22305 8:192.28911 9:67.860176 11:28.973373 14:-19902.871 15:0.0044875131 16:30.498064 #
-100 3:4.9258366 4:4.930449 5:528.68805 8:382.56204 9:91.325317 11:47.591076 14:-30611.023 15:0.031770285 16:368.30008 #
-100 3:4.9811444 4:4.9854441 5:547.74921 8:373.81699 9:90.155617 11:45.099728 14:-30593.543 15:0.032303717 16:378.21176 #
35.258926958158753 3:12.2708 4:12.280993 5:1563.0137 8:1436.1178 9:78.238541 11:28.280807 14:-87982.031 15:0.036150388 16:2083.3464 #
-0.72919995867876819 3:2.5142148 4:2.5138354 5:65.035522 8:88.652443 9:73.365486 11:28.767006 14:-9869.2305 15:0.028762814 16:103.17636 #
100 3:3.5009313 4:3.4777737 5:380.77417 8:199.48915 9:54.664902 11:19.82802 14:-19812.535 15:0.0074445489 16:50.61171 #
-100 3:5.8551888 4:5.8387794 5:652.25854 8:291.91293 9:62.700653 11:20.384808 14:-40979.902 15:0.025245138 16:366.53387 #
-29.405829651966201 3:4.3728042 4:4.3535843 5:420.22934 8:323.66904 9:55.760151 11:27.229073 14:-30772.223 15:0.0064524682 16:66.811424 #
-100 3:5.3193974 4:5.316072 5:521.42358 8:419.57764 9:66.045456 11:21.444426 14:-37420.684 15:0.015012762 16:158.53133 #
100 3:4.759212 4:4.7590117 5:464.60513 8:367.18704 9:91.785431 11:48.6357 14:-29450.111 15:0.002255443 16:186.30241 #
100 3:5.8770061 4:5.8778591 5:610.93988 8:258.31946 9:59.560871 11:24.531603 14:-40319.773 15:0.0067983642 16:309.39499 #
0.1536354031217321 3:20.899118 4:20.902771 5:1363.8857 8:753.10583 9:713.47729 11:431.64767 14:-84807.742 15:0.008263492 16:1585.9041 #
-0.18386980546178489 3:1.0093888 4:0.97676814 5:122.9595 8:82.545204 9:19.08223 11:5.9259434 14:-3622.6492 15:0.020386089 16:11.5723 #
-100 3:4.6943355 4:4.6944084 5:578.64893 8:400.20953 9:52.399677 11:26.34111 14:-29254.23 15:0.035332415 16:406.05283 #
100 3:4.7653427 4:4.7338352 5:306.34988 8:327.16956 9:126.50529 11:81.021416 14:-24926.623 15:0.0033780891 16:133.35321 #
1.6999009089479888 3:16.905439 4:16.921701 5:1058.3762 8:787.49518 9:636.60461 11:331.33188 14:-70092.281 15:0.0082089491 16:1036.0886 #
95.637040424899425 3:6.3075709 4:6.20399 5:636.08337 8:308.5621 9:105.48285 11:59.413582 14:-41459.48 15:0.0039486978 16:191.77846 #
-45.166220264046054 3:8.0509644 4:8.0466547 5:811.48199 8:787.67505 9:144.62108 11:58.46088 14:-53461.895 15:0.029492712 16:691.4801 #
100 3:4.6301656 4:4.5805035 5:583.42853 8:296.18512 9:83.747162 11:53.204708 14:-24343.498 15:0.006909539 16:76.573471 #
100 3:5.7184315 4:5.6933198 5:740.07959 8:437.51813 9:49.262455 11:16.543491 14:-39647.594 15:0.033749681 16:883.82324 #
-100 3:4.7625508 4:4.7232275 5:535.75385 8:312.70233 9:100.7413 11:76.852234 14:-24463.586 15:0.028421249 16:312.65494 #
-12.889209136070599 3:12.141394 4:12.102659 5:1624.6204 8:1091.9595 9:139.9994 11:61.515224 14:-86977.977 15:0.03508595 16:1787.4557 #
100 3:4.8802481 4:4.7899919 5:603.60565 8:146.71245 9:101.42574 11:54.876816 14:-22521.121 15:0.0053231441 16:65.169609 #
100 3:4.4908371 4:4.4196215 5:601.03693 8:240.7137 9:50.612701 11:18.495634 14:-26454.551 15:0.004891437 16:49.499825 #
45.539320042536538 3:6.0816398 4:5.9840384 5:861.409 8:616.75482 9:62.924152 11:22.325619 14:-41328.691 15:0.032441601 16:1063.3779 #
-100 3:4.9874401 4:4.9857202 5:463.52328 8:502.22675 9:59.774803 11:22.124937 14:-37141.738 15:0.006563399 16:69.962814 #
100 3:4.5296564 4:4.4438462 5:442.44629 8:209.81529 9:80.371323 11:47.079529 14:-25646.893 15:0.036955267 16:393.99622 #
-9.2680451883950603 3:10.169976 4:10.140625 5:1342.3076 8:844.03351 9:133.99265 11:59.506607 14:-69912.992 15:0.035031416 16:1509.4707 #
29.912213312397075 3:13.21171 4:13.041831 5:1909.4513 8:1544.1951 9:99.181717 11:36.022034 14:-100637.72 15:0.035588235 16:2550.1104 #
-100 3:6.194767 4:6.0823889 5:829.93365 8:467.90265 9:80.376526 11:29.026676 14:-38669.773 15:0.035297584 16:904.6814 #
-100 3:4.6142955 4:4.6115131 5:515.95319 8:313.75961 9:62.781979 11:30.860001 14:-28910.34 15:0.004837363 16:47.389484 #
47.265824616943604 3:5.004859 4:5.0092258 5:587.69788 8:447.84698 9:51.044991 11:21.60354 14:-34354.426 15:0.033066396 16:803.25299 #
-100 3:3.4734638 4:3.4729393 5:196.28722 8:232.30138 9:52.517784 11:24.924492 14:-22247.6 15:0.0048624189 16:36.443222 #
-100 3:4.2196536 4:4.2110682 5:427.55426 8:213.66498 9:75.565407 11:45.777111 14:-24355.715 15:0.0048330999 16:50.1684 #
100 3:2.8643506 4:2.8653374 5:175.87489 8:183.38739 9:66.894913 11:23.834503 14:-15684.71 15:0.0059397938 16:32.256763 #
100 3:4.7772379 4:4.6557355 5:310.01093 8:263.23361 9:126.95736 11:87.076065 14:-20866.764 15:0.03165023 16:364.44037 #
100 3:4.8486962 4:4.8341961 5:408.12552 8:479.45041 9:94.311821 11:53.902283 14:-30479.016 15:0.002590487 16:86.917427 #
100 3:3.9111667 4:3.9139509 5:260.3327 8:389.73453 9:69.806374 11:35.886963 14:-24058.58 15:0.0034997871 16:44.427063 #
-57.491244906768074 3:6.8814182 4:6.7082181 5:874.39734 8:218.90756 9:73.942535 11:29.144766 14:-34524.621 15:0.034572024 16:802.14893 #
100 3:3.7165771 4:3.7101083 5:228.38376 8:169.98438 9:133.88542 11:58.163677 14:-15278.196 15:0.026663501 16:241.09644 #
-100 3:4.3947034 4:4.3950887 5:449.83331 8:318.3923 9:88.209229 11:39.837776 14:-26012.285 15:0.03197271 16:319.27972 #
0.81636335031351281 3:10.133686 4:10.083635 5:1465.4429 8:622.89581 9:104.33382 11:44.531605 14:-64222.289 15:0.033959549 16:1931.2006 #
-100 3:3.5916576 4:3.5930605 5:168.51184 8:42.000645 9:111.71577 11:44.686485 14:-15526.889 15:0.030164866 16:215.3882 #
100 3:3.6388552 4:3.6377707 5:232.64439 8:192.00618 9:63.753433 11:20.927467 14:-22894.025 15:0.007698352 16:52.99229 #
100 3:4.5198894 4:4.440948 5:394.85742 8:283.14191 9:59.987064 11:20.155165 14:-30086.5 15:0.003174836 16:95.923737 #
-66.427931788136917 3:4.5870476 4:4.5623379 5:368.89774 8:283.91891 9:106.5009 11:46.444687 14:-28377.027 15:0.031024534 16:316.80447 #
-100 3:4.2967591 4:4.3009596 5:245.31828 8:279.36743 9:161.9333 11:60.762108 14:-15534.907 15:0.028822791 16:258.0451 #
-25.387058217965603 3:4.5264349 4:4.5296082 5:364.45172 8:529.05774 9:53.026241 11:19.215315 14:-33576.402 15:0.0042049699 16:35.497505 #
-100 3:3.9907141 4:3.993257 5:202.35283 8:386.86789 9:84.863708 11:46.11776 14:-24351.752 15:0.0054335431 16:50.278503 #
-100 3:3.9237642 4:3.9061584 5:374.2713 8:353.57941 9:48.480732 11:24.418005 14:-27361.328 15:0.0053045889 16:37.76878 #
100 3:4.3560519 4:4.3598018 5:295.5647 8:286.54922 9:86.004463 11:48.389053 14:-29555.086 15:0.0044353469 16:81.746254 #
100 3:4.7976165 4:4.7712336 5:449.64417 8:278.96744 9:103.78295 11:63.701004 14:-26060.373 15:0.006994396 16:74.274925 #
1.3685488895166245 3:13.50259 4:12.832021 5:2090.1201 8:1019.3865 9:160.38387 11:114.4353 14:-87860.609 15:0.003702624 16:195.37895 #
-100 3:4.1350856 4:4.1333404 5:485.7789 8:276.6976 9:70.096329 11:31.835669 14:-25548.607 15:0.0039025729 16:40.851727 #
-100 3:5.4087658 4:5.4136257 5:416.98853 8:407.52621 9:166.71854 11:57.356113 14:-30372.881 15:0.031056922 16:431.53433 #
-100 3:4.1825228 4:4.1768579 5:331.00037 8:327.15936 9:71.490089 11:38.610168 14:-27331.877 15:0.033419751 16:294.5206 #
100 3:3.6456513 4:3.6484509 5:217.11836 8:209.71716 9:111.44389 11:61.986435 14:-15818.817 15:0.026574546 16:248.52859 #
2.0135136452855278 3:11.400708 4:11.394103 5:1384.2672 8:1336.4141 9:135.96866 11:94.710464 14:-86330.609 15:0.022287123 16:1886.3013 #
-32.55148421085724 3:4.6624393 4:4.6481571 5:494.21292 8:419.74628 9:77.715591 11:29.772594 14:-32500.338 15:0.0047814269 16:50.562553 #
1.7817356620155436 3:10.490896 4:10.500537 5:1224.0295 8:593.08441 9:99.348824 11:44.482929 14:-68155.461 15:0.0072211828 16:379.80911 #
100 3:4.2495174 4:4.2326617 5:233.84451 8:310.91379 9:100.59658 11:62.220573 14:-24421.219 15:0.035748113 16:418.68011 #
19.930799343017647 3:9.1188631 4:9.1109571 5:1304.6143 8:866.15686 9:61.014256 11:22.638626 14:-60162.184 15:0.036363434 16:1573.3444 #
3.325782838230916 3:12.800638 4:12.709702 5:877.13501 8:1443.4375 9:238.57024 11:180.6965 14:-75692.617 15:0.0057294648 16:378.71817 #
-100 3:4.3963256 4:4.3883724 5:309.11505 8:334.69031 9:136.22659 11:83.465111 14:-20024.604 15:0.0070504132 16:70.659355 #
53.607237681679166 3:5.3767967 4:5.3818021 5:496.08707 8:420.79037 9:58.817501 11:17.711628 14:-36696.465 15:0.02742609 16:828.92224 #
-43.814136821002137 3:5.9831514 4:5.8989897 5:849.71021 8:371.18539 9:52.951775 11:21.616375 14:-38858.785 15:0.018853907 16:232.81912 #
-100 3:4.4140978 4:4.4044595 5:338.40375 8:457.74423 9:82.148521 11:32.979061 14:-27245.916 15:0.025632774 16:312.17465 #
100 3:4.1137791 4:4.1100578 5:296.58057 8:399.08322 9:79.80983 11:47.024109 14:-25366.441 15:0.0047641201 16:110.15717 #
100 3:4.1669693 4:4.044198 5:441.34445 8:245.3884 9:81.423698 11:48.569729 14:-23576.873 15:0.037373811 16:369.14493 #
-25.699385580675816 3:5.294836 4:5.2976532 5:567.07837 8:571.29596 9:88.308678 11:44.119839 14:-33663.602 15:0.033483349 16:456.68805 #
-100 3:9.5754976 4:9.4935808 5:1374.9976 8:1003.921 9:90.334717 11:32.598312 14:-68215.695 15:0.036847789 16:1780.1531 #
-65.032641349100246 3:11.664754 4:11.461604 5:1575.1006 8:895.49091 9:124.16193 11:59.804131 14:-67831.414 15:0.033549376 16:1770.5206 #
90.499531263965551 3:8.5293808 4:8.5326014 5:1100.0208 8:967.74445 9:85.309097 11:40.334187 14:-56129.137 15:0.0073338379 16:263.61371 #
-100 3:5.2407894 4:5.2402263 5:571.54504 8:568.91205 9:73.261986 11:29.623062 14:-36134.91 15:0.0058234069 16:190.52542 #
-100 3:3.9922948 4:3.9954009 5:389.81506 8:466.95645 9:46.900543 11:17.966339 14:-25053.291 15:0.0033314221 16:35.59481 #
-100 3:4.2270131 4:4.2269778 5:328.16693 8:458.89484 9:81.141129 11:50.076019 14:-25439.732 15:0.0028156301 16:70.213821 #
-100 3:4.1030998 4:4.1066647 5:357.20572 8:373.24213 9:91.596474 11:46.595222 14:-25547.336 15:0.028205028 16:277.50943 #
-100 3:6.0848083 4:6.0897427 5:621.74628 8:482.85394 9:122.14706 11:42.013638 14:-42064.246 15:0.026517753 16:390.87057 #
-84.608507937102772 3:4.7318363 4:4.7336183 5:477.26239 8:261.64777 9:74.652176 11:31.523949 14:-31103.596 15:0.0053939461 16:57.619766 #
41.571967443646862 3:8.5711174 4:8.4390421 5:1249.3164 8:445.39667 9:87.16468 11:54.349789 14:-54324.656 15:0.035766985 16:1239.1101 #
78.319735084004691 3:7.571383 4:7.5646291 5:914.12207 8:704.55304 9:58.060867 11:22.039293 14:-54417.793 15:0.03592087 16:1305.4314 #
100 3:5.8447704 4:5.834446 5:375.89209 8:229.89658 9:176.37843 11:128.98302 14:-20622.092 15:0.0070317029 16:250.15918 #
-20.213717859425984 3:3.607655 4:3.6078224 5:143.10947 8:197.61392 9:125.24937 11:42.820957 14:-15492.744 15:0.029559419 16:225.17856 #
-100 3:3.3924482 4:3.3952394 5:341.19473 8:140.39131 9:61.877602 11:25.407043 14:-17974.447 15:0.003221903 16:23.260633 #
-8.0380462445507774 3:15.526525 4:15.518236 5:2036.4277 8:998.7287 9:89.587257 11:41.884579 14:-105369.05 15:0.0064576282 16:512.21576 #
100 3:5.8823419 4:5.8777213 5:734.27338 8:529.12219 9:68.212181 11:35.935917 14:-39616.52 15:0.023162214 16:613.03497 #
100 3:4.5100513 4:4.436059 5:575.62103 8:450.06296 9:56.62294 11:20.134384 14:-29112.818 15:0.024300549 16:582.60669 #
100 3:4.8579993 4:4.8595266 5:386.45456 8:515.99689 9:86.155663 11:48.961639 14:-28263.348 15:0.0042413999 16:130.65878 #
-100 3:4.8341055 4:4.8274083 5:386.20206 8:258.49554 9:129.06735 11:64.274101 14:-27465.984 15:0.028892001 16:311.65112 #
3.4623123214348741 3:12.565014 4:12.510106 5:1867.993 8:620.44708 9:134.37712 11:70.488503 14:-73618.016 15:0.026459701 16:2310.5049 #
21.40268605337166 3:11.637611 4:11.369582 5:1805.8662 8:618.24652 9:118.41733 11:73.867836 14:-72918.813 15:0.033453055 16:1616.2107 #
100 3:5.401495 4:5.3712506 5:466.32031 8:428.44501 9:82.714111 11:47.834854 14:-34198.664 15:0.015504429 16:448.29675 #
67.913043749577128 3:5.3526106 4:5.1027484 5:824.82025 8:393.44168 9:44.669983 11:17.817554 14:-33630.871 15:0.031530324 16:892.72833 #
-9.2671373775593793 3:5.3263593 4:5.3220115 5:529.87781 8:637.32007 9:51.608944 11:18.832922 14:-35485.367 15:0.016859233 16:162.81516 #
-100 3:4.9141359 4:4.9188604 5:486.1828 8:465.01526 9:64.91539 11:24.401455 14:-30422.598 15:0.031219022 16:462.48621 #
-0.55183672561471764 3:13.11814 4:12.908489 5:2120.0049 8:846.59088 9:128.82971 11:41.814873 14:-79146.297 15:0.0069806231 16:617.29919 #
1.0756378448080799 3:9.3663177 4:9.3749352 5:1102.145 8:944.21216 9:122.46092 11:109.45805 14:-65644.563 15:0.017550712 16:1440.7158 #
-4.1273782356043265 3:10.007565 4:9.9640665 5:1514.318 8:759.45154 9:66.670731 11:20.539602 14:-71831.273 15:0.0072431811 16:390.18686 #
64.466635633429632 3:6.6945095 4:6.6726747 5:896.48193 8:533.59869 9:79.493301 11:29.948786 14:-44434.195 15:0.035071768 16:1304.2869 #
-11.295502834104699 3:8.1483154 4:7.9943328 5:1075.5189 8:571.87683 9:96.902451 11:53.186352 14:-48910.848 15:0.033741292 16:895.94257 #
-1.9298069153251365 3:8.8655863 4:8.8659973 5:922.47583 8:977.67163 9:87.996094 11:34.922615 14:-74790.953 15:0.016711891 16:253.85115 #
100 3:8.7543964 4:8.7466564 5:1261.1113 8:634.81305 9:72.43676 11:48.472767 14:-56977.18 15:0.006790875 16:288.81924 #
-100 3:3.2746902 4:3.2695374 5:290.26978 8:297.08908 9:44.719551 11:23.039173 14:-20662.928 15:0.0033443209 16:23.177105 #
100 3:5.6474962 4:5.6513739 5:490.45651 8:503.40472 9:124.0965 11:63.382851 14:-35316.121 15:0.027524875 16:592.95599 #
28.215605824751115 3:6.9376273 4:6.925323 5:596.33441 8:682.91559 9:99.542854 11:46.739861 14:-51193.891 15:0.001726884 16:233.0714 #
-100 3:4.5746951 4:4.5752735 5:465.19763 8:453.98056 9:54.798874 11:25.726126 14:-30925.641 15:0.003242492 16:34.573273 #
-100 3:4.6543851 4:4.6589284 5:465.41589 8:478.53513 9:54.121368 11:21.915079 14:-30758.801 15:0.003366794 16:35.902126 #
100 3:4.4602022 4:4.442009 5:421.52542 8:176.10867 9:109.09761 11:77.841072 14:-23244.984 15:0.028590417 16:386.83737 #
100 3:4.4636407 4:4.4285326 5:439.673 8:383.7861 9:59.604877 11:16.400154 14:-30977.686 15:0.0048041688 16:46.449635 #
100 3:4.5694275 4:4.561317 5:456.02271 8:551.45154 9:53.332512 11:21.726599 14:-30952.211 15:0.0061447369 16:53.903465 #
100 3:5.2069192 4:5.2045813 5:481.12274 8:311.75046 9:138.73468 11:89.933502 14:-23144.109 15:0.005809403 16:179.75612 #
-100 3:4.5638728 4:4.5415082 5:502.29861 8:211.24503 9:76.014137 11:32.854736 14:-27884.689 15:0.0068216291 16:76.294014 #
-100 3:3.4901919 4:3.4930954 5:191.96875 8:165.49048 9:88.531303 11:73.458672 14:-15622.679 15:0.022341482 16:128.23589 #
-86.971456739072863 3:8.8724823 4:8.8598251 5:1306.085 8:653.12927 9:84.826469 11:34.181206 14:-56356.617 15:0.006714107 16:276.59189 #
-20.746262603701609 3:5.3685975 4:5.3711324 5:573.54181 8:498.91473 9:58.02409 11:19.624985 14:-36710.223 15:0.033766467 16:668.8645 #
100 3:5.2053695 4:5.2056727 5:513.73407 8:419.3931 9:108.43418 11:81.138145 14:-28998.113 15:0.0042621079 16:161.99751 #
-93.550751619107643 3:3.4147463 4:3.4173844 5:189.31488 8:268.30978 9:99.605057 11:49.37735 14:-15023.313 15:0.030390559 16:197.19987 #
-100 3:7.5076346 4:7.4172935 5:1036.3505 8:828.48248 9:74.615616 11:28.321953 14:-51332.605 15:0.035343219 16:1354.4851 #
100 3:4.1783147 4:4.1632423 5:356.90051 8:174.33589 9:73.13031 11:48.811749 14:-23865.744 15:0.0046745432 16:70.948647 #
-100 3:4.0994744 4:4.074851 5:312.96091 8:221.92705 9:114.98011 11:54.950294 14:-20780.117 15:0.031578813 16:282.95609 #
-100 3:5.012948 4:4.9933071 5:444.86447 8:381.92889 9:78.638908 11:29.162161 14:-31022.988 15:0.0052708592 16:67.915573 #
23.879786935958453 3:13.391431 4:13.385693 5:1976.1099 8:844.08716 9:155.06369 11:105.57226 14:-82493.836 15:0.006913329 16:671.45447 #
34.175691627359306 3:10.408897 4:9.9330082 5:1765.0302 8:950.06812 9:68.125824 11:31.989405 14:-68941.078 15:0.03517269 16:1948.7767 #
-6.3166754070263931 3:4.0027857 4:4.0067029 5:72.315826 8:151.03929 9:86.767693 11:38.419121 14:-20314.787 15:0.032191884 16:308.90674 #
-34.49549661272556 3:5.0963778 4:5.1012621 5:483.00064 8:642.16681 9:56.883003 11:21.43469 14:-32269.182 15:0.033099759 16:507.88007 #
-39.934396193585854 3:8.8812447 4:8.8889866 5:883.55157 8:698.0025 9:221.56334 11:157.93736 14:-43865.68 15:0.0072680512 16:289.76477 #
29.580787510624202 3:9.2630806 4:9.2704573 5:766.84692 8:963.99365 9:213.07443 11:178.78856 14:-49709.613 15:0.0055128122 16:215.33041 #
100 3:4.8609667 4:4.863914 5:385.06195 8:222.81596 9:137.47475 11:93.150284 14:-20566.303 15:0.0030948219 16:142.33475 #
-19.20739226180492 3:6.4115219 4:6.3691087 5:839.06042 8:462.34576 9:93.247276 11:39.83284 14:-42499.445 15:0.0338016 16:710.31586 #
-100 3:4.9552631 4:4.9601035 5:325.14243 8:474.69742 9:105.73531 11:56.295086 14:-31898.934 15:0.024030589 16:307.69452 #
100 3:3.5030894 4:3.5063519 5:144.06865 8:195.20969 9:105.33091 11:57.692226 14:-15681.879 15:0.022973457 16:175.53883 #
4.0490607387786346 3:10.261956 4:10.129228 5:1301.3285 8:329.49188 9:144.5455 11:78.100815 14:-71689.844 15:0.0078927092 16:763.0661 #
20.680688529394519 3:6.2968593 4:6.2570858 5:830.09229 8:536.1745 9:90.684616 11:48.961613 14:-42917.691 15:0.03692849 16:991.7287 #
-100 3:4.2745051 4:4.2786522 5:291.20877 8:353.32773 9:142.8914 11:55.2789 14:-18396.178 15:0.03023294 16:268.32092 #
49.436824696765029 3:5.7971563 4:5.8012533 5:511.54953 8:686.03076 9:59.84272 11:22.62225 14:-38494.602 15:0.033476256 16:929.56555 #
100 3:4.2808423 4:4.2689271 5:455.07843 8:318.1109 9:71.440567 11:34.831875 14:-26734.969 15:0.036245815 16:328.40164 #
-85.33118348919902 3:5.0420117 4:5.0306721 5:560.46912 8:505.54041 9:51.931187 11:20.806555 14:-32447.473 15:0.0043368111 16:48.278431 #
-0.24200251397828965 3:4.3884983 4:4.3906813 5:101.47778 8:115.30492 9:77.890427 11:29.839048 14:-23506.68 15:0.034062464 16:358.53296 #
100 3:4.8844838 4:4.8614235 5:568.8446 8:185.55074 9:82.551559 11:51.994919 14:-28381.785 15:0.036959175 16:541.02478 #
100 3:5.2229891 4:5.2184396 5:445.54071 8:397.29593 9:141.33257 11:77.553871 14:-27302.141 15:0.0060617742 16:269.31589 #
-100 3:7.6805182 4:7.5501947 5:1078.7589 8:617.16882 9:98.626251 11:31.83618 14:-47606.824 15:0.036640372 16:1160.2269 #
-64.309004147766927 3:4.6196694 4:4.6047025 5:557.96649 8:493.28384 9:84.680046 11:47.138596 14:-27555.785 15:0.033860706 16:380.64581 #
-45.952545270410837 3:4.4138026 4:4.4083381 5:378.55542 8:469.45889 9:46.360451 11:20.749901 14:-31998.344 15:0.029882155 16:468.38531 #
-32.15207175913369 3:8.6054487 4:8.4073772 5:1145.5327 8:455.99799 9:83.155365 11:39.789314 14:-47535.926 15:0.03338825 16:971.22925 #
100 3:3.6743538 4:3.6590161 5:256.36349 8:136.32254 9:94.876083 11:67.138161 14:-16440.273 15:0.007338691 16:53.534492 #
12.249743376559836 3:9.1723576 4:9.1278334 5:1314.2681 8:765.8233 9:104.18523 11:61.997078 14:-63051.906 15:0.036925446 16:2009.2942 #
24.468763728692391 3:4.4640093 4:4.4658961 5:303.04346 8:382.80826 9:103.02599 11:63.678635 14:-24327.113 15:0.02911564 16:416.49603 #
-8.2555605682257536 3:12.913589 4:12.873013 5:1988.9873 8:987.09491 9:64.930389 11:30.048792 14:-81613.109 15:0.0067348359 16:495.96783 #
-100 3:4.2192554 4:4.2128 5:318.57654 8:347.56512 9:109.36125 11:50.575069 14:-22957.828 15:0.026277084 16:239.17018 #
100 3:4.6389174 4:4.6421371 5:233.1449 8:366.84473 9:115.72823 11:64.143822 14:-24207.07 15:0.0060332962 16:181.82793 #
100 3:3.7776718 4:3.7796535 5:294.79022 8:274.10486 9:52.65802 11:22.512674 14:-24370.842 15:0.007655012 16:57.997437 #
-100 3:7.7126184 4:7.6926107 5:922.65533 8:792.55341 9:99.772324 11:36.681541 14:-54036 15:0.034591515 16:1348.2865 #
-56.567055527755599 3:7.500701 4:7.368475 5:1014.2927 8:467.69846 9:78.852776 11:33.331257 14:-41486.027 15:0.033801477 16:1172.2784 #
-51.876749078901014 3:6.0331469 4:6.0247712 5:686.87567 8:544.02051 9:63.658554 11:28.629761 14:-43557.191 15:0.035701614 16:703.82104 #
100 3:3.8184199 4:3.7771344 5:369.01373 8:238.72981 9:54.093212 11:21.005335 14:-24554.645 15:0.0066849012 16:52.180511 #
-49.545315583546213 3:6.7338076 4:6.7367649 5:612.03082 8:689.922 9:61.875404 11:26.437967 14:-49672.773 15:0.021891594 16:284.86423 #
-0.063165234276322035 3:11.148417 4:11.13078 5:1451.811 8:980.96674 9:126.17124 11:61.899464 14:-77172.961 15:0.035750266 16:1673.9529 #
-100 3:4.5445089 4:4.5480142 5:278.51102 8:574.64899 9:66.355659 11:26.245222 14:-30815.553 15:0.031070441 16:397.58664 #
6.9000409050850795 3:14.496552 4:14.474277 5:1939.5568 8:757.59674 9:212.63336 11:172.14481 14:-88632.297 15:0.0071835481 16:810.53064 #
8.6379112164596776 3:12.09164 4:12.052841 5:1751.3301 8:1052.3335 9:84.605576 11:48.072697 14:-88490.703 15:0.006814268 16:580.68707 #
-100 3:4.0959358 4:4.099606 5:400.70749 8:159.85823 9:74.968147 11:36.204048 14:-22267.791 15:0.00471777 16:36.761841 #
100 3:4.8488841 4:4.7828832 5:581.23169 8:586.98425 9:47.789963 11:17.24464 14:-32491.566 15:0.0054903729 16:54.210293 #
-14.420475377741496 3:6.2787824 4:6.2663975 5:773.38672 8:268.81546 9:110.13048 11:59.559223 14:-35983.785 15:0.029786088 16:455.67136 #
-100 3:3.9352171 4:3.9243491 5:471.55853 8:378.55087 9:52.26075 11:30.574652 14:-24491.318 15:0.0048696632 16:40.044655 #
-4.6682606334020278 3:4.222651 4:4.210772 5:473.82608 8:393.30014 9:56.110535 11:23.21353 14:-28029.332 15:0.0031931859 16:29.542223 #
-100 3:4.0339041 4:4.0118933 5:431.61301 8:287.61807 9:62.772442 11:29.022482 14:-24908.838 15:0.00418917 16:34.643753 #
8.7381415311571722 3:12.303825 4:12.133892 5:1719.4094 8:734.4538 9:237.52063 11:151.45642 14:-74765.359 15:0.0057090851 16:247.47246 #
100 3:3.4223022 4:3.4153576 5:363.46588 8:367.28387 9:55.040077 11:19.036446 14:-22343.225 15:0.0049008001 16:38.240913 #
-100 3:4.3976436 4:4.3655329 5:347.8317 8:464.16708 9:53.078739 11:24.745226 14:-30115.152 15:0.0030361549 16:31.666445 #
100 3:4.1836939 4:4.1868544 5:338.77933 8:360.42892 9:71.449699 11:38.021118 14:-27968.281 15:0.020009674 16:313.14999 #
100 3:4.2977386 4:4.3012495 5:288.76898 8:395.38034 9:97.206932 11:54.407494 14:-25881.781 15:0.03047722 16:383.2807 #
100 3:4.4310961 4:4.4120722 5:337.10776 8:277.06616 9:72.78553 11:40.197182 14:-27475.635 15:0.036337744 16:373.38156 #
100 3:3.9921184 4:3.9823861 5:326.9274 8:337.24875 9:71.277313 11:24.026068 14:-24556.141 15:0.0052985079 16:47.676311 #
-100 3:4.3137612 4:4.138907 5:590.50464 8:340.2702 9:76.45742 11:35.406708 14:-21887.701 15:0.031737816 16:317.37048 #
100 3:3.9186814 4:3.8802991 5:334.85358 8:358.25885 9:53.787781 11:25.602844 14:-24638.832 15:0.0076849209 16:60.258118 #
-100 3:3.7036479 4:3.6963181 5:330.53094 8:355.81415 9:59.039482 11:30.42572 14:-24645.598 15:0.0050052749 16:38.196922 #
-28.898442740478046 3:6.8303852 4:6.8370023 5:783.43774 8:630.57935 9:68.679733 11:26.667946 14:-48995.09 15:0.0068842042 16:186.59866 #
-100 3:3.7463145 4:3.7494485 5:206.51035 8:332.51981 9:44.659042 11:26.045977 14:-26560.535 15:0.027561622 16:172.45575 #
100 3:4.9955006 4:5.0003505 5:294.63181 8:438.05927 9:94.02961 11:77.524513 14:-32304.557 15:0.031861637 16:418.08728 #
-27.711662555539576 3:5.3081665 4:5.3133526 5:433.20761 8:567.35181 9:53.422138 11:19.058517 14:-40219.801 15:0.0066039581 16:89.382248 #
-100 3:3.7295885 4:3.7329655 5:336.94205 8:277.67902 9:53.762917 11:27.278666 14:-24351.844 15:0.0051098401 16:42.103588 #
100 3:5.5837369 4:5.5841084 5:611.51788 8:341.04874 9:37.322365 11:17.845818 14:-36438 15:0.030754879 16:809.6955 #
-20.052534765876544 3:3.8284223 4:3.8283257 5:210.77965 8:149.4874 9:51.213005 11:20.331024 14:-24158.533 15:0.0023962711 16:19.324707 #
100 3:5.810586 4:5.7077909 5:765.04437 8:514.64337 9:70.721046 11:36.65921 14:-39238.121 15:0.035517633 16:861.67706 #
-35.112867957425337 3:6.3893485 4:6.2690482 5:812.96069 8:243.44984 9:68.695099 11:20.955797 14:-33237.215 15:0.033378199 16:719.01947 #
100 3:3.8573849 4:3.8166783 5:327.71683 8:152.87654 9:53.066326 11:21.579266 14:-24091.221 15:0.003535104 16:29.002983 #
-100 3:5.8505373 4:5.8022389 5:799.99786 8:467.35489 9:57.286541 11:23.62595 14:-39045.102 15:0.015930912 16:177.00998 #
20.66605126156913 3:13.03938 4:12.511652 5:2173.6287 8:1294.3129 9:79.230804 11:41.331223 14:-89366.641 15:0.034071542 16:2369.0984 #
-100 3:3.8194537 4:3.8208084 5:313.50708 8:231.0549 9:54.950115 11:24.580704 14:-24105.24 15:0.0044226591 16:41.68956 #
100 3:3.589401 4:3.5783861 5:268.07947 8:210.98854 9:88.092758 11:51.734154 14:-17694.838 15:0.033774357 16:264.92383 #
-100 3:3.954082 4:3.9566388 5:301.58517 8:414.67264 9:46.469292 11:30.618795 14:-24251.742 15:0.0064680972 16:57.383442 #
-100 3:9.0441875 4:9.0293159 5:1337.4489 8:655.34595 9:84.627136 11:33.884674 14:-56887.777 15:0.0067228652 16:280.41943 #
0.7555051851128558 3:20.179712 4:20.105427 5:2807.0334 8:1170.4795 9:281.26553 11:278.8837 14:-125199.09 15:0.0060921861 16:742.91376 #
-18.532538635714257 3:3.9879076 4:3.9840231 5:311.83917 8:204.43349 9:51.223438 11:20.804329 14:-24606.135 15:0.0047429828 16:38.271736 #
-62.441974738644149 3:4.4145317 4:4.3645124 5:472.36102 8:221.28232 9:140.64966 11:57.104542 14:-19050.059 15:0.030728299 16:286.16681 #
-3.4465555273015447 3:26.895903 4:26.882536 5:3428.9163 8:1680.3198 9:105.19621 11:40.82272 14:-156314.44 15:0.0073392638 16:1492.4258 #
-8.740493074522286 3:3.6894288 4:3.6850076 5:325.69351 8:442.08398 9:65.823662 11:30.180317 14:-23545.357 15:0.033883501 16:231.73146 #
-100 3:4.6998134 4:4.6998906 5:507.11734 8:463.6972 9:80.051605 11:34.601131 14:-29873.105 15:0.003966291 16:50.425632 #
0.10896951759525564 3:16.048908 4:16.059687 5:1601.1041 8:770.19006 9:429.7998 11:295.62665 14:-80888.633 15:0.0080796937 16:921.73761 #
100 3:4.5526714 4:4.551949 5:483.23291 8:384.3363 9:105.01942 11:50.02227 14:-24568.381 15:0.0021036121 16:90.870934 #
100 3:3.927422 4:3.9297974 5:337.27582 8:387.77209 9:50.280941 11:21.363228 14:-24707.322 15:0.002308974 16:30.28121 #
-100 3:4.6317868 4:4.60111 5:562.99506 8:343.71298 9:75.133057 11:32.422649 14:-28013.742 15:0.0049310559 16:40.976471 #
4.6803808619869836 3:11.912278 4:11.846194 5:1581.9199 8:709.42358 9:271.96683 11:175.70001 14:-63485.902 15:0.0069064451 16:472.53073 #
-100 3:6.1423035 4:6.1164069 5:762.07831 8:519.12732 9:64.799286 11:29.666725 14:-44789.984 15:0.0070620789 16:142.01685 #
100 3:6.5009804 4:6.4880877 5:777.20844 8:601.61609 9:97.81115 11:72.207718 14:-38271.684 15:0.030381417 16:506.46457 #
-100 3:5.0000877 4:4.9705563 5:642.43054 8:544.52704 9:72.741966 11:36.427624 14:-29836.365 15:0.002582442 16:39.000122 #
100 3:3.7800815 4:3.7715647 5:418.1001 8:389.53497 9:48.953445 11:18.114162 14:-24684.059 15:0.007484064 16:61.29509 #
-100 3:4.8977551 4:4.8964782 5:391.38962 8:429.34674 9:80.473984 11:33.957466 14:-33465.754 15:0.032005824 16:462.70636 #
13.553533380345476 3:8.6107683 4:8.6091557 5:1010.489 8:1027.4004 9:85.467888 11:46.254337 14:-59930.793 15:0.026224464 16:1220.0188 #
-100 3:9.0174456 4:9.0032339 5:1333.7426 8:660.07825 9:85.483971 11:34.39254 14:-57238.012 15:0.0067113908 16:279.83707 #
-100 3:5.80896 4:5.8064361 5:657.11829 8:436.37625 9:79.8396 11:32.688416 14:-40087.617 15:0.03431752 16:845.89459 #
-50.635210047695523 3:6.3162518 4:6.3222609 5:722.16663 8:622.19299 9:84.049187 11:36.536736 14:-38375.559 15:0.031815425 16:616.6189 #
-21.298311836023231 3:8.0514803 4:8.0577936 5:778.35272 8:764.15082 9:133.83513 11:62.533775 14:-54718.027 15:0.029153302 16:710.01489 #
100 3:4.3388014 4:4.3271928 5:378.06696 8:362.22018 9:81.828232 11:48.283482 14:-28066.111 15:0.003673957 16:81.545563 #
-32.991910528570138 3:6.1701479 4:6.1752105 5:271.22055 8:290.89838 9:57.964836 11:17.160492 14:-42152.664 15:0.03214474 16:534.16266 #
100 3:5.2642841 4:5.2021012 5:678.70886 8:202.23058 9:66.666756 11:26.160765 14:-32831.813 15:0.005607286 16:115.40698 #
100 3:4.6971412 4:4.7013898 5:335.66895 8:345.34982 9:55.311962 11:19.696003 14:-35049.828 15:0.0031687571 16:133.08264 #
100 3:4.6602945 4:4.6531057 5:466.18143 8:312.74313 9:111.46722 11:68.317123 14:-24503.412 15:0.032232799 16:339.86588 #
100 3:4.0975199 4:4.0935273 5:347.24835 8:306.63882 9:76.796074 11:40.72226 14:-24818.377 15:0.031093339 16:277.72638 #
100 3:3.8213742 4:3.8006351 5:419.04376 8:221.06729 9:48.064533 11:23.320028 14:-24913.539 15:0.004037966 16:37.300686 #
-40.403916636377517 3:2.8085213 4:2.7985353 5:127.26552 8:188.97711 9:49.628277 11:21.54007 14:-16318.02 15:0.0043521379 16:24.012724 #
-100 3:4.0726714 4:4.076654 5:288.72803 8:307.88736 9:108.88221 11:53.281879 14:-24827.795 15:0.031598464 16:263.99817 #
100 3:5.0875611 4:4.9584036 5:585.33099 8:464.68768 9:69.989403 11:30.33987 14:-33807.445 15:0.0227696 16:671.33301 #
13.889078525893328 3:6.569468 4:6.5103335 5:906.04175 8:303.18436 9:78.446442 11:43.428333 14:-40536.746 15:0.037682462 16:976.35388 #
-100 3:4.628087 4:4.6114864 5:467.53036 8:458.88837 9:51.741714 11:23.719545 14:-32601.766 15:0.004279118 16:46.768372 #
-100 3:5.0741973 4:4.9920697 5:532.32776 8:180.11505 9:150.43011 11:58.726299 14:-22213.166 15:0.02542216 16:283.56625 #
-96.289868056375369 3:5.5024414 4:5.4810734 5:637.21307 8:414.6301 9:70.209686 11:25.080101 14:-38482.848 15:0.03392072 16:792.06653 #
-100 3:3.5127935 4:3.4432182 5:302.1937 8:247.70912 9:56.936268 11:29.863352 14:-21452.25 15:0.0045420169 16:34.653488 #
-0.63825277541673286 3:1.1449301 4:1.1117182 5:136.6329 8:106.53291 9:16.604784 11:6.1509728 14:-4548.7524 15:0.028220978 16:16.787106 #
-100 3:3.8933775 4:3.890377 5:400.89081 8:302.94989 9:51.499763 11:20.952484 14:-23494.338 15:0.003833256 16:29.001732 #
-38.559031952175765 3:3.8766923 4:3.8714073 5:471.00507 8:294.99963 9:57.006557 11:27.424126 14:-23970.611 15:0.0052669691 16:54.037258 #
-100 3:2.827781 4:2.830265 5:193.23254 8:152.56169 9:50.865597 11:21.920631 14:-16455.221 15:0.0045017879 16:19.293844 #
-41.147994970464936 3:5.0988412 4:5.0676575 5:444.79623 8:311.15103 9:123.03207 11:44.766594 14:-30535.383 15:0.033011969 16:413.48511 #
17.011838222665553 3:11.941648 4:11.908862 5:1718.5959 8:1064.1566 9:85.796944 11:47.752056 14:-87274.438 15:0.006819434 16:575.42163 #
-100 3:3.219785 4:3.2206082 5:160.06364 8:317.32574 9:44.341228 11:23.780764 14:-21156.211 15:0.0035005759 16:18.300022 #
-62.355913083026891 3:4.2671595 4:4.263793 5:391.4866 8:296.10822 9:45.515316 11:25.005493 14:-29846.678 15:0.029881159 16:255.58395 #
100 3:4.7408695 4:4.7455039 5:241.73442 8:214.50856 9:183.05168 11:94.731239 14:-17229.275 15:0.030551961 16:383.651 #
100 3:4.3681417 4:4.3695254 5:396.13562 8:315.13968 9:101.80997 11:46.908249 14:-25628.846 15:0.032580685 16:352.67401 #
100 3:3.869894 4:3.8577912 5:254.73877 8:263.53223 9:103.42838 11:63.278114 14:-17613.514 15:0.025537917 16:289.49701 #
-35.107871347428556 3:4.737432 4:4.7395062 5:415.35257 8:527.7395 9:102.02728 11:39.380398 14:-26568.84 15:0.0280791 16:423.38364 #
22.659889643745363 3:9.8318567 4:9.7769718 5:1395.2491 8:1079.5958 9:105.97401 11:34.245285 14:-65896.859 15:0.031935014 16:1449.6803 #
